-0.176687151193618774
0.057291127741336823
-0.087600097060203552
0.025467980653047562
0.108340434730052948
0.100581541657447815
-0.403062522411346436
-0.323675036430358887
-0.128140792250633240
0.019818730652332306
0.130829244852066040
0.059791997075080872
0.299079924821853638
-0.061257064342498779
0.311497807502746582
-0.068443946540355682
0.043824121356010437
-0.106346569955348969
0.190309002995491028
0.142637014389038086
-0.063107922673225403
0.311349511146545410
-0.003774825949221849
-0.167997539043426514
0.016603937372565269
0.181318327784538269
-0.251943081617355347
0.329577177762985229
-0.116353183984756470
-0.083028435707092285
-0.115923143923282623
0.168022319674491882
-0.055858708918094635
0.220089003443717957
-0.052400600165128708
-0.028792010620236397
-0.244772583246231079
-0.139392063021659851
-0.043274715542793274
-0.303671628236770630
0.100406281650066376
-0.092835471034049988
0.217946171760559082
0.238902986049652100
-0.122738428413867950
0.013507459312677383
-0.132802829146385193
0.184806093573570251
-0.050061084330081940
-0.157082661986351013
-0.079374566674232483
0.262489467859268188
0.058264892548322678
-0.071070551872253418
-0.037678811699151993
0.230007976293563843
0.091870605945587158
-0.075101494789123535
0.483040213584899902
0.019655264914035797
-0.078245334327220917
0.052149813622236252
0.191870883107185364
0.223951816558837891
