-0.041687607765197754
0.006285146810114384
-0.084947347640991211
-0.018672814592719078
-0.170274302363395691
-0.052734170109033585
0.151299133896827698
0.110551342368125916
0.042368985712528229
0.171104177832603455
-0.015569082461297512
-0.320118963718414307
-0.227827817201614380
-0.029260575771331787
-0.022645283490419388
-0.036926962435245514
-0.216764956712722778
-0.081818342208862305
0.063404947519302368
-0.062056418508291245
0.001272087683901191
-0.029566301032900810
-0.037821993231773376
0.000433463923400268
-0.043870005756616592
0.152660489082336426
-0.050166070461273193
-0.008637355640530586
-0.040337663143873215
0.044041056185960770
-0.148625522851943970
-0.266736984252929688
-0.320285350084304810
-0.012640981003642082
-0.157327100634574890
-0.034069191664457321
-0.049015089869499207
-0.142552718520164490
-0.021790020167827606
-0.059583753347396851
-0.031547345221042633
-0.028822878375649452
-0.012622273527085781
-0.006913933437317610
-0.058094859123229980
-0.061883471906185150
-0.026388155296444893
-0.015603199601173401
-0.058668557554483414
-0.044239826500415802
-0.020977988839149475
-0.123631976544857025
-0.039639431983232498
-0.118221469223499298
-0.008588189259171486
-0.071837089955806732
0.206081330776214600
-0.023000054061412811
-0.021509898826479912
-0.037451084703207016
0.012142956256866455
-0.084313832223415375
-0.020218400284647942
0.102357253432273865
-0.077800087630748749
-0.136165529489517212
-0.081772536039352417
-0.037253394722938538
-0.116684295237064362
-0.113297961652278900
0.032997202128171921
-0.105457030236721039
-0.026480555534362793
0.188266426324844360
-0.020329492166638374
-0.042865771800279617
0.068531766533851624
-0.106321178376674652
-0.045469034463167191
0.036184139549732208
0.086569875478744507
0.175417646765708923
0.002794360043480992
-0.018685178831219673
-0.061852533370256424
-0.090081758797168732
-0.031592365354299545
-0.072901062667369843
-0.096028164029121399
-0.028731232509016991
-0.068768858909606934
-0.102331072092056274
-0.074937671422958374
-0.042900461703538895
-0.019858872517943382
-0.233541920781135559
-0.028338195756077766
0.224146693944931030
-0.050221376121044159
-0.076695285737514496
-0.059770621359348297
-0.023954091593623161
-0.073272079229354858
-0.060062184929847717
-0.041086688637733459
-0.291245579719543457
-0.047171209007501602
-0.134518951177597046
0.191860243678092957
-0.021689165383577347
-0.021218191832304001
-0.123168200254440308
0.079463735222816467
-0.083648726344108582
0.124325640499591827
-0.093720488250255585
0.267542451620101929
-0.060866307467222214
0.053941704332828522
-0.073370575904846191
-0.038430519402027130
-0.028850721195340157
-0.069537818431854248
-0.146613046526908875
0.180999353528022766
-0.124423235654830933
-0.352450370788574219
0.219509005546569824
0.022157985717058182
-0.025716284289956093
-0.018379123881459236
0.225791931152343750
-0.036339867860078812
-0.019807316362857819
0.084028907120227814
0.242159292101860046
-0.030135795474052429
0.075090549886226654
0.237802103161811829
0.283232510089874268
-0.156871855258941650
-0.135500773787498474
-0.224420994520187378
-0.060939885675907135
0.044937178492546082
-0.021919060498476028
-0.341784656047821045
-0.100520245730876923
0.035815905779600143
-0.197086513042449951
-0.093634076416492462
-0.006634558085352182
0.155144318938255310
0.259525209665298462
0.232834205031394958
-0.041208129376173019
-0.014018408954143524
-0.029984064400196075
-0.251429677009582520
0.224040091037750244
0.127792045474052429
0.098460525274276733
-0.019890464842319489
0.058774277567863464
-0.119567610323429108
-0.049300298094749451
0.132163926959037781
-0.182513117790222168
0.004889854229986668
-0.039269164204597473
-0.049447674304246902
-0.186990827322006226
0.098292522132396698
-0.189605772495269775
-0.038596156984567642
-0.034274823963642120
0.226818412542343140
-0.031932171434164047
-0.177833139896392822
-0.047355905175209045
-0.026207309216260910
0.205666646361351013
-0.061845306307077408
-0.109911531209945679
0.047031406313180923
-0.005340967327356339
0.045418854802846909
-0.037756957113742828
-0.016817083582282066
-0.018868982791900635
0.122500143945217133
-0.104926951229572296
-0.274580121040344238
0.008022640831768513
-0.082939557731151581
-0.174096018075942993
-0.010726853273808956
-0.085309103131294250
-0.048749759793281555
-0.016422081738710403
-0.139305144548416138
-0.135895520448684692
-0.101776793599128723
-0.172785475850105286
-0.079238578677177429
-0.040490631014108658
0.002432303037494421
-0.021187791600823402
-0.065432719886302948
-0.108360409736633301
0.163891017436981201
-0.098547600209712982
0.162691310048103333
-0.014703244902193546
0.234839335083961487
0.124494589865207672
-0.056298412382602692
0.181325152516365051
-0.012779925949871540
0.009325795806944370
-0.014172201044857502
-0.009156852029263973
-0.027481563389301300
0.220364108681678772
0.106696836650371552
-0.079775027930736542
0.145260602235794067
-0.077809311449527740
0.250632703304290771
-0.189221620559692383
-0.196731194853782654
0.150230303406715393
-0.174581840634346008
-0.030733393505215645
-0.013760647736489773
-0.040494859218597412
-0.016697525978088379
-0.067848920822143555
0.087283797562122345
-0.378120362758636475
-0.014279042370617390
-0.024905707687139511
0.045802474021911621
0.036455441266298294
-0.014127915725111961
0.083065137267112732
-0.052549950778484344
-0.036957994103431702
0.108362026512622833
0.161905393004417419
-0.113651521503925323
-0.141858801245689392
-0.008847848512232304
-0.028886826708912849
-0.043874096125364304
-0.007347233593463898
0.040895383805036545
-0.098817713558673859
-0.028283081948757172
-0.135303720831871033
-0.094234958291053772
-0.061228785663843155
-0.051428597420454025
0.157867833971977234
-0.020622901618480682
-0.119955770671367645
-0.049193639308214188
-0.251553446054458618
-0.096622318029403687
0.104114726185798645
0.058069486171007156
0.306968867778778076
-0.218402773141860962
-0.186577051877975464
-0.182281658053398132
-0.208421692252159119
0.029660074040293694
0.109374716877937317
-0.274122655391693115
0.093462787568569183
-0.017753183841705322
-0.039290163666009903
-0.025228831917047501
-0.043694868683815002
-0.048378821462392807
-0.149520784616470337
0.038030955940485001
0.217705354094505310
-0.105976611375808716
-0.001621081260964274
-0.019915942102670670
0.044721197336912155
0.159893989562988281
-0.080490201711654663
0.248264536261558533
0.004964772146195173
-0.038444399833679199
0.148719877004623413
0.114486396312713623
0.133554846048355103
0.066387668251991272
0.172548890113830566
-0.027242068201303482
0.068479888141155243
-0.143179461359977722
-0.016673339530825615
-0.110722564160823822
-0.142370715737342834
0.158840194344520569
0.109132513403892517
0.095923006534576416
0.214226335287094116
0.030124088749289513
-0.076434493064880371
-0.012180074118077755
0.037665013223886490
-0.090448252856731415
-0.270788520574569702
-0.062713585793972015
0.201547309756278992
0.084154970943927765
-0.018541127443313599
-0.035031184554100037
0.022439291700720787
-0.059807408601045609
0.003267468884587288
-0.015871230512857437
0.005729147233068943
-0.120773509144783020
-0.019484018906950951
-0.032426726073026657
-0.016947830095887184
-0.020681420341134071
-0.092059023678302765
-0.044896110892295837
0.173211812973022461
-0.068422786891460419
-0.152874737977981567
-0.036585923284292221
0.256025254726409912
-0.156163528561592102
-0.098512321710586548
-0.052029065787792206
-0.254433602094650269
0.021911785006523132
0.006531397346407175
-0.029780616983771324
-0.209342390298843384
-0.028657125309109688
-0.020271642133593559
-0.047797098755836487
-0.013289747759699821
0.144189670681953430
-0.185957849025726318
-0.209320858120918274
0.203555390238761902
-0.012748494744300842
0.196670085191726685
0.184964507818222046
-0.110348351299762726
-0.127934083342552185
-0.237263098359107971
-0.138507798314094543
0.193561121821403503
-0.021199075505137444
-0.208125352859497070
0.171541228890419006
-0.032444503158330917
-0.045779187232255936
0.070533521473407745
0.053189139813184738
-0.229091957211494446
-0.063704356551170349
-0.018398039042949677
-0.032681420445442200
-0.031021259725093842
0.178155899047851562
-0.028276266530156136
-0.099188648164272308
0.016038427129387856
-0.154623076319694519
-0.013205497525632381
-0.193338006734848022
-0.020097061991691589
-0.045771658420562744
-0.050916049629449844
0.074885480105876923
-0.037592541426420212
-0.155764147639274597
0.003052063751965761
-0.288390278816223145
-0.089798532426357269
-0.201262250542640686
-0.170821309089660645
-0.025335658341646194
-0.021604465320706367
-0.040309764444828033
-0.016272122040390968
0.141523391008377075
0.053171228617429733
-0.136194452643394470
0.084774933755397797
0.064566828310489655
-0.014022227376699448
-0.043095197528600693
-0.161210760474205017
-0.031823433935642242
-0.039956182241439819
-0.010309831239283085
0.065569780766963959
-0.104131214320659637
-0.007255607750266790
0.052657622843980789
-0.107836358249187469
-0.040184229612350464
-0.112835787236690521
-0.301874101161956787
-0.102783478796482086
-0.026056407019495964
-0.010683641768991947
0.152734711766242981
-0.082016915082931519
-0.114139251410961151
-0.013026758097112179
-0.083931751549243927
0.263439923524856567
-0.199697211384773254
-0.027823321521282196
0.056354753673076630
0.012607813812792301
-0.045462653040885925
-0.060148686170578003
-0.025799877941608429
-0.039565965533256531
-0.017055736854672432
-0.046058472245931625
-0.044447693973779678
-0.014692670665681362
-0.051256347447633743
0.078828915953636169
-0.044011902064085007
-0.165897607803344727
-0.117527715861797333
-0.268237560987472534
-0.133361265063285828
-0.043117798864841461
0.371574461460113525
-0.265703916549682617
-0.024571551010012627
-0.044334437698125839
0.014167239889502525
0.095006152987480164
-0.046888031065464020
-0.019216936081647873
0.107887588441371918
-0.220270887017250061
-0.093245312571525574
0.144731312990188599
-0.055110037326812744
-0.132303193211555481
0.170442298054695129
0.012472376227378845
-0.056633394211530685
0.016828486695885658
-0.025327993556857109
-0.020647181198000908
-0.057665765285491943
0.033717200160026550
-0.024863554164767265
-0.017882710322737694
0.076720103621482849
-0.096713460981845856
-0.040723618119955063
-0.058092914521694183
-0.016860103234648705
0.029186939820647240
-0.004148956853896379
-0.038005433976650238
-0.164988368749618530
-0.062232252210378647
-0.080257147550582886
-0.017379099503159523
-0.053545627743005753
-0.049549743533134460
-0.040602535009384155
-0.034376479685306549
-0.015991117805242538
0.166274026036262512
-0.204005733132362366
-0.065917216241359711
-0.052247561514377594
-0.083527885377407074
0.115845233201980591
-0.020704535767436028
-0.038210570812225342
-0.017265826463699341
-0.205037012696266174
-0.102446027100086212
-0.127683579921722412
0.079773947596549988
-0.019415732473134995
-0.019666869193315506
-0.278506398200988770
-0.083612464368343353
-0.149541899561882019
0.093399830162525177
-0.346770048141479492
-0.011814947240054607
-0.019310625270009041
-0.014577739872038364
0.065863326191902161
-0.203826949000358582
