-0.045811910182237625
-0.050306506454944611
-0.059570722281932831
0.017030175775289536
-0.026528516784310341
0.066778235137462616
-0.005363417789340019
0.109432734549045563
0.086075045168399811
0.118119329214096069
0.180854484438896179
-0.164925739169120789
0.095732770860195160
0.005808955989778042
0.107363559305667877
0.392855346202850342
-0.022492386400699615
-0.044578906148672104
0.351426035165786743
0.076685220003128052
-0.015894042328000069
-0.013738333247601986
0.016389133408665657
-0.067166775465011597
-0.032657776027917862
0.259768575429916382
-0.020141879096627235
-0.057579655200242996
-0.050863128155469894
0.177581652998924255
-0.107330016791820526
-0.051282957196235657
0.100924506783485413
-0.026207124814391136
-0.213063895702362061
0.046623669564723969
0.284542679786682129
-0.063579551875591278
0.133865341544151306
-0.044112101197242737
0.537536084651947021
-0.192804828286170959
0.085318721830844879
-0.048577900975942612
-0.075114928185939789
-0.265994578599929810
0.008359979838132858
0.001284222700633109
-0.020298779010772705
-0.060601439327001572
-0.139041021466255188
-0.056143183261156082
-0.214207425713539124
0.212018847465515137
0.131657615303993225
-0.026467530056834221
-0.085084304213523865
-0.031939081847667694
-0.025593675673007965
0.150288254022598267
0.350991606712341309
-0.173837870359420776
0.239199653267860413
0.149022936820983887
