-0.030857102945446968,-0.048493955284357071,-0.023225747048854828,-0.022629009559750557,-0.123676821589469910,-0.088800109922885895,0.059161379933357239,-0.028073402121663094,-0.048411093652248383,-0.011509520933032036
0.192546546459197998,-0.224202588200569153,-0.171035051345825195,0.008887378498911858,0.023946672677993774,-0.247711285948753357,-0.334350347518920898,-0.030194913968443871,0.043287474662065506,-0.144632205367088318
0.039470691233873367,0.001739716622978449,0.011657334864139557,-0.288746356964111328,0.170341104269027710,0.010866014286875725,-0.279178410768508911,0.272952795028686523,0.117902651429176331,-0.250189393758773804
0.053898092359304428,-0.010501103475689888,-0.010821239091455936,-0.039398007094860077,-0.022877132520079613,0.057906765490770340,0.075403518974781036,-0.075242452323436737,-0.075078576803207397,-0.088565185666084290
0.302322238683700562,-0.207693964242935181,0.097535513341426849,0.087682001292705536,-0.020397916436195374,0.032546788454055786,-0.321612417697906494,0.037553299218416214,-0.274054497480392456,0.040056314319372177
-0.051563974469900131,0.040699344128370285,-0.136363685131072998,-0.048846833407878876,-0.045814827084541321,0.138760879635810852,-0.127227127552032471,-0.094041332602500916,-0.034589443355798721,0.105646401643753052
-0.160997048020362854,0.167968630790710449,-0.032515950500965118,-0.365415662527084351,0.162067905068397522,0.159316405653953552,0.208404302597045898,-0.239431247115135193,-0.063551917672157288,-0.033191297203302383
0.109270796179771423,0.141577109694480896,0.067773118615150452,0.244027078151702881,-0.393154382705688477,-0.204773843288421631,0.048919465392827988,-0.084034383296966553,0.190133243799209595,-0.152635335922241211
-0.109275221824645996,0.049794111400842667,0.004522718023508787,-0.017205888405442238,-0.341184914112091064,0.279135286808013916,0.244213342666625977,-0.208920165896415710,-0.025638353079557419,-0.112106539309024811
-0.173240363597869873,0.129725560545921326,0.144438132643699646,0.025278927758336067,0.053082685917615891,-0.104501344263553619,0.122447863221168518,-0.278437346220016479,-0.211450606584548950,-0.367365390062332153
0.045357026159763336,-0.066143184900283813,-0.046006012707948685,-0.071569472551345825,-0.101789556443691254,-0.120197147130966187,-0.069838546216487885,-0.055329043418169022,-0.067411981523036957,0.022171312943100929
-0.138988807797431946,0.078520976006984711,0.071370713412761688,-0.277922600507736206,-0.403261244297027588,-0.192038998007774353,0.005856882780790329,0.268047481775283813,0.131570920348167419,0.159418597817420959
0.159832119941711426,0.117864638566970825,0.006122865714132786,0.188425004482269287,-0.183617591857910156,-0.071270093321800232,-0.302902519702911377,-0.242715463042259216,0.113760337233543396,0.102380760014057159
0.021339587867259979,-0.069991767406463623,-0.012318081222474575,0.065598294138908386,0.079934902489185333,0.048813801258802414,-0.056088145822286606,0.030673053115606308,0.006691373884677887,0.011498210020363331
-0.078766584396362305,0.025860324501991272,0.025259394198656082,-0.072455257177352905,0.039700895547866821,0.010066779330372810,-0.028934922069311142,-0.074656568467617035,0.061157628893852234,0.045226931571960449
-0.051456104964017868,-0.127162158489227295,-0.079843066632747650,0.030442157760262489,0.085092641413211823,-0.036125503480434418,0.035439554601907730,-0.098732613027095795,-0.051501728594303131,-0.154540583491325378
0.120693936944007874,0.023868780583143234,0.149206429719924927,-0.113627418875694275,-0.150051906704902649,-0.402597010135650635,-0.058055683970451355,0.110591314733028412,-0.039627186954021454,0.170419111847877502
-0.355749100446701050,0.322902888059616089,-0.347175419330596924,0.060090526938438416,-0.185954019427299500,-0.008523612283170223,-0.210606426000595093,-0.197612971067428589,0.088815338909626007,-0.208221301436424255
0.031488310545682907,-0.427772700786590576,0.104029722511768341,0.036215588450431824,0.055624227970838547,0.333942025899887085,-0.370956808328628540,-0.244989246129989624,0.018866026774048805,-0.272187113761901855
0.033514790236949921,-0.329619556665420532,0.003479706821963191,-0.111120477318763733,0.033056437969207764,-0.168389022350311279,-0.190074399113655090,-0.313988059759140015,0.195732384920120239,0.240793302655220032
-0.128637686371803284,0.077700071036815643,-0.022092351689934731,0.344324737787246704,-0.204863741993904114,0.134145796298980713,0.111643120646476746,-0.403293043375015259,-0.188563749194145203,-0.066845163702964783
-0.007424287963658571,-0.051877383142709732,-0.084151200950145721,-0.012562049552798271,0.063680753111839294,-0.041573368012905121,0.036444760859012604,-0.084313079714775085,0.054949227720499039,0.035379294306039810
0.075110092759132385,-0.090274736285209656,-0.158562436699867249,-0.034338168799877167,-0.020379127934575081,0.045258969068527222,-0.005259638652205467,-0.078040644526481628,0.020486896857619286,-0.028382228687405586
-0.355547219514846802,0.089144699275493622,0.011649467051029205,0.089057892560958862,-0.029762774705886841,0.059235624969005585,0.118113987147808075,-0.013237030245363712,-0.227885246276855469,-0.050422687083482742
0.021874150261282921,0.011458666995167732,0.069729588925838470,0.061607766896486282,0.049303434789180756,0.012511551380157471,0.072368308901786804,0.046676836907863617,0.060670543462038040,0.016800764948129654
-0.026983808726072311,-0.265586316585540771,0.020439177751541138,0.111389175057411194,0.103716909885406494,0.140298634767532349,-0.064627498388290405,-0.060910746455192566,-0.374874442815780640,-0.432946294546127319
-0.068721666932106018,-0.330182880163192749,-0.112341873347759247,-0.072810038924217224,-0.039865501224994659,-0.117508172988891602,-0.044454317539930344,0.036557935178279877,0.186497613787651062,-0.075036033987998962
-0.120504669845104218,0.049816831946372986,-0.046882469207048416,-0.099818959832191467,-0.111609011888504028,-0.056075111031532288,0.052381984889507294,-0.034118544310331345,0.059109035879373550,0.066324524581432343
0.072498172521591187,0.198633208870887756,-0.180720403790473938,-0.311833590269088745,0.047644712030887604,0.206622019410133362,0.030620677396655083,-0.109445236623287201,-0.088567644357681274,0.028034398332238197
0.059320159256458282,0.138253524899482727,-0.391563326120376587,-0.003492623101919889,-0.320414751768112183,0.048300426453351974,0.124662213027477264,-0.290910899639129639,0.100687295198440552,0.014172273688018322
0.025370854884386063,-0.219284206628799438,-0.157588988542556763,-0.231863379478454590,-0.072643242776393890,-0.178249612450599670,0.270869761705398560,0.627296984195709229,-0.106946140527725220,-0.296282112598419189
-0.274177759885787964,-0.014550218358635902,-0.022625366225838661,0.020774573087692261,-0.062067657709121704,0.098349310457706451,-0.047315016388893127,0.154696971178054810,0.194152817130088806,-0.030155038461089134
-0.073676019906997681,-0.191034421324729919,-0.016072317957878113,-0.142914801836013794,0.072931326925754547,0.074234567582607269,-0.203731894493103027,0.182814285159111023,-0.462934374809265137,0.176028415560722351
-0.088763311505317688,-0.206017658114433289,-0.278799593448638916,0.413983702659606934,0.045768525451421738,-0.256930768489837646,-0.004098415840417147,-0.159591302275657654,-0.215380892157554626,-0.153752520680427551
-0.225698918104171753,0.072031199932098389,0.031634591519832611,0.057011105120182037,0.199235901236534119,-0.406435340642929077,0.003624805249273777,0.010196386836469173,-0.374863624572753906,0.091168724000453949
-0.142008736729621887,0.064599476754665375,-0.179809868335723877,0.226187169551849365,-0.236177489161491394,0.147802844643592834,-0.208348140120506287,-0.312210440635681152,-0.157670274376869202,0.398558199405670166
0.041041381657123566,0.101890698075294495,0.239745855331420898,-0.444064676761627197,-0.279880821704864502,0.050542596727609634,0.199461191892623901,-0.168658927083015442,0.068715497851371765,-0.155595391988754272
0.016970882192254066,0.147876545786857605,0.128896504640579224,-0.309053003787994385,-0.254891574382781982,0.117899261415004730,-0.144374668598175049,-0.300024777650833130,-0.171716824173927307,0.272025346755981445
-0.171539112925529480,0.148806095123291016,-0.250588864088058472,-0.001986581599339843,-0.287305653095245361,-0.328564047813415527,0.037661377340555191,0.089844956994056702,0.226590827107429504,0.150182411074638367
0.119349107146263123,-0.335916996002197266,0.015669882297515869,-0.154920488595962524,0.044726181775331497,0.237953677773475647,0.027045838534832001,0.056117828935384750,-0.064954601228237152,-0.385365545749664307
-0.298723638057708740,0.168453991413116455,-0.381783217191696167,-0.110237829387187958,-0.441864103078842163,0.270239710807800293,0.099627889692783356,-0.125136166810989380,0.106843866407871246,-0.201624631881713867
-0.086662404239177704,0.090682752430438995,-0.123648524284362793,-0.090095445513725281,-0.075573362410068512,0.003105868585407734,-0.009523275308310986,-0.050581581890583038,-0.036110322922468185,-0.002299189567565918
-0.137386575341224670,-0.050230883061885834,-0.320590049028396606,0.153662666678428650,-0.204108014702796936,-0.348501741886138916,-0.212891384959220886,-0.111015073955059052,-0.113524593412876129,0.556392073631286621
0.063801571726799011,-0.265393704175949097,0.202905908226966858,-0.294783294200897217,-0.131797030568122864,-0.168964743614196777,0.219474002718925476,-0.099338233470916748,0.201509177684783936,-0.200939610600471497
0.012582975439727306,-0.121297292411327362,0.032395288348197937,0.039631422609090805,0.033288020640611649,-0.080515451729297638,-0.036384642124176025,0.057499278336763382,0.060509905219078064,-0.047309760004281998
0.147202685475349426,-0.489451289176940918,0.086406640708446503,-0.309038788080215454,0.182484507560729980,0.124169543385505676,0.020434200763702393,0.121882528066635132,0.104424715042114258,-0.185658439993858337
0.094816528260707855,0.003223260631784797,0.073536776006221771,0.036127317696809769,-0.087728835642337799,-0.029637344181537628,-0.024805340915918350,-0.023912128061056137,-0.051383178681135178,-0.013841522857546806
-0.202440023422241211,-0.218227341771125793,0.335676968097686768,0.093499109148979187,-0.236516207456588745,-0.046850115060806274,-0.198194682598114014,0.165094166994094849,0.228496730327606201,0.218799725174903870
0.024033391848206520,-0.062787435948848724,0.024002982303500175,0.025983700528740883,-0.053208503872156143,0.004414823837578297,0.002442973433062434,-0.121568650007247925,-0.089833326637744904,0.051198001950979233
0.001753364922478795,-0.104875177145004272,0.134871736168861389,-0.149934753775596619,0.158219322562217712,-0.068198166787624359,-0.092237122356891632,0.024598974734544754,-0.245627537369728088,0.039285916835069656
0.053088679909706116,-0.232395485043525696,-0.012457000091671944,0.020576003938913345,0.034372545778751373,0.039783481508493423,-0.385131299495697021,0.067502774298191071,-0.004344874992966652,0.045280396938323975
0.388710200786590576,0.010608650743961334,-0.122709847986698151,-0.175655350089073181,-0.082181148231029510,0.030335940420627594,-0.034339945763349533,-0.074076101183891296,-0.144164159893989563,0.145915076136589050
-0.120191819965839386,-0.222868725657463074,-0.250503718852996826,-0.201464518904685974,-0.017657514661550522,-0.090715207159519196,-0.088762506842613220,-0.274172127246856689,-0.016632981598377228,0.258518457412719727
0.130246296525001526,0.011947023682296276,0.129512697458267212,-0.049159545451402664,-0.182854428887367249,-0.329985499382019043,-0.205375388264656067,-0.316644430160522461,0.108212575316429138,0.107330419123172760
0.089515380561351776,-0.067793533205986023,0.024927442893385887,0.042453024536371231,0.096609853208065033,-0.070910178124904633,-0.031041961163282394,-0.008222045376896858,0.045008927583694458,0.015717828646302223
0.102894283831119537,0.062638938426971436,-0.032707910984754562,-0.240309849381446838,0.054145239293575287,-0.139736667275428772,-0.424792081117630005,0.017848461866378784,0.170478448271751404,0.074105925858020782
0.130882337689399719,-0.394821107387542725,-0.168025523424148560,0.124102786183357239,0.001558877527713776,0.181026101112365723,-0.028335254639387131,-0.244987756013870239,-0.187733575701713562,-0.083270408213138580
0.025352479889988899,0.047074649482965469,-0.044892683625221252,0.047659698873758316,0.074309013783931732,-0.073842555284500122,-0.078468598425388336,0.040724936872720718,-0.036288361996412277,0.123976126313209534
0.137805998325347900,-0.403604894876480103,0.059380602091550827,0.081240825355052948,0.067186467349529266,-0.197547659277915955,0.244321584701538086,0.180105611681938171,-0.337081819772720337,0.128035649657249451
-0.010841228999197483,-0.043531209230422974,0.091202720999717712,0.079020634293556213,0.071623280644416809,-0.086773253977298737,0.011188034899532795,-0.060895223170518875,0.042265053838491440,-0.099904164671897888
0.245430663228034973,-0.035153228789567947,-0.044281162321567535,0.218000903725624084,0.069743826985359192,0.141762048006057739,-0.379497110843658447,0.006567711010575294,0.043159786611795425,-0.265357285737991333
-0.185593038797378540,0.117658451199531555,0.109931364655494690,-0.017699752002954483,-0.143072009086608887,-0.144415274262428284,-0.341475397348403931,-0.337130248546600342,-0.224602758884429932,0.263016611337661743
-0.109406039118766785,-0.071775943040847778,-0.053926341235637665,0.076798796653747559,0.014845618978142738,0.091592341661453247,-0.041286304593086243,-0.090182662010192871,-0.108967967331409454,0.047133732587099075
0.067814394831657410,0.072727419435977936,0.010552429594099522,-0.003864571452140808,-0.047810647636651993,0.217475175857543945,0.124238841235637665,-0.396390348672866821,-0.080500662326812744,0.080264218151569366
0.296511858701705933,0.257270365953445435,0.096974097192287445,-0.101193420588970184,0.037621807307004929,-0.166686132550239563,0.425638884305953979,-0.216149181127548218,-0.328961014747619629,-0.247907608747482300
-0.248525679111480713,0.030486717820167542,0.176980212330818176,-0.124425955116748810,-0.134399995207786560,-0.047920480370521545,-0.021762993186712265,0.104217797517776489,-0.424552112817764282,-0.166479453444480896
0.118948414921760559,-0.070440821349620819,-0.101245969533920288,-0.219676181674003601,-0.045599441975355148,-0.166569679975509644,-0.174764350056648254,-0.160589769482612610,-0.152613982558250427,0.048482831567525864
0.151145532727241516,-0.066439725458621979,-0.148564442992210388,-0.007400786504149437,-0.023318370804190636,-0.444561511278152466,-0.047269485890865326,0.253848403692245483,0.330241590738296509,0.084909513592720032
-0.161449611186981201,0.393089085817337036,-0.359556376934051514,-0.175071299076080322,-0.383221447467803955,0.235574662685394287,0.229520112276077271,-0.307316035032272339,-0.065479531884193420,-0.003193003591150045
0.191489607095718384,-0.389716684818267822,0.177327007055282593,0.039056200534105301,0.104354374110698700,-0.020656604319810867,-0.457001596689224243,0.033042229712009430,-0.194304674863815308,0.034735035151243210
0.111189395189285278,0.121864169836044312,-0.133014500141143799,-0.259577631950378418,-0.089919701218605042,0.184101015329360962,-0.118514753878116608,-0.420421689748764038,0.093516863882541656,0.131957441568374634
-0.060879554599523544,0.352412909269332886,-0.218119457364082336,-0.284161806106567383,-0.143475130200386047,-0.024263460189104080,-0.014870509505271912,-0.267058938741683960,-0.182779833674430847,-0.116811104118824005
0.087757721543312073,0.008638117462396622,-0.098253950476646423,-0.024309471249580383,-0.044097434729337692,0.036889508366584778,-0.031408127397298813,0.046133127063512802,0.027322664856910706,0.092065781354904175
-0.054274950176477432,-0.295107215642929077,0.134287446737289429,0.151104241609573364,0.164960816502571106,-0.296106815338134766,-0.034475564956665039,-0.031733863055706024,0.043467689305543900,-0.081720151007175446
-0.077511414885520935,0.099951028823852539,0.026267044246196747,0.054164525121450424,-0.070467442274093628,-0.115613564848899841,0.053514063358306885,-0.091164641082286835,0.034323766827583313,0.042815800756216049
0.104758679866790771,0.002693138085305691,-0.125105723738670349,-0.155012056231498718,0.013463933952152729,-0.110661417245864868,-0.004702279809862375,0.021047290414571762,-0.070547088980674744,0.027979567646980286
-0.427441716194152832,-0.343230098485946655,0.123803667724132538,0.084546171128749847,0.085205227136611938,0.093102365732192993,0.118665747344493866,0.125019505620002747,-0.166662186384201050,-0.030983673408627510
-0.141736119985580444,-0.192686304450035095,-0.227974981069564819,-0.104709155857563019,0.143595069646835327,-0.271515160799026489,0.080685175955295563,-0.056243862956762314,-0.122418507933616638,-0.062532737851142883
-0.164721444249153137,-0.163998261094093323,-0.142667770385742188,0.296848922967910767,0.219180986285209656,0.049498707056045532,0.072527989745140076,-0.228680446743965149,-0.250907659530639648,0.258749037981033325
0.048456382006406784,-0.306725025177001953,0.260856658220291138,-0.086557991802692413,-0.045703027397394180,-0.371550351381301880,0.283287286758422852,-0.176103860139846802,-0.202361643314361572,-0.284074902534484863
0.132589668035507202,-0.187499806284904480,-0.040176648646593094,0.225622445344924927,-0.159035757184028625,-0.224454298615455627,-0.017860677093267441,-0.021910496056079865,0.051632866263389587,-0.127530977129936218
-0.164977312088012695,-0.352526098489761353,0.004383102059364319,0.113591648638248444,0.123375311493873596,0.139115676283836365,0.168406233191490173,-0.044917773455381393,-0.221194446086883545,0.017056511715054512
0.045564252883195877,-0.225380167365074158,0.223211407661437988,0.189891904592514038,-0.258587777614593506,-0.240108132362365723,0.005605689249932766,-0.232489868998527527,0.273703902959823608,-0.299368232488632202
0.040308926254510880,-0.349011808633804321,-0.062795467674732208,0.110485352575778961,-0.089840076863765717,0.202610135078430176,-0.002112524816766381,-0.015175245702266693,-0.192900970578193665,0.113586194813251495
-0.012856622226536274,-0.081359438598155975,0.003527055261656642,-0.211230680346488953,-0.274588346481323242,0.028189929202198982,-0.291357874870300293,-0.402958929538726807,0.284109205007553101,-0.107804454863071442
0.274356961250305176,0.008369002491235733,-0.308286964893341064,-0.380992978811264038,-0.138325020670890808,0.002750823972746730,0.015594110824167728,0.064238756895065308,0.182463675737380981,0.092436544597148895
-0.085676856338977814,-0.074018672108650208,-0.125176891684532166,0.005019255448132753,-0.072436206042766571,0.039116844534873962,-0.064691178500652313,0.017390649765729904,-0.026999687775969505,0.013564480468630791
0.260104358196258545,-0.029300570487976074,-0.471690714359283447,0.326135098934173584,-0.359505861997604370,-0.129998475313186646,-0.314939856529235840,-0.285434216260910034,0.208742707967758179,-0.165417313575744629
0.082387156784534454,-0.108480378985404968,-0.095517426729202271,-0.216301754117012024,-0.016793118789792061,0.053002737462520599,-0.135108813643455505,0.077335916459560394,-0.055128876119852066,-0.071167223155498505
-0.118154183030128479,-0.017552431672811508,-0.053869213908910751,0.000170868283021264,0.024548746645450592,0.026797436177730560,-0.006211431697010994,-0.021325614303350449,0.049558419734239578,0.019435392692685127
-0.007710275705903769,0.062911279499530792,-0.113849081099033356,-0.194178372621536255,-0.437855362892150879,-0.069949433207511902,0.125194907188415527,0.119037941098213196,0.315624028444290161,-0.113029308617115021
-0.114261098206043243,-0.055139847099781036,-0.168794989585876465,-0.312404960393905640,-0.407524526119232178,0.378387242555618286,0.368142515420913696,-0.166326612234115601,-0.168483242392539978,-0.001123496098443866
-0.039262309670448303,-0.392819613218307495,0.183347493410110474,0.014778115786612034,-0.062882579863071442,-0.446616202592849731,-0.247155994176864624,0.234038591384887695,-0.330360531806945801,0.230313450098037720
0.030162170529365540,0.069544598460197449,0.213856130838394165,-0.156160637736320496,0.211004137992858887,-0.258284151554107666,-0.161022976040840149,0.193070322275161743,0.035391002893447876,-0.528596580028533936
0.198723226785659790,-0.330449670553207397,0.003633749438449740,-0.219600662589073181,0.008540264330804348,-0.155417352914810181,-0.138422951102256775,-0.332045286893844604,0.100423172116279602,0.066577218472957611
0.081109091639518738,-0.060424510389566422,-0.008105644956231117,0.039611577987670898,-0.001711379853077233,0.117679834365844727,-0.273923963308334351,0.082515224814414978,-0.270485579967498779,0.104920886456966400
-0.095285460352897644,-0.013714545406401157,0.052217174321413040,-0.074799738824367523,-0.044890340417623520,-0.042573399841785431,0.053210839629173279,-0.066709458827972412,-0.024146722629666328,-0.108678154647350311
0.132343500852584839,-0.249937966465950012,0.118231557309627533,-0.019671583548188210,0.196133702993392944,-0.254558801651000977,0.216859802603721619,-0.214946195483207703,-0.117131270468235016,-0.123169764876365662
0.061409685760736465,0.050657205283641815,-0.037241809070110321,-0.054085694253444672,-0.005228959489613771,-0.033452663570642471,0.048447929322719574,-0.008523629978299141,0.010854496620595455,-0.046854186803102493
0.011150417849421501,-0.109255798161029816,0.611196398735046387,0.028931260108947754,-0.374409347772598267,-0.059649564325809479,-0.225653216242790222,-0.376117914915084839,-0.292676478624343872,-0.410223305225372314
-0.033364709466695786,0.074551701545715332,-0.047716952860355377,-0.067560389637947083,0.068792887032032013,0.104272551834583282,-0.048057027161121368,-0.058722320944070816,0.021671066060662270,0.036966804414987564
-0.174670726060867310,-0.025153229013085365,0.155722275376319885,-0.270965814590454102,-0.163478225469589233,0.194116532802581787,0.017483346164226532,-0.439855813980102539,0.184506967663764954,-0.054846908897161484
0.017344931140542030,-0.053881935775279999,-0.100775696337223053,-0.015596351586282253,-0.029235495254397392,0.012679623439908028,-0.092987731099128723,0.042352020740509033,-0.044188991189002991,-0.142437636852264404
-0.101597912609577179,0.002147730672731996,-0.077090658247470856,0.035288825631141663,-0.059652201831340790,-0.012636378407478333,0.031479772180318832,0.001518861739896238,-0.061514370143413544,-0.097561493515968323
-0.068348042666912079,-0.095274001359939575,-0.057636681944131851,0.031197501346468925,0.005616687238216400,-0.033239383250474930,0.009471926838159561,0.104750193655490875,0.089122377336025238,-0.051224932074546814
-0.056286312639713287,0.125157028436660767,0.222895875573158264,-0.123812049627304077,-0.316889971494674683,-0.026343096047639847,-0.126063242554664612,0.084829077124595642,-0.015298321843147278,0.128504708409309387
-0.039561048150062561,0.041174300014972687,-0.065040841698646545,-0.030027348548173904,0.019839251413941383,0.044951882213354111,0.006453693378716707,-0.018203290179371834,0.018048085272312164,0.043964833021163940
0.221004098653793335,-0.070229142904281616,0.117570258677005768,-0.230971172451972961,-0.259387522935867310,-0.222787603735923767,-0.216502189636230469,-0.021214677020907402,-0.063771151006221771,0.018837288022041321
0.064135640859603882,-0.216747671365737915,0.194663316011428833,0.051255706697702408,-0.210112825036048889,0.169422745704650879,0.083211474120616913,-0.272165477275848389,0.116201788187026978,-0.289218813180923462
0.131770968437194824,-0.213789910078048706,-0.078927807509899139,-0.442642599344253540,-0.074431717395782471,-0.025476068258285522,0.311116695404052734,0.165992110967636108,0.026009956374764442,-0.004775049630552530
-0.002540954388678074,-0.017567383125424385,-0.008616428822278976,0.026041807606816292,-0.029701692983508110,0.024864930659532547,-0.056818645447492599,-0.034796819090843201,0.007235678844153881,0.039229858666658401
0.007099949754774570,-0.177585065364837646,0.019794514402747154,0.032925877720117569,-0.227401435375213623,0.177533030509948730,0.091172650456428528,0.070342019200325012,-0.555906474590301514,-0.269785314798355103
-0.147756189107894897,0.110664263367652893,-0.293520212173461914,0.083236582577228546,0.470303416252136230,-0.262960076332092285,-0.249816447496414185,-0.153786584734916687,0.151007726788520813,0.075069159269332886
0.170484885573387146,-0.063098356127738953,0.127544164657592773,-0.071754187345504761,0.162547826766967773,-0.220874965190887451,-0.215553581714630127,-0.258760571479797363,-0.073092058300971985,-0.046045046299695969
0.089149624109268188,-0.274009168148040771,-0.061567846685647964,0.180702164769172668,0.074340671300888062,0.107346996665000916,-0.172899112105369568,-0.047676850110292435,-0.314365297555923462,-0.336784929037094116
-0.231196567416191101,-0.034644823521375656,0.227406919002532959,-0.023008774966001511,-0.338570624589920044,-0.156181663274765015,-0.165134280920028687,-0.199130311608314514,-0.000566260016057640,-0.228154003620147705
0.107321046292781830,-0.393010914325714111,0.025828694924712181,0.084766142070293427,0.365372180938720703,-0.042046185582876205,-0.018834667280316353,-0.303911268711090088,0.125659584999084473,-0.092398658394813538
0.162328079342842102,-0.172201603651046753,-0.340762019157409668,0.162548407912254333,-0.161174207925796509,-0.176786050200462341,-0.093375526368618011,-0.028200881555676460,-0.074966579675674438,-0.082873351871967316
-0.180020794272422791,-0.120335720479488373,-0.252667754888534546,-0.320894986391067505,0.131723970174789429,-0.056832138448953629,0.191319599747657776,0.134407684206962585,-0.121675185859203339,0.110694937407970428
-0.079978488385677338,0.138117328286170959,-0.088927373290061951,0.191198050975799561,-0.241766944527626038,0.083962045609951019,-0.338735431432723999,-0.206448197364807129,0.040001913905143738,-0.047172162681818008
-0.095671825110912323,0.007318238262087107,-0.091427557170391083,-0.067539446055889130,-0.000214738887734711,0.084768556058406830,-0.102297358214855194,0.070612564682960510,-0.040337372571229935,0.017242813482880592
-0.069589026272296906,-0.078613415360450745,0.056974671781063080,-0.067379087209701538,-0.010779714211821556,-0.033326260745525360,-0.027118969708681107,0.007770938333123922,0.086916834115982056,-0.059185992926359177
0.156229645013809204,0.128244683146476746,0.143212094902992249,-0.210188254714012146,-0.351456552743911743,-0.239804983139038086,-0.198510810732841492,-0.275850057601928711,0.149104520678520203,-0.030614038929343224
0.234079331159591675,-0.280264258384704590,-0.133073687553405762,-0.325736314058303833,0.175279662013053894,-0.129501253366470337,-0.394216865301132202,0.186904281377792358,-0.128500223159790039,0.093748979270458221
0.043882183730602264,-0.175923883914947510,0.033337298780679703,0.072302885353565216,0.183618173003196716,0.208498328924179077,-0.183379366993904114,-0.294450700283050537,0.025994358584284782,-0.275085836648941040
0.393946856260299683,-0.208082765340805054,-0.116874583065509796,0.123988702893257141,-0.074362255632877350,-0.585709989070892334,-0.143742725253105164,-0.084352634847164154,-0.252516001462936401,-0.250832051038742065
-0.095934391021728516,-0.046818122267723083,-0.473290830850601196,-0.099915690720081329,-0.146462634205818176,0.079218648374080658,0.035768333822488785,0.353401392698287964,-0.242724418640136719,0.142978981137275696
-0.532398641109466553,-0.052425149828195572,0.014246419072151184,-0.057175997644662857,0.173748821020126343,0.150730341672897339,-0.038088865578174591,-0.006482734344899654,-0.323611527681350708,0.011307856068015099
0.431504458189010620,-0.271757662296295166,-0.100474715232849121,0.198375895619392395,-0.023735115304589272,-0.542324662208557129,-0.102953791618347168,-0.190344542264938354,-0.243682235479354858,-0.350891500711441040
0.020418794825673103,0.019620535895228386,0.001033131964504719,-0.036520421504974365,-0.070565581321716309,-0.045340429991483688,-0.013196841813623905,-0.058669362217187881,0.021916486322879791,-0.050696086138486862
-0.105384148657321930,0.082498118281364441,-0.005767455790191889,0.074843399226665497,-0.007047256920486689,-0.021708182990550995,0.000376278039766476,-0.013527841307222843,-0.007482341490685940,-0.036789372563362122
0.075014345347881317,-0.465246945619583130,0.014019525609910488,0.158235132694244385,0.045905973762273788,0.011738182976841927,0.162880495190620422,-0.260134249925613403,0.183015123009681702,-0.001686294795945287
-0.043613679707050323,-0.068658180534839630,0.038001440465450287,0.006094388663768768,-0.013062858954071999,-0.090837515890598297,-0.118670009076595306,0.051589220762252808,-0.113257221877574921,-0.070532791316509247
0.024774614721536636,-0.098469793796539307,0.001185234752483666,-0.037881381809711456,0.056345351040363312,0.055941853672266006,0.063707359135150909,0.052746199071407318,-0.023641843348741531,0.090772680938243866
-0.066158823668956757,0.094520360231399536,-0.149594411253929138,0.183209836483001709,-0.466691762208938599,-0.104250796139240265,0.143231138586997986,-0.316503137350082397,-0.040638472884893417,0.066254623234272003
-0.241980671882629395,0.075654461979866028,-0.029441975057125092,-0.058782503008842468,0.086234949529170990,0.133694052696228027,0.159147799015045166,-0.476187169551849365,0.070132210850715637,0.102991528809070587
0.054625295102596283,0.019672481343150139,0.000390078785130754,-0.057432755827903748,-0.061525944620370865,0.053079031407833099,0.026510629802942276,-0.084560066461563110,0.020608611404895782,0.033174619078636169
-0.137923091650009155,-0.119367957115173340,0.080659441649913788,0.177210673689842224,-0.198758110404014587,-0.379188895225524902,-0.106324382126331329,0.169033974409103394,0.012774472124874592,-0.039676342159509659
-0.043356209993362427,-0.010701346211135387,-0.285662651062011719,0.176393449306488037,0.268741637468338013,0.056292697787284851,-0.178474754095077515,-0.038550738245248795,-0.169527947902679443,0.059831291437149048
0.053911410272121429,-0.161555692553520203,-0.104762643575668335,0.121954143047332764,0.160031244158744812,-0.104919873178005219,0.121115900576114655,0.075779817998409271,-0.255686014890670776,-0.201182916760444641
-0.261606454849243164,-0.129312336444854736,-0.453448086977005005,-0.177744254469871521,0.112538002431392670,-0.249345257878303528,0.226473316550254822,0.232566237449645996,-0.264923006296157837,0.023353710770606995
-0.413552016019821167,-0.052821949124336243,-0.045151766389608383,-0.006755688227713108,-0.138410925865173340,-0.402856528759002686,0.140456259250640869,0.068956583738327026,0.049392148852348328,0.230145469307899475
-0.040268812328577042,0.128544822335243225,0.034545738250017166,0.292464554309844971,-0.190165668725967407,-0.092618770897388458,-0.404994070529937744,-0.065700046718120575,-0.115439757704734802,-0.067534327507019043
0.016729168593883514,0.080040834844112396,0.064469054341316223,0.004079904872924089,-0.064530372619628906,-0.039251133799552917,-0.108352743089199066,0.140317246317863464,-0.058181561529636383,-0.077694617211818695
-0.072669155895709991,-0.120075769722461700,-0.252480417490005493,0.118878513574600220,-0.428673416376113892,-0.125637948513031006,-0.119268327951431274,0.033565200865268707,0.333637714385986328,-0.060725096613168716
-0.002168316859751940,-0.087290078401565552,0.039523106068372726,-0.034792758524417877,-0.116431184113025665,0.067007817327976227,-0.002834773156791925,-0.100805185735225677,0.046119064092636108,-0.091970346868038177
0.114768080413341522,0.186167284846305847,-0.029875924810767174,-0.267944723367691040,-0.179491654038429260,0.097467944025993347,-0.333962827920913696,-0.024041907861828804,-0.097178317606449127,0.137621849775314331
0.016822997480630875,-0.403697878122329712,0.257060766220092773,-0.010391223244369030,-0.413363486528396606,0.012014403939247131,-0.122474566102027893,-0.078077808022499084,-0.053476247936487198,0.089532665908336639
0.124532282352447510,-0.216750755906105042,-0.314661741256713867,-0.093239545822143555,0.258608818054199219,0.153390124440193176,-0.212974846363067627,0.217126131057739258,0.153600797057151794,-0.333546072244644165
0.037061758339405060,-0.147337436676025391,0.058415740728378296,0.059894863516092300,-0.241033390164375305,-0.058343932032585144,0.121967308223247528,0.267672151327133179,-0.279550462961196899,0.165750563144683838
0.016012322157621384,0.053249716758728027,-0.161342680454254150,-0.112332172691822052,-0.018280874937772751,0.170904636383056641,0.121473550796508789,-0.368621170520782471,-0.037936992943286896,-0.134102866053581238
-0.098755247890949249,0.066782541573047638,0.042486075311899185,-0.073080733418464661,-0.051043555140495300,0.094078101217746735,0.000719255651347339,-0.007950242608785629,-0.086290143430233002,0.023776315152645111
0.117969200015068054,-0.433226734399795532,0.145922973752021790,-0.248004302382469177,0.211549818515777588,0.234465435147285461,0.065510578453540802,-0.409305036067962646,-0.391591995954513550,-0.171311005949974060
-0.335425853729248047,-0.108705960214138031,0.014995913021266460,0.264464348554611206,0.128804847598075867,-0.322607606649398804,0.102245278656482697,-0.343856722116470337,-0.073291271924972534,0.041362326592206955
0.081492513418197632,-0.182352155447006226,0.108766317367553711,-0.185352966189384460,0.201197341084480286,0.087302148342132568,0.110810525715351105,-0.326602220535278320,0.001679421868175268,-0.030557593330740929
0.097013883292675018,0.013403505086898804,0.082080326974391937,0.095811761915683746,-0.149689614772796631,0.010575288906693459,-0.025576185435056686,0.009456454776227474,-0.207079231739044189,0.081411138176918030
0.066984824836254120,-0.057070802897214890,-0.080202825367450714,-0.010122291743755341,-0.057381119579076767,-0.025219695642590523,0.013242691755294800,-0.094603992998600006,0.011162397451698780,0.070897780358791351
0.070393249392509460,0.089866198599338531,0.069928959012031555,0.012424481101334095,-0.050063680857419968,-0.101604320108890533,-0.093960873782634735,-0.005432277452200651,0.070651799440383911,-0.106771133840084076
-0.330125927925109863,0.182519152760505676,0.094006098806858063,-0.127323657274246216,-0.318178206682205200,-0.079062864184379578,-0.227240398526191711,0.147845655679702759,-0.145346984267234802,0.114815168082714081
-0.203890845179557800,-0.268586397171020508,-0.037580389529466629,0.304356843233108521,-0.151727914810180664,-0.024198397994041443,0.113501258194446564,0.008542426861822605,-0.077265843749046326,-0.234768122434616089
-0.425610244274139404,-0.043499827384948730,-0.217349305748939514,0.160534366965293884,-0.338552772998809814,0.065356612205505371,0.014279001392424107,-0.286006391048431396,0.303558498620986938,-0.206375077366828918
0.006115172989666462,-0.165735661983489990,0.146883904933929443,0.216709375381469727,-0.456360846757888794,-0.043161258101463318,-0.108554966747760773,0.132826492190361023,0.209508121013641357,-0.300531238317489624
-0.077301673591136932,-0.026999264955520630,0.092346668243408203,0.053800985217094421,-0.068584039807319641,0.087129406630992889,0.027037249878048897,0.071232877671718597,-0.022348124533891678,0.034305259585380554
-0.011561196297407150,0.055277984589338303,0.281135648488998413,0.009367353282868862,-0.448329538106918335,-0.269689410924911499,0.354941517114639282,-0.071942269802093506,0.105782717466354370,-0.273018866777420044
0.170986875891685486,0.103458933532238007,-0.295357197523117065,-0.005467619281262159,-0.161068558692932129,-0.081007786095142365,-0.086520850658416748,-0.287415564060211182,0.061088163405656815,0.157911181449890137
0.023702383041381836,-0.075076647102832794,-0.086065605282783508,-0.004786184988915920,-0.061085775494575500,-0.010448673740029335,0.032961428165435791,0.018475269898772240,0.068014375865459442,-0.006410546600818634
-0.253073364496231079,0.111830919981002808,0.206808865070343018,-0.024411963298916817,0.023574315011501312,-0.043013129383325577,0.136020854115486145,-0.224215373396873474,0.110709011554718018,-0.150352329015731812
-0.278778195381164551,-0.481040388345718384,-0.279924392700195312,0.005916826426982880,0.176165148615837097,0.134779691696166992,-0.267612040042877197,0.416229218244552612,-0.073918290436267853,-0.071935199201107025
-0.307543873786926270,-0.012747459113597870,-0.069443069398403168,0.115962982177734375,0.170448675751686096,0.051927838474512100,-0.282369256019592285,0.154632285237312317,-0.046916428953409195,-0.311840742826461792
0.059891443699598312,0.075322367250919342,-0.045075409114360809,-0.004657615907490253,-0.094237715005874634,0.088226437568664551,0.050110615789890289,0.088808782398700714,0.075928665697574615,0.001664704526774585
-0.060679987072944641,-0.058405701071023941,-0.090310133993625641,0.000301022839266807,-0.114290334284305573,-0.107733741402626038,-0.047890994697809219,-0.081981524825096130,0.026074334979057312,-0.006185437552630901
0.211198881268501282,-0.006527633406221867,-0.128983452916145325,0.115419991314411163,-0.284105271100997925,-0.279219150543212891,-0.218868955969810486,-0.391425728797912598,-0.135463103652000427,-0.061178304255008698
-0.174136877059936523,-0.151013582944869995,-0.228488296270370483,-0.299110680818557739,0.386072814464569092,0.027493150904774666,-0.204475358128547668,0.203775107860565186,0.098662950098514557,-0.296434044837951660
0.109233811497688293,-0.481875956058502197,0.119451880455017090,-0.088012844324111938,0.097948320209980011,-0.085304141044616699,-0.061957512050867081,0.179843842983245850,-0.102892011404037476,-0.185016617178916931
-0.383866488933563232,-0.187680497765541077,-0.121065892279148102,-0.131269142031669617,0.037999279797077179,-0.382926881313323975,0.000432504632044584,-0.014442436397075653,0.538747191429138184,-0.145434036850929260
-0.058178104460239410,-0.063415393233299255,-0.042893644422292709,-0.016076542437076569,0.009161555208265781,0.090411074459552765,-0.028398836031556129,-0.042843941599130630,0.018318738788366318,0.038177754729986191
0.155844256281852722,0.095775976777076721,-0.217361301183700562,-0.179595038294792175,0.162306413054466248,-0.490013152360916138,0.240547388792037964,-0.422080278396606445,0.132633194327354431,0.092998825013637543
-0.024975551292300224,0.058862064033746719,0.070387512445449829,-0.037148367613554001,-0.034784618765115738,0.014408660121262074,0.072716630995273590,-0.093360111117362976,0.013825854286551476,0.040904428809881210
0.210537642240524292,-0.027543239295482635,0.140689313411712646,-0.271414399147033691,-0.367937207221984863,-0.204001918435096741,0.015010843053460121,0.025869609788060188,-0.145504742860794067,0.117971286177635193
0.000964923005085438,0.079323887825012207,0.014828275889158249,0.056013975292444229,-0.040890768170356750,0.030294246971607208,0.003827848471701145,0.008200063370168209,0.012724063359200954,-0.010817996226251125
-0.060024473816156387,0.004406491760164499,0.007322939578443766,-0.045271988958120346,-0.045281101018190384,0.061557870358228683,0.004428375512361526,0.039979036897420883,-0.025569086894392967,-0.098879851400852203
-0.215346410870552063,-0.550875484943389893,0.047323841601610184,0.071769185364246368,0.107382394373416901,0.093731448054313660,0.111211873590946198,0.081015959382057190,0.056811641901731491,-0.215864390134811401
-0.076187983155250549,-0.048304989933967590,-0.087895996868610382,-0.014252226799726486,-0.032831378281116486,0.155729770660400391,-0.056882623583078384,-0.138534590601921082,-0.218846052885055542,-0.027521112933754921
-0.358685225248336792,0.038972202688455582,0.046901796013116837,0.128552511334419250,-0.310919612646102905,-0.283373862504959106,-0.067909263074398041,0.587598681449890137,-0.039874870330095291,-0.161746665835380554
0.022256677970290184,-0.132895439863204956,-0.089310966432094574,-0.249733403325080872,-0.336915612220764160,-0.349684536457061768,0.510823071002960205,-0.015280201099812984,0.015887157991528511,0.120913326740264893
0.075066044926643372,-0.269016474485397339,0.102391384541988373,0.102342352271080017,-0.115834109485149384,0.072917342185974121,-0.234639689326286316,0.106941960752010345,0.020268671214580536,-0.456054031848907471
0.014941423200070858,-0.237503439188003540,0.108544863760471344,0.242867246270179749,-0.071710400283336639,0.026649164035916328,-0.085266679525375366,-0.119717352092266083,-0.307764083147048950,-0.409169137477874756
-0.052478544414043427,-0.017506739124655724,-0.002416325500234962,-0.106879182159900665,0.043772306293249130,0.058175973594188690,0.071386694908142090,0.002495302818715572,0.061464402824640274,0.004532737657427788
-0.259528368711471558,0.130968496203422546,-0.305368483066558838,-0.140462875366210938,0.499432981014251709,0.293802589178085327,-0.375945895910263062,-0.244920626282691956,0.059356953948736191,-0.034028820693492889
0.095444582402706146,-0.102769516408443451,-0.061887729912996292,0.073834709823131561,-0.029811980202794075,-0.044618997722864151,0.022843614220619202,0.012309693731367588,-0.050931096076965332,0.012425817549228668
0.057441983371973038,-0.338688194751739502,0.097029142081737518,-0.354235172271728516,0.418445020914077759,-0.055589787662029266,-0.296522200107574463,-0.230016946792602539,0.010834222659468651,-0.089461103081703186
-0.049871008843183517,-0.263666450977325439,-0.181402325630187988,-0.168664604425430298,-0.368636429309844971,0.186915650963783264,0.199378386139869690,0.016457006335258484,0.219759419560432434,-0.179492160677909851
0.103776916861534119,0.062741488218307495,-0.028609761968255043,-0.064665138721466064,-0.282002121210098267,-0.428883045911788940,-0.274703174829483032,0.052302800118923187,0.138245329260826111,0.077588014304637909
-0.459467798471450806,-0.026355216279625893,-0.127830609679222107,0.019917573779821396,-0.084843866527080536,-0.146977663040161133,0.182454377412796021,0.131299793720245361,-0.011765561066567898,0.152201831340789795
0.001821566722355783,-0.407395154237747192,-0.217173352837562561,-0.092151902616024017,-0.325790971517562866,0.098287038505077362,-0.163347959518432617,0.043269917368888855,-0.087384037673473358,-0.326391845941543579
0.054624535143375397,0.176423832774162292,0.040093556046485901,-0.048665318638086319,0.141943454742431641,0.075465179979801178,-0.428925931453704834,0.125626519322395325,-0.220625966787338257,-0.180343091487884521
-0.093636885285377502,0.076743729412555695,0.040241464972496033,0.088987559080123901,0.067380107939243317,-0.051164075732231140,-0.121506236493587494,0.019241202622652054,0.006937816739082336,-0.061375875025987625
0.085323117673397064,0.100169397890567780,-0.343091845512390137,-0.069210752844810486,0.255082726478576660,0.117612086236476898,0.121028229594230652,-0.309947937726974487,0.175461933016777039,-0.210595414042472839
-0.006392602808773518,-0.037579555064439774,-0.000021805726646562,-0.061403132975101471,-0.084672860801219940,-0.079179652035236359,0.018965596333146095,0.013131937943398952,0.004025846719741821,-0.015704983845353127
-0.096096806228160858,-0.077069461345672607,-0.003029136219993234,0.050196547061204910,0.049621187150478363,-0.074999451637268066,0.051131770014762878,-0.056938767433166504,-0.071199551224708557,-0.086487710475921631
-0.146675109863281250,0.044438906013965607,-0.169058442115783691,-0.007014513015747070,0.081568129360675812,0.121355883777141571,-0.028526432812213898,0.180120155215263367,-0.386363297700881958,-0.083630397915840149
-0.203223735094070435,0.029139129444956779,0.017011327669024467,-0.087007790803909302,-0.153790131211280823,0.042989313602447510,-0.132800236344337463,-0.032459869980812073,-0.014440583065152168,0.134077981114387512
-0.039461519569158554,0.104708380997180939,-0.170958489179611206,-0.215879350900650024,-0.441313117742538452,-0.138437747955322266,0.177834317088127136,0.050963677465915680,0.058025203645229340,0.122926168143749237
0.125294104218482971,0.057926017791032791,0.221443459391593933,-0.076658494770526886,-0.029044017195701599,-0.432531803846359253,0.154081195592880249,0.107247836887836456,-0.199645325541496277,0.111876353621482849
0.146034568548202515,0.092210002243518829,0.063503190875053406,0.016142157837748528,-0.160695835947990417,0.108511589467525482,0.247749298810958862,-0.160779729485511780,0.013089867308735847,-0.322427630424499512
0.047486372292041779,0.014086751267313957,0.055688485503196716,-0.082802116870880127,-0.123760245740413666,0.042485501617193222,-0.026750195771455765,0.016462940722703934,-0.060531772673130035,0.044880498200654984
-0.014186712913215160,-0.301016032695770264,0.165781244635581970,-0.177353009581565857,0.186495751142501831,0.136192053556442261,-0.305689871311187744,0.135657295584678650,0.069737724959850311,-0.250388115644454956
0.061036914587020874,-0.004934019409120083,-0.143357321619987488,0.062809452414512634,0.000285062618786469,0.041354648768901825,0.039521373808383942,-0.051800902932882309,0.010747739113867283,0.053885605186223984
-0.241078987717628479,-0.176764115691184998,-0.321508169174194336,-0.188862636685371399,0.305369138717651367,-0.014246602542698383,-0.279833078384399414,0.203927367925643921,0.210441574454307556,0.077249124646186829
-0.289103478193283081,0.191776126623153687,-0.250023722648620605,-0.233188137412071228,0.062691822648048401,-0.346722692251205444,-0.120115227997303009,-0.002640254097059369,0.136435464024543762,-0.015916131436824799
-0.294172137975692749,-0.132864102721214294,0.081483677029609680,0.136028572916984558,0.019567765295505524,0.086851753294467926,-0.021611928939819336,0.060290426015853882,-0.483347833156585693,-0.176103711128234863
0.219478115439414978,-0.057590514421463013,-0.545988380908966064,0.378218263387680054,-0.223252922296524048,-0.198572799563407898,0.186111673712730408,-0.221978396177291870,0.031492557376623154,-0.093093760311603546
0.020208943635225296,-0.203067079186439514,-0.282302677631378174,0.268512010574340820,-0.063545458018779755,-0.147742733359336853,0.182479351758956909,-0.016574220731854439,0.191440269351005554,0.087801076471805573
0.087150365114212036,0.058037392795085907,-0.084022358059883118,-0.001391030382364988,0.047337606549263000,-0.056487452238798141,0.049049470573663712,0.042641784995794296,0.009694643318653107,0.047382552176713943
-0.088987350463867188,-0.010524620302021503,0.217368483543395996,0.012227078899741173,0.292642593383789062,0.083948053419589996,-0.000746074423659593,-0.442886769771575928,-0.017968641594052315,-0.097791552543640137
-0.230745643377304077,-0.324299544095993042,-0.032223436981439590,0.125950500369071960,0.264049142599105835,-0.426634609699249268,-0.134272351861000061,-0.035454057157039642,-0.214033484458923340,-0.439717829227447510
0.114569239318370819,-0.109911426901817322,-0.114733695983886719,0.124161891639232635,-0.208267271518707275,0.124254658818244934,-0.218072250485420227,0.084220550954341888,-0.119500748813152313,-0.202362239360809326
0.281040996313095093,-0.184673711657524109,-0.047101516276597977,-0.097627975046634674,0.123998694121837616,-0.019732262939214706,0.178025946021080017,-0.162374630570411682,-0.075242832303047180,-0.090716466307640076
0.041900608688592911,-0.082806669175624847,-0.033941809087991714,-0.015880346298217773,-0.062931820750236511,-0.063708603382110596,-0.043669868260622025,-0.116984352469444275,0.083805494010448456,-0.008275703527033329
-0.268224000930786133,0.236543774604797363,-0.158826872706413269,0.112719170749187469,-0.048478271812200546,-0.102022431790828705,-0.090718150138854980,0.203991264104843140,-0.217292413115501404,-0.040262479335069656
-0.031028354540467262,-0.141611501574516296,0.060077190399169922,0.015990562736988068,-0.133567482233047485,-0.034586701542139053,-0.155403167009353638,0.060714684426784515,0.016204299405217171,-0.086288586258888245
-0.203597396612167358,-0.236751064658164978,-0.025327326729893684,-0.109853759407997131,-0.152807965874671936,0.329480290412902832,-0.132277131080627441,-0.315668135881423950,-0.197527229785919189,0.208773687481880188
0.227882951498031616,-0.217507079243659973,0.173674896359443665,-0.231273487210273743,0.090175092220306396,-0.106673426926136017,-0.335889041423797607,-0.230714336037635803,-0.225152477622032166,-0.219984278082847595
-0.085093431174755096,-0.360556721687316895,0.175827741622924805,0.255122691392898560,-0.006963239982724190,-0.250882059335708618,0.107840023934841156,-0.285739988088607788,0.158386453986167908,0.003300310578197241
-0.209884554147720337,0.096189476549625397,0.100836455821990967,-0.230161413550376892,0.152733996510505676,0.060172375291585922,0.264332979917526245,-0.090954169631004333,-0.196420893073081970,0.200585171580314636
-0.064315490424633026,-0.040077675133943558,0.033183481544256210,-0.112345531582832336,0.031082881614565849,-0.125074833631515503,0.080661721527576447,-0.135450318455696106,0.109550565481185913,-0.242902189493179321
-0.325970202684402466,0.107202686369419098,0.124875985085964203,0.223194897174835205,-0.199873626232147217,0.024804836139082909,0.042903281748294830,-0.311227917671203613,0.208480075001716614,-0.062311615794897079
0.166620790958404541,-0.072474576532840729,-0.053024012595415115,-0.414440184831619263,0.179864734411239624,-0.112288258969783783,-0.199836522340774536,0.164770662784576416,0.096250012516975403,-0.166126593947410583
0.037872236222028732,-0.515551388263702393,0.076841436326503754,0.060452073812484741,0.049910735338926315,0.117584444582462311,0.083519287407398224,-0.081986308097839355,-0.042390350252389908,-0.431121796369552612
-0.064197786152362823,0.026885200291872025,0.057082735002040863,-0.098238803446292877,-0.107533313333988190,0.125105693936347961,-0.399549067020416260,0.225005865097045898,-0.419880926609039307,-0.206471726298332214
0.154252678155899048,0.244687512516975403,-0.242918565869331360,-0.089250385761260986,-0.208999559283256531,0.146129772067070007,0.056956622749567032,-0.074782505631446838,-0.165977716445922852,-0.008714092895388603
-0.351172834634780884,-0.003047391772270203,0.072100386023521423,0.090439505875110626,0.101154752075672150,0.003901001764461398,-0.089941784739494324,0.141547277569770813,-0.108185589313507080,-0.316137939691543579
-0.044329088181257248,0.085584975779056549,0.041292246431112289,0.076524093747138977,0.174238026142120361,-0.233704581856727600,-0.434947580099105835,0.112090818583965302,0.081746064126491547,0.097662240266799927
0.015489458106458187,0.028790526092052460,-0.060271047055721283,-0.057212166488170624,0.037270918488502502,0.024237623438239098,0.009821367450058460,-0.002077831886708736,-0.072672188282012939,0.065259024500846863
0.016022738069295883,-0.083936490118503571,-0.074381589889526367,-0.040314707905054092,0.033479884266853333,0.091806031763553619,-0.039800178259611130,0.061654664576053619,0.064901627600193024,0.012841302901506424
0.001004970632493496,-0.039685163646936417,-0.041585948318243027,-0.069644033908843994,-0.097872227430343628,-0.012828533537685871,-0.007547838147729635,0.000341378850862384,-0.063474990427494049,0.102989487349987030
0.039739329367876053,0.038534741848707199,-0.093501970171928406,0.014689528383314610,-0.038160748779773712,0.085444763302803040,-0.072472691535949707,0.051362555474042892,-0.071117147803306580,-0.059882566332817078
-0.146594628691673279,0.134528636932373047,-0.215476900339126587,-0.311716467142105103,-0.082969449460506439,-0.256320148706436157,0.363500177860260010,0.246699094772338867,-0.116483472287654877,0.126444488763809204
-0.115653797984123230,0.112093858420848846,-0.303342521190643311,0.169448360800743103,-0.116707704961299896,0.119138278067111969,-0.093942448496818542,-0.145809441804885864,0.125640898942947388,0.070492379367351532
0.139858618378639221,-0.064953744411468506,-0.170587480068206787,-0.121702589094638824,-0.228910848498344421,0.087133958935737610,-0.131127730011940002,0.190765500068664551,-0.156263664364814758,0.159046053886413574
-0.016829920932650566,-0.037449318915605545,0.009645211510360241,-0.052583627402782440,0.100765407085418701,0.063355624675750732,-0.007340338546782732,0.021325016394257545,-0.002146056154742837,-0.070088088512420654
0.007587719708681107,0.095395274460315704,-0.038339368999004364,0.072455853223800659,-0.026006421074271202,0.012600769288837910,-0.089700929820537567,-0.007328166626393795,-0.088715910911560059,0.008065248839557171
-0.563730657100677490,0.047234546393156052,0.057061705738306046,0.124249741435050964,0.169392079114913940,0.075431980192661285,0.109421253204345703,-0.132570028305053711,-0.237064793705940247,0.222708642482757568
-0.140540659427642822,-0.533843815326690674,0.037416242063045502,0.136895760893821716,-0.012363609857857227,0.120007671415805817,-0.049340829253196716,0.283396005630493164,-0.023595603182911873,-0.144365772604942322
-0.081804387271404266,-0.031286433339118958,-0.095066510140895844,-0.093562044203281403,0.014948470517992973,0.017832076177000999,0.022446628659963608,-0.004334803670644760,0.069746688008308411,-0.046345517039299011
-0.041341848671436310,-0.447734534740447998,0.036644652485847473,0.089170448482036591,0.078852057456970215,0.062151443213224411,-0.067517288029193878,0.109387047588825226,-0.337319344282150269,-0.254585355520248413
-0.170198902487754822,-0.430423229932785034,-0.091181613504886627,0.052821554243564606,0.268538564443588257,-0.369298666715621948,0.021527837961912155,0.106653064489364624,0.219399288296699524,0.136074289679527283
-0.008063867688179016,-0.012037459760904312,0.048678305000066757,-0.043537989258766174,-0.004044887144118547,0.073319412767887115,0.011915781535208225,-0.010622084140777588,-0.003548890817910433,0.082450129091739655
0.099863618612289429,0.202735841274261475,0.141370207071304321,0.043377205729484558,-0.037049166858196259,-0.297308117151260376,-0.103836655616760254,-0.353996366262435913,0.139312386512756348,-0.234735712409019470
-0.197437644004821777,0.070607341825962067,0.135654956102371216,-0.017095746472477913,0.138761997222900391,-0.333507806062698364,0.159504160284996033,-0.013770750723779202,-0.170626252889633179,-0.252434700727462769
-0.379067599773406982,0.202646747231483459,-0.129041582345962524,-0.178712308406829834,0.062640041112899780,0.061172995716333389,0.106204569339752197,0.157283201813697815,0.156362965703010559,0.020755287259817123
-0.018573248758912086,-0.432628691196441650,-0.139550089836120605,-0.373639166355133057,0.243017196655273438,0.270896613597869873,-0.278755068778991699,0.120635233819484711,0.046103395521640778,-0.013391898944973946
-0.073134243488311768,0.000904506829101592,0.016298571601510048,-0.090913660824298859,0.053867023438215256,-0.007609856314957142,0.066861957311630249,0.052213907241821289,-0.044047135859727859,-0.033404722809791565
-0.023508144542574883,0.036598496139049530,-0.022848740220069885,0.013096744194626808,-0.011588249355554581,0.059792183339595795,-0.090602844953536987,0.005512756295502186,0.024829881265759468,-0.085531920194625854
-0.016580810770392418,0.004147180821746588,-0.079399704933166504,0.018841465935111046,0.067430905997753143,-0.075100496411323547,-0.077388405799865723,-0.044534925371408463,-0.049941670149564743,0.055363111197948456
-0.135385647416114807,-0.062221545726060867,-0.156162634491920471,-0.105294033885002136,-0.149659857153892517,0.154427140951156616,-0.058149054646492004,-0.191036850214004517,-0.201467826962471008,0.016969624906778336
-0.186053380370140076,0.074309594929218292,0.375936955213546753,0.130011662840843201,-0.129527285695075989,0.176430270075798035,-0.400244027376174927,-0.273335367441177368,-0.142704874277114868,-0.009522353298962116
0.142158001661300659,0.105568945407867432,-0.228699445724487305,-0.194513395428657532,0.210772767663002014,-0.333524972200393677,-0.281802058219909668,-0.102988973259925842,0.050857871770858765,0.100684441626071930
0.044089064002037048,-0.047447416931390762,-0.036698963493108749,-0.041820090264081955,0.017932420596480370,0.016307581216096878,0.052637960761785507,0.054309636354446411,0.011291398666799068,0.077900677919387817
-0.280178219079971313,-0.252048045396804810,-0.303508847951889038,-0.197004899382591248,-0.029257683083415031,0.465627789497375488,-0.186056643724441528,-0.067556679248809814,-0.207077130675315857,-0.071544572710990906
0.066520385444164276,0.060648526996374130,-0.089471571147441864,0.236814752221107483,-0.174586713314056396,0.005296586081385612,-0.392059177160263062,0.071604929864406586,0.202638894319534302,-0.094130769371986389
0.050641681998968124,-0.038617458194494247,0.008695398457348347,0.035477157682180405,-0.051537532359361649,-0.106899738311767578,0.039643526077270508,0.009164239279925823,0.050068132579326630,0.108292140066623688
-0.135357216000556946,-0.197999522089958191,0.104368515312671661,-0.032612875103950500,-0.146942108869552612,-0.128861054778099060,-0.044166378676891327,-0.108812257647514343,0.042888194322586060,-0.191808432340621948
0.054326552897691727,0.083073556423187256,-0.285369873046875000,-0.013873767107725143,0.425788253545761108,-0.097662404179573059,-0.071871370077133179,-0.153207123279571533,-0.353606492280960083,-0.024832773953676224
-0.045168239623308182,-0.054704606533050537,0.043055333197116852,-0.016226448118686676,0.013009322807192802,-0.021462922915816307,0.009145099669694901,-0.071152500808238983,0.034443847835063934,0.081276156008243561
-0.123460285365581512,0.109330110251903534,0.221430465579032898,-0.296745479106903076,-0.010180373676121235,0.047975491732358932,-0.197330415248870850,-0.215890735387802124,-0.063011780381202698,-0.231169417500495911
-0.251597285270690918,-0.031048523262143135,-0.162249654531478882,-0.115639574825763702,0.185761258006095886,0.171649470925331116,0.039880819618701935,0.227754101157188416,-0.227551952004432678,-0.341049641370773315
0.153767466545104980,-0.015481140464544296,-0.499895364046096802,-0.122674599289894104,-0.159200340509414673,-0.111563697457313538,-0.009095036424696445,0.290887564420700073,0.067775778472423553,0.016579013317823410
-0.051508512347936630,0.286185443401336670,0.051110856235027313,-0.341878473758697510,-0.050928156822919846,-0.341161042451858521,0.128502979874610901,0.116310179233551025,0.308023005723953247,-0.276019543409347534
-0.193120852112770081,-0.119204975664615631,0.001458245329558849,0.079167485237121582,-0.033985145390033722,0.035592939704656601,0.118386670947074890,-0.451477259397506714,0.309304028749465942,-0.259774237871170044
-0.383894175291061401,-0.589070081710815430,0.068027958273887634,-0.013969107531011105,0.068958118557929993,0.127870813012123108,-0.144406363368034363,-0.010657273232936859,-0.212254062294960022,0.258821189403533936
-0.167066991329193115,-0.687251985073089600,-0.219401478767395020,0.104276269674301147,0.143889755010604858,-0.240656122565269470,0.145964309573173523,-0.058852240443229675,0.112402826547622681,0.012664895504713058
0.111317031085491180,0.228896826505661011,0.149939209222793579,0.196912884712219238,-0.223085790872573853,-0.238733142614364624,0.069528229534626007,-0.044566500931978226,-0.205766066908836365,-0.212506636977195740
0.232398569583892822,0.314631372690200806,-0.212154537439346313,-0.321274966001510620,-0.167385727167129517,-0.295763164758682251,-0.019928950816392899,0.183224216103553772,-0.150602579116821289,0.108366951346397400
0.119403593242168427,0.104585431516170502,-0.221535027027130127,0.080049939453601837,-0.016726665198802948,-0.156341448426246643,-0.369886964559555054,-0.009757708758115768,-0.021725937724113464,0.104345239698886871
0.007412711624056101,0.062380027025938034,-0.098113343119621277,-0.269136518239974976,0.124302424490451813,0.068362131714820862,-0.068973667919635773,0.109241425991058350,-0.335379332304000854,0.116041533648967743
-0.183795511722564697,-0.047736737877130508,-0.019847389310598373,-0.358413219451904297,0.162495970726013184,-0.323837906122207642,-0.472849041223526001,-0.235021159052848816,0.071257486939430237,-0.281401574611663818
-0.172159522771835327,0.127709403634071350,0.320591628551483154,0.058128438889980316,0.063118219375610352,-0.222002536058425903,-0.141797870397567749,-0.003180603962391615,-0.205228045582771301,-0.191043749451637268
0.059063598513603210,0.117989949882030487,0.035121340304613113,-0.312815487384796143,0.002421485725790262,0.104750812053680420,-0.076849795877933502,0.105169929563999176,-0.126522019505500793,-0.289696037769317627
0.104722604155540466,-0.035719003528356552,-0.096308246254920959,0.176073715090751648,0.053486153483390808,-0.236194953322410583,0.048304710537195206,-0.014337616972625256,-0.337770760059356689,-0.017115568742156029
0.024690043181180954,0.086135432124137878,0.078207954764366150,-0.034636907279491425,0.035222090780735016,0.062662281095981598,0.044166453182697296,0.042712189257144928,-0.018920721486210823,-0.066414870321750641
0.050312474370002747,0.024840421974658966,-0.051356382668018341,-0.053321521729230881,-0.063253156840801239,-0.083202622830867767,-0.015876589342951775,0.026089200749993324,-0.052769452333450317,0.039855428040027618
-0.075794376432895660,-0.033779259771108627,0.101000808179378510,-0.073530301451683044,0.064317725598812103,0.017806217074394226,-0.007179108913987875,0.070856072008609772,-0.052125513553619385,-0.064594626426696777
-0.044369157403707504,-0.130343586206436157,-0.030783439055085182,0.039184167981147766,0.038295235484838486,0.029711907729506493,-0.052583068609237671,0.002083760919049382,-0.066750682890415192,0.044609274715185165
-0.008911737240850925,-0.048004325479269028,0.257080078125000000,0.063620574772357941,-0.191831484436988831,-0.486835777759552002,0.266783207654953003,-0.101035743951797485,0.138333529233932495,-0.166962713003158569
-0.171880081295967102,-0.014275570400059223,0.008210977539420128,-0.073067404329776764,0.005067955702543259,0.023212492465972900,-0.340913623571395874,0.181099921464920044,-0.418170273303985596,0.121698044240474701
-0.043499022722244263,-0.032513424754142761,-0.400648474693298340,0.316799968481063843,-0.163064211606979370,-0.284932643175125122,0.018809540197253227,-0.135072275996208191,0.213309600949287415,-0.028941644355654716
-0.167801260948181152,-0.177359148859977722,0.076169863343238831,-0.056603610515594482,0.364276528358459473,0.172372862696647644,-0.299574106931686401,-0.237656220793724060,-0.280162930488586426,-0.296867102384567261
-0.215769961476325989,-0.019323419779539108,-0.313013583421707153,-0.411741375923156738,-0.010603405535221100,0.389218330383300781,-0.347763001918792725,0.090270303189754486,0.016669955104589462,0.038863226771354675
-0.089244164526462555,-0.405413001775741577,-0.375213950872421265,0.057001344859600067,-0.197692036628723145,0.290372073650360107,0.196228981018066406,0.191667601466178894,-0.357000261545181274,-0.044919397681951523
-0.262696444988250732,-0.053757786750793457,0.087928883731365204,-0.113530889153480530,0.145995542407035828,-0.185188055038452148,-0.209494233131408691,-0.335657805204391479,0.064537785947322845,-0.079763531684875488
-0.218540996313095093,-0.142249867320060730,0.018480930477380753,0.010031724348664284,0.070809423923492432,-0.070900179445743561,-0.101212427020072937,-0.194849744439125061,-0.019720438867807388,-0.166390180587768555
0.066649250686168671,0.173153758049011230,0.055418573319911957,0.103776313364505768,0.134600013494491577,0.076950326561927795,0.120870962738990784,0.043612256646156311,-0.407970339059829712,-0.151645928621292114
0.027191659435629845,0.028057230636477470,0.033475182950496674,-0.073171332478523254,0.055887885391712189,-0.050111483782529831,0.019210392609238625,0.061252500861883163,0.058896493166685104,-0.089379623532295227
-0.193363711237907410,-0.006931479088962078,0.207339853048324585,-0.235946878790855408,0.295285284519195557,0.122680209577083588,0.034162055701017380,-0.366367727518081665,-0.126920655369758606,-0.166294619441032410
0.063242435455322266,-0.256050676107406616,0.109028235077857971,-0.228249773383140564,0.004049655981361866,-0.034171834588050842,0.252140790224075317,-0.019807050004601479,0.075054638087749481,-0.237532734870910645
0.083293735980987549,-0.197749674320220947,-0.132521584630012512,-0.255156338214874268,0.114695839583873749,-0.407476276159286499,-0.147544607520103455,0.224848017096519470,0.172514155507087708,0.001600922551006079
0.077168755233287811,-0.144048973917961121,-0.150091275572776794,-0.096190512180328369,-0.313403695821762085,0.321057319641113281,0.290601998567581177,-0.319697260856628418,-0.205176904797554016,-0.200505822896957397
-0.143827348947525024,-0.598733425140380859,0.089256681501865387,0.135643184185028076,0.093607410788536072,0.106929026544094086,0.056252691894769669,0.105774194002151489,-0.006117311306297779,0.142952606081962585
-0.288121312856674194,0.152518332004547119,0.140677958726882935,-0.051846105605363846,0.209797605872154236,0.026266954839229584,0.148644924163818359,-0.104680970311164856,-0.239421144127845764,0.137538418173789978
-0.120109409093856812,0.125622332096099854,-0.150909334421157837,0.047420345246791840,-0.123173624277114868,-0.262181788682937622,0.028276186436414719,-0.452743500471115112,0.190145269036293030,0.153702139854431152
-0.332931816577911377,-0.307794541120529175,0.158608123660087585,0.006076519377529621,-0.210027098655700684,0.201159819960594177,0.237944096326828003,-0.216019704937934875,0.017609246075153351,-0.292446911334991455
-0.081825956702232361,-0.052299931645393372,0.037976283580064774,-0.046537395566701889,0.089728593826293945,0.013454192318022251,-0.094985552132129669,-0.031505201011896133,-0.069311104714870453,-0.015926757827401161
0.079162366688251495,0.177949890494346619,-0.363755464553833008,-0.367284804582595825,-0.092984780669212341,-0.260077387094497681,0.028559448197484016,-0.344700157642364502,0.201833188533782959,0.017169388011097908
-0.028660649433732033,0.003372471313923597,-0.144140362739562988,-0.146541863679885864,0.050190515816211700,-0.201801836490631104,0.145115897059440613,-0.019973000511527061,-0.095566406846046448,-0.181496262550354004
-0.052992638200521469,-0.017524790018796921,0.054285962134599686,-0.041152775287628174,0.029406366869807243,-0.030339865013957024,-0.010792045854032040,-0.126254528760910034,0.014064831659197807,-0.079458303749561310
0.039127390831708908,0.020055636763572693,-0.016756214201450348,0.183671087026596069,-0.343719452619552612,-0.286713272333145142,-0.162806749343872070,0.090543866157531738,-0.001895866706036031,-0.068577229976654053
-0.196054205298423767,-0.040108561515808105,0.108876638114452362,-0.088044948875904083,-0.244117066264152527,0.209029868245124817,-0.362061351537704468,0.134799137711524963,0.070107467472553253,0.078059948980808258
-0.231775939464569092,-0.262455880641937256,0.077476479113101959,0.434259414672851562,-0.190549105405807495,-0.414419561624526978,0.034973740577697754,-0.058239329606294632,0.263955563306808472,-0.180277451872825623
-0.307768404483795166,-0.074243932962417603,0.096328817307949066,0.112029612064361572,0.035535860806703568,0.106723375618457794,0.012972503900527954,-0.006813934072852135,-0.426880717277526855,-0.058971192687749863
-0.234864667057991028,0.012659220956265926,-0.389184594154357910,-0.018691809847950935,0.166442856192588806,-0.139616847038269043,0.332229822874069214,0.032044503837823868,0.022399507462978363,0.013310148380696774
0.147416651248931885,-0.249662205576896667,-0.539690613746643066,-0.301347643136978149,0.147760182619094849,0.213909655809402466,0.170908957719802856,-0.357572585344314575,0.181174069643020630,0.164517089724540710
0.183050602674484253,-0.368186831474304199,0.109769925475120544,0.078899793326854706,-0.115358978509902954,-0.209670603275299072,0.114180855453014374,0.226610720157623291,-0.264994621276855469,-0.058181833475828171
-0.293423473834991455,-0.038153205066919327,-0.327662140130996704,-0.250137209892272949,-0.050498142838478088,-0.057941377162933350,0.000971015193499625,0.087528109550476074,-0.030613437294960022,-0.029825905337929726
-0.014335298910737038,-0.022420873865485191,0.060976456850767136,0.014885079115629196,0.050868395715951920,-0.108042590320110321,0.061839330941438675,-0.060290284454822540,0.060804408043622971,-0.113398388028144836
-0.016197299584746361,0.234695896506309509,0.065856054425239563,0.142726033926010132,0.235577434301376343,-0.123046174645423889,-0.321262300014495850,-0.074257053434848785,0.022860230877995491,-0.186472788453102112
-0.066285379230976105,0.038420602679252625,0.310068637132644653,-0.476208597421646118,-0.110984444618225098,-0.316661626100540161,0.077478468418121338,-0.201218977570533752,0.190858319401741028,-0.054972525686025620
-0.069528289139270782,-0.175950035452842712,0.151527777314186096,0.167527467012405396,-0.312360376119613647,-0.129538938403129578,-0.225330770015716553,0.363344341516494751,-0.197315827012062073,0.062382556498050690
0.162085413932800293,0.007179451175034046,-0.298384070396423340,0.045744504779577255,0.051384989172220230,0.107449226081371307,-0.232816427946090698,-0.230141893029212952,0.021938571706414223,0.052467599511146545
-0.286578029394149780,0.109773166477680206,-0.316225111484527588,0.226991429924964905,-0.115850456058979034,0.127486780285835266,0.065056219696998596,-0.274003148078918457,0.256787061691284180,-0.271582126617431641
-0.229311570525169373,0.070667326450347900,-0.153418496251106262,0.163821071386337280,0.077748134732246399,0.129185721278190613,0.073246918618679047,0.008006952702999115,-0.519740581512451172,-0.054574605077505112
0.067107826471328735,0.051839612424373627,-0.034173503518104553,0.074945308268070221,0.043361920863389969,-0.099014043807983398,-0.070262186229228973,-0.057018384337425232,-0.032791920006275177,0.085945650935173035
-0.000789083074778318,-0.049809850752353668,-0.053139176219701767,-0.070738114416599274,0.048320099711418152,-0.086133524775505066,0.000765867414884269,-0.123257540166378021,-0.114101111888885498,0.050309140235185623
-0.201967462897300720,0.003834197530522943,-0.137984797358512878,0.049481604248285294,0.085318036377429962,-0.118127711117267609,0.062808275222778320,-0.067821644246578217,-0.274720430374145508,0.240702137351036072
-0.209904536604881287,-0.181217387318611145,0.072067387402057648,0.073071509599685669,0.146446794271469116,0.038422368466854095,0.091677166521549225,0.139079391956329346,-0.474103718996047974,-0.503617346286773682
-0.049624893814325333,0.113234885036945343,0.216665670275688171,0.127754628658294678,-0.339880734682083130,-0.268503576517105103,-0.112831130623817444,-0.086869485676288605,0.088531367480754852,0.152812674641609192
-0.024541212245821953,-0.027871580794453621,0.074116148054599762,-0.104347452521324158,-0.057801205664873123,-0.095250591635704041,0.009894416667521000,-0.087073870003223419,0.022926075384020805,-0.017073094844818115
0.267621725797653198,0.044802069664001465,-0.151665583252906799,0.074804432690143585,-0.182023808360099792,0.057155165821313858,0.261872172355651855,-0.059256646782159805,-0.302854418754577637,-0.208859458565711975
0.118720479309558868,-0.163339063525199890,0.244581028819084167,0.096071489155292511,-0.187335446476936340,0.157115846872329712,-0.022328266873955727,-0.367765843868255615,-0.274984329938888550,-0.323083519935607910
-0.014568264596164227,0.033751185983419418,0.006559378467500210,0.041079048067331314,0.057734187692403793,0.093521200120449066,0.042280439287424088,0.002539194654673338,-0.008887398056685925,-0.070742353796958923
0.070207849144935608,0.040553923696279526,-0.063195712864398956,-0.029219264164566994,-0.054543402045965195,0.071497648954391479,0.038303941488265991,0.042229067534208298,-0.045233223587274551,0.082725778222084045
-0.013724680058658123,0.093304261565208435,0.042646780610084534,0.053323209285736084,0.065936505794525146,-0.001222915947437286,0.076961010694503784,0.068473957479000092,0.000236264153500088,0.003134098369628191
-0.051408518105745316,-0.097855471074581146,0.075760483741760254,-0.080461300909519196,0.092673815786838531,-0.067248441278934479,-0.038828287273645401,-0.065609820187091827,-0.102922201156616211,-0.011931937187910080
-0.047972586005926132,0.064816340804100037,-0.124187715351581573,-0.239119052886962891,-0.031340442597866058,-0.010020480491220951,0.274973064661026001,-0.231969282031059265,-0.126638457179069519,-0.056911729276180267
-0.095568738877773285,-0.117728047072887421,-0.191257804632186890,0.065886773169040680,-0.146969944238662720,0.073914475739002228,-0.182976230978965759,-0.165373519062995911,0.049687981605529785,-0.100218184292316437
-0.420295685529708862,-0.137990966439247131,0.071617335081100464,0.210099458694458008,0.134505480527877808,-0.279099225997924805,0.108028016984462738,0.137130886316299438,0.060788169503211975,-0.335325032472610474
-0.235332146286964417,-0.229009360074996948,-0.188975587487220764,0.004309514071792364,-0.267849504947662354,-0.322743147611618042,0.195344507694244385,-0.423925191164016724,-0.152934283018112183,-0.251044064760208130
-0.081049151718616486,0.153184473514556885,0.007822112180292606,0.039572842419147491,-0.369579911231994629,0.083776354789733887,-0.307205975055694580,-0.124177224934101105,-0.034738935530185699,-0.046504274010658264
-0.056551661342382431,-0.089433409273624420,0.243743225932121277,-0.002097363583743572,-0.118618823587894440,-0.225969776511192322,-0.178430676460266113,-0.284456700086593628,-0.165975496172904968,0.039930980652570724
-0.276773065328598022,-0.261995255947113037,-0.078064903616905212,0.239732414484024048,-0.101924471557140350,0.205811813473701477,0.189717680215835571,-0.258586108684539795,0.066787824034690857,-0.017205715179443359
0.011461496353149414,0.024309366941452026,0.157355159521102905,-0.428379565477371216,-0.274783641099929810,0.157876580953598022,-0.199992358684539795,0.190905839204788208,0.003163775894790888,-0.140665978193283081
-0.218996763229370117,-0.475901603698730469,0.300030827522277832,-0.064165137708187103,-0.110815845429897308,-0.041584543883800507,0.173603177070617676,0.212043777108192444,-0.218489110469818115,-0.413983941078186035
0.167487621307373047,-0.274401992559432983,0.139309614896774292,-0.221384882926940918,-0.266860514879226685,0.155902504920959473,0.032391369342803955,-0.126667872071266174,-0.053355835378170013,-0.256530135869979858
0.077104330062866211,0.058117736130952835,0.287868857383728027,-0.259223788976669312,-0.302197992801666260,0.172145634889602661,-0.398906826972961426,0.058764420449733734,-0.117817319929599762,0.206061303615570068
0.194552004337310791,-0.187980175018310547,0.416424185037612915,-0.318931043148040771,-0.194231927394866943,-0.282996833324432373,-0.112353958189487457,-0.214327171444892883,-0.129157617688179016,-0.041101325303316116
-0.274999290704727173,-0.006569803692400455,-0.189742103219032288,-0.398049980401992798,-0.361890226602554321,0.174109607934951782,0.063339874148368835,0.707765877246856689,0.077838137745857239,-0.345263570547103882
-0.063523866236209869,-0.069520138204097748,-0.102637097239494324,0.317757278680801392,0.106429569423198700,-0.227520510554313660,-0.019634867087006569,-0.178615108132362366,0.067544974386692047,0.007737475913017988
0.070274226367473602,0.276218503713607788,-0.127462208271026611,-0.019122518599033356,-0.366227090358734131,-0.545380353927612305,-0.322150260210037231,0.573631465435028076,-0.094096116721630096,-0.145863533020019531
0.105380855500698090,0.033794809132814407,-0.003552384674549103,0.046195663511753082,-0.205065473914146423,-0.495752662420272827,0.253763407468795776,-0.290677309036254883,0.130718097090721130,0.063502602279186249
-0.014643128030002117,0.020264146849513054,0.035807866603136063,-0.027893211692571640,0.057333335280418396,-0.027974778786301613,-0.036500323563814163,0.002560250693932176,0.067833065986633301,0.025780625641345978
0.039590653032064438,-0.155950307846069336,-0.227192252874374390,0.106463976204395294,-0.061471674591302872,0.179060995578765869,-0.287636548280715942,-0.232393085956573486,-0.072576783597469330,-0.136610701680183411
-0.070554412901401520,-0.060474134981632233,0.069661416113376617,-0.080389164388179779,-0.054089158773422241,-0.042706616222858429,-0.047712896019220352,-0.077600486576557159,0.055475052446126938,-0.065595194697380066
-0.474291503429412842,0.099933199584484100,-0.165428891777992249,0.098098509013652802,0.131096094846725464,0.058212567120790482,0.122685462236404419,0.185198634862899780,-0.201993823051452637,-0.356724470853805542
0.047749385237693787,0.080377534031867981,-0.257180660963058472,0.011053906753659248,-0.026387372985482216,0.069317393004894257,-0.002183311618864536,0.107828855514526367,-0.041126348078250885,0.000008542177965865
0.020927283912897110,0.081702709197998047,-0.343210637569427490,-0.131025448441505432,-0.113556757569313049,-0.340380668640136719,-0.214295938611030579,0.160915851593017578,0.100288920104503632,0.192185059189796448
0.191851779818534851,0.039052922278642654,-0.061089165508747101,-0.135619997978210449,0.168291732668876648,-0.250594347715377808,0.086260125041007996,-0.256098985671997070,0.189940616488456726,-0.172763243317604065
0.116542547941207886,0.103032596409320831,-0.143322885036468506,0.167584180831909180,0.115131512284278870,-0.144402548670768738,-0.347577601671218872,0.085371889173984528,0.013432926498353481,0.019363490864634514
-0.020547751337289810,-0.179008215665817261,0.127495780587196350,-0.259525716304779053,-0.008040789514780045,0.047401983290910721,0.356131225824356079,-0.385448902845382690,-0.339420020580291748,-0.360467761754989624
-0.206854790449142456,-0.264037609100341797,-0.200822785496711731,0.148662894964218140,-0.072112739086151123,0.088092006742954254,0.123053744435310364,-0.066922612488269806,0.192900851368904114,0.097291007637977600
-0.003264271887019277,-0.148360893130302429,-0.118918441236019135,-0.094307817518711090,-0.086672864854335785,-0.123282961547374725,-0.079215578734874725,-0.140454679727554321,0.058659803122282028,0.040224064141511917
0.264816373586654663,-0.254373133182525635,-0.110479623079299927,0.022645046934485435,-0.401568591594696045,-0.406076937913894653,-0.194185882806777954,0.378094136714935303,-0.143020614981651306,-0.108692757785320282
0.062286246567964554,-0.084746211767196655,-0.207500234246253967,-0.021103562787175179,-0.317778259515762329,0.084812842309474945,0.077359512448310852,0.188555002212524414,0.167587369680404663,0.173572838306427002
-0.005245985463261604,0.235465034842491150,0.048194807022809982,0.290306150913238525,0.162829384207725525,-0.276287853717803955,-0.321383059024810791,-0.105275675654411316,-0.422456890344619751,-0.163881748914718628
0.074521094560623169,-0.308611720800399780,0.182870268821716309,0.135010525584220886,0.113884069025516510,-0.176896244287490845,-0.108091086149215698,-0.095351681113243103,-0.202326387166976929,-0.369119107723236084
-0.120162136852741241,-0.047953188419342041,-0.081032536923885345,-0.080814808607101440,-0.043645992875099182,-0.018178293481469154,-0.018533404916524887,-0.016310736536979675,-0.012297908775508404,-0.086014129221439362
0.016264477744698524,-0.150806009769439697,-0.165600106120109558,-0.504349172115325928,-0.425476938486099243,0.093533009290695190,-0.234574988484382629,0.224198624491691589,-0.388488411903381348,0.422896683216094971
-0.113709434866905212,-0.033855356276035309,-0.179467931389808655,0.210603713989257812,-0.185872703790664673,0.081607230007648468,0.245542600750923157,-0.261483073234558105,-0.359556466341018677,-0.285676717758178711
-0.102710485458374023,-0.099937930703163147,-0.065375514328479767,-0.073460467159748077,-0.037096783518791199,0.007498588878661394,0.071490526199340820,0.075699284672737122,0.053554940968751907,-0.064831674098968506
0.097315922379493713,0.208512127399444580,-0.452409893274307251,-0.118534371256828308,-0.072925239801406860,-0.362955093383789062,-0.025967726483941078,0.050437420606613159,0.092873081564903259,0.089273758232593536
-0.151040837168693542,-0.139030694961547852,-0.013354993425309658,0.380694955587387085,0.014752567745745182,-0.123576417565345764,-0.170070484280586243,-0.161349117755889893,-0.131790593266487122,0.121073432266712189
-0.098475582897663116,-0.139556139707565308,0.272957563400268555,-0.374999552965164185,-0.105393975973129272,-0.316642165184020996,0.286450654268264771,-0.154532760381698608,0.155741080641746521,0.117484927177429199
0.082661986351013184,-0.168437123298645020,0.094646766781806946,0.035857833921909332,-0.338041305541992188,0.048052463680505753,0.212686836719512939,0.078236475586891174,0.139063149690628052,-0.322126954793930054
-0.195908039808273315,0.082189835608005524,0.101902574300765991,-0.036772474646568298,-0.108960226178169250,0.257914692163467407,-0.239895984530448914,-0.192989334464073181,0.193164005875587463,0.146890744566917419
-0.101161897182464600,-0.001966445008292794,0.082190476357936859,-0.013656337745487690,0.039865061640739441,-0.002559309592470527,-0.082722067832946777,0.029280453920364380,0.019770285114645958,0.036957282572984695
-0.212207376956939697,-0.280117809772491455,0.314021915197372437,-0.273501217365264893,0.204690083861351013,-0.090938054025173187,0.106885023415088654,-0.270297169685363770,0.107369206845760345,-0.109400644898414612
-0.090178273618221283,0.029109526425600052,-0.017879683524370193,-0.052099514752626419,-0.061085145920515060,-0.013783481903374195,0.081094086170196533,-0.037563696503639221,0.017526835203170776,-0.027154382318258286
0.162259697914123535,-0.377131521701812744,-0.121183581650257111,0.196777537465095520,0.223943009972572327,-0.312679678201675415,-0.238341018557548523,-0.243636697530746460,-0.190467119216918945,-0.014735879376530647
-0.109838858246803284,-0.377962738275527954,0.331817030906677246,0.241832643747329712,0.043781943619251251,0.093851454555988312,-0.305014610290527344,0.025136319920420647,-0.095147319138050079,0.136513918638229370
-0.089695990085601807,0.155474260449409485,0.052833683788776398,-0.389416366815567017,-0.019434297457337379,-0.356464862823486328,-0.264317363500595093,-0.253506600856781006,0.049307014793157578,0.166237816214561462
0.095147177577018738,0.197646364569664001,0.335845679044723511,-0.063718907535076141,-0.347727626562118530,-0.050049263983964920,-0.091301202774047852,-0.270700603723526001,0.071865744888782501,0.007014666683971882
-0.121817745268344879,0.005892950110137463,0.011404211632907391,-0.127541929483413696,0.047658696770668030,-0.153117910027503967,-0.028074897825717926,-0.135974332690238953,-0.061581965535879135,-0.002681578043848276
-0.031579028815031052,0.010260628536343575,0.056872159242630005,0.030854534357786179,0.065267585217952728,0.078276522457599640,-0.059796977788209915,0.069474130868911743,0.035999711602926254,-0.062187753617763519
-0.171345487236976624,-0.259141325950622559,0.067779399454593658,0.032358612865209579,-0.212900668382644653,0.149587959051132202,-0.066215634346008301,0.098311200737953186,0.116942755877971649,-0.180608093738555908
-0.015011208131909370,-0.074424445629119873,-0.134487092494964600,-0.068417049944400787,0.058345284312963486,-0.093598484992980957,0.058237630873918533,0.011060976423323154,-0.044112686067819595,-0.066357828676700592
-0.072404496371746063,-0.017013166099786758,-0.022554993629455566,0.068315990269184113,0.019263759255409241,0.039298582822084427,-0.025650102645158768,0.016418781131505966,0.046542540192604065,-0.076555810868740082
-0.008931043557822704,-0.277861982583999634,0.253017395734786987,0.026011608541011810,-0.077176615595817566,-0.056967511773109436,-0.326751857995986938,-0.034915026277303696,0.112729631364345551,0.000324320804793388
0.026024566963315010,-0.298772841691970825,0.129181578755378723,0.123907230794429779,0.203091055154800415,-0.163646310567855835,-0.164022848010063171,0.163999885320663452,-0.097550772130489349,-0.382071137428283691
-0.281775414943695068,-0.116060346364974976,-0.374617278575897217,-0.330052107572555542,-0.234429806470870972,0.422880381345748901,0.189013168215751648,-0.079521380364894867,-0.195522680878639221,0.063548080623149872
0.119877897202968597,-0.267804861068725586,0.015679560601711273,-0.028183953836560249,-0.003137287450954318,0.011911208741366863,-0.234724670648574829,-0.003448165487498045,-0.168770432472229004,-0.109533138573169708
0.257382661104202271,0.053468950092792511,0.017573770135641098,-0.246979162096977234,-0.291022866964340210,-0.406890690326690674,0.165797099471092224,0.074864849448204041,0.267406523227691650,-0.095820054411888123
0.111105024814605713,0.114991165697574615,-0.277619421482086182,0.203714892268180847,-0.370970368385314941,-0.027427995577454567,-0.093262195587158203,-0.021281661465764046,0.043981362134218216,0.139403447508811951
-0.177682295441627502,-0.275812208652496338,-0.121210455894470215,-0.069512978196144104,-0.165363147854804993,0.096501268446445465,-0.021891832351684570,-0.166145861148834229,-0.063854321837425232,-0.065751142799854279
0.153483867645263672,0.031146930530667305,0.055467396974563599,-0.215986147522926331,-0.066216282546520233,-0.432307898998260498,-0.195601254701614380,-0.144548669457435608,0.130178853869438171,0.094147600233554840
0.071685619652271271,0.167133465409278870,-0.047927640378475189,0.123287901282310486,-0.325592696666717529,0.042685806751251221,0.047382440418004990,0.045594085007905960,-0.322299391031265259,0.195239111781120300
0.042426381260156631,0.045964222401380539,0.005005616229027510,-0.020548257976770401,0.027348220348358154,0.024849819019436836,0.066327303647994995,0.005124311894178391,-0.013854335993528366,0.033559728413820267
-0.056845545768737793,-0.086860023438930511,-0.012130064889788628,-0.020509433001279831,-0.107184559106826782,0.002959703560918570,-0.024342708289623260,-0.045498281717300415,-0.054940063506364822,0.021210264414548874
-0.250200957059860229,-0.057675708085298538,-0.095060549676418304,-0.055889222770929337,0.123654484748840332,0.116331823170185089,-0.433232814073562622,0.101711794734001160,0.293933928012847900,0.099982164800167084
-0.100400976836681366,-0.074183709919452667,-0.081833295524120331,0.010336188599467278,-0.006592952646315098,-0.034076951444149017,-0.079695522785186768,-0.031135110184550285,0.004061398562043905,0.013400814495980740
-0.121474087238311768,0.038102831691503525,0.232526972889900208,0.111696742475032806,0.010512481443583965,-0.296001553535461426,-0.060762241482734680,-0.233496889472007751,-0.321585863828659058,0.133529856801033020
-0.204882740974426270,0.123038284480571747,-0.197347298264503479,-0.100109383463859558,0.160085320472717285,0.035371746867895126,0.133931368589401245,-0.334014236927032471,0.121323205530643463,0.150844231247901917
0.249141693115234375,0.012670399621129036,-0.066507115960121155,-0.295887053012847900,-0.279910832643508911,-0.167160257697105408,0.436875373125076294,-0.118894554674625397,-0.253926455974578857,-0.130341589450836182
0.090340621769428253,0.089271239936351776,-0.034901484847068787,-0.302501618862152100,0.166173264384269714,0.084007367491722107,0.113378338515758514,-0.365075707435607910,-0.090025939047336578,-0.076393008232116699
0.084640815854072571,0.109903588891029358,-0.152562826871871948,0.106007046997547150,0.074127629399299622,-0.319047272205352783,-0.015772564336657524,-0.181419879198074341,0.091974586248397827,0.133437588810920715
0.039835911244153976,-0.009893401525914669,-0.021661318838596344,0.041221823543310165,0.030747154727578163,-0.072952978312969208,0.082941256463527679,-0.077879197895526886,0.060286737978458405,0.080216839909553528
0.041388008743524551,-0.003174524055793881,-0.065734907984733582,0.041300360113382339,-0.015491619706153870,-0.005094781052321196,0.011018255725502968,-0.079405680298805237,0.012690391391515732,-0.003252972150221467
-0.047575026750564575,0.525340735912322998,-0.089444577693939209,0.178672000765800476,-0.188134744763374329,-0.325699716806411743,-0.059512428939342499,0.083964467048645020,-0.291116505861282349,-0.320394366979598999
-0.182898432016372681,-0.099430218338966370,-0.188971981406211853,-0.306636929512023926,-0.103384241461753845,-0.027628259733319283,0.071333788335323334,-0.082975409924983978,-0.035005267709493637,-0.224848404526710510
0.219272211194038391,-0.297313958406448364,0.133497878909111023,0.005691194906830788,-0.287221014499664307,-0.040387868881225586,0.122079238295555115,-0.237270399928092957,-0.070552825927734375,0.207262560725212097
0.049935474991798401,0.059834215790033340,-0.023142511025071144,-0.005104777868837118,-0.070287235081195831,-0.017741562798619270,0.089031621813774109,0.009245372377336025,-0.082047775387763977,-0.008008177392184734
-0.272402584552764893,-0.003374508582055569,0.250041395425796509,0.100882083177566528,-0.326890796422958374,0.012267737649381161,-0.099283628165721893,-0.201300233602523804,0.060745541006326675,0.167407497763633728
0.065541304647922516,0.098413288593292236,-0.051960721611976624,-0.381049096584320068,0.046506110578775406,0.060440976172685623,-0.190618142485618591,-0.255764514207839966,0.086729355156421661,0.125625714659690857
-0.440850943326950073,-0.201452091336250305,-0.278663635253906250,-0.013830468989908695,-0.272594094276428223,0.381379991769790649,-0.029950926080346107,0.192372992634773254,0.152636706829071045,-0.123270012438297272
0.003905621822923422,-0.533760786056518555,0.174520581960678101,-0.312897622585296631,0.034342229366302490,0.100937850773334503,-0.041821572929620743,-0.127110451459884644,0.276547342538833618,-0.211945474147796631
-0.070722475647926331,-0.413992047309875488,0.060076035559177399,-0.209748432040214539,-0.139837041497230530,0.162869989871978760,-0.137911483645439148,-0.123107433319091797,-0.002998103853315115,0.473243296146392822
-0.082172751426696777,0.023691138252615929,0.001978147774934769,-0.009867467917501926,0.022460555657744408,0.088287465274333954,-0.071441978216171265,0.007951268926262856,-0.076619349420070648,-0.037603605538606644
0.011188601143658161,0.455321967601776123,-0.206507414579391479,0.044961102306842804,0.083837807178497314,-0.119095087051391602,-0.072768181562423706,0.028363600373268127,-0.268319487571716309,-0.213569015264511108
-0.022185720503330231,-0.100840143859386444,0.154305189847946167,-0.138004079461097717,-0.084443040192127228,-0.092864036560058594,-0.414508342742919922,0.031902730464935303,0.017165880650281906,0.233160898089408875
0.043054498732089996,0.152368247509002686,0.041786193847656250,0.002407906809821725,0.159524649381637573,-0.144390404224395752,-0.418047279119491577,0.150699853897094727,-0.063674516975879669,-0.217958062887191772
-0.099729493260383606,-0.112653456628322601,-0.323765635490417480,-0.066635102033615112,0.091794662177562714,-0.214075744152069092,0.095290094614028931,0.072828739881515503,0.114016994833946228,0.200891077518463135
-0.014068300835788250,0.099998198449611664,-0.063304133713245392,-0.047090884298086166,0.078290976583957672,-0.090714566409587860,-0.081024691462516785,0.075270988047122955,0.038480252027511597,0.041021350771188736
0.322204589843750000,0.084427922964096069,0.137921571731567383,-0.235056534409523010,0.227470532059669495,-0.053545940667390823,-0.060491889715194702,-0.199793174862861633,-0.150272175669670105,-0.345194399356842041
-0.402111709117889404,0.061904136091470718,-0.063187010586261749,0.086326301097869873,-0.127015680074691772,0.182991266250610352,0.041543751955032349,0.168334409594535828,-0.131849169731140137,-0.412766486406326294
0.163271620869636536,0.112543381750583649,0.151025012135505676,0.002179674338549376,-0.116528980433940887,0.008125039748847485,0.116276361048221588,-0.433256626129150391,-0.409847915172576904,0.189863160252571106
0.036524377763271332,0.046922959387302399,-0.049156893044710159,-0.015306300483644009,-0.017134103924036026,-0.060736559331417084,0.057499859482049942,-0.067302145063877106,0.075768813490867615,0.051471982151269913
0.237454354763031006,-0.244535446166992188,-0.150488093495368958,-0.065339870750904083,0.000139202689751983,0.090650275349617004,-0.178715020418167114,-0.312824487686157227,-0.171088352799415588,-0.135903343558311462
0.115596175193786621,-0.013120299205183983,0.012641314417123795,-0.192533060908317566,0.128794491291046143,-0.193885460495948792,0.139223635196685791,-0.296840876340866089,0.141470894217491150,-0.199257016181945801
0.258418440818786621,-0.262370795011520386,0.136158928275108337,-0.163302823901176453,-0.336371481418609619,-0.028616251423954964,-0.573381662368774414,-0.101470090448856354,-0.384765803813934326,-0.258556187152862549
-0.076636880636215210,-0.025486472994089127,0.049209248274564743,0.114119663834571838,-0.047298189252614975,-0.052051935344934464,-0.065512947738170624,-0.008448642678558826,-0.104515686631202698,0.001808160683140159
-0.237185537815093994,-0.035246621817350388,-0.302595406770706177,-0.066939175128936768,0.166658446192741394,-0.060235090553760529,-0.052325170487165451,0.209876805543899536,-0.060239046812057495,0.139269158244132996
-0.458112001419067383,-0.376139074563980103,-0.468273818492889404,0.652090311050415039,-0.396798431873321533,-0.523731350898742676,0.011764372698962688,-0.166970461606979370,-0.375001609325408936,-0.328430652618408203
-0.175974100828170776,-0.188857257366180420,-0.082870416343212128,0.584496140480041504,-0.141685575246810913,-0.357355773448944092,-0.157186314463615417,-0.091116085648536682,0.035569306463003159,-0.085565358400344849
-0.164743557572364807,-0.071182720363140106,-0.025590471923351288,-0.329641640186309814,0.171026796102523804,-0.072857014834880829,-0.090416610240936279,0.094223000109195709,-0.313785016536712646,0.145926699042320251
-0.276358127593994141,0.070731915533542633,-0.149072542786598206,0.363103568553924561,0.132495701313018799,-0.161662384867668152,-0.210276231169700623,-0.002507708035409451,0.159423917531967163,-0.347607582807540894
-0.016959218308329582,0.039658579975366592,-0.128209680318832397,0.067454636096954346,-0.095261156558990479,0.026777040213346481,0.055358726531267166,0.065598234534263611,-0.074144914746284485,0.006579556502401829
-0.006197688635438681,-0.055349960923194885,-0.085803851485252380,-0.074137948453426361,0.024451410397887230,-0.046851459890604019,0.061218388378620148,0.032418169081211090,0.052931968122720718,-0.066997326910495758
0.040520451962947845,-0.037227567285299301,-0.081603407859802246,0.025523629039525986,-0.085350841283798218,0.010986606590449810,0.020078372210264206,0.074918009340763092,-0.036001149564981461,-0.102937765419483185
-0.043541923165321350,-0.045363672077655792,0.032011464238166809,-0.045987371355295181,-0.056776806712150574,-0.063543044030666351,-0.095185860991477966,-0.001520615187473595,0.076878197491168976,-0.111854761838912964
-0.201139435172080994,0.050115205347537994,0.073978699743747711,-0.161292791366577148,-0.156426995992660522,-0.187436774373054504,0.084827370941638947,0.008641657419502735,-0.069525234401226044,-0.122482515871524811
-0.043249849230051041,-0.133166477084159851,-0.085525758564472198,-0.106752000749111176,-0.034157481044530869,-0.073444798588752747,-0.045875925570726395,0.068429306149482727,0.003274102229624987,-0.105868943035602570
0.096629045903682709,0.239402681589126587,0.004412420559674501,-0.302214652299880981,0.155839487910270691,-0.072547748684883118,-0.036350999027490616,-0.393637418746948242,-0.026721606031060219,-0.020004428923130035
-0.017307482659816742,-0.018716398626565933,-0.102408044040203094,0.043090648949146271,0.080293007194995880,0.079489715397357941,0.037668600678443909,0.000890343566425145,-0.036589261144399643,-0.067126862704753876
-0.202586919069290161,-0.173425152897834778,-0.261978238821029663,-0.346430182456970215,-0.276676267385482788,0.237191036343574524,0.056918893009424210,0.066044956445693970,0.033366985619068146,-0.008216404356062412
0.133166640996932983,-0.002706292551010847,0.223947703838348389,0.004560782574117184,-0.169058993458747864,-0.170075684785842896,-0.103831805288791656,-0.306512236595153809,-0.028884526342153549,0.162346407771110535
0.125814616680145264,-0.099145986139774323,0.128725960850715637,0.032414432615041733,-0.090552918612957001,0.015393832698464394,0.018850104883313179,0.046357166022062302,-0.333705872297286987,0.042300466448068619
-0.364324063062667847,0.251774728298187256,0.158880382776260376,0.122441567480564117,-0.181451201438903809,0.018253903836011887,-0.373972147703170776,-0.160941839218139648,-0.094828240573406219,-0.129314780235290527
-0.001398236490786076,-0.355913817882537842,0.040322314947843552,0.138648048043251038,0.070291608572006226,0.101892650127410889,-0.069463402032852173,0.106007926166057587,0.002717853290960193,-0.375991821289062500
-0.073948852717876434,-0.332525998353958130,0.111824303865432739,0.153383553028106689,0.188543230295181274,0.069801583886146545,0.059419076889753342,-0.330625981092453003,-0.258601516485214233,-0.337315231561660767
0.119103685021400452,-0.307309389114379883,0.152971908450126648,-0.290273398160934448,-0.081105358898639679,-0.014464256353676319,-0.305599391460418701,0.240114122629165649,-0.277269601821899414,0.079470261931419373
0.094135895371437073,-0.099407203495502472,-0.074076853692531586,0.088932015001773834,-0.054524503648281097,-0.022109858691692352,-0.018508553504943848,-0.071436494588851929,-0.066740810871124268,0.048003800213336945
0.013104186393320560,0.078286476433277130,-0.014025967568159103,-0.080553382635116577,0.019770523533225060,0.041088189929723740,-0.065774522721767426,-0.066994719207286835,0.003786196466535330,0.012895771302282810
-0.138520866632461548,-0.126069366931915283,0.288579374551773071,-0.380757212638854980,0.310799658298492432,-0.319082379341125488,0.104580104351043701,-0.229123145341873169,-0.467270106077194214,0.026633322238922119
-0.086983852088451385,-0.041105017066001892,0.284608870744705200,-0.238927289843559265,-0.064013846218585968,-0.140895307064056396,0.202345252037048340,0.017587142065167427,-0.503601074218750000,-0.315638124942779541
-0.137952685356140137,-0.130562990903854370,0.025596719235181808,-0.079730406403541565,0.135066956281661987,-0.125149533152580261,-0.162790670990943909,0.044880777597427368,0.176398977637290955,-0.280529916286468506
0.152927771210670471,-0.208083704113960266,0.144521713256835938,-0.033206831663846970,0.247139692306518555,0.167351186275482178,-0.379660099744796753,-0.188266888260841370,-0.276937037706375122,-0.279670029878616333
-0.414602637290954590,-0.345857799053192139,0.319965571165084839,-0.132123917341232300,-0.071066401898860931,0.100294202566146851,0.159517571330070496,0.094827972352504730,-0.260755062103271484,-0.392948478460311890
0.084741637110710144,0.099279306828975677,0.231004923582077026,-0.374382674694061279,-0.268124192953109741,0.019971981644630432,-0.299644887447357178,-0.067584492266178131,0.010101496241986752,0.145546242594718933
-0.225462108850479126,0.094589121639728546,-0.010643168352544308,0.041840925812721252,-0.127406239509582520,0.108143836259841919,-0.120834261178970337,0.188734903931617737,-0.095573812723159790,-0.069756083190441132
-0.160290077328681946,-0.178341493010520935,-0.158896446228027344,-0.075750246644020081,0.275418758392333984,0.095205046236515045,-0.329106599092483521,-0.316012710332870483,0.165580287575721741,0.133527919650077820
-0.052445191890001297,-0.129172801971435547,-0.127109438180923462,0.072172917425632477,-0.092973306775093079,0.037253990769386292,-0.049451388418674469,-0.009277642704546452,-0.073965847492218018,0.087426885962486267
-0.084942594170570374,-0.123226873576641083,-0.193441167473793030,-0.607587158679962158,-0.109071090817451477,0.213558703660964966,-0.425127357244491577,0.354396551847457886,-0.076795227825641632,0.209227800369262695
0.108688384294509888,-0.069907210767269135,-0.308538377285003662,0.084913089871406555,-0.298207551240921021,-0.314720213413238525,-0.153596162796020508,-0.136420086026191711,0.225294828414916992,-0.147257074713706970
0.073265045881271362,-0.082511246204376221,0.158119633793830872,-0.151397272944450378,-0.443446904420852661,0.097369827330112457,0.083862297236919403,-0.329969704151153564,0.195530846714973450,0.117126062512397766
0.042139898985624313,-0.074361301958560944,0.028958119451999664,-0.036407377570867538,-0.113504871726036072,-0.164170905947685242,-0.092408396303653717,-0.061911419034004211,-0.073958955705165863,-0.123228833079338074
