-0.096182428300380707,0.052413117140531540,-0.007154828868806362,-0.113683268427848816,-0.088510245084762573,0.257936060428619385,-0.073282919824123383,-0.126879215240478516,-0.129746913909912109,-0.001368005643598735,0.084849782288074493,0.078616380691528320,-0.352396398782730103,-0.117273256182670593,0.135240644216537476,0.073062486946582794,0.094507381319999695,0.023035084828734398,-0.185535639524459839,-0.071623787283897400,-0.014383354224264622,-0.049416631460189819,-0.201327428221702576,-0.155993670225143433,0.070239506661891937,-0.423372507095336914,0.111793145537376404,-0.471081733703613281,-0.078437365591526031,-0.051528900861740112,-0.095347769558429718,-0.134561806917190552,-0.100995853543281555,-0.004114346113055944,0.330972075462341309,-0.052180357277393341,0.155626952648162842,-0.104711376130580902,-0.255501180887222290,-0.014146422967314720,0.140448361635208130,0.033171162009239197,0.135238990187644958,-0.105527244508266449,0.031312316656112671,-0.150228902697563171,-0.153225719928741455,-0.251855432987213135,-0.011336943134665489,-0.211684957146644592,-0.026539379730820656,-0.042693551629781723,0.115358516573905945,0.041141647845506668,-0.096991896629333496,0.228170618414878845,0.263812810182571411,-0.076568216085433960,-0.369298875331878662,0.130504399538040161,-0.082291327416896820,-0.130081057548522949,-0.410078704357147217,0.255624800920486450
0.162725493311882019,-0.128154277801513672,0.038415625691413879,0.101481303572654724,0.157153487205505371,-0.126601740717887878,-0.074670962989330292,-0.057413704693317413,-0.123764440417289734,0.027899533510208130,0.035489436239004135,0.078020341694355011,0.004043774213641882,-0.565553426742553711,-0.194072052836418152,-0.025339717045426369,0.123077042400836945,-0.083606347441673279,0.102620765566825867,-0.290746301412582397,-0.009521491825580597,-0.022572837769985199,-0.234116643667221069,-0.277963489294052124,0.017440373077988625,-0.459112346172332764,-0.026392007246613503,0.051217779517173767,0.083711788058280945,0.002472881460562348,0.292056709527969360,-0.288696467876434326,-0.002966833766549826,-0.116029001772403717,-0.310337722301483154,-0.197602093219757080,0.195118874311447144,-0.108252406120300293,0.206890583038330078,0.166560471057891846,-0.072812028229236603,-0.106767795979976654,0.249976247549057007,-0.097319982945919037,0.136179238557815552,0.175976052880287170,0.167956471443176270,-0.362012773752212524,-0.124964468181133270,-0.255791664123535156,0.003705786541104317,-0.294594407081604004,-0.327627062797546387,0.023413678631186485,-0.079727284610271454,-0.220692858099937439,-0.134808316826820374,-0.040457211434841156,-0.156091406941413879,-0.057528752833604813,-0.077752932906150818,-0.295183748006820679,0.155259609222412109,-0.073326148092746735
0.247368678450584412,-0.255259871482849121,-0.025374855846166611,-0.197063162922859192,0.073235757648944855,-0.116530671715736389,0.072309203445911407,-0.057473473250865936,-0.135174602270126343,-0.081025399267673492,-0.172158911824226379,-0.202810421586036682,-0.217732682824134827,0.056684397161006927,0.051543898880481720,0.173725217580795288,-0.254775524139404297,0.078232191503047943,0.023086875677108765,-0.036455407738685608,-0.002675431547686458,-0.226163163781166077,-0.182789281010627747,-0.015183546580374241,-0.167788550257682800,-0.286824494600296021,-0.289213716983795166,0.181338906288146973,-0.022614462301135063,-0.322203606367111206,-0.009058396331965923,-0.121808014810085297,0.001407741336151958,-0.242450654506683350,0.051987741142511368,-0.054971847683191299,0.024717599153518677,-0.099000781774520874,-0.200171887874603271,-0.003455622820183635,0.164414763450622559,0.071863576769828796,0.202859401702880859,-0.150251492857933044,0.170378670096397400,-0.349900662899017334,0.091219998896121979,0.135107904672622681,-0.110602818429470062,-0.125794216990470886,0.025684390217065811,0.021153096109628677,0.044587921351194382,-0.223176971077919006,0.026953529566526413,0.082683563232421875,0.100088529288768768,-0.106842100620269775,-0.106370531022548676,-0.061416052281856537,-0.011234187521040440,-0.477293550968170166,-0.304946005344390869,0.040030624717473984
-0.176049172878265381,0.092128075659275055,0.008839031681418419,0.074686087667942047,0.020724521949887276,-0.276463359594345093,-0.017769290134310722,-0.116418421268463135,-0.250859379768371582,-0.091724179685115814,-0.150595068931579590,-0.297022700309753418,-0.083066120743751526,-0.186326578259468079,-0.079876564443111420,-0.072318762540817261,-0.066952653229236603,0.053491115570068359,-0.056760892271995544,-0.185536205768585205,-0.027210671454668045,0.145848512649536133,-0.094931758940219879,-0.024429000914096832,-0.341485619544982910,0.302354723215103149,0.161122068762779236,-0.061768900603055954,0.065819606184959412,0.205678462982177734,0.011715856380760670,-0.223270714282989502,0.059423118829727173,0.017500424757599831,0.026410482823848724,-0.229022681713104248,0.111008532345294952,-0.003870973829180002,0.149832487106323242,0.225913599133491516,-0.342099010944366455,0.109282247722148895,0.047951407730579376,-0.181756436824798584,0.212451145052909851,0.123144119977951050,0.120037876069545746,0.079638801515102386,0.020872088149189949,0.064264424145221710,0.052450656890869141,0.136273667216300964,-0.133039042353630066,0.038149073719978333,0.016488362103700638,-0.138519912958145142,-0.046977125108242035,-0.095954865217208862,-0.001871860818937421,0.063860625028610229,-0.074692033231258392,0.051622379571199417,0.006390091031789780,0.131555706262588501
-0.008816707879304886,0.024125892668962479,0.213377371430397034,-0.126296028494834900,0.023209996521472931,0.005279652308672667,-0.070228338241577148,0.004157094750553370,0.158178612589836121,0.010067637078464031,0.109564967453479767,0.074629545211791992,0.106247484683990479,0.126062110066413879,0.152557924389839172,0.085927657783031464,-0.053862825036048889,-0.092667065560817719,0.114182278513908386,0.062438961118459702,0.076582469046115875,-0.037811972200870514,-0.018044292926788330,0.018224740400910378,0.026901442557573318,0.067448519170284271,0.031462039798498154,0.003391962498426437,0.000306798814563081,-0.179198026657104492,-0.048339970409870148,0.013266017660498619,0.070171050727367401,-0.080367423593997955,0.192415237426757812,-0.113673642277717590,-0.012268660590052605,0.057246752083301544,-0.079811312258243561,-0.114091962575912476,0.052252124994993210,-0.097860470414161682,0.087084807455539703,0.055065527558326721,-0.032277677208185196,0.076532900333404541,0.149040743708610535,-0.084983967244625092,0.083328664302825928,0.010787222534418106,0.064026184380054474,0.021160425618290901,0.048057869076728821,-0.044201746582984924,-0.007910527288913727,-0.025152370333671570,0.011017204262316227,0.058736540377140045,-0.032674849033355713,0.018397493287920952,0.048155080527067184,-0.035015136003494263,0.020179964601993561,0.165252357721328735
0.130798250436782837,0.091547384858131409,-0.206735432147979736,0.078478418290615082,0.414737790822982788,-0.044276580214500427,-0.044607412070035934,0.007410490885376930,-0.153439149260520935,-0.039866875857114792,0.026290100067853928,-0.192308425903320312,0.111109830439090729,-0.406142622232437134,0.127502858638763428,-0.120515078306198120,0.229487508535385132,-0.164032325148582458,0.257535010576248169,-0.094847165048122406,-0.034192916005849838,0.036909781396389008,-0.335046887397766113,0.012883575633168221,-0.283446758985519409,-0.125640213489532471,0.055973444133996964,-0.169824704527854919,0.022524097934365273,0.017036531120538712,-0.063730783760547638,-0.232773184776306152,-0.109212189912796021,0.127980530261993408,-0.306247055530548096,-0.128386422991752625,0.064226143062114716,-0.159199610352516174,-0.103233925998210907,0.066757686436176300,-0.475910484790802002,-0.106333479285240173,-0.118559598922729492,0.260779440402984619,0.044045213609933853,0.160570204257965088,0.121649414300918579,-0.672069370746612549,-0.097618021070957184,-0.074061505496501923,0.010338343679904938,-0.095923066139221191,0.052682064473628998,0.097746998071670532,-0.213879942893981934,0.047244343906641006,-0.251899898052215576,-0.018594540655612946,-0.050799183547496796,-0.196779206395149231,0.023255418986082077,-0.194328173995018005,0.074568979442119598,0.162033364176750183
0.093488529324531555,0.272006958723068237,-0.034535236656665802,-0.052760031074285507,-0.153118237853050232,0.200128614902496338,-0.089014597237110138,-0.124469973146915436,-0.091764621436595917,-0.000780570670031011,-0.026197239756584167,-0.027261871844530106,-0.299862384796142578,0.034394793212413788,-0.329197496175765991,0.029790701344609261,0.083013735711574554,0.134893074631690979,0.190965160727500916,-0.356585711240768433,0.029799820855259895,-0.306266188621520996,0.186079353094100952,-0.055457126349210739,0.006642436608672142,-0.429053217172622681,0.191885650157928467,-0.303401827812194824,-0.005381722003221512,0.088459797203540802,-0.032546449452638626,-0.345852851867675781,-0.034099165350198746,0.042141750454902649,-0.093392767012119293,-0.097583569586277008,0.285487860441207886,0.007621423341333866,-0.309461951255798340,-0.088822975754737854,0.126291990280151367,0.051196180284023285,-0.005329058505594730,-0.000541062618140131,0.017318632453680038,-0.076441012322902679,-0.114926822483539581,0.132912233471870422,-0.128927409648895264,-0.243606045842170715,-0.038202561438083649,0.014305629767477512,-0.159170582890510559,-0.042616255581378937,-0.100273288786411285,-0.075298912823200226,-0.081968404352664948,-0.042631890624761581,-0.140451624989509583,0.141584828495979309,-0.011014804244041443,-0.383647918701171875,-0.022289568558335304,-0.039198189973831177
-0.315427780151367188,0.137225121259689331,0.007277230266481638,-0.141857683658599854,-0.065271981060504913,0.248453393578529358,-0.182692751288414001,-0.142610341310501099,-0.103814147412776947,0.038718257099390030,-0.154811844229698181,-0.575969934463500977,-0.220473319292068481,0.049179535359144211,0.009695749729871750,0.205536216497421265,0.007790391799062490,-0.116417713463306427,-0.023633340373635292,-0.050913732498884201,-0.076776921749114990,-0.442891657352447510,0.022934822365641594,-0.128093332052230835,0.031828373670578003,-0.109300278127193451,-0.205493822693824768,-0.179396241903305054,-0.101008757948875427,0.251365661621093750,0.016542036086320877,-0.499502003192901611,0.055711545050144196,-0.019285613670945168,0.068096935749053955,0.299952298402786255,0.049908693879842758,-0.113868102431297302,0.224224656820297241,-0.300952523946762085,-0.125262588262557983,0.144897192716598511,-0.104399189352989197,-0.102507635951042175,-0.028592044487595558,0.034570988267660141,-0.076561719179153442,0.111001588404178619,-0.008380967192351818,-0.036053597927093506,0.020549112930893898,0.246637612581253052,-0.107594296336174011,-0.099784262478351593,-0.049576744437217712,0.049452878534793854,-0.590174019336700439,-0.143678933382034302,-0.193504899740219116,-0.078484423458576202,-0.083618909120559692,-0.243694439530372620,0.269899964332580566,-0.072728917002677917
0.081583045423030853,0.131848976016044617,-0.211879372596740723,0.073380820453166962,-0.006963089574128389,0.084683038294315338,0.015198942273855209,0.145831316709518433,0.062009297311306000,-0.047494605183601379,0.309519052505493164,-0.131627559661865234,0.116070605814456940,-0.361822515726089478,-0.122782200574874878,0.003535851370543242,0.056899588555097580,-0.155551791191101074,0.091635242104530334,-0.362421542406082153,-0.079159423708915710,0.126389890909194946,0.007104106247425079,-0.098390303552150726,-0.215932577848434448,-0.395085752010345459,0.227979108691215515,-0.235586404800415039,-0.067598752677440643,-0.125927388668060303,-0.023049164563417435,-0.508353769779205322,0.005651959683746099,-0.010485998354852200,0.062331993132829666,-0.432065457105636597,0.041514009237289429,-0.150629386305809021,-0.286884099245071411,0.032780550420284271,-0.087994396686553955,-0.154826641082763672,0.055384844541549683,-0.055681269615888596,0.126143410801887512,0.165910154581069946,-0.059139776974916458,-0.382415056228637695,-0.122790895402431488,-0.080243028700351715,-0.049518268555402756,-0.378523141145706177,0.264140427112579346,-0.034924138337373734,0.016345504671335220,-0.016451805830001831,-0.015296261757612228,-0.083058319985866547,-0.231372892856597900,-0.114580877125263214,0.058221604675054550,0.065362311899662018,0.036907780915498734,0.088648371398448944
0.208219900727272034,-0.072604164481163025,0.062055069953203201,0.034225054085254669,0.068486504256725311,-0.115654572844505310,0.025973230600357056,-0.205194473266601562,-0.033952824771404266,0.056550584733486176,-0.038073159754276276,0.151542603969573975,0.106089539825916290,0.108762994408607483,-0.349600374698638916,-0.111421130597591400,0.195070862770080566,-0.115523509681224823,-0.052455198019742966,-0.111897207796573639,-0.104101367294788361,-0.048198558390140533,0.159780457615852356,-0.056471597403287888,-0.196741700172424316,-0.151150301098823547,-0.237271636724472046,-0.022278586402535439,-0.084637664258480072,0.242927312850952148,-0.223860606551170349,-0.002374803181737661,0.056496202945709229,0.063442744314670563,0.013509009964764118,-0.121155217289924622,-0.170149222016334534,-0.020403310656547546,-0.148886010050773621,-0.178053632378578186,0.011890133842825890,-0.165698871016502380,0.089870579540729523,0.050650466233491898,-0.041216731071472168,-0.007606931030750275,-0.237817376852035522,-0.344484299421310425,-0.032531537115573883,-0.005083414725959301,0.014010644517838955,-0.169947907328605652,-0.007392830215394497,0.041271258145570755,-0.161029502749443054,-0.042568460106849670,0.205219522118568420,-0.079521954059600830,-0.131136000156402588,-0.004844483919441700,0.067748412489891052,-0.069624982774257660,-0.019982323050498962,0.202325478196144104
-0.053607650101184845,-0.024560296908020973,-0.195268169045448303,-0.108843848109245300,-0.131491228938102722,-0.032309133559465408,0.051602452993392944,0.030058082193136215,-0.214657887816429138,0.231614068150520325,-0.089646153151988983,0.117523215711116791,-0.084842637181282043,-0.098175041377544403,-0.284220725297927856,0.181481406092643738,0.172893568873405457,0.125657543540000916,0.078717119991779327,-0.120099849998950958,-0.075568728148937225,-0.031244022771716118,-0.307922750711441040,-0.134681791067123413,0.001025647739879787,0.062186043709516525,-0.070943631231784821,0.085521660745143890,-0.091988988220691681,-0.246069610118865967,0.300445944070816040,-0.429385602474212646,-0.139574438333511353,-0.174568489193916321,0.562511920928955078,0.025672951713204384,0.293750792741775513,-0.201005890965461731,-0.052931144833564758,-0.004602074157446623,-0.104567311704158783,0.145654544234275818,-0.082305096089839935,0.323992997407913208,0.275400578975677490,-0.329887330532073975,-0.164558783173561096,-0.212171629071235657,-0.051579736173152924,0.005206888075917959,-0.069146946072578430,-0.019778203219175339,0.074130363762378693,0.067742846906185150,-0.064039573073387146,0.297149211168289185,-0.045127607882022858,-0.070512183010578156,-0.159094825387001038,0.179449915885925293,-0.097637832164764404,-0.096327923238277435,-0.331250071525573730,0.164900735020637512
0.324091494083404541,-0.023867720738053322,0.056900162249803543,0.085238263010978699,-0.062574952840805054,-0.126977816224098206,0.155517205595970154,-0.318109869956970215,0.127258598804473877,0.256803244352340698,0.079935319721698761,-0.275419533252716064,-0.160034671425819397,-0.055774424225091934,-0.101898193359375000,0.007880831137299538,-0.020811738446354866,0.079041458666324615,-0.116694353520870209,0.011484286747872829,0.065514639019966125,0.046000663191080093,0.384764850139617920,0.009208839386701584,0.071020752191543579,0.115706600248813629,0.030426463112235069,0.422376900911331177,-0.008592040278017521,0.018796395510435104,-0.404425948858261108,-0.033305637538433075,-0.080351047217845917,-0.300829291343688965,-0.107848607003688812,0.022946467623114586,0.254165619611740112,-0.094794794917106628,-0.030720349401235580,-0.005979503504931927,0.102857865393161774,0.011804312467575073,0.090244829654693604,-0.192548394203186035,-0.030741579830646515,0.214205205440521240,0.021765423938632011,-0.162218168377876282,-0.012612383812665939,-0.196527794003486633,-0.181380674242973328,0.190912947058677673,0.208186283707618713,0.135521024465560913,-0.071339815855026245,-0.064683303236961365,0.024801237508654594,0.101262748241424561,-0.206859260797500610,0.399419844150543213,-0.013714488595724106,0.243084654211997986,0.106848821043968201,0.308046311140060425
0.065016031265258789,-0.151147738099098206,-0.025359533727169037,-0.066152341663837433,0.124185122549533844,-0.017492294311523438,0.089702211320400238,0.234588831663131714,-0.037469137459993362,-0.281793594360351562,-0.125326350331306458,-0.003298239083960652,-0.028877735137939453,-0.023534735664725304,-0.137668609619140625,0.060162711888551712,0.073645539581775665,0.063500769436359406,-0.175801590085029602,-0.239147663116455078,-0.061200659722089767,0.025201078504323959,0.113055869936943054,-0.210250869393348694,-0.013626640662550926,-0.088297151029109955,0.022253021597862244,-0.094510465860366821,-0.013096079230308533,0.180907264351844788,-0.110979750752449036,-0.067681767046451569,0.024680346250534058,-0.195011839270591736,0.021938199177384377,-0.235562101006507874,-0.113806515932083130,-0.231231793761253357,-0.137399435043334961,-0.163919627666473389,0.099532626569271088,0.154699221253395081,0.075158700346946716,-0.244322717189788818,0.087065175175666809,-0.214101493358612061,-0.252741873264312744,-0.152744442224502563,0.032611425966024399,0.028607835993170738,-0.018293436616659164,0.123884394764900208,0.004970991052687168,0.041888676583766937,-0.174131467938423157,-0.024885278195142746,0.304341018199920654,-0.018253797665238380,-0.083456024527549744,0.119873940944671631,-0.086155213415622711,-0.291386395692825317,-0.062074977904558182,-0.013603031635284424
0.010620777495205402,0.024806041270494461,0.108385056257247925,0.087064042687416077,0.060513515025377274,0.058346889913082123,-0.060604676604270935,-0.013810709118843079,-0.046274371445178986,-0.018675822764635086,0.004630742128938437,0.039708733558654785,0.048862315714359283,0.057909913361072540,-0.010430064983665943,-0.057553671300411224,0.085670918226242065,-0.053090471774339676,0.002348478650674224,-0.065493427217006683,0.002305686473846436,-0.046444863080978394,0.032917056232690811,0.037373512983322144,-0.057308156043291092,-0.039742205291986465,0.040267918258905411,-0.078482232987880707,0.038119856268167496,0.121611565351486206,0.087997086346149445,-0.004475343972444534,-0.074247173964977264,0.028393758460879326,-0.102765634655952454,0.016972545534372330,-0.107473239302635193,0.018774770200252533,0.054475635290145874,-0.113856270909309387,-0.002578200772404671,-0.096932508051395416,0.052317202091217041,-0.071584872901439667,0.068593040108680725,-0.034321218729019165,0.060094542801380157,0.080849178135395050,0.067424587905406952,0.017488695681095123,0.031075716018676758,-0.060320157557725906,0.032664090394973755,0.056663516908884048,0.021040774881839752,0.021564817056059837,0.076509222388267517,0.001807430409826338,0.053719241172075272,0.043835896998643875,0.047586824744939804,-0.046691298484802246,-0.043558046221733093,0.087777093052864075
0.162714421749114990,-0.068616345524787903,-0.122584566473960876,0.224233701825141907,0.033347990363836288,-0.121644541621208191,0.079660564661026001,-0.208866879343986511,-0.057326551526784897,0.022729655727744102,0.072180882096290588,-0.322980850934982300,0.161833316087722778,-0.084162987768650055,-0.786994934082031250,0.084306165575981140,-0.109694391489028931,-0.083867445588111877,0.336859673261642456,-0.150720536708831787,0.015767797827720642,-0.280585408210754395,0.073759198188781738,-0.111707746982574463,-0.147925823926925659,0.097065515816211700,0.245933502912521362,-0.461753308773040771,-0.145658031105995178,0.032049618661403656,-0.168336138129234314,-0.396423727273941040,0.055931158363819122,0.076769553124904633,-0.171980425715446472,0.248428821563720703,0.185688436031341553,-0.283526062965393066,-0.392637163400650024,0.189973354339599609,0.051471062004566193,0.201483920216560364,-0.130594775080680847,0.094669930636882782,0.177916526794433594,-0.211332321166992188,0.063566036522388458,0.064649350941181183,-0.014302243478596210,-0.172739371657371521,-0.061900131404399872,-0.076321661472320557,0.014531092718243599,0.150578692555427551,-0.067305088043212891,-0.200471714138984680,-0.146391585469245911,0.067991875112056732,-0.181005358695983887,0.060841701924800873,-0.097214087843894958,0.108029469847679138,0.049860250204801559,0.026226578280329704
0.088440932333469391,0.048826545476913452,0.104082256555557251,0.069114819169044495,-0.062993317842483521,0.069374389946460724,-0.009579988196492195,0.028964402154088020,0.016083026304841042,0.037624020129442215,-0.023287804797291756,0.048404783010482788,0.014451117254793644,-0.016909647732973099,0.081209644675254822,-0.064149014651775360,0.066265836358070374,-0.022744888439774513,-0.028349179774522781,-0.108454324305057526,0.003581702709197998,-0.032292675226926804,0.045882087200880051,0.038529809564352036,-0.047510739415884018,-0.031606730073690414,0.000300420972052962,0.086575999855995178,-0.010810064151883125,0.092357352375984192,0.111311368644237518,0.073704354465007782,0.013357199728488922,0.038464020937681198,-0.014110481366515160,0.075668901205062866,0.052838988602161407,0.008988559246063232,-0.081207215785980225,-0.059641230851411819,-0.010729784145951271,0.158800482749938965,-0.051061756908893585,-0.138594672083854675,0.106678843498229980,-0.056825783103704453,-0.087614409625530243,-0.062161002308130264,-0.043586198240518570,-0.020017847418785095,-0.080695569515228271,0.008920979686081409,0.009183364920318127,0.071125164628028870,0.078665919601917267,0.085539802908897400,0.121781863272190094,-0.004982292652130127,-0.013267200440168381,-0.095466442406177521,0.045018456876277924,-0.051937777549028397,-0.024642789736390114,-0.147964015603065491
0.213273301720619202,-0.195150822401046753,0.123439513146877289,0.070631518959999084,0.092578865587711334,0.063698649406433105,0.183958157896995544,-0.286735892295837402,-0.073545292019844055,-0.105177707970142365,-0.012176061980426311,0.012073980644345284,0.023904230445623398,-0.147426769137382507,-0.170991137623786926,0.261819750070571899,-0.294441759586334229,-0.157239452004432678,-0.168012678623199463,0.178310021758079529,-0.016131812706589699,-0.468669056892395020,0.012422418221831322,-0.064202301204204559,0.054080013185739517,-0.086049631237983704,-0.234125629067420959,0.073736488819122314,-0.060426577925682068,0.041341360658407211,-0.194527596235275269,-0.168315738439559937,-0.024198679253458977,-0.083574719727039337,-0.207152545452117920,0.045177508145570755,0.036638874560594559,-0.084368646144866943,-0.151241913437843323,-0.035500034689903259,0.113469958305358887,0.154813304543495178,0.283879756927490234,0.120773993432521820,-0.006085503380745649,-0.283673107624053955,-0.055462613701820374,0.235681295394897461,-0.024381227791309357,-0.094289071857929230,-0.018362173810601234,-0.064957506954669952,0.152294322848320007,-0.055331684648990631,-0.043020643293857574,-0.153509274125099182,-0.226767912507057190,0.040142834186553955,-0.088321372866630554,0.025199038907885551,-0.025673067197203636,-0.134824290871620178,-0.179578021168708801,-0.265433877706527710
-0.140734270215034485,0.115551702678203583,0.172594860196113586,0.101681932806968689,-0.086088061332702637,0.241543188691139221,0.000845983275212348,0.104929827153682709,-0.155917301774024963,-0.050654053688049316,0.250902295112609863,0.010130107402801514,-0.163521975278854370,-0.525465190410614014,0.078309334814548492,-0.075091667473316193,-0.168086633086204529,-0.103508710861206055,-0.030687624588608742,-0.279685497283935547,-0.008404823020100594,-0.028847971931099892,0.087423369288444519,0.000961934681981802,-0.125747218728065491,0.017357319593429565,-0.127081274986267090,-0.351192712783813477,-0.137988448143005371,-0.116270996630191803,0.073745884001255035,-0.288501411676406860,-0.043222185224294662,-0.083029858767986298,0.295055776834487915,-0.588184952735900879,0.137890264391899109,-0.244517683982849121,-0.160974517464637756,0.028243679553270340,-0.027350414544343948,-0.165814980864524841,-0.096928864717483521,-0.007862745784223080,0.110605724155902863,-0.186926200985908508,-0.015402862802147865,-0.311189413070678711,0.019920146092772484,-0.169424787163734436,-0.140448331832885742,-0.195453107357025146,-0.030077617615461349,0.033238966017961502,-0.081902727484703064,0.194292619824409485,-0.024550825357437134,-0.004760846029967070,-0.000073549883381929,-0.084816232323646545,-0.058040861040353775,-0.074599295854568481,-0.107664018869400024,0.219485953450202942
0.179221868515014648,-0.053201884031295776,0.008760555647313595,0.255777180194854736,0.211711898446083069,-0.047155819833278656,-0.057325784116983414,-0.276246070861816406,-0.110377706587314606,-0.234938606619834900,-0.023223478347063065,0.096740394830703735,-0.105086192488670349,-0.108051903545856476,0.036588892340660095,-0.113907389342784882,0.043483383953571320,-0.041567940264940262,-0.041870612651109695,0.165937021374702454,0.055967971682548523,0.185848519206047058,0.077138349413871765,-0.021361278370022774,-0.100485131144523621,0.047357000410556793,0.156478956341743469,0.084634780883789062,-0.055231384932994843,0.026034921407699585,0.169977843761444092,0.173757687211036682,-0.108635909855365753,-0.188807174563407898,-0.168959274888038635,-0.201827824115753174,-0.145367398858070374,-0.130446642637252808,-0.072412848472595215,0.220831751823425293,-0.035663824528455734,0.053118467330932617,0.067859455943107605,-0.045836865901947021,0.141416788101196289,-0.043048258870840073,-0.171203479170799255,-0.114795677363872528,-0.027248704805970192,-0.151326134800910950,0.000347468856489286,-0.043869081884622574,-0.118755869567394257,0.029638441279530525,-0.104500815272331238,0.009984262287616730,-0.217700734734535217,-0.001263893791474402,-0.032156351953744888,0.015598618425428867,-0.098429560661315918,0.061146244406700134,0.188667953014373779,0.146264940500259399
-0.152917385101318359,0.069966949522495270,-0.288407027721405029,-0.010218484327197075,-0.933004856109619141,0.350728482007980347,0.050326738506555557,-0.025362981483340263,-0.010808939114212990,-0.065891541540622711,-0.003374685533344746,0.164714843034744263,-0.175097778439521790,-0.019930474460124969,-0.110561437904834747,-0.124476335942745209,-0.096510961651802063,-0.019992394372820854,0.066334061324596405,-0.463072776794433594,-0.047490246593952179,-0.126919656991958618,-0.155632555484771729,0.005865454673767090,0.069208800792694092,-0.359521210193634033,0.065672606229782104,-0.091034613549709320,-0.143231660127639771,0.034119132906198502,0.006115041673183441,-0.356972485780715942,-0.006304993294179440,0.116060465574264526,0.237533554434776306,-0.137721955776214600,0.080497667193412781,-0.129856631159782410,-0.179555714130401611,-0.023599844425916672,0.177069455385208130,0.140949219465255737,-0.033106774091720581,-0.148829922080039978,0.150933682918548584,0.049783494323492050,-0.316444396972656250,0.019151670858263969,-0.022816574200987816,-0.006978541612625122,-0.133892759680747986,-0.294956117868423462,-0.142379119992256165,0.174056217074394226,-0.117828816175460815,0.328849971294403076,-0.156057968735694885,-0.080464936792850494,-0.109807863831520081,0.307394057512283325,-0.062607571482658386,-0.122301079332828522,-0.075509361922740936,0.140459269285202026
-0.072712346911430359,-0.050695564597845078,0.127081602811813354,-0.228764444589614868,0.248717606067657471,-0.027336953207850456,0.026323515921831131,-0.149457484483718872,-0.263421714305877686,0.062366753816604614,-0.188114210963249207,-0.167554885149002075,-0.028809722512960434,0.068153694272041321,-0.063398428261280060,-0.262613385915756226,-0.389213979244232178,0.106444589793682098,0.081991732120513916,-0.546198010444641113,-0.032259959727525711,-0.328270584344863892,-0.550711810588836670,0.051925275474786758,-0.044637504965066910,0.025055006146430969,-0.147422164678573608,0.086358845233917236,-0.073987282812595367,-0.108492821455001831,-0.208657369017601013,-0.391575515270233154,-0.144891321659088135,-0.007611047942191362,0.217689961194992065,0.238267928361892700,-0.204595193266868591,0.039047442376613617,-0.180231124162673950,0.046337522566318512,-0.153230652213096619,0.230482026934623718,0.019901109859347343,-0.016968650743365288,-0.016988821327686310,-0.114023409783840179,-0.166454568505287170,-0.093920573592185974,-0.021532200276851654,0.010450320318341255,-0.084061525762081146,-0.132444232702255249,0.108404815196990967,0.137615382671356201,-0.145769640803337097,0.157671585679054260,-0.013675569556653500,-0.117950253188610077,-0.774186789989471436,-0.403056383132934570,-0.063094533979892731,-0.285134822130203247,-0.166444227099418640,0.024179341271519661
0.057702835649251938,0.129673942923545837,-0.069719783961772919,0.165660858154296875,-0.287457436323165894,0.352234840393066406,-0.062312617897987366,0.023819936439394951,-0.036682885140180588,-0.106547117233276367,0.222396582365036011,0.028717733919620514,-0.002448351122438908,-0.612401545047760010,-0.147809624671936035,0.058442115783691406,-0.193462967872619629,0.034126687794923782,0.020536502823233604,-0.583846330642700195,0.019594136625528336,0.068081505596637726,0.354923963546752930,-0.075436778366565704,-0.223056167364120483,-0.017973791807889938,-0.078574083745479584,-0.237298309803009033,-0.020239830017089844,-0.142105475068092346,0.108407609164714813,-0.483456701040267944,0.041459731757640839,-0.138638094067573547,0.044681552797555923,-0.125603258609771729,0.046925805509090424,-0.170992746949195862,-0.155190408229827881,0.101958759129047394,0.098932601511478424,-0.307272285223007202,0.008515350520610809,0.031345028430223465,0.347869187593460083,-0.071604438126087189,-0.172955483198165894,-0.328715682029724121,-0.116145752370357513,-0.240211814641952515,-0.051007308065891266,-0.451674282550811768,0.091264516115188599,0.164319872856140137,-0.106955856084823608,-0.007937605492770672,-0.043170236051082611,-0.094283930957317352,-0.163104370236396790,0.035835027694702148,-0.097978159785270691,0.034720845520496368,-0.062958881258964539,0.150923877954483032
-0.142807707190513611,-0.009349837899208069,-0.118145704269409180,-0.106852799654006958,0.076074361801147461,0.309655696153640747,-0.025344295427203178,-0.055884633213281631,0.410516887903213501,-0.027256585657596588,0.079744458198547363,-0.197379171848297119,0.021761264652013779,0.081578120589256287,0.040284831076860428,0.068228200078010559,-0.358917266130447388,0.017781747505068779,-0.001126974006183445,0.017155449837446213,-0.041446384042501450,-0.053346808999776840,-0.196258902549743652,0.017853889614343643,0.079651482403278351,0.135928884148597717,0.177638038992881775,0.215308770537376404,-0.088824801146984100,-0.059136666357517242,-0.215713664889335632,-0.082122951745986938,-0.057425588369369507,-0.225895047187805176,0.020810063928365707,-0.147809058427810669,0.015321021899580956,-0.111099474132061005,-0.125197261571884155,0.125880926847457886,0.199366360902786255,-0.111984044313430786,-0.007001785561442375,-0.220931529998779297,-0.096777476370334625,0.347147166728973389,0.090772628784179688,-0.301669687032699585,-0.038274087011814117,-0.000164876764756627,0.004556982312351465,0.220444783568382263,0.551111936569213867,-0.052406605333089828,-0.093527615070343018,-0.263298094272613525,0.090150892734527588,-0.063066855072975159,0.134665355086326599,-0.183698251843452454,0.042708989232778549,0.175341159105300903,0.194418251514434814,0.138233423233032227
-0.068937815725803375,0.156515032052993774,0.107064954936504364,0.198395580053329468,-0.022935234010219574,0.200176328420639038,-0.109197795391082764,-0.115565888583660126,-0.227441877126693726,-0.283651679754257202,-0.137700363993644714,-0.051091451197862625,-0.207221210002899170,-0.034409929066896439,0.061428219079971313,-0.178476020693778992,-0.069425284862518311,0.029378233477473259,0.011994910426437855,-0.249032795429229736,-0.063135229051113129,-0.010561225935816765,-0.043228894472122192,-0.000650353031232953,-0.129995137453079224,0.066123738884925842,0.115933991968631744,0.006341463420540094,-0.056305162608623505,-0.066742368042469025,-0.024856636300683022,-0.169197067618370056,0.047508526593446732,-0.131346479058265686,-0.002273492049425840,-0.168750733137130737,0.097550205886363983,0.068091049790382385,0.069303274154663086,0.349325984716415405,-0.053393874317407608,0.328887432813644409,-0.025266988202929497,-0.123718447983264923,0.058057345449924469,-0.321658462285995483,0.204562216997146606,0.133542343974113464,-0.028727147728204727,-0.233433395624160767,-0.001879990799352527,0.197397559881210327,-0.280819833278656006,0.167864158749580383,-0.068483598530292511,-0.007463656365871429,-0.350949287414550781,-0.007432192098349333,-0.041138183325529099,-0.238378256559371948,-0.007573465816676617,0.004744313657283783,0.077436476945877075,-0.133498221635818481
0.051661372184753418,0.014460720121860504,-0.028718756511807442,-0.119323313236236572,-0.006078225560486317,0.304973542690277100,0.051486890763044357,0.164877876639366150,0.128769755363464355,0.176616743206977844,-0.344392865896224976,-0.072683498263359070,-0.104758910834789276,0.224608659744262695,-0.009489033371210098,0.001433232100680470,0.132759660482406616,-0.201099574565887451,-0.079023189842700958,0.061280384659767151,0.071911044418811798,-0.423037886619567871,0.238647401332855225,0.091977536678314209,0.052017342299222946,-0.102158062160015106,-0.014061014167964458,-0.297142595052719116,-0.050736270844936371,-0.177153438329696655,-0.201882615685462952,-0.784237325191497803,0.048938922584056854,-0.084129773080348969,0.111632168292999268,-0.062788136303424835,0.120903551578521729,0.002140718745067716,0.024443736299872398,-0.183911904692649841,0.185998290777206421,0.061429001390933990,0.079788468778133392,-0.308312386274337769,-0.011330586858093739,0.161543667316436768,0.239701047539710999,-0.141261473298072815,-0.039929129183292389,0.006644185166805983,0.060387227684259415,0.317607998847961426,-0.065507292747497559,0.068731620907783508,0.007246633525937796,0.124030046164989471,-0.283227235078811646,-0.037920907139778137,0.027606774121522903,0.025889301672577858,-0.000461364397779107,-0.121990643441677094,-0.152822747826576233,-0.306480497121810913
0.069045186042785645,-0.006413611117750406,0.004683577921241522,0.062183674424886703,0.307607263326644897,0.131908133625984192,-0.061543449759483337,-0.019801100715994835,0.034985072910785675,0.016638407483696938,0.043724741786718369,-0.239982143044471741,0.055794749408960342,0.063151784241199493,-0.179464563727378845,0.291388183832168579,-0.073839001357555389,0.018289420753717422,-0.028065934777259827,0.168063893914222717,-0.041536770761013031,-0.653320789337158203,-0.157827451825141907,-0.213615238666534424,-0.161335319280624390,0.004850511439144611,0.128899574279785156,-0.086784921586513519,-0.123914532363414764,-0.119489878416061401,-0.223202750086784363,-0.030397642403841019,-0.043922688812017441,-0.218649014830589294,0.098049148917198181,0.230817526578903198,0.200471743941307068,0.007801952771842480,-0.185529336333274841,-0.334880381822586060,0.129904031753540039,0.047672379761934280,0.274516731500625610,-0.440198421478271484,0.063431739807128906,-0.040907520800828934,0.006231934297829866,0.096203364431858063,-0.016334451735019684,-0.082386068999767303,-0.040366355329751968,-0.162696599960327148,0.057100854814052582,0.103045590221881866,-0.020470842719078064,0.129339218139648438,0.006292957346886396,-0.064199969172477722,0.058499436825513840,-0.055249959230422974,-0.010353378951549530,0.004028010647743940,-0.023384552448987961,0.137064903974533081
-0.044637639075517654,-0.010122745297849178,0.046297095715999603,-0.046314518898725510,0.056751530617475510,-0.096145495772361755,-0.034733626991510391,-0.012296621687710285,0.071213841438293457,0.023416168987751007,-0.024254614487290382,0.060962762683629990,-0.057837013155221939,0.053383499383926392,0.007314723916351795,-0.057439252734184265,-0.049034293740987778,-0.075275130569934845,0.000758148671593517,-0.071729049086570740,0.000843286514282227,-0.033791195601224899,-0.009322524070739746,0.015757657587528229,-0.077653340995311737,-0.015795918181538582,0.018399450927972794,-0.012812376953661442,0.073830232024192810,-0.002315070480108261,-0.040131572633981705,-0.011064382269978523,-0.042294982820749283,-0.049282267689704895,0.031648416072130203,-0.081253737211227417,0.033991921693086624,-0.047676168382167816,-0.032799299806356430,-0.052095949649810791,0.049583762884140015,0.016206221655011177,-0.057565659284591675,-0.020242424681782722,0.051908124238252640,-0.051231712102890015,-0.022740356624126434,-0.053438719362020493,-0.020271690562367439,-0.023370971903204918,-0.067919842898845673,0.075095117092132568,-0.092390350997447968,0.058693174272775650,-0.079890877008438110,-0.065103538334369659,0.033905178308486938,0.071433790028095245,0.047373164445161819,0.073574334383010864,-0.055464364588260651,0.002011203672736883,-0.077709130942821503,0.004753065761178732
0.222913578152656555,-0.154645532369613647,-0.189464032649993896,0.031543925404548645,0.135378792881965637,0.060870651155710220,0.252043753862380981,-0.421792924404144287,-0.114122286438941956,-0.165509954094886780,-0.109687916934490204,0.167502805590629578,-0.129131063818931580,-0.093735724687576294,-0.255381584167480469,0.061598885804414749,0.233960852026939392,-0.056924741715192795,-0.110486164689064026,-0.270688027143478394,0.008123710751533508,0.054215628653764725,0.026659995317459106,-0.112394064664840698,0.067237384617328644,-0.457111179828643799,0.116432614624500275,-0.148891687393188477,-0.033901609480381012,0.239789232611656189,0.073760688304901123,-0.077137969434261322,-0.099223814904689789,0.156756922602653503,0.024481467902660370,-0.047029122710227966,-0.025059085339307785,-0.106720045208930969,-0.286486744880676270,0.012323115020990372,0.207422807812690735,0.004008930176496506,-0.051813922822475433,-0.018031526356935501,-0.013793500140309334,-0.035360842943191528,-0.128692507743835449,-0.091082349419593811,0.018312681466341019,-0.025202181190252304,-0.077960520982742310,-0.182445779442787170,0.148442417383193970,0.031838335096836090,-0.082128405570983887,0.055018167942762375,0.069842368364334106,-0.088022746145725250,0.019549697637557983,-0.119992800056934357,0.033432424068450928,-0.203645810484886169,-0.056300416588783264,0.131075814366340637
-0.157397076487541199,0.084145605564117432,0.204442694783210754,0.043481878936290741,0.206395044922828674,-0.044163484126329422,0.080514565110206604,-0.100302405655384064,-0.060411844402551651,0.132252603769302368,0.077335946261882782,-0.305280417203903198,0.211762353777885437,-0.004688711371272802,-0.264958500862121582,0.111548721790313721,-0.266132891178131104,0.081941835582256317,0.096989557147026062,-0.178568169474601746,0.026288552209734917,-0.262441366910934448,-0.592383027076721191,-0.084891095757484436,-0.126176923513412476,0.030678588896989822,-0.077531374990940094,-0.173743084073066711,-0.139244958758354187,0.033431895077228546,-0.080745920538902283,-0.229489028453826904,-0.048149839043617249,-0.038676090538501740,0.154333144426345825,-0.028027329593896866,0.089160464704036713,-0.095819190144538879,-0.482322841882705688,0.102327182888984680,0.143440857529640198,0.396796047687530518,0.073337145149707794,0.078767180442810059,0.062065768986940384,-0.441417038440704346,-0.070402964949607849,0.092858694493770599,0.011190864257514477,-0.104373149573802948,-0.058052118867635727,-0.005289513617753983,0.125328719615936279,0.150692939758300781,-0.044985190033912659,-0.010304549708962440,-0.149625360965728760,-0.122571758925914764,-0.305491983890533447,0.102799616754055023,-0.033995054662227631,0.129932150244712830,-0.268089771270751953,0.053532581776380539
0.212842926383018494,-0.277490943670272827,-0.051508959382772446,-0.097104810178279877,0.219465091824531555,0.029284626245498657,0.116487771272659302,-0.261540263891220093,-0.087655827403068542,-0.434791713953018188,0.012432599440217018,0.179446652531623840,-0.014412899501621723,-0.011536858044564724,-0.247217118740081787,0.152740329504013062,0.030766144394874573,-0.164802998304367065,-0.086171865463256836,0.026445006951689720,-0.019461005926132202,0.106405712664127350,-0.165664389729499817,-0.055192898958921432,-0.110458932816982269,-0.209787443280220032,-0.083728410303592682,0.114678300917148590,-0.028398856520652771,0.196563288569450378,0.037315849214792252,0.230170190334320068,0.013979859650135040,-0.426032632589340210,-0.123612940311431885,-0.113439008593559265,-0.059463426470756531,-0.149049669504165649,-0.134579107165336609,-0.309420615434646606,0.022630570456385612,-0.060483500361442566,0.078333370387554169,-0.179358437657356262,0.110654667019844055,-0.232723876833915710,-0.142460867762565613,0.101567812263965607,-0.006793746259063482,-0.027083920314908028,-0.086339257657527924,-0.257194727659225464,0.010429345071315765,-0.026871206238865852,-0.225136250257492065,-0.061889495700597763,0.438450396060943604,-0.070778116583824158,0.075031779706478119,0.077222742140293121,-0.026499301195144653,-0.105277977883815765,0.093455195426940918,0.131871566176414490
0.068851210176944733,0.212194710969924927,-0.409683972597122192,-0.068573355674743652,0.065721541643142700,-0.139145389199256897,0.181255474686622620,-0.149910941720008850,0.093311771750450134,-0.453421562910079956,0.270604103803634644,0.013920840807259083,0.250310003757476807,-0.120804294943809509,-0.012157062068581581,0.016828089952468872,-0.233329251408576965,-0.261694818735122681,-0.066134661436080933,-0.088987857103347778,-0.042674560099840164,-0.043161973357200623,-0.188930615782737732,0.015570259653031826,-0.059026338160037994,-0.034959845244884491,0.210170164704322815,-0.234518006443977356,-0.112358771264553070,0.264849305152893066,0.298630118370056152,0.166581004858016968,-0.034112103283405304,-0.189106658101081848,-0.129525482654571533,-0.132622614502906799,-0.220593661069869995,-0.082334168255329132,-0.136443614959716797,-0.180510267615318298,-0.113698050379753113,-0.159957870841026306,0.054427113384008408,-0.151374876499176025,0.009362961165606976,0.088824376463890076,0.026330091059207916,-0.202012434601783752,-0.133760556578636169,-0.018797958269715309,0.007319462485611439,-0.107084587216377258,0.273257166147232056,-0.222012862563133240,-0.137940168380737305,0.115199059247970581,-0.023188004270195961,0.038795944303274155,-0.314797788858413696,0.044014643877744675,-0.039939012378454208,0.238355860114097595,-0.103923015296459198,0.235440790653228760
0.100424006581306458,-0.029469519853591919,0.148105770349502563,-0.183652937412261963,-0.027242057025432587,0.063464581966400146,0.045937236398458481,-0.463259696960449219,0.034985307604074478,-0.159584850072860718,-0.287441939115524292,-0.051649719476699829,0.019803157076239586,-0.022967632859945297,-0.599340975284576416,0.062753789126873016,-0.041187707334756851,-0.312430381774902344,0.084259331226348877,-0.043695349246263504,-0.046724203974008560,0.029601983726024628,-0.086465060710906982,-0.108251146972179413,0.065347090363502502,-0.220817714929580688,-0.009031279012560844,-0.434447556734085083,-0.217104300856590271,0.099006429314613342,-0.174854531884193420,-0.191739872097969055,0.017315793782472610,-0.083607658743858337,0.050811409950256348,0.232379227876663208,0.000876737292855978,-0.146103695034980774,-0.318099111318588257,-0.118014127016067505,-0.034505840390920639,0.176497906446456909,0.061013557016849518,-0.135859012603759766,-0.093239918351173401,-0.089557543396949768,-0.077875196933746338,0.225967213511466980,0.016801977530121803,-0.036101844161748886,-0.136926352977752686,-0.020700024440884590,0.056225921958684921,0.026230722665786743,-0.086909539997577667,-0.098174497485160828,-0.083275802433490753,-0.039796259254217148,-0.219993054866790771,0.119913354516029358,0.012906823307275772,-0.411646068096160889,0.082224979996681213,0.102441973984241486
0.090104386210441589,-0.137414574623107910,-0.355065792798995972,-0.042988561093807220,-0.440292447805404663,-0.059837613254785538,-0.068382322788238525,-0.052993811666965485,-0.044914606958627701,0.128653839230537415,-0.005935249384492636,0.306855499744415283,-0.342150032520294189,-0.179035559296607971,0.026223585009574890,0.042814482003450394,-0.044097948819398880,-0.187275841832160950,0.143308982253074646,-0.053746044635772705,-0.055273186415433884,0.182455107569694519,-0.545553445816040039,-0.139685064554214478,-0.043078850954771042,-0.090641960501670837,-0.148775771260261536,-0.063679307699203491,-0.077331446111202240,0.034873936325311661,0.109174266457557678,-0.268136292695999146,0.078555278480052948,0.036438554525375366,0.070851296186447144,-0.029682939872145653,0.098894864320755005,-0.138815939426422119,-0.473304480314254761,-0.163508385419845581,-0.064497791230678558,-0.043911233544349670,0.175532534718513489,-0.244667768478393555,0.182232677936553955,-0.146635010838508606,-0.167430087924003601,-0.351936280727386475,-0.135079279541969299,-0.012031565420329571,0.029886266216635704,-0.115552634000778198,-0.038774531334638596,-0.079653508961200714,0.052732773125171661,0.098101712763309479,0.002040914492681623,-0.023211237043142319,-0.349062830209732056,-0.080130003392696381,-0.036555174738168716,-0.138793706893920898,-0.087674543261528015,0.259969174861907959
-0.003156226826831698,0.152840256690979004,0.235571876168251038,-0.002515302971005440,0.217325121164321899,-0.061486519873142242,-0.145888015627861023,-0.376566857099533081,-0.021620929241180420,0.175475582480430603,0.225866764783859253,-0.134293526411056519,-0.236769884824752808,-0.362693756818771362,0.251996904611587524,0.006485840771347284,0.106945492327213287,-0.215498670935630798,-0.020459702238440514,-0.167574778199195862,-0.087992310523986816,0.080059029161930084,0.183821931481361389,0.037139631807804108,-0.114678703248500824,-0.291523575782775879,-0.101452417671680450,-0.197787478566169739,-0.046278886497020721,-0.089609481394290924,-0.026785258203744888,-0.196263507008552551,-0.089877910912036896,0.135435774922370911,0.168998792767524719,-0.321429342031478882,-0.049395974725484848,-0.034122165292501450,-0.098699703812599182,-0.117770448327064514,-0.321047514677047729,-0.140687048435211182,-0.023257100954651833,-0.077241331338882446,0.061053831130266190,0.254403024911880493,-0.022165436297655106,-0.356338858604431152,-0.003359702648594975,-0.025126833468675613,0.024962926283478737,-0.086202830076217651,-0.017299743369221687,-0.075057700276374817,-0.117048926651477814,0.055301636457443237,-0.121798232197761536,0.010161845944821835,-0.182891651988029480,-0.261862814426422119,-0.089711815118789673,-0.290374010801315308,0.305860757827758789,-0.079416252672672272
0.430121868848800659,-0.331383854150772095,-0.057385407388210297,-0.136864215135574341,-0.051203131675720215,-0.079791121184825897,-0.061286389827728271,0.202999517321586609,-0.184980019927024841,0.334564059972763062,-0.258808791637420654,0.233994588255882263,-0.170422926545143127,0.200279712677001953,0.141659915447235107,0.140694141387939453,0.129776984453201294,-0.117449335753917694,-0.008796444162726402,0.171928182244300842,0.052019044756889343,-0.193235293030738831,-0.048965398222208023,0.025090014562010765,-0.425625890493392944,-0.481494396924972534,-0.027608281001448631,-0.380926877260208130,-0.094809994101524353,-0.149177834391593933,0.052054438740015030,0.095938414335250854,0.028305623680353165,-0.271085619926452637,0.297507882118225098,0.224128201603889465,0.278069227933883667,-0.201931640505790710,-0.206230878829956055,0.067211091518402100,0.067871488630771637,0.127888396382331848,-0.053820289671421051,0.009331330657005310,0.278718233108520508,-0.271163165569305420,0.272728323936462402,-0.191846638917922974,-0.058307696133852005,-0.196861773729324341,0.041192784905433655,-0.252323567867279053,-0.002074850490316749,-0.141226410865783691,-0.211859792470932007,-0.095858722925186157,0.126862436532974243,-0.076727651059627533,-0.035286135971546173,-0.163164824247360229,-0.069903559982776642,-0.250296503305435181,-0.012588962912559509,0.130379021167755127
-0.377866864204406738,-0.321266919374465942,0.121096171438694000,0.172710090875625610,0.028676534071564674,-0.188377618789672852,-0.017403712496161461,0.086056858301162720,-0.100201509892940521,-0.188973084092140198,-0.098725512623786926,-0.202438965439796448,0.128193303942680359,-0.226818665862083435,0.051686704158782959,-0.026042882353067398,0.226307123899459839,-0.157472312450408936,-0.047350265085697174,-0.128121867775917053,0.017995359376072884,0.170979365706443787,-0.042756062000989914,0.092507489025592804,-0.296863824129104614,0.235316440463066101,0.161461099982261658,0.018536636605858803,-0.033554803580045700,-0.211088389158248901,0.013032021932303905,-0.173816829919815063,-0.063819289207458496,-0.137025773525238037,0.136957257986068726,-0.125620901584625244,0.219304785132408142,-0.052295047789812088,0.172328725457191467,0.370410233736038208,-0.286387503147125244,0.221842139959335327,-0.180768340826034546,0.138528481125831604,0.110095895826816559,0.244002625346183777,-0.053178373724222183,0.055247023701667786,-0.020705349743366241,0.000748024962376803,-0.100502699613571167,0.192854166030883789,-0.206260740756988525,0.201192498207092285,-0.038225248456001282,-0.068344943225383759,-0.060010500252246857,0.013660833239555359,0.106645517051219940,-0.134948089718818665,0.017535030841827393,-0.004883563611656427,-0.059917360544204712,-0.016114287078380585
0.024169478565454483,-0.087143085896968842,-0.009712009690701962,-0.050459410995244980,-0.137784853577613831,-0.039058588445186615,-0.080475568771362305,0.039994433522224426,0.172122702002525330,0.006658962462097406,0.007566875778138638,-0.129026100039482117,0.114600941538810730,0.247390598058700562,-0.029160209000110626,0.028604341670870781,-0.149310365319252014,0.012781329452991486,0.010630205273628235,-0.055782146751880646,-0.067625701427459717,0.068029306828975677,0.013289845548570156,0.027610046789050102,0.020786739885807037,-0.011487937532365322,-0.087748363614082336,-0.007122350391000509,-0.085200250148773193,-0.060444857925176620,0.025656498968601227,-0.132098317146301270,0.050479799509048462,-0.048405990004539490,-0.000308671937091276,0.056433685123920441,-0.108695551753044128,0.052367959171533585,-0.073187060654163361,0.046152956783771515,0.037725895643234253,-0.091253966093063354,-0.044176038354635239,-0.031983174383640289,-0.037474483251571655,0.157513260841369629,0.124640375375747681,0.099282890558242798,0.017910974100232124,0.055322080850601196,0.069940656423568726,0.004849682096391916,0.043799623847007751,0.024819914251565933,0.039814829826354980,-0.113016463816165924,0.012287767603993416,0.011884065344929695,-0.037477150559425354,-0.045520260930061340,-0.091109953820705414,0.046066023409366608,-0.113822467625141144,0.060121219605207443
-0.151814937591552734,0.104601196944713593,0.017934257164597511,-0.244661763310432434,0.193803369998931885,0.004072208888828754,-0.337960004806518555,-0.061847709119319916,-0.216565489768981934,-0.175465598702430725,0.021781748160719872,-0.011387310922145844,0.136282518506050110,-0.338964313268661499,0.044120568782091141,-0.132219478487968445,0.018201285973191261,0.016512591391801834,0.034174840897321701,-0.195171460509300232,0.032794605940580368,-0.008675884455442429,-0.408653885126113892,-0.037961494177579880,-0.266120672225952148,-0.135354191064834595,0.174914076924324036,-0.281662374734878540,-0.136817306280136108,-0.057632282376289368,-0.019205396994948387,-0.506146728992462158,0.006661373656243086,0.279360443353652954,0.082133322954177856,-0.180816426873207092,-0.201233193278312683,-0.041275285184383392,-0.291976243257522583,-0.042162816971540451,-0.420981824398040771,-0.117456756532192230,-0.385039329528808594,-0.080285787582397461,-0.273212134838104248,0.302842706441879272,0.094030953943729401,-0.370213627815246582,0.006356323603540659,-0.002445171121507883,-0.036447420716285706,0.052377860993146896,0.060908645391464233,0.169290915131568909,0.041902266442775726,0.278316289186477661,-0.617886483669281006,-0.061697263270616531,-0.388371586799621582,-0.139065667986869812,-0.004264975897967815,-0.407260209321975708,0.162152349948883057,0.287310451269149780
-0.109573908150196075,-0.178229123353958130,0.036752097308635712,0.156783536076545715,-0.241929799318313599,0.092667430639266968,-0.127084091305732727,-0.187840878963470459,-0.121411480009555817,-0.099418103694915771,-0.203964039683341980,0.081825666129589081,-0.328502684831619263,0.096603892743587494,-0.539190173149108887,-0.208682864904403687,0.067938596010208130,-0.000384108861908317,-0.164921209216117859,-0.271236866712570190,-0.063359536230564117,-0.397468537092208862,0.133547157049179077,-0.026565141975879669,0.065883554518222809,-0.333015799522399902,-0.032082285732030869,-0.362178057432174683,-0.024526784196496010,0.018988579511642456,0.093912541866302490,-0.442119061946868896,0.000299183477181941,0.020274421200156212,-0.141372263431549072,-0.167853474617004395,-0.141095936298370361,-0.052342869341373444,-0.060457311570644379,0.137938305735588074,-0.023047285154461861,0.213035613298416138,0.083740867674350739,-0.218490615487098694,0.009144351817667484,0.156950592994689941,-0.382778435945510864,0.018716929480433464,0.028569772839546204,-0.003813005750998855,0.029521847143769264,-0.112654052674770355,-0.066163986921310425,0.058324407786130905,-0.064036637544631958,-0.169542908668518066,0.043392956256866455,-0.093943931162357330,-0.088909506797790527,0.163938045501708984,-0.080454751849174500,-0.233064144849777222,-0.058170430362224579,-0.003221918130293489
-0.182098224759101868,-0.099514849483966827,0.174338877201080322,-0.080879479646682739,-0.124235272407531738,0.160991296172142029,-0.202579647302627563,0.181332319974899292,0.011097022332251072,0.046039331704378128,-0.096240475773811340,-0.061640627682209015,-0.172659516334533691,0.011483158916234970,0.249856919050216675,0.058965928852558136,0.209496855735778809,0.061043355613946915,-0.289184927940368652,0.221695512533187866,-0.024107346311211586,-0.251522511243820190,0.158356308937072754,0.005277142859995365,-0.100957080721855164,0.086640454828739166,0.055319078266620636,-0.183354541659355164,0.086586356163024902,-0.061135262250900269,0.070751897990703583,-0.304600119590759277,-0.112253449857234955,0.105980902910232544,0.169715479016304016,0.219806715846061707,0.018076293170452118,-0.078755736351013184,0.093711048364639282,-0.114783003926277161,0.026359586045145988,0.103952445089817047,0.029641840606927872,-0.054058860987424850,-0.052059315145015717,-0.246034681797027588,-0.061504811048507690,0.050226796418428421,0.054673831909894943,-0.142560034990310669,-0.121396787464618683,0.105985112488269806,-0.031965050846338272,-0.116147860884666443,-0.180025413632392883,0.184036672115325928,-0.225612148642539978,-0.100742630660533905,0.027748789638280869,-0.070581905543804169,0.001438003848306835,0.017342032864689827,-0.114568807184696198,0.089500814676284790
-0.010535050183534622,0.181377515196800232,0.318858236074447632,-0.032962780445814133,-0.296168267726898193,0.232814863324165344,0.028289889916777611,-0.027360554784536362,-0.050341717898845673,-0.266804248094558716,0.263748347759246826,0.005271319299936295,0.096944987773895264,-0.154410421848297119,-0.119843743741512299,-0.017720652744174004,-0.193091809749603271,0.026978241279721260,-0.153019413352012634,-0.386809647083282471,-0.121358811855316162,0.018025746569037437,-0.238655492663383484,-0.160879015922546387,-0.216115862131118774,-0.498638898134231567,0.050479788333177567,-0.179792746901512146,-0.143121257424354553,-0.064461186528205872,-0.010071929544210434,-0.042213421314954758,-0.042667053639888763,0.124264366924762726,-0.272571653127670288,-0.086326941847801208,-0.102780789136886597,0.008771089836955070,-0.505821943283081055,-0.014471914619207382,0.315133899450302124,-0.120920822024345398,0.070047639310359955,-0.031799890100955963,-0.008548293262720108,0.154540061950683594,-0.072073556482791901,0.145957812666893005,-0.086027331650257111,-0.155548721551895142,0.010694766417145729,-0.077990993857383728,0.269457072019577026,0.238063648343086243,0.097782045602798462,-0.172892183065414429,0.005461276974529028,-0.079985864460468292,-0.420251518487930298,-0.128764316439628601,-0.036605540663003922,-0.236992016434669495,0.150749877095222473,0.322499811649322510
0.040343619883060455,0.088603667914867401,-0.020751960575580597,-0.003193724201992154,0.068568013608455658,0.002045797882601619,0.098181068897247314,-0.066032797098159790,-0.234370693564414978,0.109933108091354370,0.043195590376853943,-0.148089423775672913,0.141859605908393860,0.262975096702575684,0.053650941699743271,0.069606348872184753,0.006891875993460417,-0.015458435751497746,-0.314219743013381958,-0.288926929235458374,0.056184787303209305,-0.108682043850421906,-0.021748188883066177,-0.078780591487884521,-0.606540560722351074,-0.219426333904266357,-0.058985546231269836,0.026536315679550171,-0.042547829449176788,-0.106272317469120026,-0.024194590747356415,0.045069441199302673,0.050058200955390930,-0.111003234982490540,-0.036549281328916550,-0.279644906520843506,0.323457390069961548,-0.096504919230937958,-0.108287304639816284,0.024374943226575851,-0.018944336101412773,-0.379936933517456055,-0.031959481537342072,0.022686630487442017,-0.064192347228527069,0.264591485261917114,-0.128223985433578491,-0.263300776481628418,-0.085568845272064209,0.026608046144247055,-0.033618032932281494,0.037502098828554153,0.017351174727082253,0.115193240344524384,-0.025358058512210846,-0.167747274041175842,0.080079503357410431,0.024187702685594559,-0.024880932644009590,-0.037086863070726395,-0.037977483123540878,-0.118809893727302551,-0.052685383707284927,0.186365470290184021
0.033915251493453979,-0.024292645975947380,-0.242753788828849792,-0.253178298473358154,-0.121186949312686920,0.004108395427465439,-0.063298910856246948,-0.056483637541532516,-0.368782848119735718,0.051586285233497620,-0.203587055206298828,0.281430631875991821,-0.069000691175460815,-0.366465717554092407,0.031073398888111115,0.137123525142669678,0.111095570027828217,0.006719718221575022,0.095275223255157471,-0.046482164412736893,-0.059905972331762314,0.048733636736869812,-0.103653237223625183,-0.226234570145606995,-0.286799639463424683,0.099968001246452332,0.045310623943805695,0.301008790731430054,-0.052241858094930649,0.017602307721972466,0.103330425918102264,-0.381052732467651367,-0.019104611128568649,0.014194844290614128,0.261926651000976562,0.297103524208068848,0.265404880046844482,-0.236427828669548035,-0.325762242078781128,0.207678735256195068,-0.299049913883209229,0.146007090806961060,0.128207728266716003,0.085664801299571991,0.118589334189891815,-0.249298185110092163,0.096295535564422607,-0.244772374629974365,-0.124408222734928131,-0.063177011907100677,-0.170179620385169983,0.146677523851394653,0.108422949910163879,0.111551664769649506,-0.052404090762138367,-0.074091494083404541,-0.262910813093185425,-0.080744914710521698,-0.171649605035781860,-0.080419421195983887,-0.083016484975814819,0.071089938282966614,-0.163131028413772583,0.134453624486923218
-0.115341715514659882,0.121811859309673309,0.149917110800743103,0.231443360447883606,-0.215990826487541199,-0.106957904994487762,0.176072046160697937,-0.161301672458648682,0.103077545762062073,0.164934799075126648,-0.228156924247741699,-0.137996762990951538,-0.250896602869033813,0.018803140148520470,-0.229869857430458069,-0.101637117564678192,-0.090500153601169586,0.166640982031822205,-0.286499977111816406,0.040632538497447968,-0.062278304249048233,-0.324542880058288574,0.206631690263748169,-0.020504476502537727,-0.233637660741806030,0.085603870451450348,0.082208797335624695,0.245863556861877441,0.014837419614195824,0.055049721151590347,-0.339665383100509644,-0.143580690026283264,-0.073500998318195343,-0.079954907298088074,-0.231187999248504639,0.100856624543666840,0.157859504222869873,-0.150404185056686401,-0.087615251541137695,0.244810223579406738,0.021284533664584160,-0.071170732378959656,-0.006576463580131531,-0.496620297431945801,0.017553737387061119,0.220882147550582886,-0.235180377960205078,-0.150358512997627258,-0.097023703157901764,-0.043944858014583588,0.006458204239606857,-0.076799124479293823,0.255321592092514038,0.082662694156169891,-0.079734086990356445,-0.135667964816093445,-0.064972877502441406,-0.069963976740837097,-0.143514707684516907,0.483240872621536255,-0.019269213080406189,0.058754876255989075,-0.260875254869461060,0.333368897438049316
0.237695470452308655,-0.071228876709938049,0.144359871745109558,-0.082050889730453491,0.120178259909152985,0.015663031488656998,0.060635857284069061,0.097500428557395935,-0.080122061073780060,-0.091320559382438660,-0.041805855929851532,-0.016534242779016495,-0.046978570520877838,0.062360007315874100,-0.043331801891326904,0.202493682503700256,0.175312221050262451,-0.060739796608686447,-0.108417868614196777,0.012971577234566212,0.007200736552476883,-0.074048154056072235,-0.237122073769569397,-0.067474156618118286,-0.454500675201416016,-0.229827299714088440,-0.043611392378807068,-0.040543619543313980,-0.145484387874603271,-0.124167069792747498,-0.035364072769880295,0.087210066616535187,-0.065588019788265228,-0.477790325880050659,-0.148937582969665527,-0.063243687152862549,0.179592698812484741,-0.155791863799095154,-0.176546797156333923,-0.113689534366130829,0.000324411201290786,-0.081755734980106354,-0.057542886584997177,0.005075818859040737,0.022061442956328392,0.109166122972965240,-0.058672674000263214,-0.064819939434528351,-0.027299815788865089,-0.033404774963855743,0.085417851805686951,-0.153845801949501038,0.031767647713422775,-0.032748542726039886,-0.003126390511170030,-0.081139199435710907,0.080225840210914612,-0.103869855403900146,-0.043224152177572250,0.100483417510986328,0.039306264370679855,-0.100453689694404602,0.171895965933799744,0.127565681934356689
0.037970893085002899,-0.011546719819307327,0.067029058933258057,-0.017555037513375282,0.025772778317332268,-0.038077939301729202,0.030470263212919235,0.043942030519247055,0.028510712087154388,0.006857912056148052,-0.010490915738046169,-0.034586757421493530,0.014357688836753368,0.073934249579906464,-0.016434587538242340,0.054089076817035675,0.036480214446783066,0.046377152204513550,0.044804874807596207,0.036102119833230972,0.056732155382633209,-0.015347993001341820,0.009669582359492779,-0.041751224547624588,0.054448574781417847,0.079881742596626282,0.080344773828983307,-0.008483890444040298,-0.023163622245192528,0.060038249939680099,-0.064242593944072723,0.087407387793064117,0.065828837454319000,-0.139195680618286133,0.027497515082359314,-0.031246149912476540,-0.082125738263130188,0.027826070785522461,0.079821534454822540,-0.061151843518018723,-0.013513781130313873,-0.018166212365031242,-0.000485194992506877,-0.007294890936464071,-0.064711607992649078,0.004103069659322500,-0.036616560071706772,0.029391327872872353,0.061425309628248215,-0.053869850933551788,-0.065952971577644348,0.033920671790838242,0.021403191611170769,0.000225679657887667,-0.054758988320827484,-0.035683330148458481,-0.065009504556655884,0.048362977802753448,-0.020495558157563210,0.038326587527990341,0.044695809483528137,0.011068222112953663,0.004432831890881062,-0.107939518988132477
0.088018722832202911,-0.201792761683464050,-0.132224470376968384,0.160834297537803650,0.085888862609863281,-0.045078940689563751,-0.073514305055141449,-0.281652092933654785,-0.155736640095710754,0.044593568891286850,-0.179978445172309875,0.122881561517715454,0.008147797547280788,-0.077164068818092346,-0.581263601779937744,-0.102557711303234100,0.039029076695442200,-0.045633073896169662,0.010773445479571819,0.087150484323501587,-0.056385584175586700,-0.411675214767456055,0.115988425910472870,-0.098615281283855438,-0.184310138225555420,0.018119977787137032,-0.018374970182776451,-0.286144107580184937,0.004396495874971151,0.152619630098342896,-0.169796958565711975,-0.235448315739631653,-0.033072128891944885,0.039770033210515976,-0.113096609711647034,0.201426357030868530,0.033907406032085419,-0.082934468984603882,-0.441658526659011841,-0.008063497021794319,-0.007462917827069759,0.043486945331096649,-0.138340935111045837,-0.075283318758010864,-0.107530787587165833,-0.425552040338516235,-0.080290347337722778,0.124546132981777191,-0.003108270699158311,-0.083955697715282440,-0.157897114753723145,0.025543358176946640,-0.160084262490272522,0.201027736067771912,-0.142856031656265259,-0.208879202604293823,0.132373869419097900,-0.040376778692007065,-0.092243708670139313,0.225073680281639099,-0.023344703018665314,0.129986479878425598,0.075383201241493225,0.065107725560665131
0.141801103949546814,-0.005019720643758774,-0.059426270425319672,0.042718466371297836,0.023118667304515839,0.039210636168718338,0.011130875907838345,0.045883066952228546,0.125823304057121277,0.049801185727119446,-0.018529383465647697,0.009598363190889359,-0.012754783034324646,0.017057295888662338,-0.023949146270751953,0.005869747139513493,-0.129606574773788452,-0.025844270363450050,0.083147726953029633,0.000005584428436123,-0.007684566080570221,0.079403407871723175,-0.091869562864303589,-0.019155401736497879,0.113504953682422638,0.010449574328958988,0.111570470035076141,0.041430603712797165,-0.073949784040451050,0.022123426198959351,0.025486851111054420,0.005210468079894781,-0.078540682792663574,-0.038088057190179825,-0.062922805547714233,0.043025009334087372,-0.010372911579906940,0.061227597296237946,-0.081265754997730255,-0.047623708844184875,0.101163722574710846,-0.032744068652391434,-0.023465679958462715,-0.007766925264149904,-0.025604499503970146,-0.011675953865051270,0.073341473937034607,-0.090029492974281311,-0.046152181923389435,-0.001011190470308065,-0.009072504937648773,-0.055600825697183609,-0.001861304044723511,-0.012600730173289776,0.020082034170627594,0.065876886248588562,-0.053823292255401611,-0.082169502973556519,-0.138616353273391724,0.001669568242505193,-0.040778107941150665,0.049786008894443512,0.066972240805625916,-0.146665707230567932
0.035875875502824783,-0.130594253540039062,-0.019823273643851280,-0.025243163108825684,0.045677043497562408,0.114604033529758453,0.064045049250125885,-0.259313941001892090,-0.176558092236518860,0.044179577380418777,-0.281638085842132568,-0.059745658189058304,0.077982284128665924,0.013485105708241463,0.070176847279071808,0.153352484107017517,0.153915762901306152,-0.048779688775539398,-0.209802374243736267,0.283112674951553345,-0.052701525390148163,-0.164107903838157654,0.021925298497080803,-0.089982673525810242,-0.076734438538551331,0.052221860736608505,0.021206306293606758,-0.516365051269531250,-0.026198461651802063,-0.112659178674221039,-0.149808377027511597,-0.031006997451186180,-0.071653828024864197,0.031731877475976944,0.269609302282333374,0.087806597352027893,0.271440744400024414,0.078292183578014374,-0.111280933022499084,0.046195369213819504,0.009733856655657291,0.116180770099163055,0.128272399306297302,-0.117386221885681152,0.161200925707817078,-0.073800176382064819,-0.167255088686943054,0.044843897223472595,-0.078065037727355957,-0.076970048248767853,0.081616982817649841,-0.131265491247177124,0.005943533964455128,0.091368615627288818,0.020449686795473099,-0.061311036348342896,-0.158507749438285828,-0.056118499487638474,0.090894311666488647,-0.045018162578344345,-0.054324034601449966,-0.053280156105756760,-0.261104583740234375,-0.102138064801692963
0.029655568301677704,-0.054681885987520218,0.337634682655334473,-0.064779154956340790,-0.495437443256378174,0.281329393386840820,-0.003678084351122379,-0.006291331257671118,0.078850127756595612,-0.228616446256637573,0.038768585771322250,0.081721559166908264,-0.086655877530574799,-0.455841243267059326,-0.092871226370334625,0.204171389341354370,-0.102466620504856110,-0.042415853589773178,0.109100393950939178,-0.177531212568283081,-0.071682959794998169,0.077766120433807373,-0.051943320780992508,-0.043074697256088257,-0.182884320616722107,-0.188508152961730957,-0.283072352409362793,0.086381740868091583,-0.003293633460998535,-0.077588006854057312,-0.097643896937370300,0.041107159107923508,-0.009809420444071293,-0.138435751199722290,0.061702985316514969,0.121991217136383057,-0.055946044623851776,-0.164747774600982666,-0.396147519350051880,0.008649704977869987,0.329460263252258301,-0.010133486241102219,0.096912235021591187,0.051119651645421982,0.041842684149742126,-0.125976964831352234,-0.063722856342792511,0.015981640666723251,-0.105386115610599518,-0.020867513492703438,0.027235599234700203,-0.306115239858627319,0.125691354274749756,0.069092012941837311,0.116708025336265564,0.110782973468303680,-0.202794462442398071,-0.012275049462914467,-0.017534069716930389,-0.212247073650360107,-0.057757627218961716,-0.188805729150772095,-0.185716956853866577,0.314501404762268066
-0.020948359742760658,0.109606154263019562,0.247115120291709900,-0.075279936194419861,0.064688749611377716,0.144986242055892944,-0.086099639534950256,0.063627779483795166,-0.245624586939811707,-0.263728737831115723,0.078000374138355255,0.076278783380985260,-0.037422973662614822,0.002397865988314152,0.032274469733238220,-0.000363754457794130,-0.003152660327032208,-0.080937981605529785,-0.131288677453994751,-0.190451636910438538,-0.100689418613910675,0.083690360188484192,-0.045640744268894196,0.025855880230665207,-0.197774752974510193,0.228909507393836975,0.032488938421010971,0.048484262079000473,-0.198654696345329285,-0.214692026376724243,0.095949888229370117,-0.120622925460338593,-0.091108344495296478,-0.060824740678071976,-0.000990600907243788,-0.169003516435623169,-0.049221232533454895,-0.133377879858016968,-0.174295440316200256,0.257031530141830444,-0.002260067965835333,-0.031931716948747635,-0.179329633712768555,0.079473309218883514,0.084206044673919678,0.121626645326614380,-0.064935132861137390,-0.125868812203407288,-0.053516391664743423,-0.050893481820821762,-0.090262748301029205,0.268268465995788574,-0.174229606986045837,0.233521088957786560,0.096453383564949036,-0.004378674551844597,-0.031187983229756355,0.077158920466899872,-0.120231539011001587,-0.212060943245887756,0.015458395704627037,0.083669707179069519,-0.061119236052036285,-0.207394048571586609
0.171387404203414917,-0.262991875410079956,-0.529770910739898682,0.066599406301975250,-0.073812849819660187,-0.141251221299171448,-0.101507149636745453,-0.259638696908950806,-0.010863423347473145,-0.084109880030155182,-0.155470266938209534,0.160665780305862427,-0.338418602943420410,-0.057303670793771744,-0.049895927309989929,-0.018263923004269600,-0.306183785200119019,-0.160590663552284241,0.146154835820198059,-0.151451140642166138,-0.025311639532446861,0.157990142703056335,-0.160881072282791138,-0.175472497940063477,-0.053545869886875153,-0.198006525635719299,-0.246933162212371826,-0.159711435437202454,-0.053239252418279648,0.032143633812665939,0.177585959434509277,-0.558740973472595215,-0.124781422317028046,-0.113214559853076935,-0.091495223343372345,0.060091186314821243,-0.017889434471726418,-0.071610502898693085,-0.151899322867393494,-0.011067138053476810,0.058180514723062515,0.150509238243103027,-0.002312164288014174,0.037442170083522797,0.118884712457656860,-0.003067779121920466,-0.227078676223754883,-0.017842674627900124,-0.128880366683006287,-0.080716706812381744,-0.002330378629267216,-0.215556368231773376,-0.017962193116545677,0.059155672788619995,-0.251109063625335693,-0.188435792922973633,-0.005328485276550055,-0.066630855202674866,-0.216370984911918640,0.067476436495780945,0.005355496425181627,0.115765996277332306,0.377903193235397339,-0.020833488553762436
-0.176001042127609253,-0.391202092170715332,-0.163790702819824219,-0.441725999116897583,0.024914480745792389,0.006426703184843063,-0.023516187444329262,0.112229056656360626,-0.282545775175094604,-0.179238334298133850,-0.414322197437286377,0.077555850148200989,-0.119327291846275330,-0.041035592555999756,-0.308257043361663818,-0.107858791947364807,-0.351465642452239990,0.023319764062762260,0.110575124621391296,-0.380823522806167603,-0.084985479712486267,-0.250012695789337158,-0.461723536252975464,-0.048533484339714050,-0.162092253565788269,0.026852915063500404,-0.077786579728126526,0.172142580151557922,-0.131663069128990173,-0.117439590394496918,-0.268099635839462280,-0.166962206363677979,-0.017449960112571716,0.017700014635920525,-0.041561868041753769,0.287386119365692139,0.190414935350418091,-0.003742093918845057,-0.326966136693954468,0.124015741050243378,-0.114257983863353729,0.195249259471893311,-0.320985406637191772,0.014480184763669968,-0.259858220815658569,-0.191459715366363525,-0.030475862324237823,-0.046169370412826538,0.027400016784667969,-0.056590162217617035,-0.075813442468643188,0.015331526286900043,0.194878518581390381,0.131095349788665771,0.067047841846942902,0.031937256455421448,0.027642607688903809,-0.035410776734352112,-0.646204888820648193,-0.210240244865417480,0.064914368093013763,-0.137900441884994507,-0.353793799877166748,0.109653964638710022
0.054887089878320694,0.089416608214378357,0.684417366981506348,0.085374698042869568,-0.190905168652534485,0.487169861793518066,0.160567626357078552,-0.016043983399868011,-0.041318733245134354,-0.229149952530860901,0.268971472978591919,-0.049868833273649216,-0.107660926878452301,-0.396798729896545410,0.149474203586578369,0.262467503547668457,-0.038270123302936554,0.035341568291187286,-0.021626560017466545,-0.178603410720825195,0.022906297817826271,-0.042240742594003677,-0.031509831547737122,-0.119800381362438202,-0.457043409347534180,-0.052776504307985306,-0.080465987324714661,0.037937667220830917,-0.138179570436477661,-0.106570512056350708,0.083684898912906647,0.104479350149631500,0.081324994564056396,-0.171165391802787781,-0.114654809236526489,-0.139062821865081787,-0.150252848863601685,-0.189879640936851501,-0.421388477087020874,-0.006873259786516428,0.436350554227828979,-0.305612504482269287,0.192133352160453796,-0.005575014278292656,0.181298986077308655,0.038645431399345398,-0.108954273164272308,0.004627927672117949,-0.096497774124145508,-0.156949982047080994,0.013040736317634583,-0.211397260427474976,0.176575869321823120,0.255042314529418945,-0.132164701819419861,-0.180825844407081604,0.018089283257722855,-0.021935133263468742,-0.244914472103118896,0.032138220965862274,-0.013621038757264614,0.093012824654579163,-0.223857730627059937,0.295118570327758789
0.009314118884503841,-0.260238140821456909,-0.032905109226703644,0.203861042857170105,-0.284022152423858643,0.181612566113471985,0.221693187952041626,-0.090466238558292389,0.428153932094573975,-0.058916404843330383,-0.054272856563329697,-0.159321814775466919,-0.160650774836540222,-0.207622006535530090,-0.185531079769134521,-0.002245097886770964,0.025118047371506691,-0.110149867832660675,-0.147016584873199463,0.052208732813596725,-0.015913946554064751,-0.151683658361434937,-0.003243068233132362,-0.035559695214033127,0.092075817286968231,0.040687981992959976,-0.025134500116109848,0.249250337481498718,-0.087389692664146423,-0.264902770519256592,-0.227337718009948730,0.024319421499967575,-0.046000722795724869,-0.694614708423614502,0.077897213399410248,-0.071592211723327637,0.044038783758878708,-0.073617152869701385,0.039666667580604553,0.072195827960968018,0.262687534093856812,0.109643198549747467,-0.342729210853576660,0.229599103331565857,-0.417759060859680176,-0.012345390394330025,-0.134726196527481079,0.103406615555286407,0.046664405614137650,-0.110852099955081940,-0.001537503791041672,0.256330966949462891,-0.050749637186527252,-0.059711545705795288,-0.086829490959644318,-0.134769856929779053,-0.250836461782455444,-0.078708648681640625,-0.029313692823052406,-0.080783061683177948,-0.069004893302917480,0.231691032648086548,-0.201648995280265808,0.097392193973064423
0.076906107366085052,-0.133046552538871765,0.273053675889968872,0.080248594284057617,-0.049847174435853958,0.053070269525051117,-0.195259720087051392,-0.345092505216598511,-0.183993786573410034,-0.206293970346450806,-0.101956911385059357,0.207674294710159302,-0.004556851461529732,0.065797992050647736,0.072850055992603302,-0.044498454779386520,0.321345388889312744,-0.042585235089063644,-0.051564659923315048,0.024924034252762794,-0.075068570673465729,0.088955260813236237,0.087689496576786041,-0.090057589113712311,0.026052510365843773,0.108307637274265289,-0.073842592537403107,0.079363264143466949,0.004543725866824389,0.105304412543773651,0.083530947566032410,-0.056720595806837082,0.034923411905765533,-0.166016131639480591,-0.011823322623968124,-0.132320180535316467,0.112897567451000214,-0.048051465302705765,-0.027346936985850334,0.283960670232772827,-0.008006894029676914,0.318524211645126343,0.017112644389271736,-0.052045695483684540,0.129535377025604248,-0.194705426692962646,0.108414843678474426,0.209245026111602783,-0.085334114730358124,-0.082218348979949951,-0.032657530158758163,0.181553587317466736,-0.401649594306945801,0.103068076074123383,-0.058621745556592941,0.072665527462959290,-0.212928041815757751,-0.097301103174686432,0.034634750336408615,-0.107893221080303192,0.035539433360099792,-0.056931879371404648,-0.055787876248359680,-0.136664032936096191
0.118234291672706604,0.072670564055442810,-0.128195434808731079,-0.070294976234436035,-0.010887769982218742,0.169232234358787537,-0.012604043819010258,-0.080250062048435211,0.254757344722747803,0.128785401582717896,-0.339306980371475220,-0.169773787260055542,-0.135000959038734436,0.084032915532588959,0.254794538021087646,0.025303166359663010,0.189293831586837769,-0.139684349298477173,-0.058125019073486328,-0.097194202244281769,0.024499271064996719,-0.720076560974121094,0.115414053201675415,-0.049592986702919006,0.110506907105445862,0.119550414383411407,0.028840072453022003,-0.245993137359619141,-0.069048218429088593,-0.181954503059387207,-0.026020178571343422,-0.507755935192108154,0.010301932692527771,0.064849093556404114,-0.022497234866023064,-0.070297889411449432,0.129558876156806946,0.001787788001820445,-0.075065255165100098,-0.310535281896591187,-0.022920656949281693,-0.110255114734172821,-0.147815883159637451,-0.086066558957099915,-0.154882371425628662,0.117160461843013763,-0.303774982690811157,0.134539663791656494,-0.040561538189649582,-0.065724059939384460,0.078658118844032288,0.289719581604003906,-0.069113522768020630,0.098670117557048798,-0.032444946467876434,-0.001030418323352933,-0.284186452627182007,0.070422828197479248,-0.142230421304702759,0.221273824572563171,-0.075752101838588715,-0.240136042237281799,-0.125311359763145447,0.125237762928009033
0.086499266326427460,0.186162158846855164,0.139529049396514893,0.097068682312965393,-0.026659121736884117,0.114702306687831879,0.017279684543609619,0.001134832273237407,0.058027066290378571,0.112083382904529572,-0.138932034373283386,0.037198621779680252,-0.088987506926059723,0.166630983352661133,-0.003614525776356459,0.108163259923458099,0.027963813394308090,-0.068272083997726440,-0.395050883293151855,0.184889182448387146,-0.068762496113777161,-0.353677898645401001,-0.056082312017679214,-0.118153549730777740,0.014920732937753201,0.032419025897979736,0.202525883913040161,-0.146951749920845032,-0.073890268802642822,0.075437344610691071,-0.158135682344436646,-0.245575547218322754,-0.030386021360754967,-0.190932705998420715,0.048371966928243637,0.173496827483177185,0.138214841485023499,0.038612920790910721,-0.011104724369943142,-0.386031001806259155,0.013690665364265442,0.008300265297293663,0.148112446069717407,-0.246968552470207214,0.112846225500106812,-0.095320031046867371,-0.020605269819498062,-0.003442640183493495,0.007879395969212055,-0.090560913085937500,-0.012362756766378880,-0.015743609517812729,0.184155851602554321,0.103526689112186432,-0.050274781882762909,0.016359919682145119,0.145183131098747253,0.001549628679640591,-0.025877553969621658,0.027188424021005630,-0.085279397666454315,-0.006576770916581154,0.063549719750881195,0.281827449798583984
0.006816679611802101,-0.021195102483034134,-0.083922356367111206,-0.033752102404832840,0.033703964203596115,-0.063668034970760345,0.060696672648191452,0.061921305954456329,-0.007354569155722857,0.009020581841468811,0.033960741013288498,0.066560730338096619,-0.082783393561840057,-0.083147570490837097,0.006659315433353186,0.027879323810338974,0.015730176120996475,0.027930373325943947,0.014060661196708679,0.018559403717517853,-0.005341328680515289,0.002468649297952652,-0.060005135834217072,0.076085217297077179,0.045917239040136337,-0.023331500589847565,-0.002015440491959453,-0.036524824798107147,0.029318723827600479,0.001681680791079998,0.029485642910003662,0.003911439329385757,-0.009169558063149452,0.060462605208158493,-0.060056783258914948,0.006449773907661438,-0.017879232764244080,0.029460480436682701,-0.013515925966203213,-0.062523417174816132,-0.058010969310998917,0.006556298118084669,-0.003441487671807408,-0.016781823709607124,0.056651428341865540,0.070445656776428223,0.004968401044607162,0.006035387516021729,-0.051213815808296204,-0.036349643021821976,-0.071799241006374359,0.076023988425731659,0.041232496500015259,-0.027431594207882881,-0.043142426759004593,0.040708594024181366,-0.014632572419941425,-0.080006189644336700,0.058982163667678833,0.049861114472150803,-0.070593871176242828,-0.028587495908141136,-0.016866611316800117,-0.012837523594498634
0.141794994473457336,0.015402060933411121,0.065318487584590912,-0.101017087697982788,0.055389028042554855,0.029356501996517181,-0.035092145204544067,-0.170705109834671021,-0.229747682809829712,-0.174395069479942322,-0.019418692216277122,-0.074636168777942657,-0.218232870101928711,-0.059763472527265549,-0.080071493983268738,0.069308489561080933,-0.070338726043701172,-0.143596142530441284,-0.247449472546577454,-0.248767957091331482,-0.102698683738708496,0.199988692998886108,0.012517333030700684,0.026312839239835739,-0.219516217708587646,-0.509671211242675781,0.041925467550754547,-0.076512560248374939,-0.004301320761442184,-0.065918132662773132,-0.048456348478794098,0.002354982076212764,-0.089815720915794373,-0.192348003387451172,0.091897726058959961,0.025040941312909126,0.099024236202239990,-0.124813921749591827,-0.348542690277099609,-0.139552116394042969,0.033532284200191498,0.061942625790834427,-0.073481947183609009,-0.252745777368545532,0.019231719896197319,0.211766645312309265,-0.175166413187980652,-0.051929119974374771,-0.062604375183582306,0.035811334848403931,-0.109993249177932739,-0.281381934881210327,-0.050231318920850754,0.067020826041698456,-0.041813910007476807,-0.169644027948379517,0.271808713674545288,-0.099690966308116913,-0.056769557297229767,0.187695130705833435,-0.053028292953968048,-0.021478218957781792,-0.056709084659814835,0.145802512764930725
-0.119784608483314514,-0.254433304071426392,-0.266358673572540283,0.016456425189971924,0.144919916987419128,-0.034417409449815750,-0.083022035658359528,0.054350990802049637,-0.146396711468696594,-0.023579988628625870,-0.173071309924125671,0.097487978637218475,0.240309819579124451,0.012819270603358746,-0.546218514442443848,0.090970821678638458,-0.039194334298372269,-0.068561792373657227,-0.255181938409805298,-0.117941543459892273,-0.045713365077972412,-0.307318478822708130,-0.232505321502685547,-0.087597139179706573,-0.294709175825119019,-0.048861321061849594,-0.021819286048412323,0.048391297459602356,-0.109326094388961792,0.107305444777011871,-0.105485580861568451,-0.330782234668731689,-0.024745542556047440,0.037584967911243439,0.147185251116752625,0.073682293295860291,0.110199414193630219,-0.075809374451637268,-0.433706253767013550,0.140079855918884277,-0.135576948523521423,0.249600574374198914,-0.170817762613296509,-0.238706916570663452,-0.042536143213510513,-0.732277512550354004,-0.090227179229259491,0.055760283023118973,-0.061361737549304962,-0.175330385565757751,0.038660403341054916,0.077871330082416534,-0.003602534765377641,0.257764607667922974,-0.151244923472404480,-0.126376718282699585,0.074594333767890930,-0.050733495503664017,-0.350061655044555664,0.065937116742134094,-0.085312671959400177,0.222679838538169861,-0.241145819425582886,0.148200929164886475
0.278468877077102661,-0.137934818863868713,-0.024099150672554970,0.010441645048558712,0.148654267191886902,0.034539852291345596,0.132516473531723022,-0.356435000896453857,0.099053926765918732,-0.322245448827743530,0.074799329042434692,-0.109467528760433197,-0.059993185102939606,0.015498983673751354,0.017454147338867188,0.166578441858291626,0.136381894350051880,-0.120139740407466888,-0.212112441658973694,0.209642827510833740,-0.012129280716180801,-0.106299608945846558,-0.160980999469757080,-0.014251991175115108,-0.431941866874694824,-0.175684258341789246,0.044553231447935104,0.064605325460433960,-0.057575732469558716,-0.100314870476722717,-0.081555165350437164,0.186329647898674011,0.025203436613082886,-0.500574111938476562,-0.046876635402441025,0.082183063030242920,0.091138787567615509,-0.066952146589756012,-0.001901682117022574,-0.128573253750801086,0.012786732055246830,-0.087069280445575714,0.009460054337978363,-0.066286757588386536,-0.007185552269220352,0.093239635229110718,-0.175402224063873291,-0.009781923145055771,-0.019201317802071571,-0.067076176404953003,-0.074854783713817596,-0.096741698682308197,0.051997557282447815,0.022970292717218399,-0.026342159137129784,-0.221886679530143738,0.355673134326934814,0.031880520284175873,0.020354466512799263,-0.032436124980449677,-0.043186541646718979,-0.041995033621788025,0.202349990606307983,0.082446768879890442
0.039866987615823746,0.029774343594908714,-0.289514273405075073,-0.008130161091685295,-0.041988119482994080,-0.070746421813964844,0.205904364585876465,0.139369770884513855,-0.196856573224067688,-0.365973860025405884,0.070142090320587158,0.009955177083611488,0.059421900659799576,-0.141032665967941284,-0.040592394769191742,-0.201811864972114563,-0.167673423886299133,-0.162098243832588196,-0.542319476604461670,-0.195722699165344238,-0.041157927364110947,0.113252118229866028,-0.244028449058532715,-0.096834562718868256,-0.323652058839797974,0.042893320322036743,-0.079325988888740540,-0.131554305553436279,-0.035292156040668488,-0.211182713508605957,0.217712044715881348,-0.050899650901556015,-0.047177694737911224,-0.057584594935178757,-0.059143915772438049,0.040988232940435410,-0.268184632062911987,-0.088718615472316742,0.082547537982463837,-0.264436721801757812,-0.155888020992279053,-0.165469571948051453,-0.130582794547080994,-0.197325035929679871,-0.175920635461807251,0.141433879733085632,0.030990585684776306,-0.097260504961013794,-0.144071653485298157,0.084953650832176208,-0.050030548125505447,-0.160728335380554199,0.045825634151697159,-0.055378921329975128,-0.056983996182680130,-0.128010943531990051,0.022286159917712212,-0.054300036281347275,-0.161488518118858337,0.181446194648742676,-0.030972875654697418,0.197529658675193787,0.069345548748970032,0.375446528196334839
0.227534592151641846,-0.429403305053710938,0.077142566442489624,0.111934833228588104,-0.079879410564899445,0.082689329981803894,-0.056318581104278564,-0.319063931703567505,0.046338349580764771,-0.271834194660186768,-0.204753041267395020,0.149519965052604675,-0.024514406919479370,-0.179007351398468018,-0.490457296371459961,0.163103848695755005,0.179964229464530945,-0.144204929471015930,-0.558106601238250732,-0.079911701381206512,-0.070733703672885895,0.066269807517528534,-0.003196905367076397,-0.124573118984699249,-0.163590997457504272,-0.124533265829086304,0.125760942697525024,-0.233498021960258484,0.057132843881845474,0.254075735807418823,-0.011194380000233650,-0.093098215758800507,-0.113783739507198334,-0.401451021432876587,-0.067334048449993134,0.046282704919576645,0.051713053137063980,-0.119884356856346130,-0.344608038663864136,-0.037936054170131683,0.068402826786041260,-0.017999518662691116,-0.133502840995788574,-0.167596727609634399,-0.096340425312519073,0.158825814723968506,0.102024175226688385,0.196857973933219910,-0.006868082564324141,-0.166806235909461975,0.029152484610676765,0.140429556369781494,0.000016114878235385,-0.020967630669474602,0.084188506007194519,-0.221441090106964111,0.061226785182952881,-0.088981240987777710,0.038921039551496506,0.085498884320259094,0.062858797609806061,-0.213884770870208740,0.187112182378768921,0.012932287529110909
0.093420229852199554,0.049715336412191391,-0.564579129219055176,0.123045563697814941,0.124746076762676239,-0.284736990928649902,0.048255287110805511,0.077372469007968903,-0.108549252152442932,0.129224151372909546,0.218643233180046082,0.196686461567878723,-0.194060206413269043,-0.341029763221740723,0.133636578917503357,0.071296118199825287,-0.318780124187469482,-0.289193123579025269,-0.088458441197872162,0.092128634452819824,-0.051779720932245255,-0.022740716114640236,-0.294930756092071533,-0.098187640309333801,-0.061431694775819778,0.103608772158622742,-0.234390109777450562,0.064294114708900452,-0.153544709086418152,0.060154736042022705,0.243700757622718811,-0.279969215393066406,-0.014253684319555759,0.129565343260765076,-0.149579808115959167,-0.002866061404347420,0.101230733096599579,-0.076431319117546082,0.057591762393712997,-0.218479812145233154,-0.099341005086898804,0.031338382512331009,0.214923337101936340,0.021166658028960228,0.089265838265419006,-0.020730014890432358,-0.111617393791675568,0.064717940986156464,-0.050926409661769867,-0.043739631772041321,-0.084373958408832550,-0.125557288527488708,0.181887596845626831,0.035303194075822830,0.033238925039768219,-0.221588522195816040,-0.008623637259006500,-0.113082148134708405,-0.264090865850448608,0.171255022287368774,0.019606759771704674,0.074524074792861938,-0.226503148674964905,0.215840101242065430
-0.101923912763595581,0.093289554119110107,0.397894382476806641,-0.119805589318275452,-0.227411985397338867,-0.034522332251071930,0.136037036776542664,-0.084369108080863953,0.066805452108383179,-0.019408613443374634,-0.157018110156059265,-0.050322532653808594,-0.180099725723266602,-0.046254344284534454,0.181842103600502014,-0.130408689379692078,-0.177106812596321106,0.030091274529695511,0.055209286510944366,0.025543158873915672,0.004541721660643816,-0.130499407649040222,-0.254907935857772827,-0.043131269514560699,0.109895013272762299,-0.041253089904785156,-0.025738373398780823,-0.119192987680435181,0.023615431040525436,0.217274516820907593,-0.019101915881037712,-0.001090804929845035,-0.057471219450235367,0.142098054289817810,0.190687030553817749,0.150856003165245056,0.002292606513947248,-0.219243735074996948,0.044812433421611786,-0.073010258376598358,-0.280482977628707886,0.046379856765270233,0.434700816869735718,-0.182091012597084045,-0.170653581619262695,-0.074784003198146820,0.067411050200462341,-0.027667818590998650,-0.098726108670234680,-0.043162334710359573,-0.173538759350776672,-0.222430810332298279,0.257471174001693726,0.065042354166507721,0.048149570822715759,-0.008756943978369236,-0.164098829030990601,-0.026194341480731964,-0.258499234914779663,-0.035152629017829895,-0.009803784079849720,-0.129876881837844849,-0.032548811286687851,0.253909528255462646
-0.007267500739544630,0.011397883296012878,-0.037369940429925919,-0.003933550324290991,-0.081155195832252502,-0.246032252907752991,0.078268356621265411,0.114710398018360138,-0.021360954269766808,0.254101932048797607,-0.187886759638786316,0.020422976464033127,0.036013811826705933,0.224300667643547058,0.075155399739742279,0.255488276481628418,0.182551324367523193,-0.173050224781036377,-0.146117404103279114,0.354222059249877930,-0.024042733013629913,-0.369059175252914429,-0.195938438177108765,0.024830110371112823,0.201673209667205811,-0.237564265727996826,0.091875381767749786,0.011746187694370747,-0.024517111480236053,0.353435635566711426,0.071899980306625366,0.122167795896530151,0.077154763042926788,0.097647652029991150,0.147028699517250061,0.061374627053737640,-0.014102879911661148,-0.037573009729385376,0.008870138786733150,-0.103684708476066589,-0.086680501699447632,0.162135094404220581,0.135911926627159119,-0.148841097950935364,0.387559235095977783,-0.068076558411121368,0.124004930257797241,-0.146338835358619690,-0.010908647440373898,0.118238359689712524,-0.098882414400577545,0.029271297156810760,0.089524641633033752,-0.194905787706375122,-0.097533784806728363,-0.264564067125320435,0.214911699295043945,0.015592284500598907,-0.147376045584678650,-0.002680747304111719,-0.016995213925838470,0.021194975823163986,-0.501015305519104004,0.136852890253067017
-0.389069616794586182,-0.086018778383731842,-0.116258211433887482,0.045786514878273010,-0.232999324798583984,-0.253603190183639526,-0.036583513021469116,-0.052003443241119385,-0.148783504962921143,-0.017405621707439423,0.254069417715072632,-0.069436110556125641,0.013472933322191238,-0.062165874987840652,0.115008562803268433,0.067255482077598572,0.223422378301620483,-0.211230650544166565,0.063354983925819397,-0.084814973175525665,-0.063315451145172119,-0.067510910332202911,-0.097356811165809631,0.024387080222368240,-0.204923361539840698,0.072090908885002136,0.336058080196380615,-0.118969380855560303,0.131698235869407654,-0.176287487149238586,-0.080124482512474060,-0.193204373121261597,-0.035254694521427155,-0.155756816267967224,0.196048974990844727,-0.028170980513095856,0.256464093923568726,-0.060718704015016556,0.141221508383750916,0.285041868686676025,-0.206580922007560730,0.152476534247398376,-0.052278894931077957,0.040225591510534286,-0.239938169717788696,0.258851051330566406,0.148418098688125610,-0.106110773980617523,-0.117579683661460876,-0.066394463181495667,-0.104738317430019379,0.037011276930570602,-0.239503785967826843,0.151982843875885010,-0.065783791244029999,0.013513711281120777,-0.007769520860165358,-0.042881373316049576,0.014559281989932060,-0.245992735028266907,-0.027737688273191452,0.057434566318988800,0.046651445329189301,-0.070098221302032471
0.090749815106391907,-0.030326254665851593,0.146773502230644226,-0.065236479043960571,0.069634519517421722,-0.019952062517404556,0.108433686196804047,0.049970913678407669,0.196533113718032837,-0.050142981112003326,0.011202829889953136,0.005366867408156395,-0.089492969214916229,0.040751643478870392,0.008635790087282658,0.117276817560195923,0.045282054692506790,-0.084550552070140839,-0.028084749355912209,-0.058212500065565109,0.050283744931221008,0.045653782784938812,0.091180749237537384,0.022063111886382103,-0.020093193277716637,0.060562387108802795,-0.053451284766197205,-0.056769784539937973,-0.074605338275432587,-0.091556377708911896,0.063102379441261292,-0.096893109381198883,0.057206116616725922,-0.127190530300140381,-0.115410521626472473,0.170789942145347595,-0.080880865454673767,-0.002312876284122467,0.005608672276139259,-0.065954044461250305,-0.000765930046327412,0.010851810686290264,0.001134007587097585,0.041717242449522018,0.043973043560981750,0.166184559464454651,0.034527588635683060,0.225696772336959839,0.061252240091562271,-0.063512958586215973,-0.042877141386270523,0.074423111975193024,0.003640260081738234,-0.033305633813142776,-0.002378761768341064,-0.051875229924917221,-0.034974429756402969,-0.016120821237564087,-0.088416263461112976,0.056645724922418594,-0.013328014872968197,-0.039736066013574600,0.046493224799633026,0.127139538526535034
-0.137656003236770630,-0.055178023874759674,0.196367159485816956,-0.184960216283798218,-0.458902806043624878,0.107700839638710022,-0.077455468475818634,0.014050584286451340,-0.193048462271690369,-0.313388645648956299,-0.076349057257175446,0.285894274711608887,0.003876660251989961,0.004791893996298313,0.001470997929573059,-0.247106403112411499,-0.322566926479339600,0.063205800950527191,-0.086365908384323120,0.010371356271207333,-0.059114180505275726,-0.121204860508441925,-0.361435204744338989,0.079871587455272675,-0.168840363621711731,0.070634014904499054,0.001531961024738848,0.228193417191505432,-0.015788517892360687,0.364154130220413208,0.144133597612380981,-0.172188073396682739,-0.071722686290740967,0.190001294016838074,0.075929157435894012,-0.050265558063983917,-0.067728795111179352,-0.059188481420278549,-0.231133773922920227,-0.291715115308761597,-0.431345552206039429,0.091893844306468964,-0.143206015229225159,-0.319050818681716919,0.078309223055839539,-0.384686738252639771,-0.015702316537499428,0.023547494783997536,-0.113184489309787750,-0.193915426731109619,0.001592011889442801,-0.097268752753734589,-0.053309466689825058,0.017839808017015457,0.078643716871738434,0.216607719659805298,-0.041194722056388855,-0.038138777017593384,-0.215811550617218018,0.251302599906921387,-0.108345560729503632,-0.479762583971023560,0.023286404088139534,0.246430009603500366
0.091809794306755066,-0.218240469694137573,-0.096545077860355377,-0.051939457654953003,0.269677698612213135,0.080678611993789673,-0.135749191045761108,-0.240433767437934875,-0.051614310592412949,-0.066451981663703918,-0.488222301006317139,0.181996077299118042,-0.417292505502700806,0.072834707796573639,-0.422315925359725952,-0.002724569523707032,0.082613088190555573,-0.105976291000843048,-0.198551714420318604,-0.082849904894828796,-0.013720883987843990,0.151324748992919922,0.178260535001754761,-0.080292262136936188,-0.163673341274261475,-0.070556655526161194,0.017986310645937920,0.069078490138053894,-0.096353627741336823,0.016268283128738403,-0.130282953381538391,-0.213746771216392517,-0.068507052958011627,0.208691403269767761,-0.098652020096778870,-0.131390810012817383,-0.150218576192855835,-0.111288309097290039,-0.029153769835829735,0.175797015428543091,0.010925265960395336,0.003524901811033487,0.090208813548088074,-0.381366163492202759,0.051575902849435806,0.128413125872612000,-0.283206552267074585,0.261041343212127686,-0.050403892993927002,-0.136169254779815674,0.053996805101633072,0.142079800367355347,-0.065182745456695557,-0.050456598401069641,0.078893810510635376,0.018705355003476143,0.292109608650207520,0.017990056425333023,0.074517376720905304,0.258761197328567505,-0.063994936645030975,-0.132769063115119934,-0.048564616590738297,-0.060694735497236252
0.053687363862991333,-0.033935740590095520,0.272415280342102051,-0.044059161096811295,-0.427205592393875122,0.132212623953819275,-0.245571523904800415,0.270141035318374634,-0.010453076101839542,0.222740650177001953,0.065587997436523438,0.046757746487855911,-0.049413401633501053,0.144496276974678040,0.229637384414672852,0.071167014539241791,0.219568222761154175,-0.065801762044429779,-0.377301424741744995,0.212734237313270569,-0.111099548637866974,0.005711597390472889,0.215102821588516235,-0.159511893987655640,-0.158688068389892578,0.163032233715057373,0.157379746437072754,-0.366147488355636597,0.019813710823655128,0.018002742901444435,0.202325627207756042,-0.311668038368225098,-0.108537055552005768,0.288567513227462769,0.177792742848396301,0.114357993006706238,0.067665964365005493,-0.076760679483413696,0.108652509748935699,-0.088439069688320160,0.161170721054077148,0.018361210823059082,0.128690779209136963,-0.085252888500690460,0.128489762544631958,-0.087439015507698059,-0.091119542717933655,-0.077171370387077332,0.039551571011543274,0.037709884345531464,-0.126182779669761658,0.124060228466987610,0.060525983572006226,0.019002083688974380,-0.147936925292015076,0.063942357897758484,-0.063560143113136292,0.017198214307427406,-0.000723701086826622,-0.050919130444526672,-0.054028496146202087,-0.039330627769231796,-0.259484589099884033,0.181060925126075745
