0.111644834280014038
-0.070565901696681976
-0.033719073981046677
-0.009116448462009430
0.040321957319974899
-0.006436451338231564
-0.009917157702147961
-0.004004206042736769
-0.009537155739963055
-0.007646279875189066
-0.039862822741270065
0.110264420509338379
-0.056878656148910522
-0.025768997147679329
-0.005629373248666525
0.037005823105573654
-0.011381748132407665
-0.010515266098082066
-0.009197905659675598
-0.059705801308155060
-0.009098212234675884
0.057305030524730682
-0.025578513741493225
-0.102689862251281738
-0.007624971214681864
-0.021365167573094368
-0.007917505688965321
0.126372173428535461
-0.088613115251064301
-0.015451317653059959
0.095312729477882385
-0.007264619693160057
0.004452493507415056
0.092325754463672638
-0.106128901243209839
-0.007771618664264679
-0.009165123105049133
-0.066907979547977448
-0.064047150313854218
-0.014721837826073170
-0.009871992282569408
0.027939699590206146
0.080569438636302948
-0.003179707098752260
0.060141820460557938
-0.009743944741785526
-0.009675860404968262
-0.005989456549286842
0.009407388977706432
-0.026393605396151543
-0.043184865266084671
-0.006700773257762194
-0.023122910410165787
0.007495818659663200
-0.028831370174884796
-0.030437301844358444
-0.011982794851064682
-0.014758909121155739
-0.032510310411453247
-0.016531612724065781
-0.012566222809255123
0.032336801290512085
-0.001488529727794230
-0.034246362745761871
0.013043558225035667
-0.015336372889578342
-0.008037663064897060
-0.020005561411380768
0.006454517599195242
0.032897468656301498
-0.012075109407305717
-0.010398107580840588
-0.062042422592639923
-0.006996047217398882
-0.007155377417802811
-0.009185982868075371
0.042633332312107086
-0.007840799167752266
0.015427506528794765
-0.067874111235141754
-0.011409768834710121
-0.003985708113759756
-0.003575623733922839
-0.007390802260488272
-0.024422787129878998
0.053559701889753342
-0.010358821600675583
-0.021633923053741455
-0.009523705579340458
-0.025168549269437790
-0.007347824051976204
-0.006138776428997517
-0.001151181175373495
-0.077498987317085266
-0.009251495823264122
0.021120047196745872
-0.068684108555316925
0.149810791015625000
0.033258453011512756
-0.009646030142903328
-0.004024350550025702
0.152276203036308289
0.000000000000000000
-0.009205889888107777
-0.006649115122854710
-0.031682725995779037
-0.019360993057489395
0.016749553382396698
-0.027572665363550186
-0.038225941359996796
-0.026277091354131699
-0.008883422240614891
-0.073744438588619232
-0.005918990820646286
-0.055558584630489349
0.036251600831747055
-0.017496941611170769
-0.043943230062723160
-0.014735399745404720
-0.003853546921163797
-0.030152985826134682
0.070137649774551392
-0.017427839338779449
-0.014613321051001549
-0.068421721458435059
-0.004509627819061279
0.043841823935508728
-0.009251514449715614
