0.089106850326061249
-0.007083512842655182
0.029756877571344376
-0.016049770638346672
-0.003155366051942110
0.076546110212802887
0.013015424832701683
-0.022142712026834488
0.015918666496872902
0.044385567307472229
0.044834617525339127
-0.035869449377059937
0.056606553494930267
-0.014374412596225739
0.077509775757789612
0.025687284767627716
0.021600363776087761
0.014248446561396122
-0.023980289697647095
0.059067111462354660
-0.002371812472119927
-0.005352938082069159
-0.007386450655758381
-0.008023597300052643
0.003427369520068169
-0.022076511755585670
-0.010964910499751568
0.022926121950149536
0.009898499585688114
-0.008544139564037323
-0.017840694636106491
0.041615437716245651
0.077450521290302277
-0.012229146435856819
0.012558170594274998
0.065755456686019897
0.006104977801442146
0.031865835189819336
-0.051210727542638779
0.067147314548492432
0.049884542822837830
-0.024022517725825310
0.010642229579389095
0.081837318837642670
0.028433101251721382
-0.000859573949128389
-0.073321260511875153
0.070143282413482666
-0.021558819338679314
-0.025811504572629929
0.012452670373022556
0.060665760189294815
-0.011889925226569176
-0.041543420404195786
0.070691980421543121
0.061934169381856918
0.077438570559024811
0.021423755213618279
-0.012632218189537525
0.034007359296083450
-0.035958003252744675
0.017346147447824478
0.041233800351619720
0.057688549160957336
0.044398911297321320
-0.007931030355393887
-0.017803668975830078
0.076208986341953278
0.056052781641483307
0.032345015555620193
0.015000116080045700
-0.059585578739643097
0.035392977297306061
-0.008486900478601456
