0.008297505788505077
0.098049096763134003
0.031607545912265778
0.065127223730087280
0.057229340076446533
0.035368353128433228
-0.035181213170289993
0.114084102213382721
0.007081170566380024
0.021925764158368111
-0.015609496273100376
0.009350732900202274
-0.075446836650371552
-0.027857456356287003
-0.031555235385894775
0.058219086378812790
-0.049017615616321564
0.053776267915964127
0.006538297049701214
0.010350706987082958
0.037371426820755005
0.008721129968762398
0.050356969237327576
-0.021820448338985443
-0.019246177747845650
0.046074390411376953
-0.090735673904418945
-0.001309287501499057
0.070890292525291443
0.044193346053361893
0.086382552981376648
-0.037390395998954773
-0.016375338658690453
-0.009456047788262367
0.050613749772310257
0.047940492630004883
0.085624463856220245
-0.095934271812438965
0.140794232487678528
0.023477468639612198
0.066865056753158569
-0.006896737031638622
0.041933108121156693
-0.054146062582731247
0.006686759181320667
-0.087233170866966248
0.084754191339015961
-0.001651567756198347
0.029956279322504997
0.053660593926906586
0.070658855140209198
0.034906618297100067
0.075097821652889252
0.003748937509953976
-0.008918490260839462
-0.009519717656075954
-0.039114288985729218
0.056749291718006134
-0.004751365166157484
0.019173605367541313
0.025858245790004730
-0.001623533782549202
-0.080535680055618286
-0.004619451239705086
0.019810985773801804
0.012776953168213367
-0.065100841224193573
-0.018667690455913544
0.021454695612192154
0.055771898478269577
-0.002260539447888732
0.052163396030664444
0.005750630516558886
0.085023529827594757
0.044119324535131454
0.029686629772186279
