0.072613410651683807
0.025308430194854736
-0.026511102914810181
0.009000522084534168
0.038848262280225754
0.004661103244870901
-0.001240714453160763
-0.013515881262719631
0.093103982508182526
-0.003201582236215472
0.050555799156427383
0.047539968043565750
-0.013385553844273090
0.067092664539813995
0.071981355547904968
0.045134842395782471
-0.024323249235749245
0.013395597226917744
0.000977174611762166
0.017916422337293625
0.003423322224989533
-0.005485769826918840
-0.019425535574555397
0.045311801135540009
0.069572083652019501
0.091081008315086365
0.007658865768462420
0.041566800326108932
0.064159989356994629
0.006102619692683220
-0.017278617247939110
-0.003569609951227903
0.007361140567809343
-0.013477721251547337
0.060369331389665604
-0.006360196042805910
0.029940720647573471
0.060049809515476227
0.089163541793823242
0.077586166560649872
-0.054923471063375473
-0.031385987997055054
0.001656585023738444
-0.023423003032803535
0.079777009785175323
0.050263676792383194
0.021631555631756783
0.045609652996063232
-0.002221708185970783
0.051290195435285568
-0.033355955034494400
0.000000000000000000
0.016729280352592468
-0.010559435002505779
0.072678364813327789
0.088181480765342712
0.085607811808586121
0.039129406213760376
0.015254390425980091
0.097122952342033386
0.032876327633857727
-0.040691971778869629
-0.005901633761823177
0.061044469475746155
0.026844864711165428
0.065522536635398865
-0.043032526969909668
0.006840379443019629
-0.030853806063532829
-0.014623916707932949
0.059370100498199463
0.050391782075166702
0.046502236276865005
0.045497454702854156
0.028469160199165344
-0.053476583212614059
0.088314235210418701
0.038260560482740402
-0.017935041338205338
-0.013944382779300213
-0.015234692022204399
0.045154836028814316
0.032918266952037811
0.074441589415073395
-0.081596709787845612
0.081873476505279541
0.043310608714818954
-0.012559559196233749
-0.005866013001650572
-0.022796511650085449
0.070661358535289764
0.056497216224670410
-0.011147924698889256
0.061729744076728821
-0.019308848306536674
0.067172877490520477
-0.007203815039247274
0.025836965069174767
