-0.011750989593565464
-0.046666696667671204
-0.059500142931938171
-0.081140458583831787
-0.016804067417979240
0.140802904963493347
-0.062969096004962921
0.011819815263152122
-0.042599558830261230
-0.000714247056748718
0.015083388425409794
0.045623756945133209
-0.046776376664638519
-0.036310270428657532
-0.079496644437313080
-0.098727926611900330
0.062819197773933411
-0.007437142077833414
-0.005394433159381151
0.010180810466408730
-0.052518673241138458
0.018155800178647041
0.061116576194763184
0.044109221547842026
-0.005766359623521566
0.017250031232833862
0.130284219980239868
-0.058955866843461990
0.005731384269893169
-0.024320589378476143
0.021306009963154793
-0.081525206565856934
0.020365798845887184
-0.078370362520217896
0.019204206764698029
0.050481144338846207
0.004867850337177515
-0.021760674193501472
0.046126149594783783
-0.010724768042564392
-0.021393790841102600
-0.014319173060357571
-0.114628143608570099
-0.005871024914085865
-0.005184187553822994
0.017673010006546974
-0.051961582154035568
0.033855773508548737
-0.031251624226570129
-0.019944380968809128
0.029992368072271347
-0.081371054053306580
-0.001853594090789557
0.125446021556854248
0.011736487038433552
0.013558788225054741
-0.004146827850490808
0.012005743570625782
-0.064416974782943726
-0.000378994765924290
-0.025951355695724487
-0.082622729241847992
-0.054339963942766190
-0.033408708870410919
0.071122139692306519
-0.023141870275139809
0.126668468117713928
-0.115460045635700226
0.022114798426628113
0.010490567423403263
-0.052025523036718369
0.101883575320243835
-0.067678906023502350
-0.030929511412978172
-0.042853381484746933
-0.020847890526056290
-0.038075283169746399
-0.090233512222766876
0.025551188737154007
0.020114151760935783
-0.040663499385118484
0.021014457568526268
-0.003466869238764048
0.022254664450883865
0.032070402055978775
-0.015430055558681488
-0.006723884027451277
-0.046476341784000397
0.074447564780712128
-0.042984452098608017
-0.026451250538229942
-0.024740092456340790
-0.001510348636657000
-0.034377340227365494
0.050962563604116440
-0.024780055508017540
0.036918565630912781
-0.042767584323883057
0.086623534560203552
0.033287402242422104
-0.015536450780928135
0.033517356961965561
0.043928075581789017
0.004663301631808281
-0.010037567466497421
0.002888878807425499
0.033828999847173691
0.022912649437785149
0.035494115203619003
0.046716231852769852
0.015705205500125885
-0.110895566642284393
0.026647381484508514
-0.025935525074601173
-0.018136659637093544
0.017295459285378456
-0.010406908579170704
-0.007759503554552794
-0.012198621407151222
0.002689891029149294
0.045652657747268677
-0.000238695763982832
0.018524788320064545
0.018165718764066696
0.065478034317493439
-0.034819558262825012
-0.034238174557685852
0.003568404819816351
0.042661972343921661
0.063989251852035522
-0.026837741956114769
0.131483405828475952
0.065089218318462372
0.035629026591777802
-0.019253052771091461
-0.003605848178267479
0.052395086735486984
-0.017366681247949600
0.032010972499847412
-0.095143385231494904
0.016853159293532372
0.037872333079576492
-0.040499061346054077
0.003011947963386774
-0.060447819530963898
0.087260536849498749
-0.014213467016816139
-0.019099501892924309
0.063636481761932373
0.069049105048179626
-0.098419472575187683
-0.093425720930099487
0.092106021940708160
-0.018376447260379791
-0.006286084651947021
0.007004819344729185
-0.015025884844362736
-0.004985194653272629
-0.007788244169205427
-0.070424765348434448
0.027706110849976540
0.038269236683845520
-0.045233897864818573
-0.051507160067558289
0.015485956333577633
-0.067784875631332397
0.005689524114131927
0.064821891486644745
0.089480683207511902
-0.030225967988371849
0.012877909466624260
-0.026132266968488693
0.027979265898466110
-0.002520782873034477
0.025407630950212479
0.038936384022235870
-0.007973984815180302
0.069188013672828674
0.012475362978875637
-0.010387969203293324
0.064310744404792786
0.041898775845766068
-0.022502429783344269
-0.078169405460357666
-0.011392055079340935
0.005702283699065447
-0.002028835238888860
-0.024171831086277962
0.036000531166791916
-0.109636642038822174
0.074616789817810059
-0.002992095425724983
-0.022737182676792145
0.018453029915690422
-0.054011080414056778
-0.054487366229295731
-0.021566087380051613
-0.094029203057289124
-0.014440177939832211
0.024719288572669029
0.011912700720131397
0.113858982920646667
-0.041326832026243210
0.051092736423015594
-0.059351343661546707
0.026917945593595505
0.007776044774800539
0.036236442625522614
-0.049462158232927322
0.014732152223587036
-0.005367885809391737
0.027210356667637825
0.061842929571866989
0.018903013318777084
-0.015181254595518112
-0.043638788163661957
0.068638630211353302
-0.002493224572390318
-0.016197739169001579
0.051232527941465378
-0.016005102545022964
0.070581525564193726
-0.001419514650478959
0.044647693634033203
-0.059650234878063202
-0.072638362646102905
0.091241836547851562
-0.107790350914001465
0.056226555258035660
0.016518648713827133
0.090905800461769104
0.074149034917354584
0.097360625863075256
-0.037041079252958298
0.093871936202049255
-0.027289692312479019
-0.050188694149255753
-0.020020138472318649
-0.038898721337318420
-0.043431609869003296
0.024499030783772469
0.001833202317357063
-0.064399197697639465
0.039670433849096298
0.038352560251951218
-0.008525436744093895
0.046109899878501892
-0.018248576670885086
0.062521003186702728
-0.038936298340559006
0.075389966368675232
-0.024543585255742073
-0.040609970688819885
-0.123419485986232758
0.054570689797401428
0.061658114194869995
0.076197803020477295
-0.039316337555646896
0.028326798230409622
-0.025230625644326210
0.037889514118432999
-0.017514256760478020
-0.004117556381970644
-0.075359806418418884
0.033380612730979919
-0.048870686441659927
0.016496032476425171
-0.034353461116552353
0.055890828371047974
0.063145831227302551
-0.030145132914185524
0.054279219359159470
0.021794248372316360
0.040585163980722427
-0.013143270276486874
-0.083286501467227936
-0.012219080701470375
-0.044589802622795105
0.081158608198165894
0.048505153506994247
-0.037097755819559097
-0.032917451113462448
0.052131138741970062
-0.002885304391384125
-0.047167960554361343
-0.016795204952359200
-0.043541822582483292
0.007289823610335588
0.065906859934329987
0.006135175470262766
0.052116312086582184
0.017595130950212479
0.016966475173830986
0.008793135173618793
-0.019407216459512711
-0.053532373160123825
-0.068690843880176544
0.037256214767694473
0.006773535627871752
-0.032307725399732590
0.000236775609664619
0.020043468102812767
-0.024637758731842041
-0.081384807825088501
-0.006221677642315626
0.005984071176499128
0.047072738409042358
0.052772339433431625
0.007119895424693823
-0.003733868943527341
-0.002638670383021235
0.039980430155992508
-0.092086613178253174
0.010780616663396358
-0.004945397377014160
0.029024280607700348
0.008521913550794125
0.066701062023639679
0.013343048281967640
-0.018813926726579666
0.055692188441753387
-0.006419553887099028
0.081768848001956940
0.005564169958233833
-0.007642129901796579
0.006506578996777534
0.017601210623979568
0.090368457138538361
-0.015507612377405167
0.024406004697084427
0.036113228648900986
0.046263322234153748
0.018315240740776062
-0.007868183776736259
-0.035303067415952682
-0.054559845477342606
0.004771097563207150
0.089997291564941406
-0.019283702597022057
-0.082331210374832153
-0.053599338978528976
-0.031169638037681580
-0.020109850913286209
0.084623642265796661
-0.020467281341552734
-0.010912590660154819
0.050660211592912674
0.002990295644849539
0.027767391875386238
-0.016400506719946861
0.073081247508525848
0.001972179627045989
-0.067748919129371643
-0.005303326994180679
0.022344289347529411
0.000030266499379650
0.065423317253589630
-0.027165809646248817
-0.047589458525180817
0.105043612420558929
-0.040205117315053940
-0.021113587543368340
0.072324998676776886
-0.031478524208068848
-0.012994671240448952
-0.007241750136017799
0.050007451325654984
-0.058507684618234634
0.001744750305078924
0.013427479192614555
-0.001542691956274211
0.012120228260755539
-0.036088161170482635
-0.074467666447162628
-0.021351957693696022
0.112453199923038483
0.001188725582323968
0.040292855352163315
0.062771908938884735
0.034899335354566574
0.047487515956163406
-0.005780706647783518
0.025938754901289940
0.044373910874128342
0.050234206020832062
-0.043602496385574341
0.022116405889391899
-0.069984301924705505
-0.054270830005407333
0.002932018600404263
-0.035334587097167969
-0.060878645628690720
-0.025803744792938232
0.075257994234561920
0.013131819665431976
-0.000313662050757557
0.001507928711362183
-0.030913302674889565
0.017989436164498329
-0.038428392261266708
0.000948476139456034
0.041075348854064941
0.065382502973079681
0.077289126813411713
-0.052619110792875290
-0.025058431550860405
0.009578354656696320
-0.029092643409967422
-0.082206852734088898
-0.018414951860904694
-0.045462939888238907
-0.038157656788825989
-0.024916194379329681
0.025406755506992340
0.035459622740745544
-0.022338310256600380
-0.010314633138477802
0.041435241699218750
0.042002841830253601
-0.034957077354192734
0.080049782991409302
-0.008429449982941151
-0.063415214419364929
0.045791808515787125
0.056067630648612976
-0.031781062483787537
0.047357391566038132
-0.043851278722286224
-0.002897338941693306
-0.025579720735549927
-0.062195010483264923
0.015771251171827316
-0.001450851792469621
-0.035498082637786865
-0.015742661431431770
0.032224029302597046
-0.021942241117358208
-0.043210815638303757
-0.006087367888540030
-0.011489035561680794
0.018805371597409248
-0.002305880654603243
-0.046388387680053711
-0.011526115238666534
-0.016124494373798370
0.007092901971191168
0.054643407464027405
-0.062625341117382050
0.100458115339279175
0.140168696641921997
-0.007771327160298824
-0.014745851978659630
-0.030428281053900719
-0.045144077390432358
-0.009291074238717556
-0.063977502286434174
0.010423029772937298
-0.002813854720443487
-0.066789776086807251
0.073111325502395630
0.050101958215236664
-0.007193449418991804
-0.003552454989403486
0.072590872645378113
0.020183222368359566
0.037117671221494675
0.016315650194883347
-0.016908567398786545
0.040005538612604141
0.075446695089340210
0.031542871147394180
0.010413706302642822
-0.030563682317733765
-0.051123272627592087
0.014972348697483540
-0.033629126846790314
-0.094178982079029083
0.055629502981901169
0.032304193824529648
-0.057375870645046234
0.036752045154571533
-0.007336706388741732
-0.031225472688674927
0.021282475441694260
-0.048286944627761841
0.001745273359119892
-0.073287434875965118
0.009125701151788235
-0.006411734502762556
-0.009536963887512684
0.018616391345858574
0.100654982030391693
-0.043736107647418976
0.028247315436601639
-0.077242255210876465
-0.042636416852474213
-0.014497595839202404
-0.012811526656150818
-0.060173027217388153
0.037278249859809875
0.046298887580633163
0.000970556691754609
0.087946444749832153
0.033567838370800018
-0.047763224691152573
-0.003671337850391865
-0.013098939321935177
0.013506494462490082
-0.063015654683113098
0.025009660050272942
-0.034490808844566345
-0.111743688583374023
