0.035968653857707977,0.057991370558738708,-0.013269960880279541,-0.002270460128784180,-0.051205612719058990,-0.053353853523731232,0.014088302850723267,0.027382671833038330,0.010036937892436981,-0.050697956234216690,0.029269598424434662,0.012365169823169708,0.062574163079261780,0.032087743282318115,0.042118415236473083,-0.083099007606506348,0.080380544066429138,-0.036766324192285538,0.007181420922279358,0.045593068003654480,-0.004547826945781708,0.049669384956359863,0.042841196060180664,0.002291865646839142,-0.072588324546813965,0.049448981881141663,0.018251739442348480,0.032104089856147766,0.002282343804836273,-0.012992292642593384,0.057114839553833008,0.025946088135242462,-0.051719043403863907,0.040301524102687836,0.012157700955867767,0.071156963706016541,-0.035658068954944611,-0.018442519009113312,0.065084293484687805,0.002973057329654694,0.066380724310874939,-0.036933206021785736,-0.068014092743396759,-0.074579522013664246,0.024505764245986938,-0.066509403288364410,0.032904624938964844,0.006230942904949188,0.043122947216033936,-0.055287778377532959,0.033174604177474976,-0.058061473071575165,-0.001550070941448212,-0.026851657778024673,0.020710863173007965,0.056448563933372498,0.019406050443649292,0.006346128880977631,0.074879273772239685,-0.082505360245704651,0.015756048262119293,-0.049427520483732224,0.075793758034706116,-0.045266292989253998,-0.043554153293371201,0.036160089075565338,0.001007869839668274,-0.038712691515684128,-0.020124666392803192,-0.053296063095331192,0.051218211650848389,-0.034282721579074860,0.014519184827804565,-0.025064401328563690,-0.056286942213773727,0.067660138010978699
0.044482797384262085,-0.001234434545040131,-0.001144059002399445,0.007357463240623474,-0.040234968066215515,-0.049211904406547546,0.023676432669162750,-0.039491683244705200,0.009438097476959229,-0.044298134744167328,-0.041994858533143997,-0.069348774850368500,0.041187427937984467,0.076103672385215759,-0.059663344174623489,0.047592028975486755,0.076601192355155945,-0.052280232310295105,-0.008812487125396729,-0.033245261758565903,0.049874618649482727,-0.015453487634658813,-0.016416743397712708,0.025930061936378479,0.056517809629440308,0.043230667710304260,-0.065583109855651855,0.006356842815876007,-0.013648092746734619,-0.001592330634593964,0.081045955419540405,0.066842138767242432,-0.025637976825237274,-0.071418493986129761,0.038153059780597687,-0.015957280993461609,0.022466495633125305,0.023374147713184357,0.001061916351318359,-0.077110260725021362,0.026648886501789093,0.064204290509223938,-0.054396174848079681,0.006530024111270905,0.055134654045104980,0.033138684928417206,-0.032382193952798843,0.069463402032852173,-0.009511701762676239,0.042320117354393005,0.062734112143516541,0.002457693219184875,0.006339058279991150,-0.078394874930381775,0.047536686062812805,0.006725676357746124,-0.066404573619365692,-0.081469677388668060,-0.063156262040138245,-0.047630686312913895,0.042970538139343262,0.006115943193435669,0.055479660630226135,0.049600362777709961,0.082345291972160339,-0.015899769961833954,-0.015002205967903137,0.079850122332572937,0.053821519017219543,0.023001395165920258,0.039409697055816650,-0.025541748851537704,-0.046669278293848038,-0.012544177472591400,0.045828893780708313,-0.012322135269641876
0.019550010561943054,-0.028831683099269867,-0.013825073838233948,-0.051397029310464859,-0.012866832315921783,-0.045004099607467651,0.040340490639209747,0.046525463461875916,-0.001274496316909790,-0.049987111240625381,-0.069673500955104828,0.070894822478294373,0.075590640306472778,0.024140872061252594,0.017336972057819366,0.065977767109870911,-0.008977495133876801,-0.057308606803417206,0.068113073706626892,0.049902454018592834,-0.007523886859416962,-0.067332245409488678,-0.015031307935714722,-0.026465557515621185,0.067837536334991455,0.029600217938423157,-0.069917932152748108,0.082475572824478149,0.006226502358913422,0.017347306013107300,0.012872666120529175,-0.021258786320686340,-0.026416268199682236,0.062614932656288147,-0.016831882297992706,0.065669849514961243,0.038601793348789215,0.065750733017921448,0.063520580530166626,-0.062670849263668060,0.036281086504459381,-0.008728668093681335,0.074270412325859070,0.042260363698005676,-0.049374129623174667,0.074509203433990479,0.058307617902755737,0.078246057033538818,-0.055984959006309509,0.066466048359870911,-0.066330812871456146,0.017670020461082458,-0.031791832298040390,-0.029465418308973312,0.083267897367477417,0.082592770457267761,0.052788168191909790,-0.081336908042430878,-0.014117591083049774,0.007629655301570892,0.020073361694812775,-0.073019869625568390,0.074040204286575317,0.070936068892478943,-0.052793681621551514,-0.037137188017368317,0.075652092695236206,-0.073249325156211853,-0.070970125496387482,0.016149975359439850,-0.051402684301137924,-0.026220649480819702,0.043937459588050842,0.000160090625286102,-0.033312015235424042,0.033404737710952759
0.020889073610305786,0.002177096903324127,-0.032861892133951187,-0.040476050227880478,0.032805792987346649,-0.008385881781578064,0.059273943305015564,-0.031508792191743851,0.019506402313709259,-0.036393485963344574,-0.050532486289739609,-0.051967754960060120,-0.078394815325737000,-0.070690847933292389,-0.043905582278966904,0.000245004892349243,0.040835306048393250,0.047651857137680054,-0.057106480002403259,-0.043311476707458496,0.068141669034957886,-0.034483738243579865,-0.003400877118110657,-0.045213181525468826,-0.006297782063484192,0.008408859372138977,-0.079194754362106323,-0.030958395451307297,-0.049740850925445557,0.046562314033508301,-0.040069580078125000,0.067268237471580505,-0.075646355748176575,0.033457808196544647,-0.045293375849723816,0.048640400171279907,0.038732126355171204,-0.020628914237022400,0.073058500885963440,-0.014503590762615204,-0.016264319419860840,-0.076055876910686493,-0.046825289726257324,-0.018467828631401062,-0.009667746722698212,-0.006349496543407440,0.073234766721725464,-0.056410610675811768,0.029045678675174713,-0.072660334408283234,0.042811542749404907,0.024230331182479858,0.057810604572296143,0.068283125758171082,0.017847038805484772,0.000216588377952576,0.038900367915630341,0.056184127926826477,0.022383712232112885,-0.078833751380443573,-0.031411089003086090,-0.038233771920204163,0.004324644804000854,-0.080590479075908661,-0.042508233338594437,0.044383153319358826,-0.013428099453449249,0.028750173747539520,0.056509524583816528,-0.040939357131719589,-0.034004181623458862,-0.034492798149585724,0.056706592440605164,0.035425491631031036,-0.058762498199939728,0.010354891419410706
-0.057521473616361618,-0.080508708953857422,0.076929613947868347,0.058228299021720886,0.079741030931472778,0.066555023193359375,-0.044611725956201553,0.039823018014431000,0.052390336990356445,-0.059905640780925751,0.043906047940254211,-0.012069560587406158,-0.031745154410600662,0.062383845448493958,-0.077602066099643707,-0.039702139794826508,0.077452406287193298,0.019303813576698303,-0.058380737900733948,-0.058150947093963623,0.030193768441677094,0.002865560352802277,0.019330538809299469,0.015172697603702545,-0.012659862637519836,-0.021611388772726059,-0.012295588850975037,0.031073704361915588,-0.064674913883209229,0.039733685553073883,0.070129677653312683,0.065966963768005371,0.058708906173706055,0.015351630747318268,-0.078109882771968842,-0.067110121250152588,0.042378485202789307,-0.058889292180538177,0.074135079979896545,0.080262869596481323,-0.036902695894241333,-0.071237534284591675,-0.028810910880565643,0.061729043722152710,0.017854765057563782,-0.076890885829925537,-0.064300425350666046,0.052143499255180359,0.049116730690002441,-0.033297758549451828,0.064469397068023682,0.077820107340812683,-0.044731471687555313,-0.026825629174709320,0.082779884338378906,-0.042139276862144470,0.068697959184646606,-0.028242357075214386,0.001719743013381958,-0.054787591099739075,0.078510656952857971,-0.036037635058164597,-0.006424814462661743,-0.034380301833152771,0.022638730704784393,-0.049082580953836441,0.075614765286445618,0.032315179705619812,-0.021672047674655914,-0.017763972282409668,-0.030752342194318771,-0.013451039791107178,0.056108653545379639,-0.081806749105453491,-0.004277303814888000,-0.080570518970489502
-0.068348400294780731,0.040379643440246582,0.041984170675277710,-0.057556107640266418,-0.057769328355789185,0.005762040615081787,-0.007691547274589539,-0.071491263806819916,-0.034735497087240219,0.004407942295074463,-0.070302814245223999,0.071068435907363892,-0.023377276957035065,0.007917098701000214,-0.073393858969211578,0.079671293497085571,-0.075178988277912140,0.055150285363197327,0.019940853118896484,0.050653412938117981,0.080089986324310303,0.058796972036361694,0.020489372313022614,0.030954673886299133,0.018742330372333527,-0.030278518795967102,0.020752899348735809,0.078062847256660461,-0.004889994859695435,-0.052708588540554047,0.005630649626255035,0.074432417750358582,0.008875511586666107,0.042395025491714478,0.023775503039360046,-0.053868222981691360,0.029301285743713379,-0.029644884169101715,-0.058900125324726105,-0.024082284420728683,-0.078390255570411682,0.041595280170440674,-0.073051333427429199,-0.077459715306758881,0.015177235007286072,0.056745365262031555,-0.036104947328567505,0.058915078639984131,-0.010128945112228394,0.001462727785110474,-0.025106422603130341,-0.075416222214698792,-0.059626862406730652,0.002228476107120514,-0.004638731479644775,-0.030292399227619171,0.009864658117294312,-0.044999897480010986,-0.058192308992147446,-0.000193171203136444,-0.060058046132326126,0.080247238278388977,0.050802558660507202,-0.045445721596479416,0.001532606780529022,-0.022002708166837692,0.044492945075035095,0.078794941306114197,0.035264045000076294,-0.019314825534820557,-0.021743781864643097,0.034184567630290985,0.066993281245231628,-0.045850399881601334,-0.014113567769527435,0.077367231249809265
-0.022456038743257523,-0.038068462163209915,-0.015732631087303162,-0.067984782159328461,-0.045492958277463913,-0.065266072750091553,0.006542801856994629,-0.081241674721240997,0.013133123517036438,-0.029202327132225037,0.048962637782096863,0.056610286235809326,-0.013679496943950653,-0.004836879670619965,0.023661293089389801,0.005802467465400696,0.046523347496986389,0.065844982862472534,0.079137757420539856,0.034729301929473877,-0.079058602452278137,0.003062129020690918,-0.039341170340776443,-0.081709027290344238,-0.011454366147518158,0.022786378860473633,0.083428367972373962,0.057264819741249084,-0.029914904385805130,0.080694094300270081,0.083402737975120544,0.026685275137424469,-0.080693654716014862,-0.022312037646770477,0.008092083036899567,0.079546540975570679,-0.010839149355888367,-0.012826904654502869,-0.014136135578155518,-0.028154455125331879,-0.075669594109058380,0.035740055143833160,-0.020931653678417206,0.040116041898727417,-0.049055181443691254,-0.063488416373729706,0.020277246832847595,-0.027242992073297501,0.006393782794475555,0.017170108854770660,0.003582715988159180,-0.042198821902275085,0.071140691637992859,-0.010253906250000000,0.023534402251243591,0.018801771104335785,-0.078268878161907196,-0.005824550986289978,-0.026163693517446518,-0.038104008883237839,0.071508288383483887,0.048896163702011108,-0.076269060373306274,0.069210335612297058,-0.033266592770814896,-0.056660734117031097,-0.023613020777702332,0.010285750031471252,0.062888368964195251,-0.076602764427661896,0.023500822484493256,0.078626960515975952,0.003658927977085114,0.026109106838703156,0.017361879348754883,-0.035746887326240540
-0.048878062516450882,0.076839640736579895,-0.068434327840805054,0.056345313787460327,0.068469330668449402,0.029711477458477020,-0.066625267267227173,0.077339440584182739,-0.058071367442607880,-0.029690608382225037,0.068680226802825928,0.024911880493164062,0.071032479405403137,0.068422779440879822,-0.049624890089035034,-0.055494610220193863,-0.047624234110116959,-0.020478896796703339,-0.023217860609292984,-0.045321255922317505,0.072576463222503662,-0.022687543183565140,-0.078165009617805481,-0.034883659332990646,0.020765386521816254,0.064068883657455444,-0.012287087738513947,-0.036261074244976044,-0.042940951883792877,-0.044110164046287537,0.058208540081977844,0.002015553414821625,-0.081825144588947296,0.074242219328880310,0.013291090726852417,-0.019090332090854645,0.047266647219657898,-0.003418937325477600,0.006538063287734985,-0.063722267746925354,-0.081826381385326385,-0.003344297409057617,0.036285072565078735,-0.072002544999122620,0.068450942635536194,-0.079176418483257294,-0.015434727072715759,-0.059633690863847733,-0.076057508587837219,0.016806729137897491,-0.080199673771858215,0.048667505383491516,0.016348935663700104,-0.061735272407531738,0.034621663391590118,0.040119268000125885,0.031704306602478027,-0.077636674046516418,-0.004307739436626434,-0.058399878442287445,-0.002543523907661438,0.042545676231384277,-0.036343242973089218,0.076555669307708740,0.057703077793121338,-0.050724640488624573,-0.045869976282119751,-0.057433828711509705,-0.067201912403106689,0.035293154418468475,0.017647810280323029,0.077516838908195496,0.001520998775959015,-0.040698990225791931,0.061260521411895752,0.082981199026107788
-0.038628913462162018,0.050361528992652893,-0.029481448233127594,-0.062101658433675766,0.082443669438362122,0.009965665638446808,0.080865293741226196,0.003571324050426483,0.063440009951591492,0.073936104774475098,0.009321413934230804,-0.077481761574745178,-0.006153777241706848,0.029996491968631744,0.081041291356086731,0.031315743923187256,0.017330460250377655,-0.032062489539384842,-0.053355827927589417,-0.005277164280414581,0.052355453372001648,0.057499945163726807,0.004479043185710907,0.079648911952972412,-0.054918907582759857,0.037607766687870026,0.005666851997375488,0.008006647229194641,0.000544600188732147,-0.035142444074153900,0.025885149836540222,0.078248903155326843,0.047946095466613770,0.064536809921264648,0.067567363381385803,-0.054896280169487000,-0.028468981385231018,-0.074945233762264252,-0.046406608074903488,0.011680014431476593,0.008657351136207581,-0.029187373816967010,0.033975303173065186,-0.016970701515674591,-0.073808379471302032,0.003007508814334869,-0.023028954863548279,-0.055977832525968552,-0.019909426569938660,-0.042183905839920044,0.074187263846397400,0.072038725018501282,-0.003162980079650879,-0.081742800772190094,-0.038176041096448898,-0.069162935018539429,0.006316117942333221,-0.068264037370681763,-0.019912376999855042,0.013643175363540649,-0.068574503064155579,-0.074635185301303864,-0.037413697689771652,0.051512718200683594,0.078724086284637451,0.070904612541198730,0.060841456055641174,0.019118331372737885,0.009533129632472992,-0.007757522165775299,0.066764369606971741,-0.030250459909439087,0.070299148559570312,-0.011962123215198517,-0.041808661073446274,-0.055420748889446259
-0.026105605065822601,-0.046780858188867569,-0.041887301951646805,-0.057405274361371994,-0.046610713005065918,-0.042477186769247055,0.043224647641181946,0.064685046672821045,-0.044191196560859680,0.026787713170051575,0.019202470779418945,0.034501463174819946,-0.073431916534900665,-0.010203421115875244,0.018995635211467743,-0.010183088481426239,-0.064612284302711487,0.010581679642200470,-0.057495187968015671,-0.004785723984241486,-0.068925812840461731,0.034130096435546875,0.021038033068180084,0.034280672669410706,0.024229511618614197,-0.082991950213909149,0.007605515420436859,0.059011191129684448,0.053466811776161194,0.058130562305450439,-0.015036903321743011,-0.072476789355278015,0.076163634657859802,0.076629072427749634,0.028632953763008118,0.014419198036193848,-0.043743003159761429,0.049187794327735901,-0.056412525475025177,0.079981103539466858,-0.041845619678497314,0.071612447500228882,0.079579189419746399,-0.058298751711845398,0.073332041501998901,0.023626007139682770,0.030442498624324799,0.078688859939575195,-0.027239628136157990,0.059945568442344666,0.015732549130916595,-0.062259301543235779,0.082801088690757751,0.027969904243946075,0.035857453942298889,0.001020774245262146,0.027368217706680298,0.076551228761672974,-0.055873200297355652,0.002922236919403076,0.006410576403141022,0.082675114274024963,0.077247172594070435,0.011608041822910309,-0.036803402006626129,-0.072917491197586060,0.029820054769515991,-0.065442338585853577,-0.031858805567026138,-0.075980700552463531,0.075900956988334656,0.026171959936618805,-0.052169349044561386,-0.054196350276470184,0.066742002964019775,-0.055302396416664124
-0.035403203219175339,0.038434825837612152,0.066038146615028381,0.041786357760429382,0.044721737504005432,-0.051225487142801285,0.060817420482635498,-0.058232635259628296,0.007392235100269318,-0.052302673459053040,0.000780619680881500,0.042945832014083862,0.017587549984455109,-0.041810613125562668,0.013926871120929718,-0.009592369198799133,-0.028002247214317322,-0.046053767204284668,0.055196627974510193,-0.001666709780693054,0.034749574959278107,0.017974190413951874,-0.038853067904710770,0.024836719036102295,0.054868817329406738,0.069698691368103027,-0.046979505568742752,-0.000912912189960480,-0.065802842378616333,0.033505007624626160,-0.051348317414522171,-0.034256894141435623,0.021086543798446655,-0.074403040111064911,-0.079020828008651733,0.080829188227653503,-0.067423872649669647,-0.042626783251762390,-0.041321612894535065,-0.047951225191354752,-0.039051178842782974,-0.024165049195289612,-0.034317750483751297,-0.018438912928104401,0.039924144744873047,-0.060340151190757751,-0.051920358091592789,0.033676050603389740,0.078128442168235779,-0.059281267225742340,-0.040311098098754883,-0.077017582952976227,0.061598390340805054,0.048930987715721130,0.040465116500854492,-0.014048554003238678,-0.073667086660861969,-0.062066011130809784,0.064495787024497986,0.061027601361274719,-0.056033413857221603,0.018392972648143768,-0.003404699265956879,0.024997211992740631,-0.040703590959310532,0.063147321343421936,-0.052514664828777313,0.060123458504676819,0.026524543762207031,-0.078799180686473846,0.040308646857738495,0.023365467786788940,0.074666649103164673,0.074784740805625916,0.045950874686241150,0.039405234158039093
0.008808963000774384,0.059755727648735046,-0.051152024418115616,-0.053576678037643433,0.074755430221557617,-0.020085111260414124,-0.014563716948032379,0.037879653275012970,0.018695548176765442,0.016736850142478943,-0.071823634207248688,0.009324185550212860,-0.081578470766544342,-0.064923122525215149,0.013471096754074097,0.057466059923171997,0.020287126302719116,-0.045500405132770538,-0.063451297581195831,-0.024468522518873215,-0.074626639485359192,0.039793841540813446,0.081790551543235779,0.071187272667884827,-0.029253967106342316,-0.080299787223339081,-0.009252749383449554,0.044465720653533936,-0.074886441230773926,-0.067567571997642517,-0.020208247005939484,-0.054426640272140503,0.054827511310577393,-0.020634308457374573,0.011527746915817261,-0.075003519654273987,-0.033261492848396301,-0.065346449613571167,0.038825467228889465,0.062658160924911499,-0.061219491064548492,0.072354093194007874,0.020154893398284912,-0.041214913129806519,-0.063451074063777924,-0.076502636075019836,0.073369011282920837,0.044761702418327332,-0.024125300347805023,-0.043932110071182251,0.024135097861289978,0.029241323471069336,0.001655265688896179,-0.057125993072986603,-0.018541350960731506,-0.074718885123729706,-0.077549591660499573,0.037342108786106110,-0.005026206374168396,-0.067533597350120544,-0.010406807065010071,0.054402664303779602,-0.083230048418045044,-0.056868061423301697,0.043813556432723999,-0.056549016386270523,0.010513648390769958,-0.040130794048309326,0.053181841969490051,-0.037804935127496719,-0.029623057693243027,-0.046340432018041611,0.051445513963699341,0.027159750461578369,-0.011389702558517456,0.027223356068134308
-0.012055431492626667,-0.070694744586944580,-0.065496124327182770,-0.028611071407794952,-0.016205079853534698,0.006841770838946104,-0.083350427448749542,0.059814002364873886,-0.007972985506057739,0.033666606992483139,0.012297280132770538,-0.059041384607553482,-0.046090506017208099,0.029461234807968140,0.064410671591758728,0.070112206041812897,-0.049196828156709671,0.054020971059799194,-0.048776019364595413,-0.014611803926527500,-0.040837477892637253,-0.027814360335469246,0.058561913669109344,-0.005303446669131517,0.022549100220203400,-0.036481566727161407,-0.017915353178977966,0.021952267736196518,0.044018834829330444,-0.019943373277783394,0.045611307024955750,-0.028008719906210899,-0.076212033629417419,0.005955792963504791,-0.031216528266668320,0.001330078579485416,0.082620732486248016,0.008642027154564857,0.071967139840126038,-0.004752807784825563,0.034735023975372314,-0.074527688324451447,-0.017457270994782448,-0.069511413574218750,0.037803485989570618,0.020355507731437683,-0.056719303131103516,-0.041368272155523300,-0.027906527742743492,0.053189393132925034,0.017972931265830994,-0.051887299865484238,-0.072613604366779327,0.006472424603998661,0.070586830377578735,0.071164302527904510,-0.051454301923513412,-0.073355399072170258,0.006808444857597351,0.052376110106706619,-0.072410903871059418,0.019678384065628052,-0.036540541797876358,-0.035712130367755890,-0.022325979545712471,0.032180353999137878,0.038887239992618561,0.023576660081744194,-0.002186277648434043,-0.057983431965112686,-0.035579904913902283,0.025396544486284256,0.020781248807907104,0.037674922496080399,0.080262646079063416,0.021901417523622513
0.076579280197620392,0.064951784908771515,0.030455324798822403,-0.046985998749732971,0.006649605929851532,0.062613576650619507,0.014451317489147186,-0.014348488301038742,-0.042911741882562637,-0.064933113753795624,-0.045752778649330139,-0.024797985330224037,0.033655114471912384,0.051282465457916260,-0.016409717500209808,0.049082703888416290,0.040722470730543137,-0.066134639084339142,-0.014759473502635956,-0.033567000180482864,-0.022572893649339676,-0.043761949986219406,0.014600962400436401,-0.029448339715600014,0.002120323013514280,-0.075175210833549500,0.076954662799835205,0.075047746300697327,0.081385403871536255,-0.079294912517070770,0.074756488204002380,-0.012608607299625874,-0.023335361853241920,-0.082885578274726868,-0.044205512851476669,0.033963628113269806,-0.073916099965572357,0.019147474318742752,0.022450234740972519,-0.073714487254619598,0.010054631158709526,0.069637589156627655,0.042301125824451447,0.002207686426118016,-0.038575667887926102,0.062642037868499756,0.074884176254272461,-0.022214915603399277,0.000652317306958139,0.047876235097646713,-0.035540942102670670,-0.078866787254810333,-0.001482984749600291,0.071053847670555115,-0.000044904609239893,-0.030576368793845177,0.007106943987309933,0.021517856046557426,0.030879795551300049,-0.022755211219191551,0.058226805180311203,0.049352481961250305,-0.039648946374654770,0.046913433820009232,-0.005975683685392141,-0.051580980420112610,-0.054918896406888962,0.050345495343208313,0.070179000496864319,0.064483940601348877,-0.077453762292861938,-0.072835631668567657,-0.043332464993000031,-0.029001740738749504,0.030157718807458878,-0.014848341234028339
0.031331855803728104,-0.003474707715213299,0.038559421896934509,-0.028716258704662323,-0.006945870816707611,-0.060682747513055801,0.023838236927986145,0.057823855429887772,0.064287185668945312,0.043377667665481567,-0.062908649444580078,-0.037274897098541260,0.047289665788412094,-0.069590553641319275,-0.042507972568273544,-0.065285205841064453,0.059493258595466614,-0.022440563887357712,-0.025034610182046890,0.033712230622768402,-0.057465873658657074,0.052334155887365341,0.029506552964448929,-0.047013822942972183,-0.032240245491266251,0.053492605686187744,-0.049006372690200806,-0.057276956737041473,-0.008915081620216370,0.072964660823345184,-0.050795059651136398,-0.050176389515399933,0.032348260283470154,0.015911795198917389,0.062985882163047791,0.039025787264108658,0.066563516855239868,0.045663092285394669,0.057197846472263336,0.078984528779983521,-0.018504343926906586,-0.056707955896854401,-0.053054124116897583,-0.052808552980422974,-0.022457711398601532,0.000758953392505646,-0.046776935458183289,-0.034695427864789963,0.069146305322647095,0.030728841200470924,0.047316864132881165,0.023483559489250183,0.012063687667250633,-0.009303696453571320,-0.036930903792381287,0.002830210374668241,0.023350991308689117,0.058629896491765976,-0.077173329889774323,-0.028799023479223251,0.044956829398870468,-0.030018419027328491,-0.061095677316188812,0.025220828130841255,0.048943944275379181,0.019642814993858337,0.022597670555114746,-0.066496618092060089,-0.033867724239826202,-0.073846183717250824,0.014402963221073151,-0.012682799249887466,0.069762133061885834,0.000191539817024022,-0.068652577698230743,0.070436649024486542
0.034414000809192657,0.034957509487867355,0.007505217101424932,-0.074475586414337158,-0.013080611824989319,0.011961353011429310,-0.080902889370918274,0.049553029239177704,0.067110106348991394,0.000021129846572876,0.068707391619682312,-0.078096210956573486,0.074147135019302368,-0.016040004789829254,-0.067848190665245056,-0.036670409142971039,-0.056224312633275986,-0.011706240475177765,-0.075270451605319977,-0.039670839905738831,-0.058478601276874542,0.067839898169040680,-0.054295033216476440,0.076655812561511993,-0.031916495412588120,0.003898923750966787,0.041130304336547852,0.016734628006815910,0.023877106606960297,-0.064443409442901611,-0.070431157946586609,0.074057616293430328,-0.052652470767498016,0.015843234956264496,-0.076204098761081696,0.053415391594171524,0.026722058653831482,0.028201287612318993,-0.028969049453735352,0.000737890601158142,-0.012276950292289257,-0.045407164841890335,0.037435460835695267,0.035797692835330963,0.042764395475387573,0.029090531170368195,-0.059565208852291107,-0.019997112452983856,-0.064663119614124298,-0.024265315383672714,-0.059811789542436600,0.076525926589965820,-0.042732696980237961,-0.020147003233432770,-0.014652448706328869,-0.024609090760350227,0.026407934725284576,-0.052658230066299438,-0.033852789551019669,-0.053388275206089020,0.065263681113719940,0.025836601853370667,0.074793212115764618,-0.008719819597899914,0.071704298257827759,0.070791475474834442,-0.019220471382141113,-0.068590864539146423,0.063339792191982269,0.038993597030639648,-0.035158097743988037,-0.031290937215089798,-0.080317981541156769,0.076150670647621155,0.052316337823867798,0.041900604963302612
-0.083515241742134094,0.030002407729625702,-0.030534062534570694,-0.064397647976875305,-0.047434668987989426,-0.082297094166278839,-0.046602964401245117,0.013029456138610840,0.046059444546699524,0.016586698591709137,-0.034636542201042175,0.037961959838867188,-0.018224395811557770,0.083447039127349854,0.073614537715911865,-0.074749112129211426,-0.054252907633781433,0.020895391702651978,-0.047259878367185593,-0.024305801838636398,0.041800796985626221,0.082808062434196472,-0.008299030363559723,-0.040823996067047119,-0.071488551795482635,0.010697022080421448,-0.002695150673389435,-0.054063983261585236,0.007291860878467560,0.001178592443466187,0.055155009031295776,0.008139975368976593,0.047763139009475708,-0.028053250163793564,-0.060672525316476822,0.079870685935020447,0.075906261801719666,-0.053126931190490723,-0.077287815511226654,-0.001682087779045105,0.061698377132415771,0.043451055884361267,0.044922634959220886,0.024750627577304840,0.042588025331497192,-0.054081168025732040,0.061003804206848145,0.003323487937450409,-0.061175718903541565,0.051716908812522888,-0.026578012853860855,-0.007574491202831268,0.054518640041351318,-0.032113391906023026,0.071981042623519897,0.049510955810546875,-0.076771520078182220,-0.008730001747608185,0.038930892944335938,0.000448949635028839,0.012141235172748566,-0.028521016240119934,-0.042696919292211533,-0.004867151379585266,0.051572412252426147,-0.023119363933801651,0.025324940681457520,-0.035782594233751297,0.024086967110633850,0.013966143131256104,0.056736752390861511,-0.074195578694343567,-0.073580577969551086,-0.038901679217815399,-0.078382693231105804,0.053701817989349365
0.005181297659873962,0.039448231458663940,-0.056663662195205688,0.041562899947166443,-0.079269155859947205,-0.020085886120796204,0.018579371273517609,0.054092794656753540,0.026394285261631012,-0.081314146518707275,0.073316618800163269,0.036963433027267456,0.031103551387786865,-0.046412263065576553,0.055921196937561035,-0.035923786461353302,-0.026592351496219635,-0.077500961720943451,-0.004620432853698730,0.053839072585105896,-0.004741668701171875,0.005803942680358887,-0.055738538503646851,0.081130415201187134,0.006955631077289581,-0.054488793015480042,0.043254300951957703,0.080921396613121033,0.048254504799842834,-0.052217919379472733,0.012582294642925262,0.053147658705711365,0.061431378126144409,-0.048894051462411880,-0.020579405128955841,-0.013121157884597778,0.030655041337013245,0.034289650619029999,-0.007149435579776764,0.074153319001197815,-0.033113051205873489,-0.034459203481674194,0.048333927989006042,0.058602824807167053,-0.017641581594944000,-0.020839311182498932,-0.045471988618373871,-0.054745331406593323,0.026793166995048523,-0.028623256832361221,-0.013066992163658142,-0.031659424304962158,0.006876610219478607,-0.042535614222288132,0.032062068581581116,-0.009156644344329834,-0.053042076528072357,0.061787486076354980,-0.035426344722509384,0.047099009156227112,0.048597365617752075,-0.055329442024230957,-0.058022957295179367,0.072848334908485413,0.012502953410148621,-0.039756763726472855,-0.074983708560466766,0.067139118909835815,0.032853804528713226,-0.067953631281852722,0.008284039795398712,0.068301200866699219,-0.022691924124956131,0.041792467236518860,0.074800908565521240,0.009832143783569336
0.055485725402832031,-0.061006169766187668,0.015922091901302338,0.067232057452201843,0.017883397638797760,0.027416609227657318,-0.073592647910118103,0.069022953510284424,-0.064774505794048309,0.010878719389438629,0.048831567168235779,0.079363584518432617,0.019474402070045471,0.073311597108840942,-0.036319445818662643,0.042101219296455383,0.076484337449073792,-0.048407625406980515,0.044754549860954285,-0.047229591757059097,0.067322045564651489,-0.044394440948963165,-0.059456415474414825,-0.067092336714267731,0.081168234348297119,0.016152441501617432,-0.080563530325889587,0.069633096456527710,-0.033567197620868683,-0.011921577155590057,0.046748414635658264,0.000707097351551056,0.019972175359725952,-0.008460000157356262,0.071987330913543701,0.033699609339237213,-0.038303352892398834,-0.031593505293130875,-0.033840164542198181,0.067051291465759277,0.082335591316223145,-0.017994903028011322,-0.004563197493553162,-0.051149155944585800,-0.001038908958435059,-0.046080648899078369,-0.029156904667615891,0.055534750223159790,-0.034350950270891190,-0.019732572138309479,0.010070756077766418,-0.006911896169185638,0.019356228411197662,-0.013807944953441620,0.046605378389358521,-0.057987272739410400,-0.082840397953987122,0.004201933741569519,0.030927091836929321,-0.071893155574798584,0.047295600175857544,0.074163392186164856,0.042430728673934937,0.011301897466182709,0.072250381112098694,-0.012868128716945648,0.040767893195152283,-0.069809474050998688,-0.078687243163585663,0.051894813776016235,0.001603484153747559,0.019854381680488586,0.063887864351272583,0.079996809363365173,0.075654804706573486,0.011973574757575989
0.072123020887374878,-0.006054624915122986,-0.003404401242733002,0.019893340766429901,-0.039798047393560410,0.059226348996162415,-0.067578889429569244,0.059814319014549255,0.028635144233703613,-0.076515853404998779,-0.040770087391138077,-0.005114689469337463,0.077952563762664795,-0.075191751122474670,-0.037537228316068649,-0.050792388617992401,0.013019755482673645,0.073712348937988281,0.018709033727645874,0.017742529511451721,0.041904151439666748,-0.034389503300189972,-0.028193905949592590,-0.057590518146753311,0.006871767342090607,-0.068731710314750671,-0.022475492209196091,-0.082527644932270050,0.082514286041259766,-0.045640923082828522,0.033184245228767395,-0.017933003604412079,-0.047011189162731171,0.031182371079921722,-0.022290866822004318,0.009325183928012848,-0.042174667119979858,-0.059624828398227692,-0.036347243934869766,-0.027586475014686584,0.039652310311794281,-0.020089074969291687,-0.013518869876861572,0.012169651687145233,0.076969712972640991,0.011194862425327301,-0.035147979855537415,-0.061310961842536926,-0.026801832020282745,0.041530102491378784,0.044221043586730957,0.008116237819194794,-0.077614553272724152,0.047999575734138489,0.043873414397239685,-0.039437118917703629,-0.017598986625671387,-0.075997583568096161,0.021328702569007874,-0.048936471343040466,0.036675177514553070,0.020495384931564331,-0.062056075781583786,0.072019577026367188,-0.066625408828258514,-0.075298808515071869,-0.070728704333305359,-0.068245284259319305,-0.015121579170227051,0.074628487229347229,-0.055071964859962463,-0.017398484051227570,-0.011047080159187317,0.006227463483810425,0.040088139474391937,-0.015942566096782684
0.067032992839813232,-0.037434190511703491,0.036966100335121155,-0.004645980894565582,-0.069062888622283936,0.060516759753227234,-0.082745388150215149,-0.047874934971332550,0.056703552603721619,-0.052020467817783356,-0.003095850348472595,-0.018439628183841705,0.074858456850051880,-0.062565267086029053,0.032349936664104462,0.072438508272171021,-0.078066550195217133,-0.067862190306186676,-0.081883557140827179,0.054540678858757019,0.074653610587120056,0.028655141592025757,0.070727631449699402,-0.039653986692428589,-0.005888678133487701,0.047179982066154480,0.037804380059242249,0.059642314910888672,-0.048249963670969009,0.025851018726825714,-0.042991254478693008,0.008718468248844147,0.070837870240211487,-0.044791016727685928,0.005287803709506989,0.051967874169349670,-0.073703728616237640,0.055562660098075867,-0.066997505724430084,0.051848381757736206,-0.083106793463230133,0.020948477089405060,0.081225603818893433,0.037147141993045807,-0.025407806038856506,-0.009363733232021332,-0.052142903208732605,0.053564563393592834,0.059517458081245422,0.027911938726902008,0.032275073230266571,0.047139793634414673,-0.072259202599525452,0.010576702654361725,-0.076211586594581604,-0.000503376126289368,0.022942267358303070,-0.069531708955764771,0.013364531099796295,0.029932193458080292,-0.048625327646732330,-0.042675275355577469,0.000105567276477814,-0.072645321488380432,0.073364853858947754,0.047432959079742432,-0.065467067062854767,0.060060858726501465,0.078047424554824829,-0.027415331453084946,-0.058813996613025665,0.045381113886833191,0.025159887969493866,0.077019870281219482,-0.073681443929672241,-0.014774568378925323
0.056650921702384949,0.007606312632560730,0.011452630162239075,-0.034214515239000320,-0.059289887547492981,-0.079071387648582458,-0.066201709210872650,0.018693596124649048,0.034834809601306915,0.014406971633434296,0.050627261400222778,0.001723267138004303,-0.059953317046165466,-0.076454482972621918,0.035234451293945312,-0.048193287104368210,-0.031321156769990921,-0.076378688216209412,-0.059248246252536774,-0.017832256853580475,0.008002467453479767,-0.057849705219268799,-0.062005791813135147,0.076771259307861328,-0.029379166662693024,-0.055741630494594574,-0.046552162617444992,0.030049324035644531,0.051163658499717712,-0.077035047113895416,0.026110462844371796,0.069491356611251831,0.037524044513702393,0.024317748844623566,0.077320888638496399,-0.006280452013015747,-0.012700609862804413,-0.038471966981887817,0.030056476593017578,-0.067342638969421387,-0.019034311175346375,0.082879856228828430,-0.078032061457633972,-0.003376618027687073,-0.025147784501314163,0.001698434352874756,-0.009368591010570526,0.067756399512290955,0.031301200389862061,-0.009891487658023834,0.017517611384391785,0.050255760550498962,-0.019017122685909271,0.014372617006301880,-0.015736728906631470,0.071908086538314819,0.071748375892639160,-0.015867128968238831,0.018663905560970306,-0.015438914299011230,-0.022031106054782867,0.051129862666130066,0.002152644097805023,-0.047563135623931885,-0.032135773450136185,0.043280020356178284,-0.068520739674568176,-0.076450400054454803,0.065035417675971985,-0.025887243449687958,-0.005157642066478729,-0.067852489650249481,-0.079964190721511841,0.066994041204452515,-0.080008774995803833,-0.055844325572252274
-0.079789400100708008,-0.029900327324867249,0.030114807188510895,0.069160878658294678,-0.060323901474475861,-0.070871688425540924,-0.080800130963325500,-0.058454800397157669,-0.049282860010862350,0.022724144160747528,0.008142605423927307,0.040379464626312256,-0.006233714520931244,-0.055350609123706818,0.036923684179782867,0.036521956324577332,-0.032011587172746658,-0.044830985367298126,-0.004768498241901398,-0.009926021099090576,-0.010148622095584869,-0.053905483335256577,0.050430566072463989,-0.068853467702865601,-0.054614655673503876,-0.045427478849887848,0.020659200847148895,-0.071265816688537598,-0.000958621501922607,-0.002324506640434265,0.000086925923824310,-0.054062806069850922,-0.001941770315170288,0.051491469144821167,-0.062002804130315781,-0.071039125323295593,0.033036462962627411,-0.011449962854385376,-0.078007243573665619,-0.076570563018321991,0.057780280709266663,-0.071047112345695496,-0.034718208014965057,0.022471293807029724,0.076026126742362976,0.075746998190879822,0.064367756247520447,0.082614749670028687,-0.060458324849605560,0.082649841904640198,0.068324983119964600,-0.028310902416706085,0.004415117204189301,0.025925815105438232,0.057437151670455933,-0.020223557949066162,0.013480454683303833,-0.065526634454727173,0.077463328838348389,-0.003466397523880005,-0.022751428186893463,0.080171570181846619,-0.027010694146156311,0.014036878943443298,0.062453389167785645,0.018256917595863342,-0.003502435982227325,-0.075788289308547974,0.027837634086608887,-0.009839154779911041,0.075038447976112366,0.057792901992797852,0.077082157135009766,-0.067018613219261169,-0.030119426548480988,-0.050116576254367828
0.035336866974830627,-0.071214497089385986,0.011699452996253967,-0.047324005514383316,-0.041941668838262558,-0.019205830991268158,0.036214791238307953,-0.040041577070951462,0.022345632314682007,0.061543673276901245,0.042979285120964050,-0.028979845345020294,0.014623776078224182,0.059494525194168091,0.035862587392330170,0.001941293478012085,0.041593328118324280,-0.002884440124034882,-0.012566879391670227,-0.078266844153404236,0.012943819165229797,0.018256492912769318,0.078767970204353333,0.033824153244495392,0.013176478445529938,-0.021091703325510025,0.047027364373207092,0.053611889481544495,-0.004231542348861694,0.016198284924030304,0.035823039710521698,-0.006715141236782074,-0.044761423021554947,-0.018535971641540527,-0.051274336874485016,0.003251217305660248,-0.012812323868274689,-0.003936611115932465,0.045393809676170349,0.038240365684032440,-0.072105482220649719,0.011209137737751007,0.038106262683868408,-0.015703454613685608,-0.079347044229507446,0.062962591648101807,0.020091846585273743,0.042612358927726746,-0.008321359753608704,0.007553599774837494,-0.041509188711643219,-0.022149614989757538,-0.045302674174308777,-0.022359970957040787,0.076213225722312927,0.010727733373641968,0.059817507863044739,-0.013663269579410553,0.046264022588729858,0.082485035061836243,-0.068087518215179443,0.022483676671981812,-0.053357619792222977,0.032503530383110046,0.012690134346485138,0.063933417201042175,-0.054191693663597107,0.018110223114490509,-0.015096440911293030,-0.078637711703777313,-0.056397985666990280,-0.021862968802452087,0.064971715211868286,0.018017664551734924,-0.069641813635826111,0.074117407202720642
-0.042841099202632904,-0.013001948595046997,-0.080137483775615692,-0.050626523792743683,-0.035767339169979095,-0.002739958465099335,-0.063606828451156616,-0.004994779825210571,-0.012640424072742462,0.065045416355133057,0.025666475296020508,-0.019990220665931702,-0.035341072827577591,0.014335513114929199,-0.032939519733190536,0.074047237634658813,0.078324228525161743,0.022676512598991394,-0.057357978075742722,-0.052305862307548523,0.041393682360649109,-0.029459342360496521,0.017617426812648773,-0.065151683986186981,0.045016095042228699,-0.058025367558002472,0.052947342395782471,-0.047128822654485703,-0.059997007250785828,-0.043475471436977386,-0.008706122636795044,-0.010776996612548828,0.041261374950408936,-0.062056016176939011,-0.036286666989326477,0.021587550640106201,0.069763913750648499,0.061897113919258118,-0.077576257288455963,0.047758132219314575,-0.015778012573719025,0.006706602871417999,0.065769076347351074,-0.012743860483169556,-0.065841794013977051,0.004095166921615601,0.057527422904968262,0.051601633429527283,0.080470338463783264,0.013705126941204071,0.016554214060306549,0.016131669282913208,-0.074853748083114624,-0.034062270075082779,0.077488139271736145,0.026964649558067322,0.036835305392742157,0.074796169996261597,0.018584825098514557,0.048232376575469971,0.027144156396389008,0.078140884637832642,-0.050189044326543808,-0.059533603489398956,0.052004203200340271,0.002695292234420776,0.070706218481063843,-0.028475314378738403,0.057056933641433716,0.046558022499084473,0.069808855652809143,-0.012941427528858185,-0.050604239106178284,-0.049970146268606186,0.024527549743652344,0.015791952610015869
0.039381898939609528,0.073156565427780151,0.079325020313262939,0.032589718699455261,-0.059449762105941772,-0.046948857605457306,-0.015555553138256073,-0.026118367910385132,-0.050439067184925079,0.056332275271415710,0.022367656230926514,0.072310522198677063,-0.006517298519611359,-0.077120773494243622,-0.023920182138681412,-0.049031980335712433,0.031694866716861725,0.042253911495208740,-0.038607325404882431,0.027034051716327667,-0.063245303928852081,0.069299966096878052,-0.019123725593090057,0.009106598794460297,0.059754416346549988,-0.038662228733301163,-0.002110086381435394,-0.013679735362529755,0.036566659808158875,-0.082287915050983429,-0.042646855115890503,0.052396148443222046,0.020187832415103912,-0.042274117469787598,0.005984842777252197,0.046547740697860718,0.049425214529037476,0.079979002475738525,0.076259046792984009,0.075904026627540588,-0.002266794443130493,-0.054357178509235382,0.011169970035552979,-0.070313207805156708,0.007735140621662140,-0.006923787295818329,0.080728560686111450,-0.007989905774593353,0.002893775701522827,0.015364669263362885,-0.071499988436698914,-0.063299864530563354,-0.056843709200620651,0.083032757043838501,-0.059733722358942032,-0.013705223798751831,-0.024662468582391739,0.065377518534660339,-0.039233315736055374,-0.005105264484882355,0.042685568332672119,0.062050893902778625,-0.013271853327751160,0.037709087133407593,-0.041050739586353302,-0.004739157855510712,-0.013261914253234863,-0.080348499119281769,-0.060959272086620331,0.007117517292499542,-0.048355706036090851,0.047811254858970642,0.035519205033779144,-0.053595695644617081,-0.003880292177200317,0.041178546845912933
-0.039163794368505478,0.017844066023826599,0.068177655339241028,-0.007259406149387360,0.074694931507110596,-0.041345093399286270,0.003939218819141388,0.036543160676956177,-0.044338162988424301,0.006074160337448120,-0.025676172226667404,-0.057830665260553360,-0.030990719795227051,-0.025375802069902420,-0.028824869543313980,-0.061313468962907791,-0.041850261390209198,0.033059902489185333,-0.076658286154270172,-0.033351644873619080,-0.015638314187526703,-0.029985103756189346,0.004803545773029327,-0.001544497907161713,0.061801970005035400,0.024408958852291107,-0.057556800544261932,-0.011900231242179871,0.062337338924407959,-0.009060800075531006,0.072945505380630493,-0.023805953562259674,-0.009372673928737640,0.082031235098838806,0.056064993143081665,0.004432104527950287,0.072870060801506042,0.082641571760177612,0.011647216975688934,0.062633112072944641,0.038296960294246674,0.053339511156082153,-0.069987989962100983,0.061672285199165344,0.047513946890830994,0.060629054903984070,-0.074332386255264282,-0.082235738635063171,0.029399082064628601,0.071429282426834106,0.025384925305843353,-0.029436700046062469,0.067873135209083557,0.066296815872192383,-0.051236920058727264,-0.074685171246528625,0.037469998002052307,-0.006042897701263428,0.015927851200103760,0.071957856416702271,-0.024592250585556030,-0.039056815207004547,0.043388798832893372,0.016578175127506256,0.025998406112194061,0.027752242982387543,0.076179847121238708,0.074708014726638794,0.057710915803909302,0.054414913058280945,-0.057628154754638672,0.028556883335113525,0.002017028629779816,0.000108875334262848,-0.050274495035409927,0.030553080141544342
0.066033080220222473,-0.009513169527053833,0.073524355888366699,-0.004527054727077484,-0.002334102988243103,0.040803380310535431,0.018436662852764130,0.072217956185340881,0.045603021979331970,-0.045953456312417984,-0.078776061534881592,-0.015711300075054169,-0.020807407796382904,0.012084558606147766,0.030938103795051575,0.012107275426387787,0.012522354722023010,0.023516677320003510,-0.014217704534530640,-0.015905886888504028,-0.068677797913551331,0.043884009122848511,-0.015779167413711548,0.043088838458061218,0.014431819319725037,-0.059198006987571716,-0.029937189072370529,-0.029537070542573929,-0.028185538947582245,-0.048710759729146957,0.050477460026741028,0.013497002422809601,0.004500284790992737,-0.001220472157001495,0.028263084590435028,-0.014033056795597076,0.081129103899002075,0.006625190377235413,0.016500189900398254,0.063569203019142151,-0.077760942280292511,0.079897701740264893,0.030588984489440918,-0.016483820974826813,0.053030580282211304,-0.023990597575902939,0.073219910264015198,0.032180421054363251,-0.058157559484243393,0.020041219890117645,-0.030584443360567093,0.039938166737556458,-0.065592512488365173,-0.057008460164070129,-0.024651776999235153,-0.060358595103025436,0.023600995540618896,0.051827698945999146,0.045420527458190918,-0.038855198770761490,-0.006295107305049896,-0.003134064376354218,-0.009549453854560852,-0.071703568100929260,-0.058184027671813965,0.014264538884162903,0.012036643922328949,-0.061838947236537933,0.053796276450157166,-0.028635088354349136,-0.071085028350353241,0.076789125800132751,0.071874380111694336,0.083507895469665527,-0.057529520243406296,0.041442930698394775
-0.025728646665811539,0.020480275154113770,-0.057976417243480682,-0.009350016713142395,0.069139614701271057,-0.057187572121620178,0.032661236822605133,-0.049108847975730896,-0.048302259296178818,0.013396956026554108,0.079051330685615540,0.075081720948219299,0.022686168551445007,-0.056767418980598450,-0.077537700533866882,-0.067370742559432983,0.011414214968681335,-0.023449186235666275,-0.068714722990989685,-0.043559353798627853,-0.062311496585607529,0.074637576937675476,0.048610419034957886,-0.017054781317710876,0.039214275777339935,0.020431227982044220,0.034841559827327728,0.061630025506019592,-0.019983112812042236,0.023358181118965149,-0.080693118274211884,-0.037870157510042191,0.035992354154586792,-0.021897181868553162,0.053552508354187012,0.073520094156265259,0.027389682829380035,0.040926873683929443,-0.074605055153369904,0.082790002226829529,-0.020966440439224243,-0.072551980614662170,-0.044114027172327042,0.010802485048770905,0.028135657310485840,-0.043332766741514206,0.032294571399688721,0.007752105593681335,-0.018189087510108948,0.056084141135215759,0.021657429635524750,-0.048427660018205643,-0.033629748970270157,0.072180896997451782,-0.075757518410682678,-0.032981358468532562,0.033512517809867859,-0.057148259133100510,-0.026267845183610916,0.040016725659370422,-0.030176617205142975,-0.055659957230091095,-0.073352701961994171,0.015529699623584747,0.020346149802207947,0.044322431087493896,-0.047990396618843079,-0.014466017484664917,0.048240855336189270,-0.028859999030828476,0.074967280030250549,-0.073674574494361877,0.071591868996620178,0.054575815796852112,0.050720483064651489,0.048306167125701904
-0.077114962041378021,0.050098687410354614,-0.034721694886684418,-0.047062866389751434,-0.031265635043382645,0.059169992804527283,0.007932670414447784,0.025462947785854340,-0.082877762615680695,-0.003980182111263275,-0.026577237993478775,0.058697938919067383,0.016275353729724884,-0.002193190157413483,-0.030085589736700058,0.006707340478897095,-0.041505344212055206,0.058069750666618347,0.024761043488979340,0.060339599847793579,-0.078847408294677734,0.010628677904605865,-0.011038929224014282,-0.039711300283670425,-0.066927850246429443,-0.033850122243165970,0.053161308169364929,0.007350668311119080,-0.057030089199542999,-0.011303395032882690,0.044565320014953613,-0.020996212959289551,0.020230524241924286,-0.015029869973659515,-0.022286467254161835,-0.045722868293523788,-0.046186335384845734,0.058095470070838928,-0.070697672665119171,0.027997530996799469,-0.009950451552867889,0.056946903467178345,-0.015811450779438019,0.010046541690826416,-0.068926036357879639,-0.011375203728675842,0.006299614906311035,0.035060733556747437,-0.004013285040855408,-0.049564767628908157,0.065090402960777283,0.058282285928726196,0.052307233214378357,0.023105464875698090,0.066968962550163269,-0.036774884909391403,-0.022503692656755447,0.062816128134727478,0.069331377744674683,0.076767519116401672,-0.022208362817764282,0.067029684782028198,-0.030783150345087051,0.003239586949348450,-0.076075829565525055,0.006358399987220764,0.040728963911533356,0.025794744491577148,-0.016250483691692352,0.064463675022125244,0.014237478375434875,0.029118232429027557,-0.067709445953369141,0.046207979321479797,-0.031953897327184677,0.078507453203201294
0.063012123107910156,-0.052813697606325150,-0.042722471058368683,0.051484674215316772,0.029292501509189606,0.034346550703048706,-0.033489592373371124,0.079631596803665161,0.050665616989135742,0.045927047729492188,-0.039622001349925995,0.046311184763908386,0.013323687016963959,-0.038060117512941360,-0.050337366759777069,-0.074043266475200653,-0.081202447414398193,0.037392750382423401,0.034933283925056458,0.018397472798824310,-0.076992787420749664,0.076646178960800171,0.011511698365211487,-0.028235048055648804,-0.010804422199726105,-0.008429177105426788,-0.024920381605625153,-0.068416267633438110,-0.039846517145633698,-0.063575521111488342,0.046757355332374573,0.042736902832984924,-0.005172237753868103,0.082684993743896484,-0.082348257303237915,-0.023381080478429794,-0.042875513434410095,0.066677421331405640,-0.012260675430297852,-0.036018576472997665,0.048400908708572388,0.011876769363880157,-0.020717851817607880,-0.061489552259445190,-0.018458843231201172,-0.007112175226211548,-0.028927370905876160,-0.016953416168689728,0.052197903394699097,-0.065833412110805511,0.053392931818962097,-0.060520276427268982,0.021531634032726288,-0.048889014869928360,-0.028586018830537796,0.017984546720981598,0.050382167100906372,0.022145971655845642,-0.060732766985893250,-0.007772617042064667,-0.082341164350509644,-0.042173154652118683,0.018077544867992401,0.043896794319152832,-0.045939277857542038,0.003714703023433685,0.071933537721633911,-0.054811708629131317,-0.009186536073684692,0.083349943161010742,0.002672113478183746,-0.045117828994989395,-0.010372772812843323,-0.001937307417392731,-0.025369491428136826,0.063794001936912537
-0.037284534424543381,0.031840622425079346,-0.025400973856449127,0.001811929047107697,-0.031052272766828537,0.001351609826087952,-0.069542124867439270,-0.052221383899450302,-0.007500723004341125,-0.002736970782279968,-0.078022599220275879,0.009051397442817688,0.082649216055870056,-0.046375423669815063,0.000771068036556244,-0.053238790482282639,0.017575547099113464,-0.043987572193145752,0.076345846056938171,-0.057528544217348099,-0.006080575287342072,-0.033689472824335098,-0.018363751471042633,-0.053722292184829712,-0.077923960983753204,-0.068603999912738800,-0.050213836133480072,-0.017180718481540680,-0.032233774662017822,-0.040357220917940140,0.074984952807426453,0.081174269318580627,0.063322842121124268,-0.065738841891288757,-0.070296756923198700,0.013134956359863281,-0.030644070357084274,0.012548558413982391,0.022404298186302185,0.009000852704048157,0.047166898846626282,0.028519444167613983,0.027395494282245636,0.044526293873786926,0.053843781352043152,0.016857333481311798,-0.082874238491058350,0.026146009564399719,0.026131853461265564,0.000966884195804596,0.049815371632575989,-0.025855440646409988,-0.021440543234348297,-0.011412881314754486,0.031441301107406616,0.004702121019363403,0.007727392017841339,0.029349595308303833,0.081051215529441833,0.048807859420776367,-0.055310957133769989,-0.006296321749687195,0.014808081090450287,0.067694127559661865,-0.024923685938119888,0.067962035536766052,0.038876011967658997,0.047125935554504395,-0.005515620112419128,0.077116236090660095,0.071063786745071411,0.034141190350055695,-0.061412401497364044,0.002771206200122833,0.002266392111778259,-0.042677883058786392
-0.003692346392199397,0.059785068035125732,0.010298811830580235,0.058977514505386353,-0.051313191652297974,0.044087350368499756,0.004601471126079559,0.079105526208877563,0.021028913557529449,-0.080599732697010040,0.020124182105064392,-0.000016735579265514,0.034371279180049896,0.054935738444328308,0.036977514624595642,-0.082945093512535095,0.065587982535362244,0.034755386412143707,0.019819095730781555,-0.078988783061504364,-0.038699388504028320,0.032901454716920853,0.044558715075254440,-0.013665080070495605,0.071834392845630646,-0.069316923618316650,0.016367927193641663,0.074616044759750366,0.049242522567510605,0.082042306661605835,0.077730447053909302,-0.067378349602222443,0.044948682188987732,0.049950193613767624,0.023036241531372070,0.008079938590526581,-0.078432321548461914,0.031993962824344635,-0.052867148071527481,0.066255927085876465,-0.052559088915586472,-0.024804215878248215,0.008825510740280151,-0.083276666700839996,0.022753342986106873,-0.008341155946254730,0.044201225042343140,-0.074855439364910126,-0.014478355646133423,-0.027766996994614601,0.057655066251754761,0.005288757383823395,0.002912691095843911,0.032764285802841187,0.038668781518936157,0.083409652113914490,0.060868203639984131,-0.057638600468635559,0.031816489994525909,-0.040494482964277267,-0.045789759606122971,0.008848726749420166,0.001943644718267024,0.068687021732330322,-0.031757555902004242,0.047742690891027451,0.072363555431365967,0.075985960662364960,-0.058733548969030380,-0.030807364732027054,0.035691104829311371,0.055186867713928223,-0.002268090611323714,0.019348207861185074,-0.077676810324192047,0.076298169791698456
0.078474141657352448,0.063415057957172394,0.016241306439042091,-0.071786969900131226,-0.078737363219261169,0.006396750453859568,-0.059787251055240631,0.034112595021724701,-0.072429880499839783,-0.021418930962681770,0.048144653439521790,-0.075651384890079498,-0.045785762369632721,0.068377539515495300,-0.019849449396133423,0.044057864695787430,-0.016954230144619942,0.037217870354652405,0.059360623359680176,0.024988250806927681,0.057187736034393311,0.047682341188192368,0.024884505197405815,0.081734836101531982,0.055934343487024307,0.026431694626808167,-0.038351170718669891,0.029999401420354843,-0.017911985516548157,0.003603610210120678,-0.030574906617403030,0.008998308330774307,0.022594265639781952,-0.023119144141674042,-0.001944296061992645,0.042725846171379089,0.052517373114824295,0.052083224058151245,0.039334289729595184,0.045632470399141312,0.082498848438262939,-0.045976467430591583,0.055970564484596252,0.055437013506889343,0.046962957829236984,-0.023106560111045837,-0.074844986200332642,0.026144877076148987,-0.063881956040859222,-0.078134380280971527,0.036770828068256378,-0.000154341323650442,-0.061056140810251236,-0.058985657989978790,0.021331354975700378,-0.039573799818754196,-0.064815968275070190,0.044902756810188293,0.058621391654014587,0.075036145746707916,0.027256950736045837,0.028840087354183197,0.015083164907991886,0.004423975944519043,0.081404581665992737,-0.024123689159750938,-0.025509001687169075,0.065734654664993286,-0.076887905597686768,0.037189878523349762,0.017397791147232056,-0.028450530022382736,-0.041373848915100098,-0.025330720469355583,0.063717402517795563,0.053359616547822952
0.039673633873462677,-0.041277863085269928,-0.016714835539460182,-0.056363154202699661,-0.067813321948051453,-0.060048125684261322,0.025103136897087097,-0.064440600574016571,-0.076739244163036346,0.061268299818038940,-0.002719522919505835,-0.013649559579789639,-0.041216962039470673,-0.041519943624734879,0.072743199765682220,0.029197236523032188,-0.014810460619628429,0.042519427835941315,0.014556065201759338,-0.075511366128921509,-0.006298594176769257,-0.048042181879281998,-0.011842363514006138,0.003175588790327311,-0.041991904377937317,-0.033738166093826294,0.005182573571801186,0.065678447484970093,0.005554033443331718,0.046662624925374985,0.067383244633674622,-0.011604581028223038,-0.036935564130544662,-0.060464289039373398,0.060825452208518982,0.070907600224018097,0.051960669457912445,0.074266016483306885,-0.014980232343077660,0.067319720983505249,0.017762087285518646,0.037614870816469193,0.026379812508821487,-0.072926670312881470,0.009765484370291233,0.006167776882648468,0.044445369392633438,0.035810396075248718,-0.048862289637327194,0.076756507158279419,-0.069563485682010651,-0.022437771782279015,0.064406447112560272,-0.048370216041803360,0.010949037969112396,-0.005460575222969055,0.071232199668884277,0.001934326835907996,0.074847206473350525,0.036463726311922073,0.050287865102291107,-0.010611429810523987,0.070978850126266479,-0.029507555067539215,-0.082660771906375885,-0.001396224950440228,-0.082334063947200775,-0.076447971165180206,-0.062744550406932831,0.066072665154933929,-0.056610353291034698,-0.009979053400456905,0.070217207074165344,-0.079938866198062897,-0.044135667383670807,-0.006551306694746017
0.062142450362443924,-0.057239633053541183,0.017996538430452347,0.075156465172767639,-0.043090369552373886,0.069757305085659027,0.007895944640040398,-0.058043546974658966,-0.081995621323585510,-0.025122271850705147,-0.059393189847469330,-0.081496164202690125,0.040541861206293106,0.064072698354721069,-0.018388079479336739,-0.045213192701339722,0.053255431354045868,-0.083173230290412903,0.080454319715499878,0.012022703886032104,0.035746395587921143,-0.043797753751277924,0.045507468283176422,-0.038509503006935120,0.051293782889842987,-0.061947606503963470,0.014102701097726822,0.057993490248918533,-0.009741874411702156,-0.045529309660196304,-0.025428054854273796,-0.045079942792654037,0.066171832382678986,0.070489160716533661,-0.047366481274366379,-0.061151016503572464,-0.038381982594728470,-0.069694638252258301,0.055545132607221603,0.080854736268520355,-0.054004777222871780,-0.081340357661247253,-0.077252060174942017,-0.077958531677722931,-0.028515119105577469,-0.080187387764453888,-0.011110771447420120,0.023946182802319527,0.036041725426912308,-0.050145100802183151,0.019093386828899384,-0.053229000419378281,-0.040933888405561447,-0.037812743335962296,-0.009993514977395535,-0.048930764198303223,-0.037882950156927109,-0.069555878639221191,0.003330215811729431,-0.040300097316503525,-0.038149967789649963,-0.041428111493587494,0.059824429452419281,0.023252626881003380,-0.011979339644312859,-0.012639007531106472,-0.011260208673775196,-0.079117834568023682,0.010273391380906105,-0.061242435127496719,-0.046216312795877457,0.041084613651037216,-0.063827924430370331,0.024652622640132904,0.059111081063747406,0.056351821869611740
0.030296150594949722,0.062964893877506256,-0.085784807801246643,0.072315186262130737,-0.022118527442216873,-0.020007263869047165,0.014532668516039848,-0.003414673963561654,-0.043150912970304489,0.076869085431098938,0.028999673202633858,-0.070411980152130127,-0.087243139743804932,0.030805714428424835,-0.057783935219049454,-0.017112895846366882,-0.003478477941825986,-0.056458871811628342,-0.068168774247169495,0.051883578300476074,0.023786365985870361,0.081119664013385773,0.017966799437999725,0.024346483871340752,0.019596522673964500,-0.039359085261821747,0.029911773279309273,-0.040553111582994461,-0.061063304543495178,0.064142785966396332,0.055987901985645294,0.004217026289552450,0.080945469439029694,0.036135822534561157,0.010912097990512848,-0.078933246433734894,-0.032420326024293900,-0.063730858266353607,-0.047179620712995529,0.058459147810935974,0.081745423376560211,0.057419896125793457,0.046435836702585220,-0.038610000163316727,-0.049166016280651093,-0.082941643893718719,-0.064383238554000854,-0.065663896501064301,0.038987506181001663,0.038653813302516937,-0.020707586780190468,0.011223345994949341,-0.023993328213691711,-0.034072179347276688,0.004048950038850307,0.018393909558653831,-0.026045102626085281,-0.047179922461509705,0.079641737043857574,-0.013762090355157852,-0.053736269474029541,-0.058139126747846603,-0.032153524458408356,0.066441789269447327,0.020683936774730682,-0.017025729641318321,0.049800023436546326,0.047854002565145493,-0.011069204658269882,-0.072717852890491486,0.018963292241096497,0.006904397159814835,-0.033480614423751831,0.016647910699248314,0.020613007247447968,0.024657446891069412
0.073566153645515442,0.015255232341587543,-0.060263380408287048,-0.052339751273393631,-0.023349344730377197,0.013874161057174206,-0.052598174661397934,-0.022273456677794456,0.068563669919967651,0.013865393586456776,-0.033664301037788391,-0.008679701015353203,-0.051964867860078812,-0.069539956748485565,-0.075972869992256165,-0.074981808662414551,-0.053201675415039062,-0.057702388614416122,-0.020558156073093414,0.064657784998416901,0.071115165948867798,-0.029855072498321533,-0.023491473868489265,-0.076304920017719269,-0.055073153227567673,0.038872543722391129,-0.037391461431980133,-0.069879420101642609,0.038239069283008575,-0.006224819459021091,-0.060631357133388519,-0.078725166618824005,0.053981684148311615,-0.048704713582992554,0.068135440349578857,0.056445751339197159,-0.027579322457313538,0.079453796148300171,-0.035618200898170471,0.078604690730571747,-0.016679642722010612,-0.015293759293854237,0.039957206696271896,0.010980035178363323,-0.020277144387364388,0.036076847463846207,-0.083936445415019989,0.083112202584743500,-0.011872733011841774,-0.011196945793926716,0.079047702252864838,0.004478801507502794,-0.057666588574647903,0.032977454364299774,-0.001211994211189449,0.039709616452455521,0.045577678829431534,-0.051880255341529846,0.030528482049703598,0.024245779961347580,-0.021066440269351006,-0.075316198170185089,0.019415477290749550,0.076389700174331665,0.068006291985511780,0.077606372535228729,0.027884401381015778,0.030288463458418846,-0.033131744712591171,0.019302574917674065,-0.075327396392822266,-0.050433844327926636,-0.067445099353790283,-0.026732189580798149,-0.050318408757448196,-0.031937580555677414
0.068019330501556396,0.001593596651218832,0.015188348479568958,-0.015889126807451248,0.078315563499927521,-0.076968342065811157,-0.069068886339664459,0.072099909186363220,-0.003778920974582434,0.055004280060529709,0.042106121778488159,0.061065625399351120,0.012467006221413612,-0.025667428970336914,-0.066594667732715607,0.017536312341690063,0.026601433753967285,0.068717055022716522,-0.040012497454881668,0.010988933034241199,-0.035680931061506271,0.044082563370466232,-0.017308201640844345,-0.066215641796588898,0.064471632242202759,0.073524080216884613,0.068378254771232605,-0.061670694500207901,0.016525568440556526,-0.017977748066186905,-0.069107823073863983,-0.031347755342721939,0.001187424873933196,-0.047513540834188461,-0.059894107282161713,0.034131925553083420,0.087603121995925903,-0.062528990209102631,-0.032355688512325287,0.051029093563556671,0.068149209022521973,-0.048677124083042145,0.053280409425497055,0.037311811000108719,0.034287914633750916,0.036228898912668228,-0.073662392795085907,-0.073258757591247559,0.032292127609252930,0.023388504981994629,-0.033217869699001312,-0.084930330514907837,0.008154267445206642,0.003208928508684039,-0.044945523142814636,-0.043647192418575287,-0.035609781742095947,0.052806906402111053,-0.053544893860816956,0.005951324012130499,-0.017913389950990677,-0.058727510273456573,-0.028671650215983391,-0.047934912145137787,0.038903649896383286,0.005131194368004799,-0.007504386361688375,-0.045534480363130569,0.056415524333715439,-0.024266125634312630,-0.049709185957908630,-0.030739203095436096,0.027842264622449875,0.003495865035802126,0.016497377306222916,0.034388970583677292
-0.085190452635288239,-0.064707897603511810,0.083652734756469727,0.076543174684047699,0.080599844455718994,-0.069455593824386597,-0.035107962787151337,0.058095049113035202,0.080189406871795654,-0.054011341184377670,0.083252310752868652,-0.043314293026924133,-0.000588297378271818,-0.036310084164142609,0.082414731383323669,-0.002040632069110870,-0.010319206863641739,-0.008959526196122169,-0.002612867159768939,-0.022522151470184326,-0.011236178688704967,0.089642055332660675,-0.012890261597931385,0.060017496347427368,0.015212506055831909,-0.004299471154808998,-0.061126615852117538,-0.000666373525746167,-0.001242603175342083,0.039877776056528091,0.068446293473243713,0.010159977711737156,-0.042332760989665985,-0.048430148512125015,0.082503192126750946,-0.010780821554362774,-0.014371323399245739,-0.045172728598117828,-0.039157766848802567,0.006228545680642128,-0.007518693339079618,0.037566162645816803,-0.065277002751827240,-0.071115538477897644,-0.019143071025609970,0.049684669822454453,0.017116634175181389,0.018994858488440514,0.045300550758838654,0.046948801726102829,-0.066617041826248169,-0.015930457040667534,-0.046736817806959152,-0.064784996211528778,0.004229067359119654,0.043491654098033905,0.047804038971662521,-0.007664457894861698,0.049013342708349228,-0.026145521551370621,0.004665513522922993,-0.024613462388515472,0.051921341568231583,-0.003202115651220083,-0.075478240847587585,-0.056989327073097229,0.040817972272634506,0.077313333749771118,-0.016692856326699257,-0.070449486374855042,-0.008100609295070171,0.005482688080519438,-0.051647324115037918,-0.040210500359535217,0.083548761904239655,-0.016030337661504745
0.046559341251850128,0.002126312814652920,0.034437447786331177,-0.035606954246759415,-0.054342567920684814,-0.078133031725883484,0.044785875827074051,-0.052045997232198715,0.079185083508491516,0.052656743675470352,-0.012927600182592869,0.004044549074023962,0.062812171876430511,0.024551928043365479,-0.066076852381229401,0.067345403134822845,0.084096617996692657,-0.076699450612068176,-0.050876624882221222,0.001549061969853938,-0.034515246748924255,0.014992082491517067,0.011110510677099228,-0.037249803543090820,0.017410328611731529,-0.068291813135147095,-0.076981417834758759,0.062229275703430176,-0.084086857736110687,0.024925895035266876,-0.049737866967916489,-0.036221403628587723,0.075472593307495117,0.049510076642036438,0.008791535161435604,0.058204270899295807,-0.063218317925930023,-0.027468703687191010,0.044533316045999527,0.067734099924564362,-0.024040341377258301,-0.002038292121142149,0.044871233403682709,0.057368263602256775,-0.064605310559272766,0.002236346714198589,0.059398759156465530,-0.018074585124850273,0.006021215114742517,0.059118974953889847,-0.008394954726099968,-0.052199065685272217,-0.027424378320574760,0.049416981637477875,0.061138227581977844,-0.026798702776432037,-0.043714150786399841,0.058721784502267838,0.021405952051281929,-0.003643161617219448,-0.054818019270896912,0.000154219567775726,-0.029798805713653564,0.057520881295204163,-0.031820096075534821,0.018862241879105568,0.064458034932613373,0.015298704616725445,-0.044662684202194214,0.066024936735630035,0.065135076642036438,0.031181804835796356,0.006494239438325167,-0.008284646086394787,0.046386823058128357,-0.089049138128757477
0.069781184196472168,-0.081594303250312805,-0.059298858046531677,-0.027752576395869255,-0.018213568255305290,-0.009989145211875439,-0.027623498812317848,-0.049912843853235245,-0.047042388468980789,0.055662654340267181,0.052338000386953354,0.006676792632788420,0.028513157740235329,-0.014084197580814362,0.022556548938155174,-0.035035137087106705,-0.056369382888078690,0.014439986087381840,-0.000341369217494503,0.020216269418597221,-0.021527795121073723,0.083946511149406433,-0.056323256343603134,-0.003126708557829261,0.010911658406257629,-0.018852168694138527,0.022824397310614586,0.068957827985286713,-0.045087043195962906,-0.069094575941562653,0.029970394447445869,0.034509282559156418,0.007377380039542913,0.074964687228202820,-0.024262055754661560,-0.051924463361501694,-0.037060510367155075,0.064980275928974152,-0.079172290861606598,0.085419774055480957,0.052523426711559296,0.020795648917555809,-0.043756254017353058,0.083710886538028717,-0.037740822881460190,-0.019151955842971802,-0.014661440625786781,-0.059814926236867905,0.009385873563587666,-0.051424004137516022,-0.004215469118207693,-0.062013573944568634,-0.051236264407634735,-0.074563935399055481,-0.031785313040018082,0.050482444465160370,-0.052625287324190140,-0.025334386155009270,-0.007527876179665327,0.061905946582555771,0.034180022776126862,0.036908291280269623,0.071611121296882629,0.031028769910335541,-0.021715566515922546,0.036842919886112213,-0.016386177390813828,-0.011259919032454491,0.032882723957300186,-0.013233025558292866,-0.028497010469436646,-0.054215066134929657,-0.022691216319799423,-0.037440381944179535,0.054938275367021561,-0.047347538173198700
0.033122360706329346,0.045692566782236099,-0.027662940323352814,-0.057498432695865631,0.081182964146137238,0.059517052024602890,-0.068075820803642273,0.055078122764825821,-0.020209114998579025,-0.066355772316455841,0.000789876736234874,0.048798684030771255,0.007883008569478989,0.019314110279083252,0.031635664403438568,0.048074640333652496,-0.044533111155033112,-0.068625994026660919,-0.043594054877758026,0.041817307472229004,-0.032474931329488754,-0.068435952067375183,-0.020692359656095505,0.012583403848111629,-0.038533709943294525,0.063902072608470917,0.069120444357395172,-0.068600244820117950,0.020937265828251839,0.018915865570306778,-0.037999715656042099,0.092870928347110748,-0.033669438213109970,0.027009788900613785,0.029549904167652130,0.052350237965583801,-0.091859005391597748,-0.047340139746665955,0.023754112422466278,0.029238725081086159,-0.044071167707443237,0.065919816493988037,0.041976034641265869,-0.013023681938648224,0.012043577618896961,-0.067670531570911407,0.072686865925788879,0.052012618631124496,-0.075665496289730072,-0.020672764629125595,-0.008169505745172501,0.048061102628707886,0.075765915215015411,-0.030576528981328011,-0.002812943188473582,0.042493052780628204,-0.059921037405729294,0.018835155293345451,0.000538733263965696,0.052567299455404282,-0.039293982088565826,-0.066754989326000214,-0.016836022958159447,0.095612175762653351,-0.017507560551166534,0.055372864007949829,-0.033775635063648224,-0.058002859354019165,0.064811848104000092,0.066042281687259674,-0.055870264768600464,0.038594078272581100,0.022660924121737480,0.004951859824359417,0.056596655398607254,0.040966905653476715
-0.052795924246311188,0.010635589249432087,-0.002111337380483747,-0.065152630209922791,0.045997239649295807,0.056956052780151367,-0.035749431699514389,-0.024613592773675919,0.069562271237373352,0.020301584154367447,0.067623712122440338,-0.012901366688311100,0.050731901079416275,0.064863264560699463,0.071887671947479248,0.022430542856454849,-0.032241355627775192,-0.021273432299494743,0.057042185217142105,0.021810103207826614,-0.068330734968185425,0.018215680494904518,-0.011410586535930634,-0.029312888160347939,-0.007995747961103916,-0.002014196012169123,-0.059496466070413589,-0.058431696146726608,0.054864127188920975,0.012431666254997253,-0.068038307130336761,0.004216839093714952,0.039771281182765961,0.004021752160042524,-0.039484579116106033,-0.031366474926471710,-0.072601236402988434,-0.041197586804628372,0.052064966410398483,-0.040324773639440536,0.065890707075595856,-0.083377808332443237,-0.081693060696125031,0.004428266547620296,-0.076527163386344910,0.078869037330150604,0.004363182932138443,0.046340018510818481,0.031338538974523544,0.066155560314655304,-0.014764917083084583,-0.010103088803589344,-0.009828000329434872,-0.070783123373985291,0.064540937542915344,0.003623391967266798,0.072817698121070862,-0.046159103512763977,0.064925901591777802,-0.050360068678855896,0.040955904871225357,-0.005175203084945679,0.020154958590865135,-0.026495097205042839,-0.041368454694747925,-0.031669456511735916,0.011519710533320904,0.088522426784038544,0.027179704979062080,0.057161647826433182,0.032808955758810043,-0.067902572453022003,-0.043701749294996262,0.058738742023706436,-0.049838393926620483,0.022963032126426697
-0.076968014240264893,-0.070441044867038727,-0.063144080340862274,0.038694437593221664,-0.027479147538542747,-0.075442701578140259,0.007937849499285221,-0.006012603640556335,-0.082618996500968933,0.037532262504100800,0.017843553796410561,0.039023797959089279,0.020795801654458046,-0.002894096076488495,0.074594728648662567,0.015785386785864830,-0.066608116030693054,0.004399140831083059,-0.004366480745375156,-0.019030377268791199,-0.029228992760181427,-0.040689483284950256,-0.088735811412334442,-0.096429161727428436,-0.069389626383781433,-0.000194146254216321,0.035068199038505554,0.050225861370563507,0.076904855668544769,-0.034261457622051239,0.046357508748769760,0.029442301020026207,-0.058496531099081039,-0.014690913259983063,0.062738567590713501,-0.038191128522157669,0.042025245726108551,0.041287884116172791,-0.053740035742521286,0.022689113393425941,-0.080112688243389130,0.010173566639423370,-0.092882305383682251,0.017554819583892822,0.028981143608689308,0.059806205332279205,-0.067940816283226013,-0.009514184668660164,0.023370221257209778,0.082433491945266724,-0.081043824553489685,-0.091948971152305603,0.029708033427596092,-0.070158675312995911,-0.015157083049416542,-0.019224494695663452,0.017629792913794518,-0.032362312078475952,0.078763946890830994,-0.082607813179492950,-0.022325528785586357,-0.008182033896446228,-0.064842849969863892,0.014323330484330654,-0.058695740997791290,0.068693660199642181,-0.013319581747055054,0.018022870644927025,0.059693116694688797,-0.029335230588912964,0.052544116973876953,0.066439457237720490,-0.001194606069475412,-0.082355476915836334,0.025265896692872047,-0.083381496369838715
-0.086966559290885925,-0.015421487390995026,0.052575483918190002,-0.000772194413002580,0.065993614494800568,-0.072932228446006775,0.065606161952018738,0.028694981709122658,0.063414610922336578,0.051439031958580017,0.079148046672344208,-0.060702871531248093,0.024669645354151726,0.041495904326438904,0.066208608448505402,-0.029545681551098824,0.049965091049671173,-0.036509763449430466,-0.016271496191620827,0.004427920095622540,-0.051751788705587387,0.061554372310638428,-0.070265032351016998,0.022626856341958046,0.005086685996502638,0.062282811850309372,-0.049377135932445526,0.064968973398208618,0.045633818954229355,-0.055293355137109756,0.050856374204158783,-0.007867983542382717,0.056934766471385956,-0.023430272936820984,-0.087032787501811981,-0.000731597305275500,-0.057265434414148331,-0.014622857794165611,0.056078322231769562,0.012267705053091049,-0.058952603489160538,-0.024502448737621307,-0.061459235846996307,0.073357723653316498,-0.051504090428352356,0.001601450610905886,0.010145669803023338,0.006641739979386330,0.046085085719823837,-0.048147864639759064,0.017521051689982414,0.050135821104049683,-0.017543001100420952,0.010900089517235756,-0.039665859192609787,0.004437858704477549,0.006101871840655804,-0.062710516154766083,0.002052702242508531,0.044854249805212021,-0.011418312788009644,0.036878898739814758,-0.037277638912200928,-0.072277337312698364,0.029131146147847176,-0.045437011867761612,-0.017382329329848289,-0.017693283036351204,-0.062392495572566986,0.014840515330433846,-0.056513566523790359,0.060471162199974060,-0.073271773755550385,0.054861832410097122,-0.067048594355583191,-0.023972900584340096
-0.032811008393764496,0.061082571744918823,-0.076142542064189911,-0.021629411727190018,0.030064664781093597,-0.040253840386867523,0.070791885256767273,0.080442987382411957,0.059042159467935562,0.027684431523084641,-0.038885410875082016,-0.022082712501287460,0.044716317206621170,-0.030804418027400970,0.070595420897006989,0.014345780946314335,0.030043551698327065,-0.035481587052345276,0.000230498801101930,0.052050191909074783,-0.035168848931789398,0.018235363066196442,0.071058303117752075,-0.004706954117864370,0.068651631474494934,-0.013467564247548580,-0.001053681946359575,-0.036236710846424103,-0.061476211994886398,-0.005256529431790113,0.079088844358921051,-0.047094371169805527,-0.008270986378192902,0.023102605715394020,0.074011169373989105,0.017064811661839485,0.029452284798026085,0.034539751708507538,-0.014891752041876316,0.057516537606716156,0.023285297676920891,0.045972846448421478,-0.084592610597610474,-0.075468301773071289,0.041948739439249039,-0.031570814549922943,0.040157467126846313,0.032607272267341614,0.014556854031980038,0.041857942938804626,-0.016857776790857315,0.021301504224538803,-0.036760170012712479,-0.057629212737083435,0.078844122588634491,0.057977460324764252,-0.048634298145771027,0.060364414006471634,0.002771804574877024,-0.070032909512519836,-0.052697662264108658,-0.017480097711086273,0.025552557781338692,0.001375766587443650,-0.001525597064755857,0.028984693810343742,0.073182843625545502,0.075278028845787048,0.059489913284778595,-0.043862305581569672,0.026076721027493477,0.015140928328037262,0.030653001740574837,-0.002123324433341622,-0.047581557184457779,0.035513706505298615
-0.080440863966941833,-0.053512983024120331,-0.081315629184246063,0.057693164795637131,0.018363682553172112,-0.034220669418573380,0.078613080084323883,0.028347723186016083,0.035937424749135971,0.053725607693195343,0.017564089968800545,0.009201136417686939,-0.082845926284790039,-0.081611067056655884,-0.046728160232305527,-0.052165620028972626,0.021353842690587044,0.044494375586509705,-0.031130239367485046,-0.062953516840934753,-0.046023089438676834,-0.021656567230820656,0.032604020088911057,0.077003359794616699,-0.016725050285458565,-0.004371914546936750,0.062825642526149750,-0.007755795959383249,-0.058404363691806793,0.013790431432425976,-0.014322374947369099,0.023152766749262810,0.032092522829771042,-0.057777095586061478,0.027489071711897850,0.001855948241427541,-0.034002847969532013,-0.021528108045458794,0.049198117107152939,-0.079255789518356323,-0.011499361135065556,0.048389405012130737,0.036185570061206818,0.029662333428859711,0.033648386597633362,0.078673057258129120,0.061878994107246399,-0.053476512432098389,-0.045342233031988144,-0.037673275917768478,0.008222989737987518,0.053088866174221039,0.061533343046903610,0.003720361739397049,-0.003320215502753854,0.077215962111949921,0.077132150530815125,-0.052223671227693558,0.060024280101060867,0.053472392261028290,-0.066293567419052124,-0.038520358502864838,0.063235901296138763,0.015599453821778297,-0.056567069143056870,-0.030328746885061264,-0.033868856728076935,0.022727360948920250,0.017307100817561150,-0.011992051266133785,0.076206184923648834,-0.038422260433435440,0.025105981156229973,-0.047695465385913849,0.084394581615924835,-0.013551037758588791
-0.031523924320936203,0.043165080249309540,0.048220850527286530,-0.037970025092363358,0.038863275200128555,-0.011893116869032383,0.024810018017888069,0.059231474995613098,0.014846942387521267,-0.080402225255966187,-0.001124127884395421,-0.037510771304368973,0.010202357545495033,0.062063440680503845,-0.031264521181583405,-0.002067428780719638,-0.061659988015890121,-0.065681584179401398,0.034164350479841232,0.083790346980094910,0.083387665450572968,0.062497153878211975,-0.032537642866373062,0.049746710807085037,0.051245085895061493,-0.022471932694315910,0.032285261899232864,-0.078726813197135925,-0.020421072840690613,-0.071763351559638977,0.059695195406675339,-0.067662097513675690,0.002277255291119218,0.058182500302791595,-0.068656757473945618,0.019317954778671265,-0.012962501496076584,0.001230750116519630,-0.041792165488004684,0.064270116388797760,-0.041091632097959518,-0.037436991930007935,0.065878957509994507,0.044781483709812164,0.038558755069971085,-0.036982934921979904,0.043997131288051605,-0.054053891450166702,-0.048432271927595139,-0.007569390349090099,-0.043341446667909622,-0.054495744407176971,0.062073003500699997,-0.027698343619704247,-0.009320338256657124,0.067979827523231506,0.076463609933853149,-0.039505247026681900,-0.053896509110927582,-0.049989167600870132,0.002841514069586992,-0.020788706839084625,0.047287721186876297,-0.002204571152105927,-0.073156438767910004,0.068721041083335876,0.030408294871449471,0.034517511725425720,0.061947092413902283,-0.041628755629062653,0.074187621474266052,-0.078112788498401642,0.049248453229665756,0.030925668776035309,-0.043786380439996719,-0.058144401758909225
0.056965611875057220,-0.028910113498568535,0.055941551923751831,0.027260161936283112,0.036565635353326797,0.075063996016979218,-0.032103095203638077,-0.002010098891332746,-0.041100211441516876,0.056949228048324585,0.083387926220893860,-0.012216160073876381,-0.029551498591899872,-0.019729383289813995,-0.079274624586105347,-0.045720044523477554,-0.039562162011861801,0.077182002365589142,0.058605976402759552,0.041439328342676163,0.016027068719267845,-0.040176954120397568,-0.029107378795742989,0.046867806464433670,0.006315296981483698,-0.028912570327520370,0.010521966964006424,-0.045033439993858337,0.001349023194052279,0.002294118283316493,0.058538421988487244,-0.026591151952743530,0.020117541775107384,0.018687732517719269,0.067847520112991333,0.028615202754735947,-0.037901259958744049,-0.027412159368395805,0.044793125241994858,-0.072743937373161316,-0.034759428352117538,0.026866998523473740,0.079729199409484863,-0.039620701223611832,0.017387280240654945,0.000159941017045639,-0.077849991619586945,0.064906358718872070,0.061686977744102478,-0.048836223781108856,0.048843443393707275,-0.037353929132223129,0.073004722595214844,0.051889471709728241,-0.055121295154094696,-0.036136344075202942,-0.039977338165044785,-0.040257599204778671,0.045298974961042404,-0.073943808674812317,-0.071700356900691986,0.010490350425243378,-0.031850550323724747,0.077727004885673523,-0.063059508800506592,-0.056890055537223816,-0.076299943029880524,-0.030504111200571060,0.080578133463859558,-0.057637795805931091,-0.047372680157423019,0.032944340258836746,0.075441084802150726,-0.062569119036197662,-0.014165933243930340,0.021142790094017982
-0.035492025315761566,0.070182412862777710,-0.080277830362319946,0.078134402632713318,-0.014108516275882721,0.017416995018720627,0.077509254217147827,0.020769819617271423,0.062000371515750885,0.071999557316303253,-0.043042425066232681,0.077315911650657654,-0.027027383446693420,-0.055838987231254578,0.047690760344266891,-0.019726762548089027,0.006384772248566151,0.038622949272394180,-0.060698617249727249,-0.042578022927045822,-0.069088451564311981,0.023246200755238533,-0.000440408795839176,0.055184330791234970,0.057803332805633545,-0.036439675837755203,0.028701944276690483,0.029795259237289429,0.010871025733649731,0.017083961516618729,0.035088136792182922,0.001053485088050365,0.027422292158007622,-0.043950323015451431,-0.077288821339607239,-0.072439037263393402,0.081104815006256104,-0.002273425459861755,-0.007243482861667871,0.048999510705471039,-0.023971777409315109,-0.063395172357559204,0.033283740282058716,0.002220572205260396,0.074119359254837036,-0.051761183887720108,0.018418544903397560,-0.029820680618286133,0.007733465172350407,0.037583287805318832,0.029892675578594208,-0.006770834326744080,-0.060104090720415115,0.066083125770092010,0.014185613021254539,-0.021253859624266624,0.018024573102593422,-0.004003973212093115,-0.045446757227182388,0.067521601915359497,-0.072340078651905060,0.074629843235015869,0.056052148342132568,0.014333734288811684,-0.055623590946197510,-0.058053690940141678,-0.023570943623781204,0.056155115365982056,-0.054137267172336578,0.059471733868122101,0.002066314220428467,-0.050390470772981644,-0.081918776035308838,-0.025467935949563980,0.049676902592182159,-0.064898125827312469
-0.019990829750895500,-0.036100890487432480,-0.082572177052497864,-0.048207543790340424,0.007556707132607698,0.061054162681102753,-0.045847333967685699,-0.005852833390235901,-0.079805381596088409,0.081475272774696350,-0.080830566585063934,-0.059801992028951645,-0.045115418732166290,0.046000614762306213,-0.008763454854488373,-0.001449199393391609,0.015574214980006218,-0.035855341702699661,-0.062223456799983978,-0.019815988838672638,-0.070595756173133850,-0.022872775793075562,0.041105318814516068,0.038793835788965225,0.026173822581768036,0.036539692431688309,0.080083474516868591,0.058753199875354767,0.046545751392841339,0.056251134723424911,-0.019319407641887665,0.005541563034057617,0.037904884666204453,0.006032346282154322,0.033967539668083191,0.008902903646230698,-0.080918982625007629,-0.035619314759969711,0.081260189414024353,-0.071183532476425171,0.059664387255907059,-0.027941862121224403,-0.051115300506353378,-0.063282169401645660,-0.049394600093364716,0.001672863960266113,-0.023746751248836517,0.021750189363956451,-0.073374204337596893,-0.047511920332908630,0.052993144840002060,-0.071504071354866028,-0.054517101496458054,-0.079398058354854584,0.023756086826324463,-0.007442594040185213,0.062679231166839600,0.016004167497158051,-0.037542480975389481,0.012003618292510509,-0.051812920719385147,-0.032871372997760773,0.024312011897563934,-0.038814164698123932,-0.043238665908575058,0.019595339894294739,-0.002332372823730111,-0.046308599412441254,-0.054614014923572540,0.005251426249742508,0.001390762627124786,-0.029372490942478180,-0.025544714182615280,-0.081689096987247467,-0.055747061967849731,-0.081355422735214233
0.045836880803108215,0.055600062012672424,-0.000166222453117371,0.062835440039634705,0.026017904281616211,0.015570305287837982,0.013271354138851166,-0.078211344778537750,0.054915457963943481,0.008765608072280884,0.054163292050361633,0.065012782812118530,0.000595696270465851,0.020832620561122894,0.013036578893661499,-0.012678898870944977,-0.036447215825319290,-0.005644246935844421,0.054697915911674500,0.014530755579471588,0.019940495491027832,-0.047137487679719925,0.072877913713455200,-0.001958295702934265,-0.047918010503053665,0.073342859745025635,0.063254207372665405,0.063895165920257568,0.007926218211650848,0.054702416062355042,-0.076077520847320557,0.019061990082263947,0.057648941874504089,0.024707578122615814,0.035871729254722595,0.029314860701560974,-0.057646140456199646,0.072976812720298767,0.075504764914512634,-0.003848373889923096,0.004779405891895294,-0.066711753606796265,0.018637992441654205,-0.071901760995388031,-0.071429848670959473,0.011928327381610870,-0.064996235072612762,-0.031364154070615768,0.022733442485332489,0.033331230282783508,-0.039222422987222672,0.007119067013263702,-0.057023473083972931,-0.004042275249958038,0.037148855626583099,0.003665022552013397,-0.078896701335906982,0.064327463507652283,-0.003430806100368500,0.075984179973602295,-0.030290808528661728,0.023543544113636017,0.051440626382827759,0.079562813043594360,0.001259706914424896,0.080637753009796143,-0.054321691393852234,0.022015132009983063,-0.048973869532346725,0.031930454075336456,-0.056199677288532257,0.033517532050609589,0.045870587229728699,0.062110364437103271,0.047607183456420898,-0.082536466419696808
-0.058127306401729584,-0.036366879940032959,0.026804521679878235,-0.019914664328098297,0.025031544268131256,0.009701088070869446,-0.017518453299999237,-0.001447454094886780,0.073991790413856506,0.043277487158775330,-0.014584168791770935,-0.045211270451545715,0.000705823302268982,-0.010994285345077515,0.020758017897605896,0.032871209084987640,-0.048893835395574570,-0.040279515087604523,0.058516636490821838,-0.020139157772064209,-0.068247832357883453,-0.010637298226356506,-0.014650084078311920,-0.031870257109403610,0.076371759176254272,-0.066607162356376648,0.011804357171058655,-0.037904109805822372,0.025205239653587341,-0.025722093880176544,-0.013308197259902954,0.022200137376785278,0.056390881538391113,0.060200974345207214,0.031748138368129730,-0.011238515377044678,-0.022061176598072052,-0.025790579617023468,-0.055430404841899872,-0.072150193154811859,0.059895902872085571,-0.066897414624691010,0.030794739723205566,-0.027357243001461029,-0.072745770215988159,0.071032091975212097,-0.017096005380153656,-0.044368650764226913,-0.052753075957298279,0.074299633502960205,0.028070814907550812,-0.018176637589931488,0.050470873713493347,0.020673759281635284,-0.075380377471446991,-0.026990599930286407,0.049472630023956299,-0.052566818892955780,0.042158871889114380,0.013899110257625580,-0.076249167323112488,-0.044279195368289948,-0.033331353217363358,-0.067658685147762299,0.052561163902282715,0.054548412561416626,-0.067968949675559998,0.053330257534980774,-0.054566580802202225,-0.035133186727762222,-0.012925282120704651,0.022413879632949829,-0.067555204033851624,-0.067885786294937134,-0.046142164617776871,0.016156308352947235
-0.037141967564821243,0.016582474112510681,0.023340195417404175,-0.011902898550033569,0.017468228936195374,-0.077994637191295624,-0.003408104181289673,-0.036060515791177750,0.015050843358039856,-0.079328067600727081,0.069752365350723267,-0.040724404156208038,-0.042106039822101593,0.001425370573997498,0.053882166743278503,0.022454306483268738,0.018720045685768127,-0.039069179445505142,-0.024376779794692993,-0.008082702755928040,0.047920599579811096,0.053061813116073608,-0.009235151112079620,0.049672365188598633,-0.080657131969928741,0.042572274804115295,0.008149996399879456,0.020997032523155212,0.067546531558036804,-0.029826801270246506,0.025559335947036743,-0.078494027256965637,-0.054444506764411926,0.026710346341133118,0.060349270701408386,-0.065908528864383698,0.023109406232833862,0.070737510919570923,0.022727131843566895,-0.000200420618057251,-0.040795437991619110,0.041759833693504333,0.039334900677204132,-0.048050697892904282,0.052345097064971924,0.032226324081420898,-0.074082657694816589,0.054987832903862000,0.059904903173446655,0.075334504246711731,0.061774447560310364,0.081649914383888245,-0.066323623061180115,-0.052890665829181671,0.012849345803260803,0.018541589379310608,-0.046223577111959457,-0.011049166321754456,-0.041853290051221848,0.079904884099960327,0.062778174877166748,0.056677311658859253,0.070508226752281189,0.058312758803367615,0.010899052023887634,0.004954017698764801,0.071809917688369751,0.052184164524078369,-0.030527647584676743,-0.016815908253192902,0.013839170336723328,0.005950972437858582,-0.061943180859088898,0.021664761006832123,-0.012084655463695526,0.023131914436817169
0.016732133924961090,0.015272431075572968,0.071877688169479370,-0.044453825801610947,0.053320616483688354,0.031533621251583099,-0.021425787359476089,0.015266336500644684,-0.024754334241151810,-0.072033375501632690,0.043525502085685730,-0.081341668963432312,-0.008517079055309296,-0.046739537268877029,0.081411749124526978,0.071069031953811646,0.044274196028709412,0.060339257121086121,0.065463721752166748,0.039979763329029083,-0.070843152701854706,-0.027213439345359802,-0.002553835511207581,0.041885390877723694,0.056381940841674805,0.035485170781612396,-0.039082624018192291,-0.034598585218191147,-0.072247415781021118,-0.053712494671344757,0.066283136606216431,0.066455811262130737,0.072235807776451111,0.047867447137832642,-0.078344948589801788,0.057748317718505859,-0.029779724776744843,-0.011879794299602509,-0.002855978906154633,0.022744178771972656,-0.033676926046609879,0.009054265916347504,-0.022468723356723785,0.058760926127433777,-0.013972334563732147,0.014650404453277588,-0.015090629458427429,-0.028998564928770065,-0.042595077306032181,0.023636564612388611,0.020885653793811798,0.029481090605258942,-0.023247394710779190,0.045672670006752014,0.060858279466629028,-0.075361780822277069,-0.023054864257574081,-0.039884176105260849,-0.054039388895034790,-0.042717672884464264,0.006417222321033478,0.081314668059349060,0.036228753626346588,-0.009379848837852478,0.069896921515464783,0.068853691220283508,0.070140436291694641,-0.054171100258827209,-0.076687037944793701,-0.082513369619846344,-0.041826523840427399,0.078517526388168335,0.075352206826210022,0.030741728842258453,-0.030821226537227631,0.061564266681671143
0.011530756950378418,0.005424119532108307,-0.031463146209716797,0.050732865929603577,-0.002027578651905060,-0.058951485902070999,-0.081781238317489624,0.015805833041667938,-0.067403882741928101,-0.070555090904235840,0.076237201690673828,0.068020075559616089,-0.014099746942520142,0.052337348461151123,0.076898604631423950,0.083454161882400513,-0.077308863401412964,0.012245126068592072,-0.043696343898773193,0.073046669363975525,0.075670510530471802,-0.083457745611667633,-0.001892305910587311,-0.050583127886056900,-0.021081708371639252,-0.043609138578176498,0.027944259345531464,-0.052920378744602203,-0.007761403918266296,0.001987114548683167,0.017372280359268188,0.018960550427436829,0.018477424979209900,-0.069799855351448059,0.060623973608016968,-0.071895785629749298,0.067299187183380127,0.033406630158424377,-0.032709486782550812,0.030625008046627045,-0.061913028359413147,0.009909033775329590,-0.060331672430038452,0.026828952133655548,-0.071241497993469238,0.027019716799259186,-0.007117055356502533,-0.081525273621082306,0.007845282554626465,-0.074080273509025574,-0.007899269461631775,-0.003615595400333405,0.008020654320716858,-0.028534658253192902,-0.082971997559070587,-0.047365088015794754,0.001681327819824219,-0.001796036958694458,-0.017957165837287903,0.013003721833229065,-0.053248748183250427,-0.010271713137626648,0.017460241913795471,0.048904925584793091,-0.042170245200395584,0.017411530017852783,0.052775278687477112,-0.003277249634265900,-0.013199500739574432,-0.062577098608016968,0.043941214680671692,0.015837535262107849,-0.008081629872322083,0.079349830746650696,-0.067129202187061310,0.023705683648586273
0.017719008028507233,-0.025455500930547714,-0.050446655601263046,0.037387609481811523,-0.072919458150863647,-0.061807923018932343,-0.081271789968013763,0.031092241406440735,-0.030169527977705002,0.038204759359359741,-0.010421901941299438,0.002017743885517120,-0.010353162884712219,-0.011492580175399780,0.072927072644233704,-0.061488714069128036,-0.008369229733943939,-0.077102832496166229,-0.041294708847999573,0.018073163926601410,0.034077562391757965,-0.056176099926233292,0.055537670850753784,-0.007422484457492828,-0.009034611284732819,-0.009003646671772003,0.078241899609565735,-0.064543977379798889,0.033991232514381409,0.001722954213619232,-0.013810575008392334,0.076461985707283020,-0.043213199824094772,-0.043510582298040390,0.035374723374843597,0.001923829317092896,-0.018288001418113708,0.045966118574142456,-0.028888378292322159,-0.077294111251831055,-0.069208517670631409,0.055700048804283142,-0.072543933987617493,-0.064217761158943176,-0.081626363098621368,-0.079040981829166412,-0.073739394545555115,0.049243628978729248,-0.065017879009246826,-0.008655302226543427,-0.020111039280891418,-0.008398547768592834,0.079403772950172424,-0.043139338493347168,0.036698654294013977,0.042319044470787048,0.046226724982261658,-0.079329401254653931,0.054823011159896851,-0.065954089164733887,-0.081724897027015686,-0.059254340827465057,-0.040468860417604446,0.036343142390251160,-0.036083199083805084,-0.049550909548997879,-0.053125277161598206,-0.080592028796672821,-0.009235508739948273,0.024785518646240234,-0.019024670124053955,-0.078008815646171570,-0.063487321138381958,-0.046121574938297272,-0.038663085550069809,0.062791764736175537
0.039139870554208755,0.004617512691766024,0.074582256376743317,-0.024378970265388489,0.066498018801212311,-0.005630142521113157,0.009960167109966278,0.044146999716758728,-0.028543917462229729,-0.055097397416830063,0.059602297842502594,-0.024897903203964233,0.072110362350940704,0.019710741937160492,-0.027701329439878464,0.072403617203235626,-0.053224001079797745,-0.057332407683134079,0.024367175996303558,0.064872637391090393,0.071953386068344116,-0.024491716176271439,-0.063266173005104065,0.076300442218780518,-0.078662209212779999,-0.005297182593494654,0.049068640917539597,0.007761406712234020,0.013292814604938030,-0.030922330915927887,-0.037493016570806503,-0.034523505717515945,-0.075690485537052155,-0.071168072521686554,-0.055285885930061340,0.004487316124141216,-0.036733482033014297,0.048982322216033936,0.056146483868360519,0.057514559477567673,-0.069583199918270111,-0.005472406744956970,0.041190892457962036,0.032121732831001282,0.081092819571495056,-0.002059802412986755,-0.070629552006721497,0.069306015968322754,-0.081037856638431549,-0.064822778105735779,0.009753444232046604,0.066969245672225952,0.079723797738552094,-0.009798468090593815,-0.036805555224418640,0.071863122284412384,-0.010509468615055084,0.046432934701442719,-0.038259681314229965,-0.033997949212789536,0.021719224750995636,-0.062126293778419495,0.001025639707222581,-0.024893637746572495,-0.058008067309856415,-0.065120644867420197,0.032111663371324539,-0.052231065928936005,-0.034153159707784653,-0.015836916863918304,0.002846397459506989,-0.079225987195968628,-0.044731404632329941,-0.003496882040053606,0.040868524461984634,-0.008958111517131329
-0.083167307078838348,-0.061032161116600037,0.070417180657386780,-0.021343650296330452,0.073534071445465088,0.079894572496414185,-0.055924125015735626,-0.067582920193672180,0.064852520823478699,0.051247794181108475,0.055920004844665527,-0.053219284862279892,0.033507168292999268,-0.011907540261745453,0.060645088553428650,0.075179710984230042,-0.043703522533178329,-0.071977823972702026,0.055777177214622498,-0.028898710384964943,0.050694383680820465,-0.012780681252479553,0.006521393079310656,0.042763531208038330,-0.004288137890398502,0.036817923188209534,0.005420558620244265,-0.027588093653321266,-0.016481190919876099,0.042935684323310852,0.064067348837852478,-0.034441500902175903,-0.027342267334461212,0.035245291888713837,0.023970466107130051,-0.000004352097221272,-0.007140193600207567,0.006313830614089966,-0.083418525755405426,-0.033685710281133652,0.025631595402956009,0.050508171319961548,0.022756207734346390,0.010109868831932545,0.055652692914009094,0.009116915054619312,0.063362672924995422,0.069366410374641418,0.070493601262569427,0.056752920150756836,-0.064129434525966644,0.020999211817979813,-0.024489678442478180,-0.073033288121223450,-0.019856100901961327,0.016554130241274834,-0.031413476914167404,0.024789618328213692,0.027926100417971611,-0.020087551325559616,0.031323384493589401,0.038579426705837250,0.053997114300727844,-0.025710202753543854,-0.005079381167888641,-0.077912122011184692,-0.061029925942420959,0.029617369174957275,-0.040115159004926682,-0.074911236763000488,0.013678333722054958,0.040401689708232880,-0.066161893308162689,0.057145111262798309,0.020839173346757889,-0.055770311504602432
-0.009647503495216370,-0.032314509153366089,0.082738369703292847,-0.006631807889789343,-0.039250414818525314,0.010146404616534710,0.075935572385787964,-0.050842981785535812,0.039357688277959824,0.045440241694450378,0.081003010272979736,0.050040807574987411,-0.042465306818485260,0.071078523993492126,-0.010213539935648441,-0.070002712309360504,-0.021837953478097916,-0.066359445452690125,0.007431101053953171,-0.029960362240672112,0.030914116650819778,-0.080680876970291138,0.033326815813779831,0.021486859768629074,0.054236482828855515,-0.073016054928302765,0.058494068682193756,-0.043569523841142654,0.004318141844123602,0.023089129477739334,0.075343087315559387,0.035320654511451721,-0.041391994804143906,-0.036529097706079483,0.078449949622154236,0.028518773615360260,-0.064414873719215393,0.015625625848770142,-0.013954397290945053,-0.072021938860416412,-0.032756485044956207,-0.079516589641571045,0.082540310919284821,0.072477221488952637,0.072641938924789429,0.014279004186391830,-0.009030101820826530,-0.060730013996362686,-0.070513986051082611,-0.065909348428249359,0.050188660621643066,0.059845924377441406,0.062984168529510498,-0.051332525908946991,0.023598404601216316,0.011472994461655617,0.035350657999515533,0.016867503523826599,-0.034659016877412796,0.047499146312475204,0.044738579541444778,0.010265022516250610,0.080572918057441711,-0.042626272886991501,-0.020678928121924400,0.038649026304483414,-0.032354727387428284,0.075937129557132721,0.032843921333551407,-0.051684185862541199,-0.041354484856128693,0.027003131806850433,0.005220293998718262,0.078350909054279327,0.014107880182564259,0.066820487380027771
