-0.157623559236526489,0.075058028101921082,0.126245275139808655,0.114007428288459778,-0.118497073650360107,0.093122571706771851,0.206898137927055359,-0.190491959452629089,-0.208339273929595947,-0.049827657639980316,0.024274319410324097,0.161314949393272400,0.102346055209636688,-0.210833534598350525,-0.092966616153717041,-0.051604837179183960,-0.053506415337324142,-0.035026371479034424,-0.182747989892959595,0.147331357002258301,0.097601026296615601,0.003552687820047140,-0.011934702284634113,0.070969857275485992,-0.046653199940919876,0.105151966214179993,-0.056315004825592041,0.161006614565849304,-0.154725179076194763,-0.026220452040433884,0.008441386744379997,-0.037833742797374725,-0.195047423243522644,-0.034153204411268234,0.031918104737997055,0.195710420608520508,0.098378531634807587,-0.109993293881416321,-0.092418931424617767,-0.000884362787473947,0.031600374728441238,-0.179239064455032349,0.077602624893188477,-0.172728508710861206,-0.089157707989215851,0.090520501136779785,-0.062167219817638397,0.144394397735595703,0.001746523194015026,-0.174849167466163635,0.074844598770141602,-0.077030107378959656,0.000975168484728783,0.036265838891267776,0.116333730518817902,-0.166887924075126648,0.157865002751350403,0.026771593838930130,-0.187945872545242310,-0.144195735454559326,0.131047993898391724,-0.158496230840682983,0.085896827280521393,-0.157983750104904175,0.122407615184783936,0.191446840763092041,0.019300300627946854,0.053023535758256912,-0.015818802639842033,0.075899079442024231,-0.080131232738494873,-0.068761430680751801,0.028337823227047920,0.099586613476276398
0.261744260787963867,0.132172808051109314,0.083102434873580933,0.044617883861064911,0.081698417663574219,0.006659450009465218,0.001096634892746806,-0.146046757698059082,0.059177100658416748,-0.119787000119686127,0.196782588958740234,-0.125017315149307251,0.254874825477600098,-0.191700249910354614,-0.025649663060903549,-0.133755818009376526,0.253993988037109375,-0.176658064126968384,-0.087529078125953674,-0.190547689795494080,-0.232537478208541870,0.080142267048358917,-0.135026425123214722,-0.104476608335971832,0.088620059192180634,-0.115063577890396118,-0.076492846012115479,-0.110135070979595184,0.089813783764839172,-0.018347525969147682,-0.027126003056764603,0.178510457277297974,-0.132968246936798096,-0.232784971594810486,0.074073426425457001,0.211191579699516296,0.113592617213726044,-0.185575217008590698,0.064341641962528229,-0.049182433634996414,0.027282230556011200,0.053620394319295883,-0.121469333767890930,-0.045288600027561188,-0.132605984807014465,-0.337399691343307495,0.006734084337949753,-0.077430687844753265,0.225809097290039062,0.102929346263408661,0.164664566516876221,-0.024367282167077065,-0.092980705201625824,-0.229023128747940063,-0.051344070583581924,0.223516598343849182,-0.098005101084709167,0.019875761121511459,0.253467291593551636,-0.130881458520889282,0.118313521146774292,0.015510610304772854,-0.080735288560390472,0.278614044189453125,0.067588709294795990,-0.011027845554053783,-0.105593174695968628,-0.087660305202007294,-0.124968506395816803,-0.290379822254180908,-0.103466734290122986,0.213852971792221069,-0.156843364238739014,0.071355909109115601
-0.275040656328201294,0.278699368238449097,-0.081039473414421082,0.078864596784114838,-0.311826258897781372,-0.045008592307567596,0.132597759366035461,-0.241925954818725586,-0.110526435077190399,-0.136850208044052124,-0.139268800616264343,0.066351152956485748,-0.212505593895912170,0.111062750220298767,-0.154890581965446472,-0.216895952820777893,-0.118896476924419403,-0.241640895605087280,-0.013078635558485985,0.232378900051116943,-0.171695351600646973,-0.281320065259933472,0.231980070471763611,0.012856476940214634,0.063660085201263428,0.016667425632476807,0.255726069211959839,-0.122513659298419952,-0.153552368283271790,-0.087408825755119324,-0.052045304328203201,-0.126639917492866516,0.181693136692047119,0.117270387709140778,0.099452629685401917,-0.198750630021095276,-0.270367652177810669,-0.050992071628570557,-0.258565604686737061,0.129433155059814453,0.152562677860260010,0.015850516036152840,-0.131741955876350403,-0.150202706456184387,-0.208645597100257874,0.052341107279062271,-0.064542576670646667,0.066062435507774353,-0.171398401260375977,-0.159954935312271118,0.153799951076507568,0.061191547662019730,0.171954780817031860,0.007124473340809345,-0.074598588049411774,-0.204024061560630798,0.087473489344120026,0.148239135742187500,0.020339820533990860,0.093948118388652802,-0.137192353606224060,0.141038492321968079,-0.112536907196044922,0.134296283125877380,0.215497300028800964,0.229769974946975708,0.114081956446170807,-0.008331011980772018,-0.110335506498813629,0.165992319583892822,0.203520193696022034,-0.125943079590797424,0.148874431848526001,0.061375763267278671
-0.084941864013671875,0.074506260454654694,-0.015209755860269070,0.102277085185050964,-0.062312759459018707,-0.073219828307628632,0.200803190469741821,-0.027910398319363594,-0.081908516585826874,-0.211284384131431580,-0.046145707368850708,0.025413671508431435,-0.161594569683074951,0.108987651765346527,-0.326332151889801025,-0.218627214431762695,0.109212949872016907,-0.154137417674064636,-0.107001453638076782,0.169859945774078369,0.127489402890205383,-0.257583320140838623,-0.071686334908008575,-0.124157808721065521,0.088636167347431183,0.033087093383073807,0.247922554612159729,0.056537542492151260,0.249405071139335632,-0.028775637969374657,0.238787516951560974,0.236648827791213989,0.105867668986320496,0.253241986036300659,0.016067290678620338,0.016349406912922859,0.245927885174751282,-0.263000071048736572,0.094412885606288910,0.250555276870727539,-0.038884431123733521,0.126054435968399048,-0.047130614519119263,-0.099311761558055878,-0.248299404978752136,0.060510013252496719,-0.198293268680572510,0.049540888518095016,0.026068361476063728,-0.106279410421848297,0.049799460917711258,-0.079701825976371765,-0.162397980690002441,0.101656965911388397,-0.021008433774113655,-0.285340398550033569,0.148747920989990234,-0.289579391479492188,-0.119898274540901184,-0.339399695396423340,-0.116439491510391235,0.113320305943489075,-0.077874608337879181,-0.191683024168014526,-0.244594678282737732,-0.049338974058628082,-0.059260107576847076,0.236021414399147034,-0.193258047103881836,-0.149845227599143982,0.029077477753162384,-0.001221047015860677,-0.180580422282218933,0.086962155997753143
0.214429453015327454,-0.050095967948436737,0.178765133023262024,-0.080178931355476379,0.057970050722360611,-0.082919329404830933,0.068380400538444519,0.055096976459026337,0.177641585469245911,0.051975492388010025,0.096848629415035248,-0.299800366163253784,0.104179486632347107,-0.175018683075904846,0.227894484996795654,0.024697476997971535,0.284536302089691162,0.000843788089696318,0.091421715915203094,0.074883051216602325,-0.232744455337524414,0.035568200051784515,0.223552018404006958,0.186464935541152954,0.081794351339340210,-0.079870738089084625,-0.001315748784691095,-0.017529498785734177,0.057193953543901443,-0.172811746597290039,-0.052914693951606750,0.125056475400924683,-0.019631927832961082,-0.105864509940147400,-0.053602471947669983,0.051280010491609573,0.263623863458633423,0.129496335983276367,0.149069711565971375,0.184732049703598022,0.142618402838706970,-0.299119591712951660,0.043184656649827957,0.064887240529060364,0.125719323754310608,-0.181529730558395386,0.069169186055660248,0.240979120135307312,0.132871538400650024,-0.183747619390487671,0.187825769186019897,0.242046043276786804,-0.102705933153629303,-0.087802477180957794,0.074497610330581665,0.220108926296234131,0.018515115603804588,0.182903528213500977,0.217532813549041748,-0.079113401472568512,0.139844745397567749,0.231961607933044434,-0.088181935250759125,-0.089330770075321198,0.089342124760150909,-0.216226309537887573,-0.282631725072860718,0.117186360061168671,-0.121029637753963470,-0.178150385618209839,-0.039510168135166168,-0.216380253434181213,0.222613200545310974,0.005323790479451418
-0.097660638391971588,0.031481057405471802,0.161799207329750061,-0.015607718378305435,-0.000596415251493454,0.103742003440856934,-0.174857541918754578,0.204642891883850098,0.093725807964801788,0.159957185387611389,0.194314166903495789,0.046898718923330307,-0.214854761958122253,-0.017254624515771866,0.269451975822448730,0.174418494105339050,-0.123780295252799988,0.029256943613290787,-0.112620137631893158,-0.248694777488708496,-0.180592924356460571,0.004925109911710024,-0.131411641836166382,0.179627656936645508,-0.123634874820709229,-0.157609105110168457,0.081158228218555450,0.264663785696029663,-0.304974287748336792,0.063568264245986938,-0.156116202473640442,-0.091815553605556488,0.065835624933242798,-0.018907081335783005,0.186646640300750732,0.062994696199893951,0.115267872810363770,0.079951114952564240,0.183894380927085876,-0.061849664896726608,-0.102994978427886963,0.119588144123554230,0.117480643093585968,0.160719722509384155,0.168417900800704956,0.229044958949089050,-0.134289786219596863,0.014621508307754993,-0.193593934178352356,0.116624668240547180,-0.089317657053470612,-0.110999435186386108,0.039681985974311829,0.071948446333408356,-0.104729488492012024,-0.268579900264739990,0.088128879666328430,0.305215507745742798,-0.047992236912250519,-0.071910291910171509,0.288589894771575928,0.185510292649269104,0.074202671647071838,-0.076656118035316467,-0.233779340982437134,0.264180034399032593,0.168621137738227844,-0.230994880199432373,-0.217241525650024414,0.223752707242965698,0.058553390204906464,-0.089910462498664856,-0.057735823094844818,0.097147673368453979
-0.150972709059715271,0.194952726364135742,0.046689096838235855,-0.020847465842962265,0.207155928015708923,-0.036479126662015915,-0.131576895713806152,0.159936487674713135,0.108652547001838684,-0.110054582357406616,-0.172276899218559265,-0.213748335838317871,-0.202161699533462524,0.238483667373657227,-0.157682478427886963,-0.135548681020736694,0.065080516040325165,-0.001700374297797680,0.168873459100723267,0.108892858028411865,0.180534943938255310,0.204389363527297974,-0.103876486420631409,0.192773580551147461,-0.092116735875606537,-0.070160649716854095,0.087101399898529053,-0.182484358549118042,0.195017695426940918,-0.001165973138995469,0.195029780268669128,-0.019467622041702271,-0.041054770350456238,0.240570604801177979,0.216265365481376648,-0.219591721892356873,0.143544927239418030,0.077614739537239075,0.189951628446578979,0.156495288014411926,0.118528418242931366,-0.117602474987506866,-0.035599146038293839,-0.126893013715744019,-0.079404905438423157,0.143174812197685242,0.010154677554965019,0.257660478353500366,-0.164551049470901489,0.085869565606117249,-0.046238463371992111,0.115312345325946808,-0.167332991957664490,0.318287014961242676,-0.016902694478631020,-0.025132801383733749,0.073163196444511414,0.105215355753898621,-0.105816803872585297,-0.038777079433202744,0.228223919868469238,-0.056575376540422440,-0.308037996292114258,-0.195382460951805115,-0.204577505588531494,0.004584072623401880,-0.038664508610963821,-0.003921882715076208,0.008752760477364063,-0.061010863631963730,-0.158485144376754761,0.023799564689397812,0.252139091491699219,0.054517619311809540
0.061190363019704819,-0.089024409651756287,-0.031689919531345367,-0.104324705898761749,0.196536585688591003,0.113764770328998566,0.275774031877517700,-0.310913532972335815,-0.030386032536625862,0.033444043248891830,0.222972273826599121,0.216550916433334351,0.015944663435220718,0.083045199513435364,0.098154373466968536,0.063254110515117645,-0.026907842606306076,0.252230376005172729,-0.163642704486846924,-0.122488036751747131,0.098726503551006317,-0.103295415639877319,0.196855396032333374,0.072251923382282257,0.096993610262870789,0.102429375052452087,0.235391661524772644,-0.096354715526103973,0.035726800560951233,-0.066838473081588745,0.136354908347129822,0.126244708895683289,-0.036301862448453903,-0.014935401268303394,-0.164751529693603516,-0.037492882460355759,-0.371053397655487061,-0.192233189940452576,-0.021989800035953522,-0.205237254500389099,0.094538681209087372,-0.023634457960724831,0.082005523145198822,-0.102181173861026764,-0.173045590519905090,-0.096522875130176544,-0.002124562393873930,0.057183187454938889,0.194834679365158081,0.083509840071201324,-0.167506381869316101,-0.304272890090942383,0.271737545728683472,0.051529098302125931,-0.125498235225677490,0.151792272925376892,0.004537880886346102,0.118164725601673126,0.128406748175621033,-0.104729764163494110,0.050117332488298416,0.026584178209304810,-0.016187276691198349,0.094211630523204803,0.326370656490325928,-0.036425407975912094,-0.008411565795540810,0.233912870287895203,-0.030218115076422691,-0.059760149568319321,0.063576765358448029,0.102342128753662109,0.086124069988727570,-0.149060964584350586
-0.274586796760559082,0.292650848627090454,0.226960703730583191,-0.037546593695878983,0.081289552152156830,-0.007133118808269501,-0.018861554563045502,0.108771272003650665,-0.107776224613189697,0.360467642545700073,0.123937264084815979,-0.140752971172332764,-0.098061800003051758,0.009853824973106384,0.318275213241577148,0.110203243792057037,-0.086090169847011566,-0.093866221606731415,0.091824486851692200,0.273684799671173096,-0.047641791403293610,-0.161621317267417908,0.278680443763732910,-0.191846951842308044,-0.200661510229110718,-0.036765836179256439,-0.298819422721862793,-0.319379419088363647,-0.288363784551620483,-0.061779588460922241,0.119636133313179016,-0.016306247562170029,0.069823592901229858,-0.049336086958646774,-0.132315427064895630,-0.227280750870704651,-0.027241835370659828,-0.017058392986655235,0.086781062185764313,-0.107681043446063995,0.172246113419532776,-0.269585609436035156,0.018114000558853149,0.180128067731857300,-0.060933854430913925,0.220937296748161316,0.122855678200721741,0.229299217462539673,0.135688900947570801,0.113175965845584869,-0.068307995796203613,0.302824288606643677,-0.182939857244491577,-0.079720720648765564,-0.032704722136259079,-0.228797540068626404,0.090632967650890350,0.239746078848838806,-0.035720024257898331,0.023498386144638062,0.259627461433410645,0.033539064228534698,-0.261225521564483643,0.071912892162799835,0.070357725024223328,-0.106996193528175354,0.035012371838092804,0.151065424084663391,0.048538602888584137,0.106890894472599030,-0.255189836025238037,-0.029800755903124809,-0.078140020370483398,0.220938757061958313
-0.089305154979228973,0.061530984938144684,0.171672210097312927,-0.277056604623794556,0.276727467775344849,-0.234067335724830627,-0.124764062464237213,-0.254167050123214722,0.019620861858129501,0.103655606508255005,0.022787408903241158,0.207141041755676270,0.165209949016571045,0.166642472147941589,-0.075123250484466553,-0.025434684008359909,-0.123354151844978333,-0.051428537815809250,0.032579738646745682,-0.013658632524311543,0.042838938534259796,-0.130649983882904053,-0.044466808438301086,-0.011902363039553165,-0.008036784827709198,-0.027800600975751877,0.007173805497586727,0.145265564322471619,0.249659255146980286,-0.036875952035188675,0.096172414720058441,0.021366992965340614,0.023687127977609634,-0.151435360312461853,-0.342256963253021240,-0.195341035723686218,-0.198084592819213867,-0.226264461874961853,-0.166135594248771667,-0.144664421677589417,-0.095174260437488556,-0.218394801020622253,0.042029123753309250,0.118465848267078400,-0.191193670034408569,-0.101538151502609253,-0.071503333747386932,-0.074980758130550385,0.025716261938214302,0.175181582570075989,-0.048011433333158493,0.004509379621595144,0.069130025804042816,0.202388390898704529,-0.001313438406214118,-0.077083565294742584,-0.133527472615242004,0.247110053896903992,0.234774217009544373,-0.163525640964508057,-0.010251827538013458,0.156462088227272034,0.052891738712787628,0.372597366571426392,-0.021406712010502815,0.006535148713737726,0.086722306907176971,0.178943425416946411,0.209599852561950684,0.049402937293052673,-0.174307242035865784,0.085731782019138336,-0.163622468709945679,-0.031095096841454506
-0.305292278528213501,-0.048322699964046478,-0.143874540925025940,-0.188219204545021057,-0.144010961055755615,-0.154083743691444397,-0.089281447231769562,0.210734754800796509,-0.015586433000862598,0.091899640858173370,-0.234125584363937378,-0.103689819574356079,-0.026486961171030998,-0.166234910488128662,-0.039287343621253967,0.075007364153862000,-0.063502162694931030,-0.042700517922639847,-0.003644356969743967,-0.095744207501411438,-0.116104565560817719,0.251259356737136841,0.122808046638965607,-0.044022582471370697,-0.198980554938316345,0.257825851440429688,0.060010507702827454,0.045248653739690781,0.292130291461944580,-0.092775218188762665,0.163510695099830627,0.057847872376441956,-0.049993779510259628,0.228329777717590332,0.009989288635551929,0.102536618709564209,0.138381779193878174,0.184610739350318909,0.023733960464596748,0.182693034410476685,0.018578309565782547,-0.119362138211727142,-0.100820817053318024,-0.322966605424880981,0.293721497058868408,-0.106222853064537048,-0.161578997969627380,-0.144222274422645569,0.177043884992599487,0.130208730697631836,0.107624895870685577,0.103880167007446289,0.241907656192779541,0.177535519003868103,0.108818814158439636,0.013936129398643970,0.194837614893913269,-0.207654729485511780,-0.199159920215606689,0.136712893843650818,0.198802456259727478,-0.143254801630973816,0.044431574642658234,-0.024964768439531326,0.160468354821205139,0.005637647584080696,0.179080009460449219,-0.033947695046663284,-0.237656369805335999,-0.116587266325950623,0.062265820801258087,-0.279475837945938110,0.086248621344566345,0.104356609284877777
-0.007354422006756067,0.175147712230682373,-0.086670473217964172,0.060126937925815582,0.022499816492199898,0.186859205365180969,0.201568052172660828,0.040258176624774933,0.188985601067543030,0.076193235814571381,-0.079453326761722565,-0.041865292936563492,-0.014965624548494816,0.176379531621932983,-0.182077094912528992,0.165312752127647400,-0.171574473381042480,-0.078021422028541565,0.096567220985889435,0.012300698086619377,0.154662474989891052,-0.064712539315223694,0.169010624289512634,-0.011271161027252674,0.032084092497825623,-0.085944727063179016,-0.177205607295036316,0.171238943934440613,0.196720734238624573,0.081572107970714569,0.013567046262323856,0.148439899086952209,-0.163403213024139404,0.056552030146121979,0.172819972038269043,0.122251696884632111,0.090381391346454620,-0.094108119606971741,0.192631840705871582,0.038329996168613434,0.120964199304580688,-0.044112794101238251,-0.102468267083168030,0.032950259745121002,0.092840693891048431,0.202504426240921021,0.135392054915428162,-0.083565928041934967,0.185997664928436279,-0.011255070567131042,-0.145564362406730652,-0.175556063652038574,-0.150796607136726379,-0.134491890668869019,0.004240561276674271,0.113186985254287720,-0.084702312946319580,0.093288548290729523,-0.009716277942061424,0.180081635713577271,-0.162215143442153931,0.156404808163642883,0.158546298742294312,-0.020912772044539452,-0.030671449378132820,0.082322299480438232,0.161388173699378967,0.139755100011825562,-0.042488332837820053,0.123366847634315491,-0.081508733332157135,-0.212078601121902466,0.121593989431858063,0.104274518787860870
0.118752874433994293,-0.018089601770043373,-0.010703413747251034,0.108760640025138855,-0.059582531452178955,0.235132634639739990,-0.023203885182738304,-0.213875100016593933,0.052147455513477325,-0.091723181307315826,0.073793247342109680,-0.043196085840463638,0.171716257929801941,0.028444485738873482,-0.223536700010299683,-0.059078723192214966,0.243014350533485413,0.203614979982376099,-0.175409242510795593,0.147942200303077698,0.139363914728164673,0.064517848193645477,-0.072958208620548248,0.010294886305928230,-0.118472650647163391,-0.206905469298362732,0.033848226070404053,0.111748464405536652,-0.081927165389060974,-0.187033474445343018,-0.249705821275711060,-0.081419035792350769,0.166369259357452393,0.216812610626220703,0.100528419017791748,0.054991636425256729,0.066832147538661957,0.105653502047061920,0.165915757417678833,-0.162259653210639954,0.196761101484298706,0.147084310650825500,-0.122665122151374817,0.130541235208511353,0.110923752188682556,-0.021577263250946999,0.274171739816665649,-0.172079563140869141,0.072610586881637573,0.188301980495452881,0.168959319591522217,-0.022480808198451996,-0.200557127594947815,-0.006770847830921412,0.204005196690559387,-0.056502558290958405,-0.003465772373601794,-0.112443372607231140,0.214777693152427673,-0.185440376400947571,-0.135603651404380798,0.089603215456008911,-0.143111541867256165,-0.112293906509876251,-0.262212008237838745,-0.192363068461418152,0.236863732337951660,-0.032900344580411911,-0.098924033343791962,0.149900496006011963,0.059473250061273575,-0.096448116004467010,-0.226788073778152466,-0.096600390970706940
-0.200195908546447754,-0.125592663884162903,-0.000549635966308415,0.012942532077431679,-0.196831196546554565,0.048475135117769241,-0.006668692454695702,-0.088669389486312866,0.012016732245683670,-0.229128688573837280,0.099803648889064789,-0.149412095546722412,-0.091982074081897736,-0.100606895983219147,-0.091011121869087219,-0.027675097808241844,0.021055817604064941,0.075535587966442108,-0.097774080932140350,-0.048906188458204269,-0.153479576110839844,-0.080956622958183289,-0.048148646950721741,-0.034071017056703568,-0.083684802055358887,0.160101115703582764,-0.133280679583549500,-0.149877905845642090,-0.154331341385841370,0.143178403377532959,-0.108776561915874481,0.009796898812055588,-0.035706099122762680,-0.104390978813171387,0.051562462002038956,-0.120647065341472626,0.055506430566310883,0.003176054218783975,-0.137083396315574646,-0.184016302227973938,0.168709203600883484,0.145564258098602295,0.118258453905582428,0.048946879804134369,-0.083247736096382141,0.001386804040521383,0.121603213250637054,0.037798516452312469,0.019761513918638229,0.040501039475202560,0.034918867051601410,0.184100091457366943,-0.226169586181640625,-0.006100892089307308,-0.169871002435684204,0.184998258948326111,0.189456447958946228,0.081971168518066406,0.083532154560089111,0.241011038422584534,0.102656297385692596,-0.194549188017845154,0.070957370102405548,-0.191266998648643494,-0.148218020796775818,-0.115619219839572906,-0.125365853309631348,0.129029750823974609,0.170581057667732239,0.146750837564468384,-0.049372453242540359,0.192894756793975830,-0.170877367258071899,0.055559594184160233
0.094920650124549866,0.009252116084098816,-0.228332072496414185,-0.180244967341423035,-0.310360550880432129,-0.017486058175563812,0.034222535789012909,-0.100267112255096436,-0.199389308691024780,0.013931230641901493,0.170202240347862244,-0.063520081341266632,-0.202238544821739197,0.225036770105361938,0.027286278083920479,-0.190664231777191162,-0.241145730018615723,-0.133600309491157532,-0.144358143210411072,0.103245519101619720,-0.081949159502983093,0.069400571286678314,-0.109595708549022675,-0.117742680013179779,-0.001347339013591409,-0.013088529929518700,0.053383991122245789,-0.070931538939476013,0.119824230670928955,-0.293952167034149170,0.029387278482317924,-0.071161739528179169,-0.202790245413780212,-0.183892220258712769,0.256401658058166504,0.213833466172218323,-0.164307668805122375,0.127280920743942261,-0.131850972771644592,0.238860130310058594,0.153834745287895203,0.101491875946521759,0.034050382673740387,0.032041911035776138,-0.182855784893035889,-0.070956133306026459,0.134814560413360596,0.310476511716842651,0.116414353251457214,-0.094594873487949371,-0.126279786229133606,-0.023475494235754013,0.101068481802940369,0.069408133625984192,0.173354551196098328,0.163373783230781555,-0.084390662610530853,0.195844560861587524,-0.241053551435470581,0.211448177695274353,-0.263926386833190918,-0.081996522843837738,0.242591947317123413,-0.192543774843215942,0.238398745656013489,-0.054642044007778168,-0.156163990497589111,0.206568688154220581,-0.141536593437194824,0.115060731768608093,-0.057742606848478317,-0.060142632573843002,-0.031846646219491959,-0.173732623457908630
-0.102462992072105408,0.299753874540328979,-0.064160890877246857,0.344106972217559814,0.152677267789840698,-0.025932794436812401,0.078612081706523895,0.171552270650863647,-0.191015094518661499,-0.218161940574645996,0.160482347011566162,0.052133183926343918,-0.217973202466964722,0.147014126181602478,-0.134930774569511414,0.031276203691959381,0.200554415583610535,-0.020595680922269821,-0.211097836494445801,0.062434148043394089,-0.149175673723220825,-0.066267803311347961,0.039448916912078857,-0.062178608030080795,-0.067424021661281586,-0.104538500308990479,0.042912136763334274,0.302687436342239380,-0.054379209876060486,0.112428247928619385,0.147516235709190369,-0.254674375057220459,-0.024570517241954803,0.112754024565219879,-0.044563699513673782,-0.019221840426325798,0.059437237679958344,0.313101768493652344,-0.074392214417457581,-0.212590679526329041,-0.217357352375984192,0.130367890000343323,0.253713399171829224,0.141616597771644592,0.181770622730255127,0.259452104568481445,0.062987543642520905,0.102655045688152313,-0.019400587305426598,0.170457214117050171,-0.034146912395954132,-0.236284032464027405,0.275500595569610596,0.078083612024784088,-0.159217864274978638,0.158812105655670166,-0.222107693552970886,0.135282948613166809,-0.012148865498602390,0.082592658698558807,0.218542799353599548,0.077310882508754730,0.161501884460449219,0.136214867234230042,0.152435839176177979,0.076260477304458618,0.267114371061325073,-0.224570676684379578,0.033347189426422119,0.031893726438283920,0.153195753693580627,0.026884108781814575,-0.151162251830101013,-0.174574464559555054
0.178186312317848206,0.272095829248428345,0.285103827714920044,-0.132141917943954468,0.083084173500537872,0.095446117222309113,-0.056006796658039093,0.087420344352722168,-0.196266964077949524,0.036525715142488480,0.083356544375419617,0.127942711114883423,-0.266380071640014648,0.196692645549774170,0.182964101433753967,0.156100481748580933,-0.012206159532070160,-0.138538897037506104,-0.045532133430242538,-0.005093157757073641,0.232402443885803223,0.023856747895479202,0.112375929951667786,0.306664973497390747,-0.165228068828582764,0.086865641176700592,-0.041571341454982758,0.067247197031974792,0.041590955108404160,-0.260926842689514160,-0.119061812758445740,-0.112275399267673492,0.197497561573982239,0.118195995688438416,0.099954478442668915,0.217529103159904480,-0.169973552227020264,0.223686710000038147,-0.180664330720901489,-0.108446590602397919,0.025724463164806366,0.207628831267356873,0.101757511496543884,0.088419377803802490,-0.218984141945838928,-0.131684824824333191,-0.168526306748390198,0.273216158151626587,-0.317457288503646851,-0.061257395893335342,-0.027192063629627228,-0.198530927300453186,0.021485496312379837,0.012239991687238216,-0.237406596541404724,-0.021549224853515625,-0.036048706620931625,0.087924741208553314,0.065602429211139679,0.386657685041427612,0.155714616179466248,-0.076485551893711090,0.222996324300765991,0.029658840969204903,-0.129959747195243835,-0.037765260785818100,-0.202418193221092224,-0.059412252157926559,-0.109950356185436249,0.248455762863159180,-0.150074601173400879,-0.234041020274162292,-0.069993093609809875,-0.180034890770912170
0.349112331867218018,-0.088881552219390869,-0.009325746446847916,-0.026611009612679482,0.075828649103641510,0.300734847784042358,-0.144115865230560303,-0.154788628220558167,0.184728726744651794,0.035610329359769821,-0.051462747156620026,-0.250890195369720459,0.122204169631004333,0.186588972806930542,0.020425658673048019,0.180291488766670227,0.190058425068855286,0.238429605960845947,-0.089384347200393677,0.056675694882869720,0.006435450632125139,-0.106748931109905243,0.079036362469196320,-0.141961812973022461,-0.159618154168128967,-0.209669858217239380,-0.240885391831398010,-0.188806593418121338,-0.053028464317321777,0.132007330656051636,0.033584002405405045,-0.052673567086458206,-0.060843478888273239,0.049567259848117828,0.087524019181728363,0.189267292618751526,0.025657121092081070,-0.066085577011108398,0.121087804436683655,0.055577807128429413,0.064571112394332886,-0.091224372386932373,0.141579121351242065,0.063664831221103668,0.199268907308578491,0.026903102174401283,-0.033566486090421677,0.056475453078746796,-0.008726663887500763,-0.331086337566375732,-0.093477897346019745,-0.166709005832672119,-0.277788162231445312,-0.126633644104003906,0.076026000082492828,0.052832577377557755,-0.022607309743762016,0.098416239023208618,0.012311355210840702,0.134575918316841125,-0.213583379983901978,0.113019280135631561,0.202113106846809387,-0.040091451257467270,-0.177300438284873962,-0.192638009786605835,0.011516350321471691,0.211472004652023315,0.060837525874376297,0.170406371355056763,-0.005539561156183481,0.111747331917285919,0.029602110385894775,-0.073258750140666962
-0.115195341408252716,-0.045005809515714645,-0.148548334836959839,0.075887478888034821,0.225954458117485046,0.155219316482543945,-0.220970228314399719,-0.043115198612213135,-0.230217918753623962,0.135684266686439514,-0.223080217838287354,-0.040924284607172012,-0.285322070121765137,-0.111363850533962250,0.074402019381523132,0.061678089201450348,0.031794991344213486,0.070233963429927826,0.142244294285774231,-0.039469689130783081,0.126267194747924805,-0.107266321778297424,-0.165635809302330017,0.016954997554421425,-0.113451473414897919,-0.032450586557388306,-0.014437098987400532,-0.242008164525032043,-0.234674811363220215,0.043085779994726181,-0.078585222363471985,-0.046931829303503036,0.053097527474164963,0.129724875092506409,0.129580706357955933,-0.068157203495502472,-0.046066559851169586,-0.048453364521265030,0.155455172061920166,-0.053068187087774277,0.234096184372901917,-0.080587141215801239,0.046624902635812759,-0.097520984709262848,0.073117233812808990,-0.119031883776187897,0.139992266893386841,0.216319978237152100,0.284535914659500122,0.175166085362434387,0.181351825594902039,-0.082494072616100311,-0.048147115856409073,0.014536155387759209,-0.112859740853309631,-0.036192189902067184,-0.151401951909065247,-0.065080814063549042,0.123622246086597443,0.327927708625793457,-0.107650525867938995,0.196361586451530457,-0.037266127765178680,0.231129288673400879,0.132903918623924255,0.193775936961174011,-0.096738196909427643,-0.141992032527923584,-0.124085441231727600,-0.086802005767822266,0.002186791040003300,0.034304924309253693,0.229682788252830505,-0.135328769683837891
-0.161039799451828003,0.038046605885028839,-0.066232405602931976,-0.013888713903725147,-0.311673998832702637,0.217706471681594849,-0.140080347657203674,0.078997015953063965,-0.084694422781467438,-0.033647742122411728,-0.326426535844802856,0.106604829430580139,-0.251922041177749634,-0.163335308432579041,-0.120101585984230042,-0.276284992694854736,-0.154960095882415771,-0.056593772023916245,-0.212107762694358826,0.226067826151847839,-0.008883405476808548,-0.211473688483238220,-0.056396473199129105,0.129888817667961121,0.137576535344123840,0.004390524234622717,0.088701009750366211,-0.020878566429018974,-0.134060293436050415,0.027196727693080902,0.066524311900138855,0.130826130509376526,0.161594226956367493,0.097432598471641541,-0.199225023388862610,-0.138056486845016479,0.118619732558727264,0.097094304859638214,-0.192517355084419250,0.178510501980781555,0.245114728808403015,0.051595974713563919,-0.003846723819151521,-0.288845151662826538,-0.083769425749778748,-0.215156003832817078,0.160593107342720032,-0.010859902948141098,0.110797218978404999,-0.019860377535223961,0.014787401072680950,0.163930147886276245,0.179440945386886597,-0.218196198344230652,0.018604943528771400,-0.164737999439239502,0.016522865742444992,-0.182106256484985352,0.233563870191574097,0.196991294622421265,-0.145357429981231689,0.174163162708282471,0.001242325524799526,-0.088919527828693390,0.179905116558074951,-0.015592087991535664,-0.159093856811523438,0.249350592494010925,0.256289809942245483,0.094602957367897034,-0.084114521741867065,0.042502228170633316,-0.205170676112174988,-0.078572541475296021
0.180851832032203674,-0.250405102968215942,-0.309624314308166504,0.032793164253234863,-0.161332651972770691,-0.185575798153877258,0.030559245496988297,-0.336318522691726685,-0.085356764495372772,0.145626842975616455,-0.122473679482936859,0.147692531347274780,0.058415222913026810,-0.130014345049858093,-0.112048819661140442,0.017490675672888756,0.230409741401672363,0.044193472713232040,-0.078062355518341064,-0.107318714261054993,0.059608764946460724,-0.075947187840938568,-0.415703952312469482,0.047453269362449646,0.201614156365394592,0.003689612727612257,0.065676636993885040,-0.099614225327968597,-0.132797420024871826,0.133745938539505005,-0.169053062796592712,0.134893879294395447,-0.067213922739028931,0.196937799453735352,-0.214201673865318298,-0.065806418657302856,0.102504156529903412,-0.182659775018692017,-0.039034917950630188,0.165297314524650574,0.109007395803928375,0.253373205661773682,-0.140157818794250488,0.150881260633468628,-0.154820442199707031,0.047912146896123886,0.112547524273395538,0.099955268204212189,-0.079002186655998230,-0.247652813792228699,-0.084703944623470306,-0.122750386595726013,0.150017768144607544,-0.085561037063598633,-0.098149254918098450,-0.102458827197551727,0.062052689492702484,-0.236836180090904236,-0.111732602119445801,-0.047401670366525650,-0.156029105186462402,-0.112046808004379272,0.084227167069911957,0.147267907857894897,-0.115240603685379028,0.210969045758247375,0.021801130846142769,0.016826577484607697,-0.106685653328895569,0.235149160027503967,-0.114253498613834381,0.127120301127433777,-0.008606698364019394,-0.095931172370910645
-0.225299388170242310,-0.070513747632503510,0.280632853507995605,0.213570520281791687,0.208069041371345520,0.081491701304912567,0.034855518490076065,0.186766505241394043,0.187398925423622131,-0.105952180922031403,0.206590294837951660,-0.176923766732215881,0.094449214637279510,-0.159332707524299622,0.189216479659080505,0.095911204814910889,-0.119229197502136230,0.136545315384864807,0.070910766720771790,0.136331886053085327,-0.155096620321273804,0.085463605821132660,0.226848244667053223,0.267753988504409790,0.180882185697555542,-0.057596717029809952,0.185235008597373962,0.065847456455230713,0.074302315711975098,0.139660239219665527,0.271872013807296753,-0.100406840443611145,0.029346436262130737,-0.296160370111465454,-0.088964320719242096,0.186672016978263855,-0.029108073562383652,0.180977165699005127,-0.130158826708793640,0.068650513887405396,-0.008823560550808907,-0.255636453628540039,-0.149124771356582642,0.178466543555259705,-0.137631237506866455,-0.091597743332386017,-0.235477656126022339,-0.192690297961235046,-0.171322867274284363,-0.123487696051597595,0.269652754068374634,-0.169747591018676758,0.068361006677150726,-0.115170270204544067,-0.097532600164413452,0.056792140007019043,-0.118423506617546082,0.218514606356620789,-0.256613701581954956,0.009326851926743984,-0.078743748366832733,-0.035375177860260010,0.125688627362251282,-0.018429961055517197,0.026814065873622894,0.080003991723060608,0.175083443522453308,-0.084181629121303558,0.166306123137474060,-0.038967885076999664,-0.163978815078735352,0.158036515116691589,-0.087921038269996643,-0.110515065491199493
-0.038600344210863113,0.065004751086235046,0.276204437017440796,-0.012447359971702099,-0.041041195392608643,-0.252906620502471924,-0.158739253878593445,-0.080607131123542786,-0.063410028815269470,0.167302608489990234,-0.077320352196693420,-0.255645364522933960,0.074442774057388306,0.046902902424335480,0.124540127813816071,-0.185963407158851624,-0.231622830033302307,-0.087528429925441742,-0.167679220438003540,-0.102490253746509552,0.062424011528491974,0.203374013304710388,-0.051721144467592239,0.138441473245620728,-0.123172745108604431,-0.120015755295753479,-0.071570932865142822,0.291832804679870605,0.105479955673217773,-0.191989392042160034,0.222850173711776733,0.293470919132232666,0.236174568533897400,-0.104494839906692505,-0.267873644828796387,0.138200268149375916,-0.094863571226596832,0.217895612120628357,-0.198505133390426636,0.185562625527381897,-0.228615462779998779,0.206949859857559204,-0.146011397242546082,0.118520073592662811,0.236939251422882080,-0.120447583496570587,-0.104782715439796448,-0.185161888599395752,0.227495431900024414,0.089327789843082428,0.117813490331172943,-0.107628330588340759,0.202465236186981201,-0.087251119315624237,-0.071488842368125916,0.182411700487136841,-0.215279102325439453,0.093231059610843658,0.228991508483886719,0.165563315153121948,-0.011038098484277725,0.174875468015670776,-0.041750136762857437,0.272345393896102905,0.015236391685903072,-0.264164656400680542,-0.113494560122489929,-0.083461314439773560,0.142531529068946838,-0.339036941528320312,0.214205786585807800,0.187143519520759583,-0.168030068278312683,-0.194737449288368225
-0.059605896472930908,-0.045283269137144089,0.205896988511085510,0.023374104872345924,-0.171266332268714905,-0.231282711029052734,-0.155875369906425476,-0.166352450847625732,-0.137506261467933655,-0.384070843458175659,-0.065848283469676971,0.006948772352188826,0.119289219379425049,0.023882303386926651,-0.340822339057922363,0.068327963352203369,-0.021638685837388039,-0.011224555782973766,-0.150732666254043579,-0.279764980077743530,0.058893796056509018,0.232770755887031555,-0.165167629718780518,0.159107789397239685,-0.001001104363240302,0.149644017219543457,0.120590612292289734,0.285133868455886841,0.155143007636070251,0.239660277962684631,-0.216588854789733887,-0.144535213708877563,0.110018692910671234,-0.011933463625609875,0.082313165068626404,-0.063487842679023743,-0.164466142654418945,0.101912602782249451,0.126848071813583374,0.030163101851940155,-0.386734515428543091,0.163459792733192444,-0.218201473355293274,0.028507456183433533,-0.011293044313788414,0.114896960556507111,-0.042932558804750443,-0.057547118514776230,0.182760477066040039,-0.060003384947776794,0.123964637517929077,-0.094689451158046722,0.113289803266525269,0.113383568823337555,-0.214548796415328979,0.074455305933952332,0.081306345760822296,0.037705931812524796,-0.076701819896697998,-0.172609284520149231,-0.187922120094299316,-0.061056368052959442,0.161234438419342041,-0.023547466844320297,-0.083350129425525665,-0.172472491860389709,0.011853351257741451,-0.141281649470329285,-0.216641098260879517,-0.039548955857753754,0.009921674616634846,-0.041796475648880005,0.169412672519683838,-0.068249493837356567
-0.003375337226316333,-0.115779310464859009,0.022222310304641724,-0.152289345860481262,-0.224032029509544373,-0.098826803267002106,-0.125275611877441406,-0.010948986746370792,0.182623744010925293,-0.065060116350650787,0.163691610097885132,-0.037617310881614685,-0.301902502775192261,-0.165957957506179810,0.119723096489906311,0.112237595021724701,0.030356818810105324,0.177090615034103394,-0.153758347034454346,0.077250450849533081,0.107859253883361816,-0.226704627275466919,-0.246918469667434692,0.213008642196655273,0.040876545011997223,0.186370596289634705,0.048422295600175858,0.028984529897570610,-0.196137353777885437,0.054795276373624802,0.116798080503940582,0.069408454000949860,0.182490542531013489,-0.214213714003562927,0.037887357175350189,0.052700191736221313,-0.185858309268951416,0.224341586232185364,-0.138084813952445984,0.067886866629123688,0.080000840127468109,0.007001549005508423,-0.013613321818411350,-0.144146695733070374,0.252196699380874634,0.079555094242095947,-0.143514558672904968,0.127769425511360168,-0.026105841621756554,0.096886381506919861,0.018141472712159157,-0.146511465311050415,-0.113750979304313660,-0.028584696352481842,0.011619677767157555,-0.283680349588394165,-0.212933152914047241,0.204979106783866882,0.120518058538436890,-0.002401852048933506,0.119512140750885010,-0.147092610597610474,-0.020481526851654053,-0.215355306863784790,0.211612567305564880,0.231135651469230652,0.063555814325809479,-0.067283064126968384,0.045869946479797363,-0.099819757044315338,0.006633321754634380,-0.019196094945073128,0.197006419301033020,-0.154129907488822937
0.214209660887718201,-0.153532296419143677,0.016550647094845772,-0.219574019312858582,0.166140243411064148,0.106486052274703979,-0.285291969776153564,0.036811687052249908,0.069214999675750732,0.176037624478340149,-0.290083646774291992,0.225575581192970276,-0.033463861793279648,-0.127137422561645508,0.255908071994781494,0.092831909656524658,-0.138889715075492859,-0.201107591390609741,0.019691541790962219,0.175273045897483826,-0.031976457685232162,-0.128593683242797852,0.070011168718338013,-0.350243538618087769,0.190640345215797424,-0.045134130865335464,0.042333666235208511,-0.018325932323932648,0.124053008854389191,0.113416485488414764,0.220588609576225281,0.000699810101650655,-0.157084256410598755,-0.085290454328060150,0.107586830854415894,0.197008177638053894,0.013355054892599583,0.004092739429324865,-0.053720269352197647,0.201446250081062317,0.146633356809616089,-0.001353219500742853,-0.188683807849884033,0.097675159573554993,-0.204177007079124451,0.080749087035655975,-0.185863971710205078,0.005827287677675486,-0.023826090618968010,-0.057945005595684052,-0.045584183186292648,0.080985374748706818,0.216392248868942261,0.058170083910226822,-0.071292899549007416,-0.061252098530530930,0.224685072898864746,-0.246637344360351562,-0.053768482059240341,0.043218210339546204,0.081084765493869781,-0.127286970615386963,-0.137744575738906860,-0.116043649613857269,0.208858251571655273,0.253097504377365112,-0.108009755611419678,-0.017483586445450783,0.084995463490486145,0.030741233378648758,-0.278095930814743042,-0.273614019155502319,-0.113647490739822388,0.065296739339828491
0.075434818863868713,0.158984571695327759,0.129923582077026367,0.058808200061321259,-0.059331022202968597,0.069049611687660217,-0.192631438374519348,-0.217663645744323730,-0.103084847331047058,-0.159178033471107483,-0.125513643026351929,0.116351872682571411,-0.111042477190494537,-0.058925878256559372,-0.083532854914665222,-0.157138407230377197,-0.080289252102375031,-0.104705691337585449,0.182705476880073547,-0.108096517622470856,0.135406121611595154,-0.006460960954427719,-0.070571780204772949,0.063886031508445740,0.165460303425788879,0.001873053261078894,0.000594908953644335,0.203804850578308105,-0.145140260457992554,-0.127781942486763000,-0.065400995314121246,-0.113054990768432617,0.052461538463830948,-0.257911115884780884,0.058392111212015152,0.234492167830467224,0.140833482146263123,0.109268717467784882,0.097652867436408997,0.030070330947637558,-0.031195165589451790,0.153957352042198181,-0.094484113156795502,-0.047324635088443756,0.009589160792529583,-0.182970941066741943,0.099696949124336243,0.130833998322486877,-0.138501450419425964,-0.011594377458095551,0.141921266913414001,0.174879997968673706,0.078876964747905731,-0.126275405287742615,0.005445478484034538,0.023695962503552437,-0.075027428567409515,0.133018538355827332,-0.200061380863189697,0.113153263926506042,-0.220930129289627075,0.026981366798281670,0.177226170897483826,-0.103485502302646637,0.049488663673400879,0.056190479546785355,-0.088025592267513275,0.120581164956092834,0.120459832251071930,0.081260003149509430,0.058982610702514648,-0.166332572698593140,-0.144198060035705566,-0.081210628151893616
-0.303004324436187744,0.143976911902427673,-0.179937362670898438,-0.100217074155807495,0.065170124173164368,-0.098035782575607300,0.127393558621406555,0.036108423024415970,0.122320786118507385,0.167875781655311584,0.207310602068901062,-0.083693094551563263,0.349490344524383545,0.015926718711853027,-0.081682167947292328,-0.041355889290571213,-0.012322155758738518,-0.014724899083375931,0.002846305957064033,-0.133150994777679443,-0.051479797810316086,0.296206772327423096,0.237499952316284180,-0.184218943119049072,-0.205919042229652405,0.050099011510610580,-0.214716285467147827,0.177924633026123047,-0.106434091925621033,-0.278823256492614746,-0.092181049287319183,-0.248521700501441956,0.099616214632987976,-0.128313153982162476,-0.097615405917167664,-0.015366569161415100,-0.273070633411407471,0.186960622668266296,0.088349483907222748,0.042186029255390167,-0.073357425630092621,0.171147853136062622,-0.123350627720355988,-0.200649902224540710,0.177726313471794128,0.016718620434403419,-0.041651379317045212,-0.158250316977500916,0.152694776654243469,-0.183353587985038757,0.098466947674751282,0.154964372515678406,0.052897308021783829,-0.103079900145530701,-0.293055802583694458,0.387694001197814941,-0.006747132632881403,-0.134587228298187256,0.062491774559020996,0.014616532251238823,0.202602431178092957,-0.194511651992797852,0.162022858858108521,0.255083709955215454,-0.104224078357219696,-0.300924986600875854,0.049423374235630035,0.119137398898601532,-0.157930672168731689,-0.313722848892211914,0.195721954107284546,-0.300361871719360352,-0.098151691257953644,0.008529315702617168
0.072019599378108978,-0.035469137132167816,-0.123132839798927307,-0.072651363909244537,0.067892745137214661,0.087580710649490356,-0.054661747068166733,0.125600472092628479,0.109256610274314880,0.249636858701705933,-0.126947596669197083,-0.188825801014900208,0.157925635576248169,-0.232785776257514954,-0.115975804626941681,0.013514124788343906,-0.252127826213836670,0.072559505701065063,0.002226882148534060,0.212917864322662354,-0.158958703279495239,0.217225581407546997,-0.014875907450914383,0.090297542512416840,0.010489400476217270,0.096899136900901794,-0.053620308637619019,-0.106881543993949890,0.035863429307937622,0.160275429487228394,-0.189941406250000000,0.005941542796790600,0.045296959578990936,-0.115075387060642242,0.142033100128173828,0.148611202836036682,0.195727542042732239,0.203416362404823303,-0.200890690088272095,-0.000711251166649163,0.145062193274497986,0.037323661148548126,-0.077123083174228668,-0.200463771820068359,-0.054633818566799164,-0.047595787793397903,-0.189226791262626648,0.018951110541820526,-0.195214658975601196,0.123812377452850342,-0.167170017957687378,0.192443922162055969,-0.233916461467742920,0.161830142140388489,0.189963176846504211,0.212392866611480713,0.141360342502593994,-0.045374587178230286,-0.139180257916450500,0.074223823845386505,0.159506514668464661,0.003800315549597144,0.187700062990188599,-0.060664396733045578,0.256359964609146118,0.219604715704917908,0.101114511489868164,0.207836851477622986,-0.064117819070816040,-0.108497478067874908,-0.137287124991416931,0.103246852755546570,-0.026738720014691353,-0.051208868622779846
0.164474993944168091,-0.009056025184690952,-0.168331265449523926,0.217436328530311584,0.017046760767698288,-0.264285445213317871,0.119531586766242981,-0.183122411370277405,0.120851166546344757,0.010288123041391373,0.119843497872352600,0.263868540525436401,0.045154262334108353,-0.045251440256834030,0.186941236257553101,-0.191411674022674561,0.071528971195220947,0.085566945374011993,0.012200765311717987,-0.189022064208984375,0.002467999700456858,0.058138061314821243,0.002839918946847320,-0.226782083511352539,0.065215818583965302,-0.054985813796520233,0.130084097385406494,0.021252725273370743,-0.265113234519958496,-0.115433484315872192,0.023126976564526558,-0.268574237823486328,-0.030675806105136871,-0.141703307628631592,-0.158525049686431885,-0.196080118417739868,-0.233560025691986084,-0.223918780684471130,-0.001661059563048184,0.105680949985980988,0.091507360339164734,-0.060218781232833862,0.039652571082115173,0.072143964469432831,-0.039605807512998581,-0.123393796384334564,0.230260416865348816,0.001864776131696999,0.132667511701583862,0.050129625946283340,0.036628816276788712,0.062395364046096802,0.049532875418663025,0.134628593921661377,-0.247947245836257935,-0.042388617992401123,0.091057583689689636,-0.052464902400970459,-0.209644511342048645,0.065683662891387939,0.190611571073532104,-0.140950947999954224,0.016510471701622009,-0.108064837753772736,-0.141845390200614929,0.227244406938552856,0.138634458184242249,-0.214057043194770813,-0.025309192016720772,0.116827763617038727,0.141267821192741394,-0.121319904923439026,0.205300539731979370,-0.066642269492149353
0.025407161563634872,0.141871571540832520,0.009471225552260876,0.032232370227575302,-0.038721594959497452,0.301011055707931519,-0.196205794811248779,-0.255495965480804443,-0.012421169318258762,-0.101046435534954071,0.022356646135449409,0.075797818601131439,0.142494663596153259,0.076097697019577026,0.086466863751411438,0.134342148900032043,0.097146406769752502,-0.032294612377882004,-0.020763343200087547,0.133181199431419373,0.155961900949478149,0.158102571964263916,-0.178638935089111328,0.152663469314575195,-0.150852531194686890,0.137097626924514771,0.174291208386421204,-0.014095751568675041,0.155058786273002625,0.179465547204017639,-0.190434157848358154,0.174705713987350464,-0.036144569516181946,0.158946707844734192,0.038145564496517181,0.175609469413757324,0.146913617849349976,-0.016064792871475220,-0.038342431187629700,0.101602010428905487,0.194193169474601746,0.086687490344047546,0.191925749182701111,0.047101847827434540,-0.226148515939712524,-0.009468117728829384,0.124325282871723175,-0.003978827502578497,-0.156411573290824890,-0.011655493639409542,0.069625988602638245,0.225967362523078918,0.052140403538942337,-0.111567661166191101,0.248383522033691406,0.206937029957771301,0.147514805197715759,-0.178218156099319458,-0.257846057415008545,-0.181293189525604248,0.026185637339949608,-0.197847917675971985,0.162171334028244019,-0.058231301605701447,-0.003449544310569763,0.043229032307863235,-0.109215095639228821,-0.032750926911830902,-0.073520630598068237,0.067197576165199280,-0.073590964078903198,0.206256061792373657,-0.097115993499755859,-0.037124212831258774
0.085328117012977600,0.031327005475759506,0.070686854422092438,0.105185881257057190,0.160202652215957642,0.035653080791234970,0.100307606160640717,0.266834825277328491,0.008231632411479950,0.077971965074539185,-0.123391374945640564,-0.005454315803945065,-0.063265174627304077,-0.170444145798683167,0.046698268502950668,0.111572347581386566,0.185051515698432922,0.058053534477949142,-0.155957594513893127,-0.239457622170448303,0.140797302126884460,-0.030901730060577393,-0.127900794148445129,0.136707365512847900,0.203209996223449707,-0.117994591593742371,-0.142112091183662415,0.200491443276405334,-0.034085031598806381,0.118122249841690063,-0.127990588545799255,-0.164361804723739624,-0.096357025206089020,0.213738441467285156,-0.204242363572120667,0.073083102703094482,0.149816721677780151,-0.147030189633369446,0.035914670675992966,0.099483028054237366,0.038502942770719528,-0.010795005597174168,-0.154676690697669983,0.241812139749526978,0.119767196476459503,0.222004890441894531,0.070352144539356232,-0.259413927793502808,0.113635696470737457,-0.050782520323991776,-0.087861888110637665,-0.231262072920799255,0.162265941500663757,-0.092127397656440735,-0.021763524040579796,-0.010781099088490009,0.236256524920463562,0.017686251550912857,0.207878232002258301,0.037365712225437164,0.062056917697191238,0.335087329149246216,0.045370649546384811,0.159454867243766785,-0.151416778564453125,0.000408957799663767,0.226188212633132935,-0.112100511789321899,0.047738019376993179,0.009831544011831284,0.034428332000970840,-0.174572393298149109,0.336926013231277466,0.252005755901336670
-0.209424614906311035,0.362082660198211670,0.179452672600746155,0.195531338453292847,0.066899113357067108,0.070028983056545258,0.003747818991541862,-0.128835886716842651,0.008058259263634682,-0.098261334002017975,0.115526348352432251,0.125241190195083618,0.110797129571437836,-0.092505566775798798,-0.125689223408699036,-0.118144407868385315,-0.027615748345851898,-0.236878827214241028,-0.148921847343444824,-0.067183591425418854,-0.040481641888618469,0.197598710656166077,0.129948735237121582,0.256928324699401855,0.310360014438629150,0.297010928392410278,0.201926410198211670,0.002757794223725796,-0.051148198544979095,0.152799963951110840,0.234663844108581543,0.041632838547229767,0.073260985314846039,-0.204713687300682068,0.266262322664260864,-0.045592516660690308,0.070802174508571625,0.215645700693130493,0.095087878406047821,-0.212313055992126465,-0.094201952219009399,0.101764254271984100,-0.018238916993141174,0.057550240308046341,0.185702562332153320,0.221060797572135925,0.141543000936508179,-0.064608752727508545,-0.110573686659336090,0.112268395721912384,0.119679123163223267,0.062727749347686768,0.115783974528312683,0.223755538463592529,-0.139300927519798279,-0.096637733280658722,-0.048577450215816498,0.075923956930637360,-0.057491738349199295,0.353798329830169678,-0.096323035657405853,-0.186562612652778625,0.025677893310785294,-0.038646087050437927,0.062253527343273163,-0.192546248435974121,0.171755433082580566,-0.282237887382507324,0.055078290402889252,-0.119861178100109100,-0.067399717867374420,0.143325448036193848,0.106937140226364136,0.167910575866699219
-0.011140852235257626,0.250015646219253540,0.046936824917793274,-0.068027675151824951,-0.055316809564828873,-0.033193521201610565,0.035206828266382217,-0.254839390516281128,-0.033600538969039917,-0.162095129489898682,0.093453839421272278,0.187134951353073120,-0.052865602076053619,0.109204791486263275,0.172376319766044617,0.192071735858917236,-0.084792964160442352,0.015178791247308254,-0.190279319882392883,-0.128382459282875061,0.178452730178833008,-0.071848407387733459,0.048289921134710312,0.089083246886730194,0.027930941432714462,-0.061210457235574722,0.010315576568245888,-0.155569851398468018,-0.094675406813621521,-0.007901160977780819,-0.088715814054012299,0.091085612773895264,0.204012572765350342,0.159623220562934875,-0.032098833471536636,0.251061499118804932,0.224036797881126404,0.113501943647861481,0.216698512434959412,0.124109268188476562,0.204900771379470825,-0.060986276715993881,0.249346703290939331,-0.142117604613304138,0.194080814719200134,-0.260140240192413330,0.105865068733692169,0.135682970285415649,-0.043791323900222778,-0.032516531646251678,0.165463715791702271,0.008176276460289955,0.118418782949447632,-0.214189559221267700,-0.073344171047210693,-0.100820541381835938,-0.092241607606410980,-0.169096946716308594,0.037643287330865860,-0.028667259961366653,-0.211697131395339966,0.158445671200752258,0.024078428745269775,0.025516543537378311,0.146535515785217285,-0.028193535283207893,0.200106516480445862,-0.069754444062709808,-0.002073677489534020,-0.184153452515602112,0.063238993287086487,-0.134921789169311523,0.116220049560070038,-0.142404749989509583
0.175445169210433960,-0.095080353319644928,-0.067317947745323181,-0.075620964169502258,0.281095683574676514,0.102325133979320526,-0.127152591943740845,-0.135031893849372864,-0.149070009589195251,0.272167176008224487,-0.047707282006740570,0.045027185231447220,0.000655448006000370,0.058126725256443024,0.275762915611267090,0.110982105135917664,-0.007360480725765228,0.055143248289823532,0.053517397493124008,0.048730302602052689,-0.075363174080848694,0.203467994928359985,-0.063376195728778839,-0.220545634627342224,-0.146472573280334473,-0.181712016463279724,0.025145489722490311,0.183366596698760986,-0.240135610103607178,-0.094429507851600647,0.131881847977638245,0.144378200173377991,0.047351785004138947,0.034541957080364227,0.243964627385139465,0.215449824929237366,0.023207625374197960,0.095584422349929810,0.067959606647491455,-0.123062610626220703,0.259378582239151001,-0.040501665323972702,0.034514714032411575,0.162219420075416565,0.148063719272613525,0.095179483294487000,-0.107630684971809387,0.138803362846374512,-0.092339575290679932,-0.160393774509429932,0.047594022005796432,0.151765242218971252,-0.177222535014152527,-0.130306184291839600,-0.011931356042623520,-0.134264320135116577,-0.260224282741546631,0.042990401387214661,-0.051511146128177643,-0.014217769727110863,0.200982630252838135,-0.205592930316925049,0.111759446561336517,0.074089862406253815,-0.036045476794242859,0.030794521793723106,-0.057979773730039597,-0.246601805090904236,0.201932966709136963,0.015489758923649788,0.096277661621570587,-0.258192211389541626,-0.083405062556266785,0.007400333881378174
-0.007354209199547768,-0.237191513180732727,-0.079636871814727783,0.158067271113395691,-0.292959094047546387,0.118842296302318573,-0.021654445677995682,0.115423344075679779,-0.104388937354087830,0.039868395775556564,-0.002399826189503074,-0.102881804108619690,0.251306056976318359,-0.164976179599761963,0.011650227010250092,0.024376805871725082,0.152011886239051819,-0.180856972932815552,-0.074041932821273804,0.024773335084319115,-0.198518767952919006,-0.212281227111816406,-0.111194312572479248,-0.123726926743984222,0.133487358689308167,-0.019919553771615028,0.164482384920120239,0.139834016561508179,0.109499342739582062,0.030292632058262825,0.198510363698005676,0.149054050445556641,-0.100365817546844482,-0.033810045570135117,-0.087470114231109619,-0.260046333074569702,-0.184303253889083862,-0.169312566518783569,-0.221511289477348328,0.271286040544509888,0.001756668207235634,-0.063763089478015900,0.075987182557582855,-0.175408944487571716,0.025827920064330101,0.076098985970020294,0.009558521211147308,0.188550949096679688,0.171874240040779114,0.170513883233070374,-0.152579262852668762,-0.250746428966522217,0.166110888123512268,0.064167007803916931,-0.075791373848915100,-0.073107630014419556,-0.225586131215095520,-0.002652431139722466,0.167226016521453857,-0.062301434576511383,-0.062613487243652344,-0.101344034075737000,-0.171068593859672546,-0.131498202681541443,0.029373977333307266,0.104716882109642029,0.029199047014117241,0.189678311347961426,0.236215382814407349,0.018675891682505608,-0.115607604384422302,0.157000139355659485,0.060299016535282135,-0.060900181531906128
0.130837589502334595,-0.213593348860740662,0.019679397344589233,-0.058775991201400757,-0.201789081096649170,-0.140609949827194214,-0.109799601137638092,0.054298356175422668,-0.057638071477413177,-0.035350095480680466,0.000089920715254266,-0.047103036195039749,0.131790578365325928,0.128066807985305786,-0.110483273863792419,0.175995200872421265,-0.209991589188575745,-0.152364879846572876,-0.192136749625205994,0.041851148009300232,0.168946713209152222,0.230896905064582825,-0.039240110665559769,0.079654775559902191,0.079612225294113159,-0.044629737734794617,0.112607918679714203,-0.049152359366416931,0.059286035597324371,-0.101991355419158936,-0.138418734073638916,-0.011657154187560081,0.166432395577430725,0.044396877288818359,0.107162013649940491,-0.202755302190780640,-0.077660612761974335,-0.090109564363956451,-0.119419477880001068,0.251199543476104736,0.008138944394886494,0.125208020210266113,0.070754855871200562,0.153071120381355286,-0.090388648211956024,0.237072587013244629,-0.146739766001701355,-0.004350605420768261,-0.036198295652866364,0.070664994418621063,0.109538480639457703,-0.114820398390293121,0.214784368872642517,-0.087073974311351776,0.203176528215408325,0.134439110755920410,-0.119284592568874359,-0.155047923326492310,-0.124389015138149261,0.148483902215957642,-0.097313530743122101,0.140208050608634949,0.189417093992233276,-0.191778525710105896,0.079678185284137726,-0.003836112096905708,0.041814692318439484,0.004861116409301758,0.061615895479917526,0.154994189739227295,0.208786472678184509,0.165828019380569458,0.236770838499069214,0.084787219762802124
0.073573745787143707,-0.095474749803543091,-0.084055334329605103,-0.070573650300502777,0.049493350088596344,0.258540064096450806,-0.169669002294540405,0.226538673043251038,0.160220175981521606,-0.024721886962652206,0.118409059941768646,-0.096923708915710449,-0.335273623466491699,0.010752568021416664,0.137589439749717712,-0.000286161404801533,0.222817972302436829,0.021157536655664444,-0.203707665205001831,-0.060967337340116501,0.039523638784885406,0.133369415998458862,-0.024344699457287788,-0.006029310636222363,-0.009446717798709869,0.167798429727554321,-0.337455421686172485,-0.289722949266433716,-0.032653242349624634,-0.131853729486465454,-0.220810174942016602,0.184115320444107056,-0.181748986244201660,0.144350916147232056,-0.196355178952217102,-0.053974661976099014,0.218112170696258545,0.039990328252315521,-0.074887737631797791,0.082152836024761200,-0.193822577595710754,-0.176598355174064636,-0.140491113066673279,-0.167098790407180786,0.093240104615688324,-0.066012576222419739,-0.027833806350827217,0.266514778137207031,-0.140906408429145813,0.095818206667900085,0.069798067212104797,0.295264422893524170,-0.076041571795940399,0.037903137505054474,0.161033749580383301,-0.330327957868576050,-0.128694176673889160,-0.180027574300765991,0.014749894849956036,-0.113314129412174225,-0.122180804610252380,0.199106574058532715,0.007686611264944077,-0.065225213766098022,-0.176453247666358948,0.253655135631561279,-0.053246710449457169,0.083434954285621643,-0.196681559085845947,-0.060476802289485931,0.039878748357295990,0.124134741723537445,-0.165020197629928589,0.034414749592542648
0.165295898914337158,0.142689391970634460,-0.183259144425392151,0.055971387773752213,0.129011049866676331,-0.094796009361743927,-0.013081067241728306,0.069279879331588745,-0.094638749957084656,-0.082643970847129822,0.059209011495113373,0.043339096009731293,0.049370374530553818,-0.050236079841852188,0.082240894436836243,0.230493515729904175,-0.096503913402557373,0.232519477605819702,0.083084776997566223,-0.193091541528701782,0.306321024894714355,-0.086116217076778412,0.104352556169033051,0.066944338381290436,-0.172056853771209717,0.175965383648872375,-0.199052855372428894,-0.137840762734413147,0.146411329507827759,0.160860240459442139,0.167129829525947571,-0.126128181815147400,0.103231504559516907,0.014594458974897861,0.192691475152969360,-0.181128174066543579,0.068331710994243622,0.090952545404434204,-0.016078976914286613,-0.118269152939319611,0.010789995081722736,0.236316084861755371,-0.157430127263069153,-0.234120428562164307,-0.115699008107185364,-0.249390676617622375,0.129509583115577698,-0.207459986209869385,0.095095448195934296,0.329048424959182739,-0.027069043368101120,-0.208317279815673828,-0.172817260026931763,-0.171352297067642212,0.175487577915191650,0.018971845507621765,-0.112979687750339508,0.070117808878421783,0.132364928722381592,-0.061848085373640060,-0.013315155170857906,0.048118658363819122,-0.238216832280158997,0.197879552841186523,0.102583281695842743,-0.260479897260665894,0.019200049340724945,-0.248458027839660645,0.070098452270030975,-0.029084460809826851,0.103908143937587738,0.059291023761034012,-0.225222438573837280,-0.066516935825347900
0.215011388063430786,0.090424150228500366,-0.106745406985282898,0.033501539379358292,0.184280723333358765,0.146486744284629822,0.196368664503097534,0.031531739979982376,-0.222581893205642700,-0.244398608803749084,-0.009357676841318607,-0.121243320405483246,-0.007908713072538376,-0.044711407274007797,-0.178803503513336182,-0.150687277317047119,0.192118450999259949,-0.055872529745101929,-0.044291112571954727,-0.126534238457679749,0.137228891253471375,0.278577029705047607,0.029094157740473747,0.119558870792388916,-0.159352868795394897,-0.136528670787811279,-0.139433816075325012,-0.226214498281478882,0.160283207893371582,-0.159162923693656921,-0.236200258135795593,0.056792046874761581,0.064947023987770081,0.133302614092826843,0.244425028562545776,-0.142631143331527710,0.168567270040512085,0.203504905104637146,-0.136441171169281006,0.048555903136730194,0.039394389837980270,0.160350754857063293,0.191998079419136047,-0.143026247620582581,0.002779252361506224,0.037189431488513947,-0.040992736816406250,-0.213673219084739685,-0.112224154174327850,-0.251810163259506226,0.069723427295684814,0.169223979115486145,-0.231025546789169312,-0.264543354511260986,-0.063083313405513763,-0.097556725144386292,-0.101053632795810699,0.050263147801160812,-0.135094672441482544,0.067370802164077759,-0.207578390836715698,0.225984826683998108,0.077841125428676605,0.005724573973566294,-0.129508510231971741,-0.060812208801507950,-0.225376799702644348,0.176029980182647705,0.102110803127288818,-0.179536685347557068,-0.046057760715484619,0.059840213507413864,0.085024371743202209,-0.258531779050827026
-0.135369926691055298,0.174969807267189026,0.095123037695884705,0.093140803277492523,0.011907267384231091,-0.068095691502094269,0.255276858806610107,-0.167302802205085754,-0.152622908353805542,0.024357652291655540,0.245682224631309509,0.054426994174718857,-0.017827536910772324,-0.159295961260795593,-0.296521186828613281,0.105259969830513000,0.149970814585685730,0.058609593659639359,-0.045441299676895142,-0.014702401123940945,-0.057437464594841003,0.049054678529500961,0.244835287332534790,-0.060637779533863068,-0.149881869554519653,-0.081751890480518341,-0.196802318096160889,0.010940507985651493,-0.170297637581825256,0.055082686245441437,-0.192035287618637085,0.252348750829696655,0.158069819211959839,0.231636315584182739,-0.179255887866020203,-0.315979540348052979,0.131770595908164978,-0.097486384212970734,-0.289362639188766479,-0.199470669031143188,0.097251541912555695,0.128084763884544373,-0.110078394412994385,0.070594839751720428,-0.141336038708686829,-0.260437160730361938,0.124021284282207489,0.200866535305976868,0.044071599841117859,0.161402657628059387,0.210734173655509949,0.023062130436301231,0.178286716341972351,0.161313772201538086,0.099637955427169800,0.072786979377269745,0.026785258203744888,0.120398953557014465,-0.162236377596855164,-0.070823431015014648,0.116633445024490356,-0.112849757075309753,-0.024008182808756828,0.191483184695243835,-0.101780496537685394,-0.091694772243499756,0.245270460844039917,0.277474761009216309,-0.037665303796529770,-0.050070844590663910,0.100919723510742188,-0.068076580762863159,0.016077181324362755,0.171510368585586548
0.088221631944179535,-0.145609915256500244,-0.060808174312114716,0.040149446576833725,-0.100219331681728363,0.140377387404441833,-0.148104697465896606,-0.072370089590549469,-0.022810412570834160,-0.197158664464950562,0.086723156273365021,0.118630088865756989,0.325284749269485474,-0.186985120177268982,0.015669921413064003,0.025290960446000099,0.102501511573791504,0.236501082777976990,-0.186195716261863708,-0.123581543564796448,0.225920721888542175,0.100152678787708282,-0.042228668928146362,-0.251004993915557861,0.148477807641029358,-0.166053920984268188,-0.003388368524610996,-0.097394235432147980,0.020285598933696747,-0.020515406504273415,0.130951195955276489,0.048752509057521820,-0.176473125815391541,0.017134683206677437,0.204503223299980164,-0.008506642654538155,0.061737168580293655,0.013905063271522522,0.142325490713119507,0.089199595153331757,-0.020965931937098503,-0.132702916860580444,-0.177615001797676086,0.064197234809398651,0.005417004693299532,0.105444177985191345,-0.065929904580116272,-0.143571138381958008,0.012225012294948101,-0.189304351806640625,0.085173673927783966,0.273347496986389160,-0.230034142732620239,0.007605919614434242,0.164056301116943359,0.259832382202148438,0.234123021364212036,-0.290556907653808594,-0.055727634578943253,-0.231216430664062500,0.036878217011690140,-0.161850571632385254,0.035306457430124283,0.121584393084049225,0.031906045973300934,-0.271432012319564819,-0.221001088619232178,0.150909781455993652,-0.212244629859924316,0.137943521142005920,-0.098293498158454895,-0.147074818611145020,-0.078465230762958527,-0.277129471302032471
-0.169017538428306580,-0.261186391115188599,-0.231410071253776550,0.162567183375358582,0.153846397995948792,0.001292143249884248,-0.084194295108318329,-0.128312081098556519,-0.016067532822489738,0.098860196769237518,-0.008387198671698570,0.113634668290615082,0.115045860409736633,-0.200929403305053711,-0.234543845057487488,-0.118926383554935455,-0.129600405693054199,-0.158889248967170715,-0.052176568657159805,0.065766699612140656,-0.035186804831027985,-0.093214690685272217,0.144071996212005615,0.095346823334693909,-0.058332853019237518,0.035642106086015701,0.211442738771438599,-0.041902184486389160,-0.124770797789096832,0.187126487493515015,0.016279105097055435,-0.046954542398452759,0.159874975681304932,0.287575840950012207,0.272374242544174194,-0.227171719074249268,-0.128815487027168274,-0.203925266861915588,-0.222361579537391663,0.153759598731994629,-0.152310207486152649,0.151747271418571472,0.086697086691856384,-0.072366021573543549,0.057734474539756775,0.107046090066432953,0.041460987180471420,-0.204725563526153564,0.003894565394148231,0.170789480209350586,-0.016002599149942398,-0.024149253964424133,-0.051864538341760635,0.305092036724090576,0.175948947668075562,0.139005571603775024,0.127646073698997498,-0.201355114579200745,0.024860365316271782,-0.140705481171607971,-0.268848091363906860,0.096097014844417572,-0.014665626920759678,-0.028177415952086449,0.014827624894678593,-0.002308842958882451,-0.098980806767940521,0.181922122836112976,-0.018898744136095047,-0.089182928204536438,-0.107903316617012024,0.044913642108440399,0.100276678800582886,0.205216884613037109
-0.105785518884658813,0.288061439990997314,-0.076910443603992462,0.081127516925334930,0.156008765101432800,-0.117567993700504303,0.178408876061439514,0.187127128243446350,0.199600517749786377,0.037562426179647446,0.128907606005668640,-0.151813954114913940,-0.085028544068336487,-0.058997482061386108,0.038771905004978180,0.078511811792850494,0.177937313914299011,-0.107274465262889862,0.192669644951820374,0.063505552709102631,-0.004087706562131643,0.242228522896766663,-0.004860622808337212,0.278324693441390991,-0.163465142250061035,0.203906849026679993,0.111465662717819214,-0.179559886455535889,-0.090801484882831573,-0.058244518935680389,-0.055787667632102966,0.037830904126167297,-0.189516231417655945,0.264020800590515137,0.005923574790358543,-0.038251742720603943,-0.150401845574378967,0.007956797257065773,-0.210014626383781433,-0.249327346682548523,0.158870413899421692,-0.022185079753398895,0.000709741842001677,0.039442859590053558,-0.003232824150472879,-0.105775877833366394,0.111749142408370972,-0.111716233193874359,-0.184692740440368652,0.077190004289150238,0.235544487833976746,0.010935804806649685,0.305877357721328735,0.088567353785037994,-0.267305523157119751,-0.183702990412712097,-0.000295666512101889,0.013624885119497776,-0.106224961578845978,0.189304351806640625,0.063690185546875000,0.013028454966843128,0.151956841349601746,-0.114305771887302399,-0.171360939741134644,-0.404601097106933594,0.037514701485633850,-0.142944350838661194,0.202210471034049988,-0.121708184480667114,-0.018201481550931931,0.266571581363677979,-0.195558175444602966,0.268902808427810669
0.103871747851371765,-0.159740328788757324,0.262639433145523071,0.034781422466039658,-0.266839981079101562,-0.000563182984478772,0.200021356344223022,-0.052606455981731415,-0.054548777639865875,-0.154289245605468750,-0.176016196608543396,0.131369963288307190,-0.137374714016914368,0.215248554944992065,0.180235505104064941,0.053836468607187271,-0.208205118775367737,0.181612402200698853,-0.028162615373730659,-0.046597775071859360,0.142493709921836853,0.076299369335174561,0.141726329922676086,0.141731321811676025,-0.093182817101478577,-0.153963193297386169,-0.058119680732488632,0.115622840821743011,-0.154144704341888428,-0.045337084680795670,-0.215632885694503784,0.020270979031920433,-0.121635235846042633,-0.029533747583627701,-0.182775497436523438,-0.041823074221611023,-0.255327343940734863,-0.027366178110241890,-0.016329361125826836,-0.099772930145263672,0.071986213326454163,-0.196782335638999939,0.047138933092355728,-0.038843136280775070,0.061948310583829880,-0.164933457970619202,-0.094009973108768463,-0.183334857225418091,0.001880248892121017,0.038299456238746643,-0.108672164380550385,-0.288744747638702393,-0.260923087596893311,-0.265287518501281738,-0.309647798538208008,-0.037915825843811035,-0.325524777173995972,-0.096554666757583618,0.064300119876861572,0.104585096240043640,-0.041148494929075241,-0.231199175119400024,0.268682748079299927,0.246362477540969849,0.058760490268468857,0.052523545920848846,-0.136052131652832031,-0.169419452548027039,-0.045602045953273773,-0.246136501431465149,0.274728327989578247,-0.045197322964668274,-0.109015986323356628,-0.210997775197029114
-0.147205263376235962,0.120983824133872986,0.070371717214584351,0.219218909740447998,-0.007358648348599672,-0.223648190498352051,0.064009152352809906,0.067622788250446320,-0.024219544604420662,0.254252433776855469,0.184187069535255432,-0.119641311466693878,-0.215824440121650696,-0.113680049777030945,0.202002286911010742,-0.215032324194908142,0.185355663299560547,-0.127364635467529297,0.169473215937614441,-0.172852843999862671,0.023657899349927902,0.053068697452545166,-0.052710734307765961,0.299154251813888550,-0.114666253328323364,-0.107505455613136292,0.063074447214603424,-0.006596844177693129,0.125038146972656250,0.051553469151258469,0.206592336297035217,0.044616255909204483,-0.024523243308067322,0.188113808631896973,0.110144995152950287,-0.047083660960197449,0.180085450410842896,-0.051289226859807968,-0.102153524756431580,-0.159523487091064453,-0.073355965316295624,0.105268776416778564,0.194678813219070435,-0.018452022224664688,-0.119122371077537537,-0.083420597016811371,-0.017370397225022316,0.156619995832443237,0.090244203805923462,-0.230745166540145874,0.044820871204137802,0.308203011751174927,0.134048581123352051,-0.054109297692775726,-0.107660740613937378,-0.056711528450250626,-0.054504141211509705,-0.107372529804706573,0.056636568158864975,0.090819619596004486,0.125375211238861084,-0.198288038372993469,0.177046403288841248,0.168793007731437683,0.234571561217308044,0.145787820219993591,-0.267633587121963501,-0.014484108425676823,0.177050337195396423,-0.200425341725349426,-0.083834670484066010,0.056492365896701813,-0.083094514906406403,-0.000977568211965263
0.053464218974113464,-0.112031884491443634,-0.083559162914752960,0.021095164120197296,-0.125045001506805420,-0.029638186097145081,-0.021467963233590126,0.043441224843263626,-0.006712525617331266,-0.151223182678222656,-0.210923299193382263,-0.099991023540496826,0.290536105632781982,-0.213922053575515747,-0.069287538528442383,0.035540670156478882,-0.192577585577964783,0.285783082246780396,-0.161807119846343994,0.170486554503440857,-0.042831033468246460,-0.100035764276981354,-0.103429086506366730,0.174370110034942627,0.169787704944610596,0.178365111351013184,-0.129608526825904846,0.009620256721973419,-0.338625580072402954,-0.110537625849246979,-0.033582501113414764,-0.125861808657646179,0.148939862847328186,-0.324750721454620361,0.083765156567096710,0.120934806764125824,-0.055562015622854233,0.132846847176551819,0.091349154710769653,-0.006897343322634697,0.064804933965206146,0.017719978466629982,0.014244084246456623,-0.077205702662467957,-0.059942573308944702,-0.128254413604736328,0.098182111978530884,0.103657998144626617,-0.230394840240478516,-0.077740401029586792,-0.153355091810226440,0.096948556602001190,0.141013249754905701,-0.091680623590946198,-0.201561227440834045,0.223009794950485229,0.278418481349945068,-0.164033606648445129,-0.102400295436382294,0.234350532293319702,0.125201627612113953,-0.125801235437393188,0.317574828863143921,-0.131955459713935852,-0.086410470306873322,0.086526617407798767,0.212661877274513245,-0.073786549270153046,-0.051424011588096619,0.043947294354438782,0.180292084813117981,-0.032434090971946716,-0.149052157998085022,-0.014064555056393147
0.220461815595626831,0.122825793921947479,-0.280470877885818481,0.074944429099559784,0.241783678531646729,0.131033882498741150,-0.073467567563056946,0.109171323478221893,0.044095840305089951,0.090494245290756226,0.167383208870887756,0.107334293425083160,-0.102302506566047668,0.174864947795867920,0.078373804688453674,0.166449710726737976,0.236131548881530762,-0.222602427005767822,-0.173395067453384399,0.041474908590316772,-0.216605678200721741,0.001896095694974065,-0.162900105118751526,-0.117787145078182220,0.195487231016159058,-0.108245953917503357,0.050917696207761765,0.050328880548477173,-0.166900530457496643,0.033170081675052643,-0.143352463841438293,0.085180424153804779,-0.091690145432949066,0.121030144393444061,0.063975788652896881,0.159971013665199280,0.008601294830441475,0.229721456766128540,-0.227614447474479675,-0.126959770917892456,0.267466634511947632,0.114523828029632568,0.155701562762260437,0.050174310803413391,-0.135005354881286621,0.163618147373199463,-0.224724367260932922,-0.001010821200907230,0.164434373378753662,0.165497422218322754,0.020365402102470398,0.111309707164764404,0.111808203160762787,0.108340762555599213,0.060059495270252228,-0.134400442242622375,0.091883100569248199,-0.199898406863212585,0.210657179355621338,-0.218099728226661682,-0.110980875790119171,0.101693525910377502,0.126073718070983887,-0.105121515691280365,-0.201264157891273499,0.027531815692782402,0.067576490342617035,-0.014073939062654972,0.211224406957626343,0.150238588452339172,-0.113618381321430206,0.066017754375934601,0.117318116128444672,-0.109546266496181488
0.181100577116012573,-0.084863349795341492,0.146574020385742188,0.117737054824829102,-0.007517610676586628,0.084801696240901947,-0.228908687829971313,0.148992836475372314,-0.081943236291408539,-0.075928770005702972,-0.145014479756355286,0.080634154379367828,0.157659232616424561,-0.064523831009864807,-0.184392347931861877,-0.071953095495700836,0.074997588992118835,0.175892367959022522,0.032949499785900116,-0.051209408789873123,-0.089012987911701202,0.142255261540412903,-0.127960771322250366,0.180829942226409912,0.241652086377143860,0.007128783501684666,0.118722476065158844,0.101739265024662018,0.249546930193901062,-0.102587968111038208,0.309107184410095215,-0.135330185294151306,0.129102349281311035,-0.060705102980136871,-0.244999930262565613,-0.111259594559669495,-0.079639442265033722,-0.192272648215293884,-0.078376084566116333,0.206785336136817932,0.093146264553070068,0.181214526295661926,0.068747900426387787,-0.053345952183008194,-0.084180563688278198,0.002320440951734781,0.156904637813568115,-0.295262515544891357,0.158439189195632935,0.199009180068969727,-0.074138969182968140,-0.160313054919242859,0.090425722301006317,0.072046339511871338,0.166460752487182617,-0.084001950919628143,0.018200412392616272,0.090192943811416626,-0.108172163367271423,-0.204526871442794800,-0.046538822352886200,0.029925955459475517,-0.181909263134002686,0.206828817725181580,-0.223716825246810913,-0.155975446105003357,-0.057803835719823837,0.021149782463908195,-0.045705005526542664,0.006515906192362309,-0.240356996655464172,0.229127377271652222,-0.033393561840057373,-0.052930697798728943
-0.180343896150588989,0.071575030684471130,-0.041012641042470932,-0.050588611513376236,0.014083434827625751,-0.159489288926124573,0.184031859040260315,-0.178194314241409302,0.053545650094747543,0.201307579874992371,-0.226337239146232605,0.228828266263008118,0.040839880704879761,0.189717233180999756,-0.096027143299579620,-0.050517015159130096,-0.353522807359695435,0.105081573128700256,0.068848289549350739,0.020645828917622566,-0.280224233865737915,0.212577477097511292,-0.117516621947288513,-0.029099583625793457,-0.250505089759826660,-0.229990229010581970,-0.172460570931434631,0.216622218489646912,0.249239593744277954,-0.151260107755661011,-0.029518125578761101,0.189836770296096802,-0.056576013565063477,-0.109919242560863495,-0.022895541042089462,0.176838055253028870,-0.141961246728897095,0.129760369658470154,0.037053149193525314,0.123741462826728821,-0.178299918770790100,0.019552376121282578,0.234210848808288574,0.103509932756423950,0.190570190548896790,0.106828302145004272,-0.086201466619968414,0.058787658810615540,0.225603744387626648,0.181000873446464539,-0.238986656069755554,0.216405510902404785,0.134216040372848511,0.127331510186195374,0.100246869027614594,0.056938860565423965,-0.114466302096843719,0.093963667750358582,0.127889126539230347,-0.107078902423381805,-0.033996067941188812,-0.145978450775146484,0.167711168527603149,-0.037347160279750824,-0.019695173949003220,0.288289546966552734,0.299872577190399170,-0.105570539832115173,0.066963456571102142,0.039418704807758331,-0.116118729114532471,-0.021594379097223282,-0.107684947550296783,0.222866863012313843
0.007516153156757355,0.235447660088539124,0.236930117011070251,-0.045196715742349625,0.192900523543357849,-0.261032313108444214,-0.042946558445692062,0.166496202349662781,0.242616519331932068,-0.233560502529144287,-0.055148582905530930,-0.136235266923904419,0.089841380715370178,0.130278378725051880,0.075809963047504425,0.121117323637008667,0.130254298448562622,-0.088398233056068420,-0.118075132369995117,-0.118977412581443787,-0.261334151029586792,0.043321181088685989,0.045662213116884232,0.000794416642747819,-0.029668554663658142,0.081564299762248993,0.263369500637054443,0.012099537998437881,-0.140323877334594727,0.010171934030950069,-0.038699038326740265,-0.123107515275478363,0.171127766370773315,0.166575238108634949,-0.008338145911693573,0.191182404756546021,-0.000726227182894945,-0.055143907666206360,0.201053678989410400,-0.001396769424900413,-0.241034179925918579,0.213968008756637573,0.018645815551280975,-0.062541313469409943,0.105025328695774078,0.232788801193237305,0.074764303863048553,-0.308846831321716309,-0.007752942387014627,0.022951157763600349,0.049620918929576874,0.133834868669509888,0.094782561063766479,0.167444229125976562,0.055660251528024673,0.228659972548484802,0.130692169070243835,0.118697971105575562,-0.123199127614498138,0.166689172387123108,-0.009158613160252571,-0.051907852292060852,0.172485992312431335,-0.124625355005264282,-0.248654320836067200,-0.125236019492149353,-0.034433279186487198,-0.189133808016777039,0.021221475675702095,0.108535349369049072,0.206143021583557129,-0.113204054534435272,0.002679212717339396,0.136588320136070251
0.198220178484916687,0.221227198839187622,-0.042585603892803192,0.154922679066658020,0.253168493509292603,-0.125122338533401489,-0.016060017049312592,-0.238245114684104919,-0.111367322504520416,0.193991929292678833,-0.098010241985321045,-0.156116828322410583,0.004134766291826963,-0.068565770983695984,-0.286843150854110718,0.071385130286216736,0.196458727121353149,0.053952064365148544,-0.212908372282981873,-0.149998262524604797,-0.110535204410552979,0.311723440885543823,0.229037493467330933,0.241315037012100220,-0.043051272630691528,-0.010004301555454731,0.110234215855598450,0.183269813656806946,-0.231899648904800415,0.237830653786659241,-0.016796015202999115,0.151865169405937195,0.240565299987792969,-0.148996368050575256,0.192837372422218323,0.128162994980812073,-0.075929641723632812,0.139846056699752808,-0.167051911354064941,-0.169744387269020081,-0.162437662482261658,0.071863569319248199,0.209491670131683350,-0.195131540298461914,-0.012840254232287407,-0.233947783708572388,0.075044132769107819,0.079023845493793488,-0.182515710592269897,-0.152136191725730896,0.025739900767803192,-0.155201777815818787,0.142676830291748047,-0.005590778309851885,-0.135503903031349182,0.003027687547728419,-0.154134631156921387,-0.186684072017669678,-0.208130076527595520,-0.025121144950389862,0.164392217993736267,0.084059476852416992,0.122215792536735535,0.199462175369262695,0.031482081860303879,-0.169460639357566833,-0.216659814119338989,0.014002338983118534,-0.039357755333185196,-0.165977627038955688,0.159573674201965332,0.012217335402965546,-0.043751776218414307,0.027913054451346397
0.180469140410423279,-0.095572076737880707,-0.128258690237998962,-0.028070868924260139,0.073195002973079681,0.064120151102542877,0.213512182235717773,0.003710063407197595,0.061598133295774460,0.121811598539352417,0.286647051572799683,-0.171600714325904846,-0.256406545639038086,-0.135507538914680481,0.084848120808601379,0.251060098409652710,0.400257110595703125,0.094543322920799255,-0.082151204347610474,-0.279076039791107178,-0.197443664073944092,0.092089548707008362,-0.185752302408218384,0.023357402533292770,0.185873955488204956,-0.102616086602210999,-0.242920607328414917,0.030649174004793167,-0.006286345887929201,0.229742020368576050,0.016188330948352814,0.143606126308441162,0.035276256501674652,0.073218740522861481,-0.230005905032157898,-0.057713616639375687,0.097162261605262756,0.117670834064483643,-0.152723371982574463,-0.155973941087722778,0.093098752200603485,0.150050491094589233,0.006829826626926661,-0.111510179936885834,-0.120169609785079956,-0.268867820501327515,-0.082790382206439972,-0.086669974029064178,-0.109055601060390472,0.206840336322784424,-0.121508516371250153,-0.253285050392150879,-0.254233032464981079,-0.221782565116882324,0.156799182295799255,-0.017391318455338478,-0.105555206537246704,0.042849525809288025,0.247384220361709595,0.040271058678627014,0.136337250471115112,0.301052033901214600,-0.155395805835723877,-0.208481252193450928,-0.079536899924278259,-0.006165413651615381,0.109357416629791260,-0.075315900146961212,-0.073581747710704803,0.027861859649419785,0.074158489704132080,0.248646706342697144,-0.057245984673500061,0.132380843162536621
0.071181423962116241,0.189984157681465149,-0.100489988923072815,-0.033622056245803833,0.201480597257614136,0.250462055206298828,-0.014664364047348499,0.060425944626331329,-0.002455755602568388,-0.066990278661251068,-0.075996316969394684,-0.118977665901184082,-0.031073678284883499,0.074350073933601379,-0.172001659870147705,-0.182610183954238892,0.088966935873031616,-0.122936062514781952,-0.151686891913414001,0.162311956286430359,0.114161945879459381,-0.022401284426450729,0.030534643679857254,0.322142034769058228,-0.088704288005828857,0.095707252621650696,0.053412444889545441,-0.277039915323257446,0.126842528581619263,0.213797330856323242,-0.216982454061508179,-0.114515841007232666,-0.177999079227447510,0.122291624546051025,0.201790764927864075,0.238740220665931702,0.164031833410263062,0.199321717023849487,-0.155491828918457031,-0.044971119612455368,-0.109864026308059692,0.275496363639831543,-0.055247306823730469,-0.150286972522735596,0.112077385187149048,0.010884551331400871,-0.050358850508928299,0.131195053458213806,-0.248394161462783813,-0.086874336004257202,-0.131221503019332886,0.150793671607971191,0.160034850239753723,-0.121268592774868011,-0.043490659445524216,-0.035160690546035767,-0.133727505803108215,-0.031988982111215591,-0.181351602077484131,-0.078914955258369446,-0.072182685136795044,-0.106371402740478516,0.008143959566950798,0.010356390848755836,-0.142188921570777893,0.246239110827445984,0.033517085015773773,-0.171781808137893677,0.223337680101394653,0.223300755023956299,-0.139681965112686157,0.173323690891265869,-0.098040193319320679,-0.163868576288223267
0.051278073340654373,0.036569140851497650,-0.035291194915771484,-0.277682572603225708,-0.008887973614037037,0.064426355063915253,0.152217626571655273,-0.165436163544654846,-0.006232224870473146,-0.232257038354873657,0.017225744202733040,-0.078962109982967377,0.091250114142894745,-0.070435002446174622,-0.102282471954822540,0.012564740143716335,0.225876554846763611,-0.055714119225740433,0.147980242967605591,-0.168328359723091125,0.134994909167289734,-0.215217456221580505,-0.141392931342124939,-0.147853910923004150,0.237856239080429077,-0.011254429817199707,-0.163711190223693848,0.181096687912940979,0.058076459914445877,0.001934873522259295,0.001799445133656263,0.338370531797409058,0.044480975717306137,-0.163379564881324768,0.007522693835198879,0.005493599455803633,0.214533314108848572,-0.026484867557883263,-0.096438169479370117,0.010647514835000038,0.205377191305160522,-0.143972009420394897,-0.021894905716180801,0.092653304338455200,-0.199422776699066162,-0.106681406497955322,0.171251460909843445,-0.252654582262039185,-0.121014937758445740,0.056997187435626984,0.111550070345401764,-0.221369385719299316,0.122043348848819733,-0.011083552613854408,0.247641265392303467,-0.148966625332832336,0.158174127340316772,-0.038029637187719345,0.304243206977844238,0.007348658517003059,0.247066825628280640,0.202224582433700562,-0.089169524610042572,-0.175374060869216919,-0.027701983228325844,-0.058278758078813553,0.130705416202545166,-0.018009152263402939,-0.045861430466175079,-0.184832125902175903,0.197724387049674988,0.199168458580970764,0.205980852246284485,-0.066098332405090332
