-0.001662101596593857,0.049206219613552094,0.018105180934071541,-0.094913512468338013,-0.118035800755023956,0.044768542051315308,0.001178688835352659,0.042263880372047424,-0.140757232904434204,-0.071890369057655334,0.094899453222751617,-0.069820106029510498,-0.032930873334407806,-0.055256310850381851,0.079763405025005341,0.171918779611587524,-0.044292207807302475,-0.027804506942629814,-0.002722955308854580,-0.155271723866462708,0.013758007436990738,0.077144078910350800,-0.178367972373962402,-0.039837129414081573,0.027328554540872574,-0.007054842542856932,0.110986642539501190,-0.038522817194461823,0.122734628617763519,0.098915591835975647,-0.007589842192828655,-0.042652472853660583
0.032993581146001816,-0.029693849384784698,-0.049357887357473373,0.017554106190800667,0.019793149083852768,-0.010050653479993343,0.072502672672271729,0.041053473949432373,-0.003470383817330003,0.123205259442329407,-0.022537594661116600,-0.175130575895309448,0.136568933725357056,0.082681216299533844,-0.114744640886783600,-0.083633422851562500,0.053510311990976334,0.060324765741825104,-0.011505093425512314,0.063214972615242004,-0.115774668753147125,0.051262523978948593,-0.072407037019729614,0.006185655016452074,-0.134321317076683044,-0.035486090928316116,0.212342277169227600,0.188218742609024048,0.010234372690320015,0.206245854496955872,-0.086905509233474731,0.013420421630144119
-0.008124874904751778,-0.168287351727485657,0.110201291739940643,0.051314651966094971,-0.091653637588024139,0.087058819830417633,0.036619305610656738,-0.033729605376720428,0.122594594955444336,-0.066671982407569885,0.076793171465396881,-0.008641477674245834,0.016916409134864807,0.003757495898753405,-0.223125606775283813,0.112015374004840851,-0.023926459252834320,0.075014069676399231,0.109611995518207550,0.038110490888357162,-0.088850326836109161,-0.026381058618426323,0.068268753588199615,-0.005748930387198925,-0.033227663487195969,0.063364237546920776,0.031455677002668381,0.098615132272243500,-0.002455897396430373,0.049161616712808609,0.015130107291042805,-0.239461168646812439
0.069722078740596771,-0.043758414685726166,-0.028554407879710197,-0.042150892317295074,-0.069903396070003510,0.054896436631679535,0.002145465696230531,0.157339885830879211,0.035142153501510620,-0.162575528025627136,-0.065316498279571533,-0.113492734730243683,0.056343268603086472,-0.104807734489440918,-0.092150323092937469,0.033404007554054260,-0.056309554725885391,0.117017321288585663,0.029109701514244080,-0.060965396463871002,-0.054475188255310059,-0.000814520753920078,-0.030122673138976097,-0.087128788232803345,0.053609240800142288,0.076422736048698425,0.084732562303543091,0.084728106856346130,-0.086912937462329865,0.050222136080265045,-0.072339981794357300,0.101329527795314789
0.011153887957334518,0.071688532829284668,-0.093018315732479095,0.022656731307506561,0.044387325644493103,0.048274055123329163,0.069201864302158356,0.035166122019290924,-0.020507726818323135,-0.072830118238925934,0.053423110395669937,0.019473392516374588,0.028533136472105980,0.085346385836601257,-0.023066315799951553,-0.015351727604866028,0.034453913569450378,0.025730201974511147,-0.028941186144948006,0.098915271461009979,-0.090692035853862762,0.072573386132717133,-0.119029805064201355,-0.009177474305033684,-0.085832998156547546,-0.049178153276443481,0.074771553277969360,-0.043273054063320160,-0.048683129251003265,-0.072030104696750641,0.055588532239198685,0.086255997419357300
0.072371743619441986,0.038332179188728333,-0.118285119533538818,-0.073411658406257629,0.108019292354583740,-0.059005010873079300,-0.027071341872215271,-0.051483225077390671,-0.036453995853662491,0.014098561368882656,0.020704718306660652,-0.048497319221496582,0.107734575867652893,-0.096479527652263641,-0.020740749314427376,-0.029153101146221161,0.052017316222190857,0.037116240710020065,-0.011499203741550446,-0.129759818315505981,0.095433063805103302,0.006513847503811121,-0.048124674707651138,-0.039280101656913757,-0.078301861882209778,0.059674464166164398,-0.006687242537736893,-0.085151270031929016,0.130280047655105591,-0.040565311908721924,0.135522395372390747,0.088183723390102386
-0.066888570785522461,-0.143575787544250488,-0.039279941469430923,-0.065008983016014099,-0.049514159560203552,-0.082293443381786346,-0.076372005045413971,-0.016522454097867012,-0.082139573991298676,0.147865414619445801,-0.044443551450967789,-0.087845221161842346,-0.003848896129056811,-0.027346422895789146,-0.049906402826309204,-0.011585880070924759,-0.095063276588916779,0.097846284508705139,-0.066199943423271179,-0.020578280091285706,0.044540524482727051,-0.043060332536697388,0.102679535746574402,0.060512371361255646,-0.023321643471717834,0.088093176484107971,-0.039782319217920303,0.016427101567387581,-0.153024882078170776,-0.073464088141918182,-0.052522249519824982,0.110648348927497864
-0.032431717962026596,-0.044883895665407181,-0.022800285369157791,0.056833621114492416,-0.028352247551083565,0.018197195604443550,-0.069590657949447632,0.010609155520796776,0.027643745765089989,0.017386905848979950,-0.184091329574584961,-0.030544426292181015,0.022401344031095505,-0.015041644684970379,0.113184161484241486,-0.054918058216571808,0.092466458678245544,0.054661925882101059,-0.011192879639565945,-0.068578325212001801,0.135347783565521240,0.040575116872787476,0.101119920611381531,0.056258324533700943,0.026554262265563011,-0.015463671647012234,-0.017951520159840584,0.046497639268636703,0.036664251238107681,-0.249798431992530823,-0.112594038248062134,0.015051195397973061
0.043919153511524200,-0.029624475166201591,-0.009385041892528534,0.019333537667989731,0.005609221756458282,-0.102653644979000092,0.057235706597566605,0.021244242787361145,-0.022258870303630829,-0.064831167459487915,-0.120218090713024139,-0.015220032073557377,0.081327207386493683,0.116891071200370789,-0.006876977626234293,-0.058589227497577667,-0.006593962199985981,0.069172106683254242,0.119729995727539062,0.017030302435159683,-0.047650601714849472,0.125879243016242981,-0.014081392437219620,0.003854186506941915,0.084597676992416382,0.052067458629608154,-0.098238393664360046,0.126295581459999084,-0.059278741478919983,-0.210785076022148132,-0.077608309686183929,-0.041521336883306503
-0.020505268126726151,0.086085319519042969,0.003654934000223875,-0.057009749114513397,-0.064298823475837708,-0.031768433749675751,0.068612374365329742,-0.222572609782218933,-0.120715908706188202,-0.123393930494785309,-0.036688834428787231,-0.085828654468059540,0.138748317956924438,0.022589329630136490,-0.113222606480121613,-0.154234841465950012,0.055977165699005127,0.037427108734846115,-0.091725505888462067,0.070897594094276428,0.073107890784740448,-0.050409119576215744,-0.076666839420795441,0.046093840152025223,-0.026021586731076241,0.121618725359439850,-0.123881019651889801,0.104057393968105316,0.105460397899150848,-0.014934793114662170,0.236833184957504272,-0.009716853499412537
-0.030739439651370049,0.089765816926956177,0.067781046032905579,0.173840567469596863,-0.055239263921976089,-0.052066594362258911,-0.073253229260444641,-0.067107856273651123,-0.037909466773271561,-0.020722005516290665,-0.024349320679903030,0.040413405746221542,0.074991665780544281,0.056009858846664429,-0.064982160925865173,-0.122839741408824921,0.105651453137397766,0.069125555455684662,-0.157246395945549011,0.059313334524631500,-0.013133235275745392,0.077738307416439056,0.101850666105747223,-0.129858464002609253,-0.103841148316860199,-0.146978139877319336,0.058803275227546692,0.111479192972183228,-0.005684450734406710,0.034566704183816910,-0.005053356755524874,-0.024287775158882141
0.025427583605051041,0.089277148246765137,-0.023155335336923599,-0.053528919816017151,-0.021078385412693024,0.000662199512589723,0.035001795738935471,0.109288126230239868,-0.108948968350887299,-0.000862693355884403,-0.076858237385749817,-0.008738306351006031,-0.055461168289184570,-0.010487959720194340,0.070542886853218079,-0.020522838458418846,0.092347726225852966,-0.032748531550168991,-0.012325148098170757,-0.136468738317489624,0.147816881537437439,-0.135102450847625732,0.067576721310615540,0.011546920053660870,-0.188738957047462463,-0.058440953493118286,0.072157554328441620,0.027973109856247902,0.168097168207168579,0.074514798820018768,-0.034075736999511719,0.111240096390247345
0.097918868064880371,0.014022046700119972,0.124768249690532684,-0.032051444053649902,0.064491219818592072,-0.039127860218286514,-0.042864322662353516,-0.118652686476707458,0.042519200593233109,0.036056116223335266,0.023511437699198723,0.052146643400192261,0.054943632334470749,0.037568792700767517,0.026418026536703110,-0.031993664801120758,-0.066129706799983978,-0.016076372936367989,-0.147733554244041443,-0.107783064246177673,0.008028537966310978,-0.163258284330368042,0.032394267618656158,0.013088379986584187,0.006286895833909512,-0.098028518259525299,-0.040299292653799057,0.111362434923648834,0.101370587944984436,-0.050594221800565720,0.024831855669617653,0.051474861800670624
0.033797532320022583,0.020582744851708412,-0.053483661264181137,-0.073332712054252625,0.019922332838177681,-0.008015239611268044,0.020129121840000153,0.073852464556694031,-0.025476761162281036,-0.106594391167163849,-0.089573107659816742,0.064622662961483002,0.045675616711378098,0.068297035992145538,-0.086732201278209686,-0.113553375005722046,0.088572613894939423,0.003465767484158278,0.058393251150846481,-0.020166466012597084,0.031323511153459549,-0.000089062828919850,0.042175363749265671,0.104933559894561768,0.135836645960807800,-0.029074583202600479,-0.063834004104137421,0.028606818988919258,-0.103590644896030426,-0.180699586868286133,-0.041689354926347733,0.066182345151901245
0.025917556136846542,0.061350751668214798,0.099247314035892487,0.021398263052105904,-0.081210128962993622,-0.103458002209663391,0.089893795549869537,-0.015846833586692810,-0.126810118556022644,0.038526695221662521,-0.180102601647377014,0.017114730551838875,-0.033678270876407623,-0.103113092482089996,-0.011211589910089970,-0.071713775396347046,-0.009301668964326382,0.108683668076992035,-0.212603002786636353,-0.147945046424865723,0.043802581727504730,-0.079280883073806763,0.030275104567408562,0.131754189729690552,-0.063028126955032349,0.029562588781118393,0.002253354527056217,-0.062518134713172913,0.077819533646106720,-0.007049540523439646,-0.024745244532823563,0.139596447348594666
0.011551249772310257,-0.042198579758405685,-0.099654614925384521,-0.025423238053917885,-0.010617931373417377,-0.095867469906806946,0.060296986252069473,0.090510129928588867,-0.012792211025953293,-0.103099599480628967,0.012027080170810223,-0.127712130546569824,0.020807549357414246,-0.046195775270462036,-0.027996547520160675,0.003686041338369250,-0.034723576158285141,0.101926520466804504,-0.119476847350597382,-0.140536114573478699,0.127806976437568665,0.047611638903617859,0.019343240186572075,0.060348827391862869,-0.016832008957862854,0.025147719308733940,0.003610892919823527,-0.129395470023155212,-0.009290696121752262,-0.000741882773581892,-0.084518812596797943,0.074615038931369781
0.011260759085416794,0.056678019464015961,-0.019380111247301102,-0.030149251222610474,-0.041856005787849426,-0.113307341933250427,0.071722388267517090,0.064168006181716919,-0.122239768505096436,0.125586122274398804,0.033148691058158875,0.090199761092662811,-0.067439526319503784,-0.064397059381008148,0.011712185107171535,-0.049585580825805664,0.081756010651588440,0.054340016096830368,0.073350988328456879,0.011395003646612167,0.034273989498615265,-0.075125843286514282,-0.132841020822525024,-0.035741787403821945,0.008431975729763508,-0.088759720325469971,0.089156225323677063,-0.093751542270183563,0.029834417626261711,-0.028202299028635025,0.013372763060033321,-0.019099226221442223
-0.083683244884014130,0.067356720566749573,0.128682553768157959,0.010150952264666557,0.003949966747313738,0.088419020175933838,0.040397092700004578,-0.087974824011325836,0.095941446721553802,0.001032281434163451,0.006759630516171455,0.117842130362987518,0.172459691762924194,0.103945530951023102,-0.128172114491462708,-0.002364007290452719,-0.076192490756511688,-0.006122306454926729,0.089088246226310730,-0.033501088619232178,0.065778218209743500,-0.014479064382612705,0.039851896464824677,-0.002762777963653207,0.033705245703458786,0.107137367129325867,0.007760787848383188,0.083770602941513062,-0.017770456150174141,-0.035010132938623428,-0.049952816218137741,-0.023771189153194427
0.046662956476211548,0.048863742500543594,0.060323022305965424,-0.051307033747434616,0.030599681660532951,-0.083168290555477142,-0.038473274558782578,0.056080579757690430,-0.049494199454784393,0.052053853869438171,0.024709112942218781,-0.106127902865409851,0.112887308001518250,0.047650612890720367,0.007003727369010448,-0.216759920120239258,-0.005218007136136293,-0.045914415270090103,0.006966805085539818,-0.022712407633662224,-0.011075809597969055,0.077760033309459686,-0.015468281693756580,0.059461154043674469,0.027070386335253716,0.018527347594499588,0.079891033470630646,0.015454873442649841,0.015818491578102112,-0.034957520663738251,-0.015175860375165939,0.120187878608703613
0.041820377111434937,0.077769570052623749,-0.060114432126283646,0.050789713859558105,-0.130452603101730347,-0.063060201704502106,-0.045288953930139542,0.003031634492799640,0.035834752023220062,0.156116768717765808,-0.002249749843031168,0.090702503919601440,0.012280959635972977,0.055342093110084534,0.208536207675933838,-0.036997511982917786,0.082981258630752563,0.036693420261144638,0.065081588923931122,0.071323931217193604,0.014875340275466442,-0.016847828403115273,-0.027893155813217163,0.136678859591484070,-0.109509408473968506,-0.017664676532149315,-0.047353185713291168,-0.003004372119903564,0.057876754552125931,-0.063316017389297485,-0.058430615812540054,0.182753846049308777
-0.117219299077987671,0.057308711111545563,-0.060539141297340393,0.115531459450721741,0.078479528427124023,-0.086988963186740875,-0.047591105103492737,-0.059375006705522537,0.002187169156968594,0.125126704573631287,-0.009660779498517513,0.127541944384574890,0.007043979596346617,-0.011343401856720448,0.034658625721931458,-0.091872081160545349,-0.015421145595610142,0.095238193869590759,-0.087514564394950867,-0.092859543859958649,-0.020898768678307533,0.027901096269488335,0.194114625453948975,-0.020623870193958282,0.029317308217287064,0.102808080613613129,0.066746458411216736,0.028838049620389938,-0.128772348165512085,-0.004400521982461214,-0.031383715569972992,0.096088968217372894
-0.053888887166976929,-0.037456266582012177,0.057248987257480621,0.086345270276069641,-0.029566643759608269,-0.040758546441793442,-0.008743741549551487,-0.025778044015169144,-0.043660707771778107,-0.030340842902660370,-0.040600933134555817,0.041748166084289551,0.033445142209529877,0.104154393076896667,-0.071151375770568848,0.012501033022999763,-0.090422347187995911,-0.021632460877299309,-0.019225765019655228,0.029247732833027840,-0.067348450422286987,-0.060239296406507492,-0.178533881902694702,-0.035419251769781113,0.062185529619455338,0.064319998025894165,-0.047958698123693466,0.028889650478959084,0.080414392054080963,-0.109345741569995880,-0.033244442194700241,0.092038147151470184
0.048515565693378448,-0.137252375483512878,0.043396368622779846,-0.093155167996883392,-0.021777158603072166,-0.051327679306268692,-0.065627060830593109,0.096813537180423737,-0.069999232888221741,-0.046424731612205505,0.040683399885892868,-0.023889902979135513,-0.014406199567019939,0.097193636000156403,-0.009923285804688931,0.149851530790328979,-0.088207729160785675,0.077171191573143005,0.006282250862568617,-0.148891225457191467,-0.021405579522252083,0.175550982356071472,-0.029737234115600586,-0.044251050800085068,-0.020289834588766098,0.106613986194133759,-0.104401022195816040,-0.005573543719947338,-0.046890255063772202,-0.220597088336944580,0.003571036737412214,0.029855435714125633
-0.021077327430248260,0.063890792429447174,-0.034580443054437637,0.039023663848638535,-0.072330422699451447,0.139237925410270691,0.066709779202938080,-0.092422947287559509,-0.217776626348495483,-0.134612113237380981,-0.195245683193206787,0.027759745717048645,-0.135181456804275513,-0.111060082912445068,-0.003580079181119800,0.021994486451148987,0.070522144436836243,0.053596109151840210,-0.034011971205472946,0.033215858042240143,-0.248871043324470520,-0.147976770997047424,0.033793292939662933,-0.075397647917270660,-0.191269710659980774,-0.150165423750877380,0.007267906796187162,0.161294907331466675,-0.005852973554283381,0.070364236831665039,-0.125264883041381836,-0.037549819797277451
-0.077583193778991699,0.089415855705738068,-0.003157977247610688,0.060787733644247055,0.058691196143627167,-0.031663142144680023,0.062828950583934784,-0.002060613594949245,-0.087687179446220398,0.028946740552783012,-0.032378438860177994,0.092594750225543976,0.047270521521568298,-0.104363583028316498,0.160143435001373291,-0.060473531484603882,-0.040777351707220078,0.060525424778461456,-0.124294400215148926,-0.207372680306434631,-0.057347845286130905,-0.085490226745605469,-0.059914022684097290,0.066778697073459625,0.037875812500715256,-0.031177971512079239,-0.002155033871531487,-0.119363822042942047,0.001037888694554567,0.048450425267219543,0.073309324681758881,0.003049315884709358
-0.217046409845352173,0.004103562328964472,0.145676419138908386,-0.123966380953788757,-0.073668494820594788,0.059467662125825882,-0.057740908116102219,-0.160482108592987061,0.068651072680950165,-0.016907745972275734,0.072291873395442963,0.155844166874885559,0.028085486963391304,-0.061092797666788101,0.054081819951534271,0.018030712381005287,0.001060898764990270,0.134650781750679016,-0.037035636603832245,0.006288770586252213,0.121905297040939331,0.050348334014415741,0.145094186067581177,0.065580591559410095,-0.115854054689407349,-0.020054535940289497,0.022938743233680725,0.021140052005648613,0.012228377163410187,0.008250401355326176,0.113371841609477997,-0.069870151579380035
0.027784723788499832,0.167959451675415039,-0.130594164133071899,0.034196417778730392,-0.037628691643476486,0.076634354889392853,-0.043882764875888824,0.058745786547660828,0.053867373615503311,0.061100173741579056,-0.116251580417156219,0.007448472548276186,0.054420541971921921,0.121547564864158630,0.022271955385804176,-0.098428569734096527,0.114218063652515411,-0.084750264883041382,-0.021317550912499428,0.134233951568603516,-0.003778211306780577,0.085794612765312195,-0.015836965292692184,0.052540250122547150,0.117649756371974945,-0.017423488199710846,0.069262899458408356,0.071681797504425049,-0.060573484748601913,-0.106775909662246704,0.065234363079071045,0.015401730313897133
0.006400884594768286,-0.066808789968490601,0.018575362861156464,0.035203400999307632,0.020582584664225578,0.088241055607795715,-0.045065321028232574,0.030486309900879860,-0.080486185848712921,0.032385531812906265,0.074509277939796448,0.053117271512746811,0.058625705540180206,-0.092749729752540588,-0.136476844549179077,0.045846950262784958,-0.050019051879644394,0.003172092139720917,0.046160217374563217,-0.031968720257282257,0.027051122859120369,-0.012348735705018044,-0.066217944025993347,0.021081650629639626,0.063115201890468597,0.047003045678138733,-0.056982703506946564,-0.006899746134877205,-0.073601409792900085,0.060330457985401154,-0.063586570322513580,0.028454814106225967
-0.094280637800693512,-0.021974498406052589,0.116256244480609894,-0.069275788962841034,-0.022773792967200279,0.000857864040881395,-0.167932882905006409,0.063451960682868958,0.113858789205551147,-0.011244649067521095,0.022687297314405441,0.151524662971496582,-0.048653144389390945,0.019392197951674461,0.089482873678207397,0.093777865171432495,0.022500509396195412,-0.004484349396079779,0.117863729596138000,0.022654283791780472,-0.095811165869235992,-0.236800074577331543,-0.051235437393188477,-0.321319043636322021,0.115038961172103882,-0.011902672238647938,-0.068429827690124512,-0.152456834912300110,-0.034302886575460434,0.093087971210479736,-0.130287706851959229,-0.226257383823394775
0.081893309950828552,0.007622013799846172,0.098612412810325623,0.060314700007438660,0.068431906402111053,0.006618625950068235,-0.049532398581504822,0.057825226336717606,-0.017412936314940453,0.135390594601631165,0.097716704010963440,0.083680339157581329,-0.018289996311068535,0.087212398648262024,0.120455212891101837,0.042052350938320160,0.026696790009737015,-0.029468802735209465,-0.026422508060932159,-0.098523102700710297,-0.200062677264213562,-0.149800911545753479,-0.088584952056407928,-0.115261033177375793,0.022204305976629257,0.014201896265149117,-0.108730807900428772,0.054048940539360046,0.069561317563056946,0.053911462426185608,0.021473204717040062,0.073320917785167694
-0.094999030232429504,-0.060348235070705414,-0.153035402297973633,-0.122209876775741577,-0.054208781570196152,0.007428870070725679,-0.051443446427583694,0.050867814570665359,0.092692613601684570,-0.009999441914260387,0.106548771262168884,-0.112213835120201111,-0.001436362159438431,0.020790958777070045,0.114858157932758331,0.025823991745710373,-0.013751994818449020,-0.078632034361362457,-0.013188161887228489,0.073679491877555847,-0.069949083030223846,0.083577483892440796,-0.084728538990020752,0.097306057810783386,-0.010414064861834049,0.056132938712835312,-0.035202380269765854,-0.038690604269504547,-0.027586113661527634,-0.107034131884574890,-0.087250091135501862,-0.022736247628927231
0.007572558242827654,-0.039210624992847443,0.013104666024446487,-0.024058768525719643,0.003389204619452357,0.062377728521823883,0.000833944126497954,0.023581005632877350,-0.007545550819486380,-0.041047610342502594,-0.087856903672218323,0.137675583362579346,-0.034210205078125000,0.021483194082975388,-0.069154217839241028,0.063945658504962921,-0.015534669160842896,0.049417287111282349,0.019832147285342216,-0.052179522812366486,-0.038105577230453491,-0.045916285365819931,-0.041545875370502472,-0.009237954393029213,-0.066932417452335358,0.080337189137935638,0.099094085395336151,-0.135104104876518250,0.003801259677857161,-0.043054260313510895,-0.061154212802648544,-0.027904083952307701
-0.054779917001724243,-0.014483928680419922,-0.061662122607231140,0.000005912428605370,-0.129830569028854370,0.000556898652575910,0.118435725569725037,-0.002482401439920068,-0.096774175763130188,-0.108988322317600250,-0.006816651672124863,0.072134256362915039,-0.125756636261940002,-0.110146440565586090,0.217550754547119141,-0.042894273996353149,0.115939259529113770,0.034372903406620026,0.038588773459196091,0.091740719974040985,-0.001473173149861395,0.042116835713386536,-0.012990692630410194,0.038587111979722977,-0.025536073371767998,-0.134050861001014709,0.067898251116275787,-0.111304908990859985,0.041054245084524155,0.042582910507917404,-0.060892697423696518,-0.102881558239459991
0.116709008812904358,0.139568999409675598,0.063084810972213745,0.154614284634590149,0.117302902042865753,-0.148059189319610596,-0.039437834173440933,-0.086552076041698456,0.019751489162445068,0.040582858026027679,-0.026298515498638153,0.107948839664459229,0.079591110348701477,-0.132193312048912048,-0.071816794574260712,-0.115566179156303406,-0.049291227012872696,0.145284995436668396,-0.019729539752006531,0.033469785004854202,-0.107398755848407745,-0.049452316015958786,-0.066403880715370178,-0.039877757430076599,-0.029916571453213692,0.031946457922458649,-0.032058052718639374,0.187941998243331909,0.107613839209079742,0.180378630757331848,-0.026679931208491325,-0.033529911190271378
0.116735182702541351,0.047263380140066147,0.030674176290631294,0.026641670614480972,-0.045476537197828293,-0.072459824383258820,0.136863946914672852,0.068888969719409943,0.085624590516090393,0.040296915918588638,-0.065021447837352753,-0.038427989929914474,-0.168542936444282532,-0.155125021934509277,0.037305735051631927,0.147931247949600220,0.146368935704231262,0.079262033104896545,0.004968658089637756,0.020630290731787682,0.044627185910940170,-0.089963451027870178,0.125498369336128235,-0.029188809916377068,-0.109080404043197632,-0.309607237577438354,0.061871178448200226,0.053057372570037842,0.015704398974776268,0.069516181945800781,0.081036545336246490,-0.071385495364665985
0.040022935718297958,-0.085230678319931030,-0.065786920487880707,-0.081645585596561432,0.049272615462541580,0.031380865722894669,0.078073315322399139,0.060049287974834442,0.004263042937964201,-0.086416386067867279,0.031806107610464096,0.078275084495544434,0.048451695591211319,-0.051215164363384247,-0.063531614840030670,0.081440977752208710,0.059686645865440369,-0.023669570684432983,-0.060792408883571625,-0.001030783052556217,-0.017207248136401176,-0.002491140505298972,-0.072243921458721161,-0.025213154032826424,0.006364333909004927,-0.138846755027770996,0.061031665652990341,-0.083626165986061096,0.080526940524578094,-0.011994215659797192,-0.004241960588842630,-0.017046520486474037
-0.019840577617287636,-0.051419757306575775,0.065802671015262604,-0.034115802496671677,0.050819274038076401,0.088119365274906158,0.072033658623695374,0.125952571630477905,-0.046239189803600311,0.111409328877925873,-0.038963690400123596,-0.050059322267770767,0.063295118510723114,0.109606377780437469,0.038599368184804916,-0.064944036304950714,0.150827378034591675,0.105034403502941132,-0.057304702699184418,0.054425772279500961,0.028031770139932632,-0.025284487754106522,-0.020866105332970619,-0.086358703672885895,0.055122632533311844,0.034686282277107239,-0.083836063742637634,0.019877228885889053,-0.116399809718132019,-0.087995633482933044,0.137359902262687683,-0.051427245140075684
0.039807032793760300,0.087650425732135773,0.047669652849435806,0.060480821877717972,-0.004238433670252562,0.114306576550006866,-0.074576549232006073,0.020923299714922905,-0.087231472134590149,-0.078687652945518494,-0.028366018086671829,0.170097306370735168,0.000046947006921982,0.047944933176040649,-0.099513195455074310,-0.037714123725891113,-0.134835854172706604,-0.027999395504593849,0.083563029766082764,0.071555316448211670,-0.110554091632366180,-0.056511238217353821,-0.000309496739646420,0.006981726270169020,-0.066615618765354156,0.190604478120803833,0.039156343787908554,-0.019258629530668259,0.124852336943149567,-0.079314708709716797,0.116103842854499817,0.008722099475562572
-0.089566737413406372,0.048692878335714340,-0.078078113496303558,0.045417390763759613,0.001459131948649883,-0.033731214702129364,0.122874170541763306,-0.079613327980041504,0.006159509066492319,0.047423034906387329,-0.006743106059730053,-0.150375798344612122,-0.037850659340620041,0.081110529601573944,-0.071651086211204529,0.122625529766082764,0.059690617024898529,0.114732369780540466,-0.011909382417798042,-0.129063546657562256,-0.041859164834022522,-0.025861982256174088,-0.060182429850101471,-0.064189761877059937,0.050329722464084625,0.024744259193539619,-0.049064662307500839,0.072625182569026947,-0.141975134611129761,0.061222564429044724,0.078337445855140686,0.005894020199775696
-0.086525626480579376,-0.072552859783172607,-0.092472225427627563,0.091469533741474152,0.095274209976196289,-0.093202665448188782,-0.003578756935894489,-0.049139298498630524,0.079447582364082336,-0.010159391909837723,-0.043993249535560608,-0.115137919783592224,0.131281986832618713,0.000944150204304606,-0.130013912916183472,-0.005377867724746466,-0.087451659142971039,0.073449984192848206,-0.169526159763336182,-0.061092972755432129,0.130325883626937866,0.111199766397476196,0.112338744103908539,0.040831770747900009,-0.036074597388505936,0.069066427648067474,-0.043023001402616501,0.002198755973950028,0.024026503786444664,-0.044889479875564575,-0.103417702019214630,0.071514509618282318
0.064265854656696320,-0.017043165862560272,0.049671396613121033,-0.016246635466814041,-0.062887348234653473,-0.111662462353706360,-0.063887387514114380,-0.085513949394226074,-0.061397645622491837,-0.038928393274545670,0.062248427420854568,-0.145358234643936157,-0.002356760436668992,-0.087862841784954071,0.006337079219520092,0.047752495855093002,-0.008290344849228859,0.012031423859298229,-0.019607359543442726,0.009155951440334320,-0.056836653500795364,0.020078886300325394,-0.067075267434120178,-0.115880273282527924,0.103338964283466339,-0.225872680544853210,0.028489230200648308,0.020260976627469063,-0.050761070102453232,-0.093552917242050171,0.088941536843776703,0.015943793579936028
0.095124840736389160,-0.046527914702892303,-0.018988618627190590,0.017650207504630089,-0.008156573399901390,0.123893767595291138,-0.047431871294975281,-0.117834441363811493,-0.022318383678793907,0.143890976905822754,-0.072586640715599060,-0.048493538051843643,0.038909871131181717,-0.163898080587387085,-0.042163897305727005,-0.105806283652782440,0.044182389974594116,0.086269095540046692,-0.020770363509654999,0.011647954583168030,0.024530833587050438,-0.044531941413879395,0.059063069522380829,-0.045048855245113373,-0.220388919115066528,0.097146883606910706,0.027016034349799156,0.066548295319080353,0.072633758187294006,-0.114810213446617126,-0.014005537144839764,-0.009223429486155510
0.081514880061149597,-0.113592945039272308,-0.091371461749076843,0.032750260084867477,0.156742125749588013,0.074009805917739868,0.011844133026897907,-0.004571309778839350,0.036357026547193527,-0.009838260710239410,0.013044672086834908,0.067948937416076660,0.045275438576936722,0.153656542301177979,0.056822419166564941,0.017265629023313522,-0.045818634331226349,0.110749602317810059,-0.135747000575065613,-0.036891005933284760,0.170591816306114197,0.082103028893470764,-0.076773852109909058,0.022036919370293617,-0.061887457966804504,-0.006758109200745821,-0.098233319818973541,0.010058881714940071,0.109170623123645782,0.120163969695568085,0.131762132048606873,-0.034018669277429581
0.062509067356586456,0.122256867587566376,0.107732750475406647,0.090209886431694031,0.021082641556859016,0.012747148051857948,-0.000291603850200772,-0.001726988819427788,-0.095691569149494171,-0.008934535086154938,-0.112013392150402069,0.024958455935120583,0.055534876883029938,-0.107980728149414062,-0.112293973565101624,-0.048330642282962799,-0.036862455308437347,-0.034446708858013153,-0.133918359875679016,0.035794723778963089,0.142173305153846741,-0.136942952871322632,0.037543717771768570,-0.049544595181941986,-0.096634067595005035,0.015447633340954781,-0.037492711097002029,-0.220535025000572205,0.249422192573547363,-0.035964272916316986,-0.071512565016746521,0.038752008229494095
0.011455073021352291,-0.074698150157928467,0.150828823447227478,-0.064721345901489258,0.087302632629871368,-0.002189297927543521,0.065826527774333954,-0.043405212461948395,0.000344206055160612,-0.070238396525382996,0.037083107978105545,-0.002191657200455666,0.028071291744709015,-0.036723926663398743,-0.129622161388397217,0.113747589290142059,-0.028646135702729225,0.072305977344512939,-0.134440690279006958,-0.107943020761013031,-0.278256058692932129,-0.193137302994728088,-0.067447505891323090,-0.068142607808113098,-0.001499818055890501,-0.041632145643234253,0.009732859209179878,-0.036416370421648026,0.191300377249717712,-0.054242551326751709,0.016474472358822823,-0.149833887815475464
-0.041760127991437912,-0.066141940653324127,-0.043922696262598038,-0.036619722843170166,0.078472130000591278,-0.005606888793408871,0.022141957655549049,0.002756440080702305,0.049086179584264755,-0.033886447548866272,0.058555729687213898,-0.113080017268657684,0.138479605317115784,0.117099218070507050,-0.082552805542945862,-0.077521756291389465,-0.094857208430767059,0.082146145403385162,-0.003107639029622078,0.047012105584144592,0.052263081073760986,0.044034849852323532,-0.065581306815147400,-0.015526043251156807,0.069958187639713287,-0.008449337445199490,-0.000703504250850528,0.066072680056095123,0.009720131754875183,-0.120914049446582794,-0.131819650530815125,-0.105257354676723480
-0.028648251667618752,-0.041646212339401245,-0.027584841474890709,-0.071260429918766022,-0.094676315784454346,-0.088953562080860138,-0.119602128863334656,-0.000453113869298249,-0.109785795211791992,-0.044474489986896515,-0.054148085415363312,0.023869967088103294,-0.042850762605667114,0.102270528674125671,-0.129733070731163025,-0.073279961943626404,-0.052201390266418457,0.067999668419361115,-0.129567652940750122,0.137808263301849365,0.030923984944820404,0.066884808242321014,0.118920609354972839,-0.031626526266336441,0.024234902113676071,0.094441287219524384,-0.145988732576370239,-0.035382907837629318,-0.058896787464618683,0.009033454582095146,0.098784752190113068,-0.019858425483107567
0.000714816967956722,0.111066482961177826,0.011185721494257450,0.050963666290044785,0.014469509944319725,-0.067778207361698151,0.073090948164463043,0.013531587086617947,0.050257895141839981,-0.142093569040298462,-0.127482518553733826,-0.120825640857219696,-0.019696509465575218,0.052900638431310654,0.122854925692081451,0.015929939225316048,-0.028696589171886444,0.089411467313766479,-0.049038533121347427,-0.042030416429042816,0.035248495638370514,0.041479818522930145,-0.035554990172386169,0.059956483542919159,-0.077178284525871277,0.127186581492424011,-0.023818878456950188,-0.062245428562164307,-0.038979992270469666,0.083242654800415039,-0.023171773180365562,0.077337406575679779
0.009680831804871559,0.006876039784401655,-0.031873241066932678,0.063838087022304535,-0.036466538906097412,-0.013887968845665455,-0.077860392630100250,-0.005609249696135521,-0.046810306608676910,-0.029493829235434532,0.012505818158388138,0.035466782748699188,0.041378661990165710,-0.074107423424720764,-0.083341442048549652,0.097716927528381348,0.047593440860509872,0.053520295768976212,-0.043325249105691910,0.068919159471988678,-0.117194466292858124,-0.082138448953628540,-0.153461396694183350,-0.001505171880125999,-0.002417107345536351,0.096533298492431641,-0.065247185528278351,-0.093026563525199890,-0.063059255480766296,-0.107280105352401733,-0.041585098952054977,0.006768269930034876
-0.027687607333064079,-0.160340368747711182,0.025992702692747116,0.032092064619064331,0.032500196248292923,-0.015194637700915337,-0.067720785737037659,0.014568921178579330,-0.038159921765327454,0.012623636983335018,0.025260616093873978,0.082886800169944763,-0.006327909417450428,0.155599325895309448,0.043610308319330215,0.141140103340148926,-0.073915041983127594,0.155665934085845947,0.087042488157749176,-0.062745228409767151,0.027296416461467743,-0.007026133127510548,-0.064436204731464386,-0.114108540117740631,0.092724964022636414,-0.042715914547443390,-0.070753775537014008,0.093282222747802734,-0.151228755712509155,-0.079781293869018555,0.037396363914012909,0.049939196556806564
0.168922051787376404,-0.121877796947956085,0.197331339120864868,-0.024736944586038589,0.106382012367248535,0.053458966314792633,-0.159789130091667175,0.078317537903785706,0.101891204714775085,0.014781879261136055,0.092459052801132202,0.066389240324497223,0.185783401131629944,-0.060079734772443771,-0.169540986418724060,-0.019431525841355324,-0.217722952365875244,0.071613505482673645,-0.121884517371654510,0.030109258368611336,0.086007654666900635,-0.016764232888817787,-0.064283229410648346,-0.156925022602081299,-0.019595205783843994,-0.026345705613493919,0.116172619163990021,-0.141294389963150024,0.079280629754066467,0.196517080068588257,-0.071915432810783386,0.016974754631519318
-0.031076218932867050,0.075293533504009247,-0.078611634671688080,0.012938331812620163,-0.016037814319133759,0.029021333903074265,0.067788645625114441,0.033428970724344254,-0.105148546397686005,0.096456356346607208,-0.041707500815391541,0.018824318423867226,0.108443863689899445,0.069157838821411133,0.025574458763003349,-0.029500046744942665,-0.011574586853384972,0.054314065724611282,-0.044951971620321274,-0.049124967306852341,0.039757095277309418,-0.025022814050316811,-0.009009908884763718,0.078610926866531372,-0.001239831093698740,0.103242322802543640,-0.018630567938089371,-0.005427080206573009,0.039136849343776703,-0.117051944136619568,-0.046937286853790283,-0.000857960665598512
0.037454769015312195,-0.035923164337873459,-0.098772846162319183,0.035069730132818222,0.102198973298072815,-0.129012092947959900,-0.032554462552070618,0.045882981270551682,-0.047170273959636688,-0.061868552118539810,0.012765634804964066,0.002955394098535180,0.046498045325279236,0.026736676692962646,0.004753964953124523,-0.045123357325792313,0.049523513764142990,-0.010255920700728893,-0.147763073444366455,-0.082892201840877533,0.129031971096992493,0.094258524477481842,0.064052939414978027,-0.051685392856597900,0.020832147449254990,-0.023014586418867111,0.026371560990810394,0.003976551815867424,-0.033079370856285095,-0.091879405081272125,0.126448705792427063,-0.042649328708648682
-0.070001929998397827,0.012948631308972836,-0.018510941416025162,-0.017974996939301491,-0.041450105607509613,-0.035169132053852081,0.006754160393029451,0.023179451003670692,0.072022348642349243,0.046735119074583054,-0.025980709120631218,-0.052045624703168869,-0.054698329418897629,0.026612510904669762,-0.098272956907749176,0.063171193003654480,0.098934412002563477,-0.004743029829114676,0.118859864771366119,-0.013818872161209583,-0.150202661752700806,-0.019084531813859940,-0.116506658494472504,0.118412621319293976,-0.025902079418301582,0.068424277007579803,-0.140424549579620361,-0.128304541110992432,-0.182055935263633728,-0.051532410085201263,0.130018010735511780,-0.016567340120673180
-0.044306434690952301,0.091237172484397888,-0.066436022520065308,-0.205305665731430054,0.039464164525270462,0.110024668276309967,0.193795740604400635,0.041810706257820129,-0.000918338890187442,-0.159786492586135864,-0.129635855555534363,-0.053454890847206116,-0.072620578110218048,0.052673533558845520,0.158500686287879944,-0.057810910046100616,0.142259985208511353,0.037778448313474655,-0.015005472116172314,0.032136015594005585,0.175666451454162598,-0.003116044215857983,0.087183021008968353,0.117124281823635101,0.093765683472156525,0.017536306753754616,0.126546636223793030,0.122155703604221344,0.058874230831861496,-0.106894530355930328,0.083961740136146545,0.091677710413932800
-0.014528090134263039,0.136701405048370361,0.003662188071757555,0.185353636741638184,-0.118137873709201813,0.075061276555061340,0.029768012464046478,0.028875917196273804,-0.077908873558044434,-0.025394368916749954,-0.099652066826820374,0.006089531816542149,-0.050169654190540314,0.018420509994029999,0.048852808773517609,-0.012331671081483364,-0.028797388076782227,0.110963806509971619,-0.007337907794862986,-0.024959480389952660,-0.146458789706230164,-0.098040424287319183,0.149790391325950623,-0.077442735433578491,-0.180684506893157959,0.059153921902179718,-0.053119357675313950,0.128666952252388000,0.069730632007122040,-0.085736721754074097,0.035967104136943817,0.034003742039203644
0.021123832091689110,0.069626726210117340,-0.013523316942155361,0.070239514112472534,-0.022597184404730797,0.002867433009669185,-0.056289628148078918,0.032644081860780716,0.094753451645374298,-0.062465999275445938,0.083003684878349304,0.064359836280345917,-0.051932416856288910,-0.036356117576360703,-0.055286847054958344,-0.004698297474533319,0.030508641153573990,-0.026364620774984360,0.068279087543487549,0.037569519132375717,0.104070268571376801,-0.099501661956310272,0.058524224907159805,0.022188397124409676,0.108235843479633331,-0.029726304113864899,-0.093101911246776581,-0.044762481003999710,-0.000902236788533628,0.073044359683990479,0.062818616628646851,0.012120584957301617
-0.285117894411087036,0.044072870165109634,0.047176413238048553,-0.071492820978164673,-0.141490593552589417,0.073985211551189423,0.099537298083305359,-0.260691225528717041,-0.083329282701015472,-0.093197919428348541,0.192938894033432007,-0.002605250338092446,0.036027502268552780,-0.091527603566646576,0.001338545931503177,-0.166462823748588562,-0.009536855854094028,0.112370647490024567,-0.162047222256660461,-0.042589470744132996,0.039835736155509949,0.008883853442966938,-0.006030435208231211,0.115951605141162872,-0.030702419579029083,0.028225785121321678,0.051558587700128555,0.046769183129072189,0.136387109756469727,0.160932093858718872,0.128141328692436218,0.077395647764205933
0.009970135986804962,-0.091565735638141632,-0.004172453191131353,0.146020889282226562,-0.080061711370944977,0.125350326299667358,-0.065910413861274719,0.136760830879211426,0.075525850057601929,0.038019035011529922,0.099156945943832397,0.034181494265794754,0.140595555305480957,0.100783571600914001,-0.166236236691474915,-0.027144130319356918,-0.069041535258293152,0.014104100875556469,0.084642939269542694,0.117448627948760986,0.046809643507003784,0.102644294500350952,0.049687743186950684,0.089760847389698029,-0.125484958291053772,-0.038501825183629990,-0.008208376355469227,0.063437663018703461,-0.137877613306045532,-0.059543885290622711,0.040603630244731903,0.046778358519077301
0.072537563741207123,0.079693600535392761,0.093706004321575165,-0.022698178887367249,0.019259162247180939,-0.055761083960533142,0.095808178186416626,-0.077231325209140778,0.074245721101760864,0.076175659894943237,-0.084186993539333344,-0.099934116005897522,0.020497661083936691,-0.118111371994018555,-0.072417929768562317,0.083063200116157532,-0.007417621556669474,0.056421555578708649,0.079466708004474640,0.031943928450345993,-0.027558015659451485,-0.029133722186088562,-0.028338072821497917,-0.034831874072551727,-0.057332113385200500,-0.139012113213539124,0.001720062107779086,0.004876093938946724,-0.151570364832878113,0.054052006453275681,-0.002371612936258316,-0.009419531561434269
-0.065367072820663452,-0.053231872618198395,0.108048357069492340,-0.154848828911781311,-0.072797469794750214,-0.033398348838090897,0.041407044976949692,-0.031459450721740723,-0.003951952792704105,0.003498072503134608,-0.027451522648334503,0.085849992930889130,0.074370384216308594,0.161460459232330322,-0.007088055368512869,0.023226108402013779,-0.018335925415158272,-0.011794543825089931,0.025921447202563286,0.026924673467874527,0.128836467862129211,-0.185891956090927124,-0.036593567579984665,-0.155936598777770996,0.079899922013282776,-0.005705003626644611,-0.030857542529702187,-0.078104913234710693,-0.020585114136338234,-0.077492989599704742,-0.259287416934967041,-0.167637079954147339
0.054689798504114151,0.106950439512729645,-0.043856184929609299,0.060997825115919113,-0.011393264867365360,-0.138367131352424622,-0.024449836462736130,-0.095744870603084564,-0.005277034360915422,-0.006499838549643755,0.069839835166931152,0.068724408745765686,0.080739371478557587,0.050722878426313400,0.107737064361572266,0.046692915260791779,-0.063144959509372711,-0.073179982602596283,-0.092765100300312042,0.080631814897060394,-0.116532944142818451,0.002071307506412268,0.007697670720517635,-0.104172632098197937,-0.013537413440644741,0.044536203145980835,-0.150186806917190552,-0.134807243943214417,0.070164009928703308,0.012350711971521378,-0.047474607825279236,-0.111540324985980988
0.049274753779172897,0.094146095216274261,0.055338881909847260,0.063278406858444214,-0.034480437636375427,-0.066814698278903961,0.022994894534349442,-0.001054157735779881,0.032036114484071732,-0.098766662180423737,-0.078095234930515289,0.126516342163085938,0.136448219418525696,0.089914649724960327,-0.079871229827404022,-0.032198950648307800,0.002911755815148354,-0.045007120817899704,0.182113125920295715,-0.008152691647410393,-0.029650541022419930,-0.012944877147674561,-0.060111720114946365,-0.031553078442811966,-0.114682696759700775,0.029551932588219643,0.122149474918842316,-0.048440832644701004,0.015504371374845505,0.023249180987477303,0.079513326287269592,0.062216170132160187
0.110975548624992371,0.071569062769412994,0.113213770091533661,-0.042753979563713074,0.044509895145893097,0.121211871504783630,0.086874850094318390,-0.044548463076353073,0.049936894327402115,0.138748854398727417,-0.137655198574066162,-0.004157416056841612,-0.091258190572261810,0.114656589925289154,0.108745157718658447,-0.080897204577922821,0.064717471599578857,0.055470224469900131,0.066958084702491760,0.122214108705520630,0.072599470615386963,-0.065606795251369476,0.130648672580718994,0.002154868096113205,-0.049229003489017487,-0.017823277041316032,-0.010400434024631977,-0.072047099471092224,-0.091948837041854858,-0.102619871497154236,-0.060864139348268509,0.107541352510452271
0.044527269899845123,-0.060630220919847488,0.108291245996952057,0.082942456007003784,-0.004365683067589998,-0.111897699534893036,0.045001327991485596,0.085113808512687683,-0.121838286519050598,0.049835909157991409,-0.106064192950725555,0.098917566239833832,0.099781543016433716,0.017228974029421806,-0.024249086156487465,-0.126604467630386353,-0.055580586194992065,-0.080045022070407867,-0.052429907023906708,-0.012164929881691933,-0.024319877848029137,-0.048219721764326096,-0.129824101924896240,-0.013625799678266048,-0.008304829709231853,-0.108428016304969788,-0.085587784647941589,-0.101148031651973724,0.104173436760902405,0.029484748840332031,-0.043353285640478134,0.042417086660861969
0.001569510321132839,-0.031492032110691071,0.035827711224555969,0.188347309827804565,0.048386216163635254,-0.079086087644100189,-0.094679363071918488,0.094849124550819397,0.020885253325104713,0.072802193462848663,0.234798252582550049,0.197250336408615112,-0.100018307566642761,0.035838395357131958,-0.020392555743455887,0.051855713129043579,0.027028789743781090,-0.015193330124020576,-0.023546472191810608,0.055874079465866089,-0.116988420486450195,-0.111116707324981689,-0.155748978257179260,-0.030804945155978203,-0.051812734454870224,0.116233646869659424,-0.208712995052337646,0.000839369662571698,-0.033360678702592850,-0.026047425344586372,0.081046499311923981,0.010523597709834576
0.154133886098861694,0.002436226699501276,0.006127458065748215,0.197656363248825073,0.000352691946318373,-0.040932752192020416,-0.189642682671546936,-0.057826541364192963,-0.040541380643844604,-0.087373912334442139,0.104473300278186798,0.223942831158638000,0.019185047596693039,-0.102754056453704834,0.112916320562362671,0.067846313118934631,-0.030308067798614502,-0.027996357530355453,-0.015004481188952923,-0.066270962357521057,-0.133041068911552429,-0.108512580394744873,0.106658019125461578,0.021316794678568840,-0.009178625419735909,-0.093505017459392548,0.018678948283195496,-0.018028531223535538,-0.056455694139003754,-0.002471457235515118,-0.024781925603747368,-0.014227950014173985
0.147085800766944885,0.016911691054701805,-0.040280822664499283,0.095866069197654724,0.061336748301982880,0.054749287664890289,-0.019033970311284065,0.038546793162822723,-0.029920812696218491,-0.071260295808315277,0.047074168920516968,0.035947572439908981,-0.020823089405894279,0.023068968206644058,0.050774931907653809,0.118205524981021881,0.011070010252296925,-0.036534402519464493,-0.031782850623130798,0.192135304212570190,0.003163458779454231,0.005665379576385021,-0.006042379420250654,-0.022818583995103836,0.094614982604980469,-0.051843520253896713,-0.113291323184967041,0.011102231219410896,0.098898366093635559,0.010074473917484283,-0.005180903710424900,-0.020518792793154716
0.122407607734203339,0.005548948422074318,-0.104547172784805298,0.086777389049530029,-0.078585706651210785,-0.031487792730331421,-0.077886462211608887,0.031925436109304428,0.037683993577957153,0.100442618131637573,0.095385514199733734,0.010393690317869186,-0.011227112263441086,0.141586869955062866,0.009724417701363564,0.031219150871038437,-0.006104769185185432,0.105870693922042847,0.017860155552625656,0.067086033523082733,-0.030281146988272667,0.051139455288648605,0.028432315215468407,0.031557515263557434,-0.067637681961059570,0.039625659584999084,0.028897516429424286,0.135337874293327332,-0.157974258065223694,-0.032228752970695496,-0.032243721187114716,-0.031248128041625023
0.008731285110116005,-0.163685217499732971,-0.020472168922424316,-0.026002923026680946,0.013346183113753796,0.058168821036815643,0.117739774286746979,-0.022775614634156227,-0.029968071728944778,-0.013526324182748795,0.087854549288749695,-0.094242051243782043,0.119318455457687378,0.141516745090484619,-0.065907493233680725,-0.132248908281326294,0.018903257325291634,0.013213688507676125,0.078542351722717285,0.097361497581005096,0.059907883405685425,-0.024882705882191658,0.014295237138867378,0.074684932827949524,-0.130592048168182373,0.062291577458381653,0.131711423397064209,-0.011763162910938263,0.089316904544830322,-0.057001244276762009,-0.048291806131601334,0.103402890264987946
-0.103266373276710510,0.080843441188335419,0.010289099998772144,-0.022190462797880173,-0.081857815384864807,-0.038918834179639816,-0.049591217190027237,-0.036029044538736343,-0.038819678127765656,0.032306414097547531,0.016167758032679558,-0.037709709256887436,-0.040558699518442154,-0.077164962887763977,-0.024364011362195015,0.007843734696507454,0.041720289736986160,0.118248678743839264,-0.018630690872669220,0.110120043158531189,-0.055153943598270416,0.072253718972206116,-0.099684178829193115,0.010760158300399780,0.050732575356960297,-0.155972599983215332,0.055077530443668365,-0.001244883984327316,-0.020288992673158646,-0.033955980092287064,0.016345050185918808,0.059991620481014252
0.017556844279170036,-0.029292255640029907,-0.100331455469131470,-0.049557346850633621,-0.081884860992431641,-0.052679732441902161,0.037954803556203842,-0.053214181214570999,-0.023000793531537056,-0.040548492223024368,-0.100548110902309418,-0.207098215818405151,-0.002114884322509170,0.084834732115268707,-0.066939495503902435,0.017104391008615494,0.035532627254724503,-0.058250349014997482,-0.122659936547279358,-0.090753674507141113,0.090111412107944489,0.014077705331146717,0.085855074226856232,0.029654463753104210,-0.041213955730199814,-0.062724411487579346,0.011273431591689587,0.009204528294503689,0.002938147867098451,-0.096520334482192993,-0.008670670911669731,0.116271294653415680
0.001616501598618925,0.095723047852516174,-0.139272615313529968,0.062301933765411377,0.016320083290338516,-0.039588809013366699,-0.037479799240827560,0.029345493763685226,0.040317416191101074,0.051167819648981094,-0.062579520046710968,-0.047124326229095459,-0.128697097301483154,-0.174038022756576538,0.029236089438199997,0.060541454702615738,-0.024668436497449875,-0.013678587973117828,-0.021823473274707794,-0.135796681046485901,0.069891169667243958,-0.034519508481025696,0.073843769729137421,-0.064598836004734039,0.004936609417200089,-0.243335917592048645,-0.011578823439776897,0.049270913004875183,-0.018275143578648567,0.077442094683647156,-0.028691746294498444,0.009410337544977665
0.029757553711533546,0.028781529515981674,0.085614457726478577,0.097722679376602173,0.016131820157170296,0.096087880432605743,0.032710760831832886,-0.098181664943695068,-0.035620752722024918,0.008271116763353348,0.036961790174245834,0.059412360191345215,-0.108849756419658661,-0.046310883015394211,0.082415990531444550,-0.019300136715173721,0.076782956719398499,0.083140507340431213,0.025689577683806419,-0.060326699167490005,-0.070325970649719238,-0.076659202575683594,0.035491690039634705,0.086912013590335846,-0.070497073233127594,-0.031088788062334061,-0.092723950743675232,0.009545948356389999,0.056524801999330521,0.028876885771751404,-0.082627981901168823,-0.079938918352127075
0.058607053011655807,0.075080588459968567,-0.016039678826928139,-0.216693073511123657,0.192451894283294678,0.104930490255355835,0.083339773118495941,0.095167778432369232,0.023551069200038910,0.127930954098701477,0.010642196983098984,-0.113781556487083435,-0.017573667690157890,0.096813939511775970,0.052215609699487686,-0.012965131551027298,0.073880396783351898,0.119386002421379089,0.005807702895253897,0.011393257416784763,0.078205920755863190,0.021782593801617622,-0.010195881128311157,0.062683068215847015,-0.008286848664283752,-0.052600283175706863,-0.068565033376216888,0.065116539597511292,-0.044616688042879105,-0.116833910346031189,-0.025286557152867317,-0.126200586557388306
0.058475282043218613,-0.045512907207012177,-0.052861392498016357,0.022496545687317848,0.035213273018598557,0.079671777784824371,0.033298004418611526,0.056177526712417603,-0.101780854165554047,-0.060790926218032837,0.019915804266929626,0.091210238635540009,-0.019919013604521751,0.020812639966607094,-0.116330906748771667,-0.051405206322669983,-0.087095648050308228,0.016184449195861816,-0.152314931154251099,-0.009893057867884636,0.120525166392326355,-0.033104434609413147,0.036230977624654770,0.023949543014168739,-0.087353393435478210,0.035830710083246231,-0.086507990956306458,0.044026803225278854,0.024991787970066071,-0.029516654089093208,-0.039017599076032639,0.037583179771900177
0.058061812072992325,-0.056155033409595490,0.117524906992912292,-0.044970892369747162,-0.046325240284204483,-0.013461990281939507,-0.008587369695305824,-0.106151506304740906,-0.021082935854792595,-0.089614279568195343,-0.056887082755565643,0.017183972522616386,-0.026151534169912338,-0.068923152983188629,0.032186415046453476,0.022679442539811134,-0.055647570639848709,0.072613589465618134,-0.132773593068122864,-0.157671481370925903,-0.331045329570770264,-0.260503351688385010,0.039121422916650772,-0.119759477674961090,-0.013716931454837322,-0.041303791105747223,0.047984309494495392,0.007574027869850397,0.212682902812957764,-0.006446763873100281,-0.034767631441354752,-0.219924405217170715
-0.046896316111087799,0.074674285948276520,0.051063619554042816,0.065028846263885498,-0.032427843660116196,-0.088409520685672760,0.101865015923976898,-0.016795841977000237,-0.015623452141880989,0.096050001680850983,0.025876197963953018,-0.185228928923606873,-0.018746772781014442,-0.032208461314439774,0.048024866729974747,-0.073621310293674469,0.029925422742962837,0.110106989741325378,0.046431012451648712,-0.129203975200653076,-0.100803650915622711,0.079601645469665527,-0.039676606655120850,-0.025524720549583435,-0.033940974622964859,-0.154022887349128723,-0.024102864786982536,0.077931985259056091,-0.111070163547992706,-0.089038863778114319,-0.059311293065547943,0.092783309519290924
-0.055695582181215286,-0.119243547320365906,-0.113834448158740997,-0.063150405883789062,0.116255022585391998,0.050161540508270264,0.087218672037124634,0.123183771967887878,-0.096751116216182709,-0.040976412594318390,-0.142792463302612305,-0.069439157843589783,-0.085644237697124481,0.131531551480293274,0.092049889266490936,-0.009581252001225948,-0.024387296289205551,0.055413886904716492,-0.194080770015716553,0.038076374679803848,-0.042514596134424210,0.173401966691017151,0.010463227517902851,0.000888398673851043,0.011044639162719250,0.025279920548200607,0.129779234528541565,-0.029796980321407318,-0.064922668039798737,0.002565706614404917,0.031669706106185913,0.047289717942476273
0.058698032051324844,0.029662627726793289,-0.201596483588218689,0.008032204583287239,0.098957300186157227,-0.014600344933569431,-0.044052518904209137,0.106983974575996399,0.015493563376367092,0.009701999835669994,0.057955659925937653,0.082661278545856476,0.059685375541448593,0.075186178088188171,0.069567538797855377,-0.141498893499374390,-0.017500311136245728,0.012726795859634876,-0.021556584164500237,0.120288074016571045,0.068025611340999603,0.048283327370882034,0.091275222599506378,-0.047476768493652344,-0.091208130121231079,0.173526391386985779,-0.103693500161170959,0.008043509908020496,0.033349387347698212,0.062549792230129242,-0.030773641541600227,0.008644614368677139
0.084056921303272247,0.013360032811760902,0.063426397740840912,-0.032692868262529373,0.093898050487041473,0.078220017254352570,0.087917260825634003,0.016577284783124924,-0.024160791188478470,0.058885011821985245,-0.020164813846349716,0.062106214463710785,-0.021164907142519951,-0.002310331445187330,0.029758749529719353,0.153522491455078125,0.069271378219127655,-0.069262176752090454,0.031663484871387482,-0.014091872610151768,-0.051930490881204605,-0.168659672141075134,-0.029309419915080070,-0.048979852348566055,0.000800853536929935,-0.018843978643417358,-0.009833311662077904,0.037530384957790375,-0.128186240792274475,-0.026546692475676537,-0.119601249694824219,-0.059222318232059479
-0.054892018437385559,0.107267946004867554,-0.066418886184692383,-0.051150016486644745,-0.154200211167335510,0.138802379369735718,0.128173291683197021,-0.073421038687229156,-0.083003871142864227,-0.017075762152671814,-0.127139866352081299,-0.094405189156532288,-0.017314717173576355,0.149629384279251099,0.038753077387809753,0.025610618293285370,0.080841004848480225,0.156993463635444641,-0.067405641078948975,0.040346618741750717,0.009441275149583817,0.008108531124889851,-0.028740867972373962,0.063810355961322784,0.042777426540851593,-0.060186326503753662,-0.056601934134960175,0.083298899233341217,-0.041662577539682388,0.020935084670782089,-0.055310510098934174,-0.020809296518564224
0.163818955421447754,-0.061466932296752930,0.114383786916732788,0.127752915024757385,-0.026040403172373772,-0.022207282483577728,0.074768900871276855,-0.071468785405158997,-0.045746713876724243,-0.067121520638465881,-0.054830539971590042,0.129125207662582397,-0.098870582878589630,0.086882263422012329,-0.059513259679079056,0.086687803268432617,-0.034248828887939453,0.032364632934331894,0.126839399337768555,-0.098122835159301758,0.019086306914687157,0.035841625183820724,-0.091976404190063477,-0.077050641179084778,0.014073680154979229,-0.006432937458157539,-0.089913941919803619,0.086391553282737732,-0.068096540868282318,0.034885849803686142,0.019312094897031784,-0.065666832029819489
-0.152495086193084717,-0.131730467081069946,0.084715619683265686,0.090373344719409943,0.051510918885469437,-0.032686408609151840,-0.031450189650058746,-0.032551959156990051,-0.070480145514011383,-0.010985946282744408,0.067127041518688202,-0.089791998267173767,0.083432830870151520,0.038843058049678802,-0.154830247163772583,0.081995613873004913,-0.108027540147304535,0.054211229085922241,-0.092245034873485565,-0.038315661251544952,-0.051566693931818008,-0.074088595807552338,-0.188739895820617676,-0.007703349925577641,-0.048798259347677231,-0.062861807644367218,-0.096632227301597595,0.061105027794837952,-0.096712030470371246,-0.063696444034576416,0.047869708389043808,0.071540988981723785
0.010259695351123810,0.056806776672601700,0.016136586666107178,-0.018691532313823700,0.044635113328695297,-0.010239941999316216,0.146215796470642090,0.073597505688667297,0.004029912874102592,0.034845501184463501,-0.050746168941259384,0.023250656202435493,0.064184159040451050,0.120319262146949768,0.055133040994405746,0.073241420090198517,-0.060932464897632599,-0.061441052705049515,-0.144233077764511108,-0.015528739430010319,0.160842239856719971,0.104408212006092072,-0.098213315010070801,-0.002917530015110970,0.110154531896114349,-0.051661890000104904,0.048072319477796555,0.123367823660373688,-0.075306139886379242,-0.000086314626969397,0.117154791951179504,0.046591639518737793
-0.047621119767427444,0.035088378936052322,-0.102875128388404846,0.007304192055016756,-0.113478355109691620,0.065144836902618408,-0.037975937128067017,-0.051390588283538818,0.012215625494718552,0.077612973749637604,0.073752000927925110,-0.056694503873586655,0.060961782932281494,0.040993351489305496,0.044883634895086288,0.069969907402992249,0.085716724395751953,0.003329303581267595,0.073353394865989685,-0.076086923480033875,-0.119304090738296509,-0.123663686215877533,-0.059509668499231339,-0.022062717005610466,-0.025564640760421753,0.022239843383431435,0.160568714141845703,0.128034234046936035,-0.156757935881614685,-0.122785605490207672,0.001609946717508137,0.011748294346034527
0.052269119769334793,0.048348132520914078,-0.152536258101463318,-0.157705187797546387,0.076358668506145477,0.148690447211265564,-0.125479802489280701,0.163108468055725098,-0.006166934501379728,-0.066086657345294952,0.005210394971072674,-0.194063723087310791,-0.061546690762042999,-0.008468494750559330,-0.062498409301042557,-0.074008129537105560,0.080985374748706818,0.008046824485063553,0.014672327786684036,0.012703912332653999,0.027816897258162498,0.054937452077865601,0.037227585911750793,0.095923565328121185,0.106356225907802582,-0.050667151808738708,0.069787256419658661,0.047423612326383591,0.053876083344221115,-0.018455358222126961,-0.043113116174936295,-0.056673984974622726
-0.079363480210304260,-0.069082245230674744,-0.015687009319663048,0.043520174920558929,-0.069928824901580811,0.052742008119821548,-0.025400971993803978,0.013109895400702953,-0.196539402008056641,-0.029214721173048019,0.018369952216744423,-0.075619958341121674,-0.052345510572195053,0.059063173830509186,0.050219137221574783,-0.068641103804111481,-0.017591746523976326,0.047306839376688004,-0.155407875776290894,-0.087866745889186859,0.049345076084136963,-0.172978296875953674,0.161442309617996216,-0.038385976105928421,-0.005969562102109194,0.018591107800602913,-0.104830615222454071,0.064145453274250031,0.097411639988422394,0.058123685419559479,0.114458270370960236,0.022941509261727333
-0.071135729551315308,-0.056724004447460175,-0.026083322241902351,-0.061668604612350464,-0.024282133206725121,-0.042598217725753784,-0.017736777663230896,0.003319644369184971,0.030696686357259750,-0.076978124678134918,0.048405308276414871,0.064272835850715637,0.079802207648754120,0.076553672552108765,-0.014081282541155815,0.076200529932975769,0.061323691159486771,-0.110677979886531830,0.029206551611423492,0.130024939775466919,0.109827078878879547,-0.017472619190812111,-0.046989783644676208,0.003847191575914621,0.065915063023567200,0.070515923202037811,-0.001815194264054298,0.048549167811870575,-0.003737835213541985,-0.026083897799253464,0.093367353081703186,0.015207205899059772
-0.292656779289245605,-0.082863762974739075,0.107155874371528625,-0.057106807827949524,-0.014669355005025864,0.083379164338111877,-0.031437922269105911,-0.296933710575103760,0.066058680415153503,-0.013908265158534050,0.098690025508403778,0.037102315574884415,0.107232727110385895,0.068542450666427612,-0.107347838580608368,-0.105524025857448578,0.056233849376440048,0.081116959452629089,-0.056702170521020889,0.111992418766021729,-0.061812788248062134,0.058181077241897583,0.022513858973979950,0.016153847798705101,-0.137055084109306335,0.129601329565048218,-0.047519035637378693,-0.122861258685588837,0.127378299832344055,0.026776991784572601,0.141904622316360474,0.079316705465316772
-0.046329144388437271,-0.061641573905944824,-0.057058792561292648,0.028327230364084244,-0.049490235745906830,0.105237461626529694,0.115971587598323822,-0.032485455274581909,0.034695796668529510,0.025475667789578438,-0.050723839551210403,-0.137599363923072815,-0.033299658447504044,-0.029877481982111931,0.012951551936566830,0.052348710596561432,0.009289303794503212,0.060484357178211212,-0.034168910235166550,-0.098085738718509674,0.126280337572097778,0.081611938774585724,0.042958553880453110,0.071787908673286438,-0.106392458081245422,-0.070569679141044617,-0.069678343832492828,0.074624486267566681,-0.117684490978717804,0.023744059726595879,-0.101388283073902130,-0.055333990603685379
-0.036332871764898300,0.057952784001827240,0.104446820914745331,0.128884419798851013,-0.106746330857276917,0.040484979748725891,-0.114180013537406921,-0.034949865192174911,-0.085880219936370850,-0.085950076580047607,-0.028538716956973076,-0.083166278898715973,0.047596149146556854,0.005804849322885275,0.102138310670852661,-0.027440011501312256,0.111699230968952179,0.011862144805490971,0.000874391174875200,0.075454913079738617,-0.091028980910778046,-0.118988484144210815,0.024976305663585663,0.031569622457027435,0.077693834900856018,0.008778408169746399,-0.026484912261366844,0.139416784048080444,-0.095222815871238708,-0.048953521996736526,-0.134487420320510864,0.025475597009062767
0.031846385449171066,0.041556932032108307,-0.015974398702383041,0.046901859343051910,0.036657936871051788,-0.052886486053466797,0.133403882384300232,-0.010728613473474979,-0.018674900755286217,0.101249836385250092,-0.077872954308986664,0.016448307782411575,0.025195887312293053,0.022626370191574097,-0.064574532210826874,-0.089178144931793213,0.057672709226608276,-0.000367365981219336,0.104651182889938354,-0.123079597949981689,-0.173838868737220764,-0.372464388608932495,-0.018782846629619598,-0.045954730361700058,-0.062792114913463593,-0.035895232111215591,0.101486653089523315,0.015285022556781769,0.067802414298057556,-0.107540108263492584,-0.146516382694244385,-0.181320980191230774
0.030892707407474518,-0.108046911656856537,0.052928525954484940,-0.079471781849861145,0.073741450905799866,-0.097163356840610504,-0.067351199686527252,-0.035238876938819885,0.067951001226902008,0.130158960819244385,0.047855850309133530,0.098196841776371002,-0.038547836244106293,0.066304817795753479,-0.028500318527221680,-0.048026282340288162,-0.042358417063951492,-0.132325097918510437,0.039106886833906174,0.032792363315820694,0.047614190727472305,-0.098751232028007507,-0.053751327097415924,-0.005083082709461451,-0.045098874717950821,-0.030225690454244614,0.053055152297019958,0.113275423645973206,0.026426928117871284,-0.045078467577695847,0.123579569160938263,-0.026350229978561401
0.100735589861869812,-0.082314610481262207,-0.033811204135417938,0.117616459727287292,-0.061809960752725601,-0.059968918561935425,0.008208048529922962,-0.010124335065484047,-0.073823519051074982,0.069587178528308868,0.035861909389495850,-0.018453380092978477,0.047229912132024765,0.103448338806629181,-0.028262982144951820,-0.026417134329676628,-0.062315568327903748,0.034378938376903534,0.121767424046993256,-0.038444146513938904,-0.004016862716525793,0.115633532404899597,0.080386832356452942,0.008041591383516788,-0.094493381679058075,0.029671506956219673,-0.175282776355743408,0.056763175874948502,0.081232950091362000,-0.065843880176544189,-0.076683163642883301,0.072726361453533173
0.053467124700546265,0.031882595270872116,0.062207031995058060,-0.064441338181495667,0.111175976693630219,-0.070605881512165070,-0.096544526517391205,-0.070998556911945343,0.041876189410686493,0.074998952448368073,-0.038373563438653946,0.093339852988719940,-0.098119318485260010,-0.016936842352151871,-0.012269050814211369,-0.097207106649875641,-0.095925807952880859,0.041549574583768845,-0.113839104771614075,0.080255605280399323,0.057207822799682617,0.056382488459348679,0.110717497766017914,-0.087936155498027802,-0.013903501443564892,0.054343976080417633,-0.111783094704151154,-0.066633723676204681,0.039568185806274414,-0.053312536329030991,-0.041070967912673950,0.091506071388721466
-0.087853275239467621,0.032949857413768768,0.043923933058977127,0.035329982638359070,-0.062367148697376251,0.049053713679313660,-0.010349564254283905,-0.067758627235889435,-0.061826977878808975,0.002889016875997186,0.074103787541389465,0.027218051254749298,-0.015808090567588806,0.076062217354774475,0.183246344327926636,0.102383956313133240,0.118338115513324738,0.003017746843397617,0.012863035313785076,0.014170535840094090,-0.006838488392531872,0.040687881410121918,-0.122739501297473907,0.093817189335823059,0.006783569697290659,-0.082380101084709167,-0.091656222939491272,0.130497574806213379,0.205015257000923157,-0.174721628427505493,-0.067680120468139648,0.042901504784822464
0.031385242938995361,-0.135729938745498657,0.102998517453670502,-0.150033533573150635,0.075422279536724091,-0.016939070075750351,0.118200860917568207,-0.003716246923431754,-0.044917162507772446,-0.110277809202671051,0.047037929296493530,-0.184630662202835083,0.090191096067428589,0.202415332198143005,-0.282766997814178467,0.003948862664401531,0.004505442921072245,0.085947789251804352,0.116868279874324799,0.009670306928455830,-0.058501061052083969,0.200013116002082825,-0.038385428488254547,0.071443863213062286,-0.179188951849937439,-0.015876295045018196,-0.138429343700408936,0.175271704792976379,0.045613739639520645,-0.048238441348075867,-0.256886929273605347,-0.083626396954059601
0.087910786271095276,-0.056863561272621155,-0.065371669828891754,-0.014571719802916050,-0.108212545514106750,0.093181081116199493,-0.066883698105812073,-0.004387013614177704,-0.072904631495475769,-0.027225926518440247,-0.067931525409221649,-0.029525795951485634,-0.058596268296241760,0.171605452895164490,0.013914331793785095,0.186900064349174500,0.009783166460692883,0.010558352805674076,0.099469304084777832,-0.013180211186408997,0.042306713759899139,-0.004799162037670612,0.062725238502025604,0.063555069267749786,0.107264891266822815,0.126216202974319458,-0.133552536368370056,0.023204790428280830,-0.115816719830036163,0.014708192087709904,-0.210658282041549683,0.077758222818374634
0.079757079482078552,-0.073923215270042419,-0.021157912909984589,0.014265210367739201,-0.123683527112007141,-0.038015659898519516,0.014195736497640610,0.106208302080631256,0.033569231629371643,-0.029786596074700356,0.109835825860500336,-0.023893851786851883,0.046413648873567581,0.015991181135177612,0.061443198472261429,0.139591187238693237,-0.137630045413970947,-0.036543849855661392,0.047583300620317459,0.103263780474662781,-0.011472444981336594,-0.019342226907610893,-0.017312118783593178,0.097039312124252319,0.085615240037441254,0.160917237401008606,-0.045570068061351776,0.136579275131225586,-0.094217747449874878,-0.042719949036836624,-0.004659414757043123,-0.091536462306976318
0.027881458401679993,0.069624580442905426,-0.090295091271400452,0.105851233005523682,0.052426002919673920,-0.013612304814159870,-0.073805280029773712,0.100511342287063599,0.076734118163585663,0.110072910785675049,-0.014263344928622246,0.078055188059806824,-0.134196475148200989,-0.043234821408987045,-0.037471208721399307,-0.023827344179153442,-0.068917736411094666,0.115948639810085297,0.081831276416778564,-0.048271801322698593,0.035376098006963730,0.029370019212365150,-0.017077818512916565,0.010439909994602203,-0.060175634920597076,-0.036418426781892776,-0.023201504722237587,0.019448744133114815,-0.061331916600465775,0.099157400429248810,0.057409781962633133,0.059902753680944443
0.018900694325566292,0.055806536227464676,0.018345151096582413,0.074011638760566711,0.117701217532157898,0.008432435803115368,0.077366933226585388,-0.046299014240503311,-0.070218496024608612,-0.049002397805452347,0.058560423552989960,-0.105667762458324432,0.102285213768482208,-0.051692131906747818,-0.076239891350269318,-0.003333267057314515,0.123719632625579834,0.088378690183162689,-0.039193231612443924,0.026892602443695068,-0.062146924436092377,-0.054953277111053467,-0.099418096244335175,0.069121904671192169,-0.177028283476829529,-0.021666105836629868,-0.021320931613445282,-0.162183851003646851,0.128410607576370239,-0.026602566242218018,0.122145548462867737,-0.011140262708067894
-0.021461812779307365,-0.078167021274566650,0.088568426668643951,0.100214175879955292,-0.059504784643650055,-0.005832484457641840,-0.097902104258537292,0.013092976994812489,-0.066241212189197540,-0.049617514014244080,-0.107980906963348389,0.038005981594324112,-0.005435167346149683,-0.055475253611803055,-0.073770374059677124,0.019936123862862587,-0.085621200501918793,0.079511031508445740,0.007563073653727770,-0.005497170146554708,-0.092303156852722168,0.097575433552265167,-0.046032514423131943,-0.066680356860160828,0.092275016009807587,0.032653119415044785,0.075749024748802185,-0.032580964267253876,-0.020411996170878410,-0.024331273511052132,-0.094053395092487335,0.004921212326735258
0.059113465249538422,0.074845820665359497,0.042746853083372116,-0.027911538258194923,0.139942079782485962,0.042532034218311310,0.071466922760009766,0.053246401250362396,0.078147426247596741,-0.054009899497032166,-0.065273314714431763,0.130258068442344666,-0.014641611836850643,0.038972895592451096,-0.183888599276542664,-0.147783592343330383,0.011762974783778191,-0.014953110367059708,-0.047796491533517838,0.070912860333919525,0.013135450892150402,-0.145571544766426086,0.103056885302066803,-0.184805601835250854,-0.005768989678472281,-0.045740135014057159,0.050245121121406555,-0.093847811222076416,0.144363328814506531,-0.068601429462432861,-0.218627378344535828,0.044069167226552963
-0.035633262246847153,-0.057388167828321457,-0.013102655299007893,0.011365788988769054,-0.072301246225833893,0.006436069495975971,-0.027320023626089096,-0.054215602576732635,0.004689108580350876,-0.039630424231290817,-0.028324229642748833,0.150119140744209290,-0.031930644065141678,0.072881385684013367,0.052282892167568207,0.000392167770769447,0.009595902636647224,-0.041471589356660843,0.036817148327827454,0.011236016638576984,-0.141844645142555237,0.023430723696947098,-0.042605761438608170,0.016062237322330475,0.027621220797300339,0.008017944172024727,0.058399423956871033,0.072396077215671539,-0.113046869635581970,-0.083227157592773438,-0.069516234099864960,0.041736241430044174
0.120663031935691833,-0.025712484493851662,0.165615081787109375,0.071759738028049469,0.032828219234943390,-0.016825919970870018,-0.065870746970176697,-0.226982235908508301,-0.018093641847372055,-0.082434192299842834,-0.074075952172279358,-0.052304498851299286,0.033812869340181351,-0.103878192603588104,-0.150511279702186584,-0.033936724066734314,-0.071882106363773346,0.091596424579620361,0.123158007860183716,0.075355306267738342,-0.043933276087045670,0.074056699872016907,0.116052716970443726,-0.044286746531724930,0.114992961287498474,0.105735071003437042,-0.049521833658218384,-0.055830672383308411,0.012165770865976810,-0.117591254413127899,0.074571512639522552,-0.026474388316273689
-0.151956081390380859,0.086976401507854462,-0.078898549079895020,0.085536181926727295,0.077246285974979401,-0.113126650452613831,0.053720172494649887,0.048898793756961823,-0.029130587354302406,0.045911177992820740,-0.058037217706441879,-0.165486052632331848,0.123091123998165131,0.049134872853755951,0.020215319469571114,-0.004411855712532997,0.039557904005050659,0.028561875224113464,-0.131966546177864075,-0.039460126310586929,-0.100636526942253113,-0.003199186641722918,0.047820556908845901,0.152143433690071106,-0.078422993421554565,-0.008433041162788868,0.048854067921638489,-0.022964527830481529,0.080704234540462494,0.106919184327125549,0.087119035422801971,-0.028652520850300789
0.035158641636371613,-0.057548929005861282,0.098097346723079681,-0.103141248226165771,0.120790459215641022,-0.065758883953094482,-0.095007784664630890,0.017358133569359779,-0.037127032876014709,0.068474352359771729,-0.064805679023265839,-0.217085972428321838,0.145961642265319824,0.052271872758865356,-0.017699971795082092,-0.069600500166416168,0.030515572056174278,-0.085263304412364960,-0.022300133481621742,0.071740157902240753,0.106796510517597198,0.029716724529862404,0.119138814508914948,-0.014112059026956558,-0.067293375730514526,0.066979348659515381,-0.008861881680786610,0.071510992944240570,0.040283337235450745,-0.085950613021850586,0.084895558655261993,0.057589665055274963
-0.088795699179172516,-0.076619707047939301,0.103061929345130920,-0.123637989163398743,0.040190279483795166,-0.118060968816280365,-0.186389327049255371,-0.107431583106517792,-0.015271727927029133,-0.040748219937086105,0.002806214848533273,-0.027869936078786850,0.044041883200407028,-0.031869027763605118,-0.027011254802346230,-0.032346870750188828,-0.156200051307678223,0.056675363332033157,-0.163353428244590759,-0.110967770218849182,-0.241684213280677795,0.045387249439954758,0.024603964760899544,-0.059459727257490158,0.166149139404296875,0.052243918180465698,-0.053709398955106735,0.119297653436660767,0.118878461420536041,-0.022721348330378532,0.009926708415150642,-0.064736887812614441
0.076548188924789429,0.011425525881350040,0.054857239127159119,0.018211727961897850,0.012667363509535789,0.019558863714337349,0.100124925374984741,0.005236478522419930,0.000211461097933352,-0.073497734963893890,-0.103406101465225220,0.041777104139328003,0.012420084327459335,-0.016483403742313385,-0.009751548990607262,-0.038894865661859512,-0.118580870330333710,-0.043303161859512329,0.029870020225644112,0.024910798296332359,0.106200009584426880,-0.000679268094245344,-0.011443575844168663,0.054537866264581680,0.091553643345832825,0.049553465098142624,0.058798789978027344,0.050354473292827606,-0.006038952153176069,-0.054760988801717758,-0.086365103721618652,-0.062605798244476318
-0.172775626182556152,0.167066022753715515,0.040023565292358398,-0.076444998383522034,-0.024054847657680511,-0.040133543312549591,0.066347680985927582,-0.123734638094902039,-0.101617299020290375,0.105693042278289795,-0.081706717610359192,0.035659141838550568,0.014511778950691223,-0.183494135737419128,0.061946094036102295,-0.001386922667734325,-0.063564352691173553,0.136428833007812500,-0.017519628629088402,-0.158847615122795105,0.083724506199359894,-0.222555622458457947,-0.115812331438064575,-0.101896226406097412,-0.002276114420965314,0.002567881485447288,-0.039213430136442184,-0.084351815283298492,-0.028970373794436455,-0.018592124804854393,0.076223634183406830,-0.019532633945345879
0.101956807076931000,-0.125034540891647339,0.047325499355792999,0.080593764781951904,-0.023942628875374794,0.011244649998843670,0.079928115010261536,0.111076414585113525,0.034230723977088928,-0.084780454635620117,0.062033772468566895,-0.032177329063415527,0.113365910947322845,0.080038011074066162,0.065614536404609680,0.089196011424064636,0.122652024030685425,0.020103087648749352,0.013717812485992908,-0.062332991510629654,0.011621707119047642,0.037874676287174225,0.004302893765270710,0.046072702854871750,-0.185061305761337280,-0.072484612464904785,-0.162694349884986877,-0.049708329141139984,0.081603556871414185,-0.111837819218635559,-0.168474867939949036,0.158930033445358276
0.032412476837635040,0.077880337834358215,0.042724706232547760,-0.066378295421600342,-0.045352417975664139,0.028345871716737747,-0.007683186791837215,0.074965953826904297,0.026135221123695374,-0.071687251329421997,0.006919678300619125,-0.134607717394828796,0.062397968024015427,-0.103597216308116913,-0.095302164554595947,0.043767377734184265,0.052235413342714310,0.075893670320510864,0.025800138711929321,-0.026353886350989342,-0.095241867005825043,-0.029687354341149330,-0.037385344505310059,-0.085664965212345123,0.091017127037048340,-0.050257809460163116,0.097472734749317169,-0.174278676509857178,0.118276365101337433,0.079834826290607452,0.053350955247879028,-0.178737148642539978
-0.056722104549407959,0.088315904140472412,-0.080646000802516937,-0.149874329566955566,0.019755961373448372,-0.038476016372442245,-0.000284024863503873,0.030150130391120911,0.106490150094032288,-0.003970072139054537,-0.008257412351667881,-0.132029846310615540,-0.012274831533432007,-0.069219656288623810,-0.015867814421653748,-0.006838653702288866,-0.016978766769170761,0.076563358306884766,0.122755885124206543,-0.000346081389579922,-0.064547762274742126,0.117490164935588837,-0.051520429551601410,-0.013419150374829769,0.130299210548400879,-0.046714935451745987,0.117701880633831024,-0.042341422289609909,-0.043753817677497864,-0.083322800695896149,-0.154641270637512207,-0.139520660042762756
0.060911878943443298,0.141696587204933167,0.083287909626960754,-0.188767701387405396,0.059533748775720596,-0.059529785066843033,0.092386245727539062,0.024440538138151169,0.001928291399963200,-0.149588197469711304,-0.019409939646720886,-0.122808106243610382,0.048493783921003342,0.089344009757041931,-0.143947243690490723,-0.122911207377910614,-0.110555484890937805,-0.080629512667655945,-0.147964045405387878,-0.015507703647017479,0.025565575808286667,0.152825936675071716,0.036265030503273010,-0.089748881757259369,-0.038332358002662659,0.070753484964370728,-0.150750339031219482,-0.044056605547666550,0.026640418916940689,0.090581275522708893,0.144438952207565308,-0.040515892207622528
-0.168775767087936401,-0.041523449122905731,0.160544127225875854,-0.068072900176048279,-0.002344106789678335,0.070523440837860107,0.031535085290670395,0.092901110649108887,0.071486316621303558,0.033192340284585953,-0.013855644501745701,0.013867441564798355,0.043493840843439102,-0.052757840603590012,0.143426403403282166,-0.178636580705642700,-0.037175212055444717,0.036292918026447296,-0.023713843896985054,-0.048487737774848938,0.116956003010272980,-0.160536348819732666,-0.097317203879356384,-0.097939141094684601,-0.110348954796791077,0.083933643996715546,-0.003605432575568557,0.038283634930849075,-0.022098151966929436,0.131043374538421631,0.092777982354164124,-0.054267838597297668
-0.106784991919994354,0.090205311775207520,0.030458841472864151,-0.043801639229059219,0.048067405819892883,-0.150179073214530945,-0.007189097814261913,-0.048429727554321289,0.024549491703510284,-0.002381249098107219,0.044065989553928375,0.018825775012373924,0.019641119986772537,0.007105696015059948,0.004575660452246666,-0.016349418088793755,-0.061849664896726608,-0.076148778200149536,0.019296718761324883,0.019102925434708595,-0.004488453269004822,0.095033593475818634,0.064845688641071320,0.003457706654444337,-0.074042111635208130,-0.084957093000411987,-0.081897154450416565,0.093832202255725861,-0.038824487477540970,0.001602631295099854,0.026586903259158134,-0.031787212938070297
-0.158516913652420044,-0.035811401903629303,0.011142753064632416,0.003750773379579186,-0.081910245120525360,-0.017150003463029861,0.135833412408828735,0.039819523692131042,0.013163333758711815,0.069851592183113098,0.103570230305194855,-0.079832330346107483,0.054224006831645966,0.050399087369441986,-0.095526359975337982,0.066873557865619659,0.009573271498084068,0.091311708092689514,-0.026935579255223274,-0.035929892212152481,-0.067689314484596252,-0.025059619918465614,-0.120616473257541656,-0.070802144706249237,-0.090927988290786743,0.063749939203262329,0.085356272757053375,-0.217546090483665466,0.105385437607765198,0.008709873072803020,-0.044728774577379227,-0.014595163986086845
0.060606501996517181,-0.198049843311309814,-0.059907365590333939,-0.019582377746701241,-0.039794102311134338,-0.122304312884807587,-0.102985657751560211,-0.024244872853159904,-0.097904346883296967,-0.120858266949653625,-0.055687300860881805,0.225628405809402466,-0.018731473013758659,-0.134369954466819763,0.029039977118372917,-0.007201357744634151,0.050794031471014023,-0.035583283752202988,-0.023658903315663338,-0.179732158780097961,0.094916619360446930,-0.188240006566047668,-0.010251697152853012,-0.100984610617160797,0.083686694502830505,0.092144563794136047,0.000632186478469521,-0.020801534876227379,0.135674402117729187,0.051380269229412079,0.096295535564422607,0.027574019506573677
-0.057529617100954056,-0.085687123239040375,-0.123593255877494812,-0.068688690662384033,-0.148526832461357117,0.108124479651451111,0.069805778563022614,-0.128905475139617920,-0.187290281057357788,-0.065146408975124359,-0.194119840860366821,-0.279482066631317139,-0.160698369145393372,-0.028288435190916061,0.036390218883752823,-0.095510549843311310,0.070962361991405487,-0.007443596143275499,-0.034760527312755585,0.036351520568132401,-0.031388625502586365,-0.088908568024635315,0.085143476724624634,-0.008628429844975471,-0.391611874103546143,-0.119770638644695282,0.098862230777740479,0.127245604991912842,0.119935199618339539,-0.058784872293472290,-0.069655030965805054,0.126436635851860046
0.016928568482398987,-0.066896490752696991,-0.027275664731860161,-0.054560139775276184,-0.051075249910354614,-0.146579816937446594,-0.039963748306035995,0.061354286968708038,0.071836128830909729,0.016310466453433037,0.030656803399324417,0.025328602641820908,0.061363182961940765,-0.008448720909655094,0.123386621475219727,-0.048015017062425613,-0.083159103989601135,0.044858522713184357,0.032851964235305786,-0.111674323678016663,-0.118831872940063477,0.018585551530122757,-0.133554220199584961,-0.059485428035259247,0.113047592341899872,-0.011432324536144733,0.018411859869956970,-0.130923986434936523,-0.051610413938760757,-0.061865910887718201,-0.043426893651485443,-0.027615187689661980
-0.228593274950981140,0.089963622391223907,0.015279394574463367,-0.058591924607753754,-0.147889107465744019,0.029824972152709961,-0.071186296641826630,-0.217911675572395325,0.026598246768116951,0.109154328703880310,0.092842072248458862,0.048837769776582718,-0.010308917611837387,0.075521014630794525,-0.066222518682479858,-0.119242280721664429,0.102569155395030975,0.154291063547134399,0.174704834818840027,0.002848827978596091,0.006768534891307354,-0.065231226384639740,0.110997006297111511,0.126539632678031921,-0.091709546744823456,0.077478200197219849,-0.083262182772159576,0.064306773245334625,-0.105257622897624969,-0.178217723965644836,0.067235253751277924,0.076757267117500305
0.101766727864742279,0.201728716492652893,-0.074635602533817291,-0.109127864241600037,-0.017079193145036697,0.059274364262819290,0.039358299225568771,-0.013225479051470757,-0.055450830608606339,-0.065121941268444061,-0.116741418838500977,-0.132079333066940308,0.136220917105674744,0.084804236888885498,-0.160294756293296814,-0.039150647819042206,-0.092659823596477509,0.122295677661895752,0.004267823416739702,0.115030303597450256,0.020826680585741997,-0.027175014838576317,0.041464880108833313,-0.038189679384231567,0.020390452817082405,0.019153989851474762,-0.078808575868606567,-0.069869272410869598,0.002729931613430381,-0.012201933190226555,0.148311495780944824,0.105648331344127655
0.031667936593294144,-0.036825634539127350,-0.119182080030441284,-0.011263963766396046,-0.036736916750669479,-0.101204395294189453,0.073351375758647919,0.023947587236762047,-0.053528655320405960,-0.016425902023911476,0.087752088904380798,0.066088259220123291,0.065056003630161285,0.026343027129769325,-0.147863134741783142,-0.051172692328691483,-0.055919885635375977,0.053959030658006668,-0.056244187057018280,-0.039016224443912506,0.001658411347307265,0.108520865440368652,-0.066268622875213623,0.045496840029954910,-0.029861085116863251,-0.042306590825319290,0.044624302536249161,-0.082603946328163147,-0.103667907416820526,0.024226512759923935,-0.032477442175149918,-0.095778100192546844
-0.133387923240661621,0.038153201341629028,0.000023420103389071,-0.132063046097755432,-0.042582668364048004,-0.178843468427658081,-0.104872696101665497,0.136581659317016602,-0.017867520451545715,-0.010990128852427006,-0.108248762786388397,0.036346651613712311,-0.077331088483333588,-0.080649398267269135,0.135440632700920105,0.073953948915004730,0.011961137875914574,-0.063449077308177948,0.066058844327926636,0.136169090867042542,-0.168201372027397156,0.117529653012752533,-0.021142309531569481,-0.026251589879393578,-0.005124118644744158,-0.021608591079711914,0.084519512951374054,-0.220615312457084656,0.004967940971255302,-0.055209714919328690,-0.078984797000885010,-0.085560075938701630
0.029159709811210632,0.036560844630002975,-0.006314666010439396,0.064229875802993774,-0.009917143732309341,-0.037409398704767227,-0.038579016923904419,0.042830638587474823,-0.030965620651841164,0.063850961625576019,-0.070749767124652863,-0.117542512714862823,0.024655526503920555,0.011010138317942619,0.140542402863502502,-0.007084165234118700,-0.020419890061020851,-0.042459562420845032,0.160840451717376709,0.092593014240264893,-0.163278281688690186,-0.011503601446747780,-0.005416731815785170,0.031995639204978943,-0.076564177870750427,0.027816429734230042,0.123630292713642120,0.009116862900555134,0.035393685102462769,-0.034241363406181335,-0.164408743381500244,-0.093254283070564270
0.103110432624816895,-0.097706273198127747,0.021551495417952538,-0.056060209870338440,0.036659806966781616,0.107627958059310913,0.075444765388965607,0.120370380580425262,0.072323948144912720,-0.107716925442218781,-0.017484117299318314,0.090068690478801727,0.074927970767021179,0.124599792063236237,-0.047457709908485413,0.046911429613828659,-0.000905548804439604,0.014030604623258114,0.075072139501571655,-0.107134990394115448,0.045961443334817886,-0.006523782853037119,-0.037724029272794724,-0.057485330849885941,-0.142606392502784729,0.052374411374330521,-0.039497651159763336,-0.043122377246618271,-0.030776606872677803,0.027353787794709206,-0.061395946890115738,-0.050463613122701645
-0.025643095374107361,0.024000950157642365,-0.006709335837513208,-0.022471306845545769,-0.024886190891265869,0.015245036222040653,-0.021037014201283455,0.006382748950272799,-0.024505056440830231,0.046488072723150253,-0.112823441624641418,-0.059069715440273285,-0.103375367820262909,0.034540597349405289,0.034526865929365158,0.058994553983211517,0.053294066339731216,0.068873852491378784,-0.139808803796768188,-0.122523091733455658,-0.017794271931052208,-0.036515168845653534,0.128599673509597778,-0.075329318642616272,-0.189883813261985779,-0.056086022406816483,-0.013745132833719254,-0.192238137125968933,0.017723074182868004,0.088538222014904022,0.015234821476042271,-0.062336519360542297
-0.136382386088371277,0.097631081938743591,-0.003389672376215458,-0.076662540435791016,-0.059751357883214951,-0.007699568755924702,0.026622520759701729,0.040477871894836426,0.003811001311987638,0.032909814268350601,-0.052615508437156677,-0.055274691432714462,0.131325140595436096,-0.045988742262125015,0.047897484153509140,-0.208899185061454773,-0.043136570602655411,0.008413578383624554,0.141049921512603760,0.100122757256031036,0.105747357010841370,0.006182110868394375,0.022069832310080528,-0.030656855553388596,0.045483436435461044,0.013032755814492702,-0.014169999398291111,0.075847171247005463,0.166945353150367737,0.021171595901250839,-0.096076898276805878,0.069397471845149994
0.030743367969989777,0.031672313809394836,0.121127471327781677,-0.104591339826583862,-0.023443326354026794,0.065589703619480133,0.155227214097976685,0.047120716422796249,0.071341544389724731,-0.076407946646213531,0.063498727977275848,-0.304629892110824585,-0.090630531311035156,0.008975992910563946,-0.231040045619010925,0.060558650642633438,0.021134926006197929,0.031270183622837067,0.195192113518714905,0.025402348488569260,-0.044913098216056824,0.021049471572041512,0.054699964821338654,0.039355844259262085,-0.074857480823993683,-0.144184187054634094,0.182686775922775269,0.075252391397953033,-0.061186786741018295,0.052186027169227600,-0.005167650058865547,-0.153935387730598450
-0.061255760490894318,0.007030129898339510,-0.148203045129776001,0.068151071667671204,0.083990506827831268,-0.052506152540445328,0.118004471063613892,0.069126263260841370,-0.047239724546670914,-0.085153341293334961,0.033632501959800720,-0.185549676418304443,-0.037542704492807388,0.008280940353870392,0.089443355798721313,-0.063843235373497009,0.132526114583015442,0.002172458916902542,-0.071070976555347443,0.032838143408298492,-0.068394966423511505,0.034072950482368469,0.112972028553485870,0.048998579382896423,-0.042766083031892776,-0.101357795298099518,-0.029334014281630516,0.093635745346546173,-0.010108252987265587,-0.146968811750411987,0.005417917855083942,0.067704111337661743
-0.023754460737109184,-0.016666060313582420,-0.057021532207727432,-0.002967436797916889,0.081006594002246857,0.086891263723373413,0.100786685943603516,0.049304369837045670,0.047057125717401505,-0.039522405713796616,-0.042589742690324783,-0.099669441580772400,-0.074772313237190247,-0.002109569963067770,0.074870772659778595,0.061257448047399521,0.091716930270195007,-0.057484190911054611,-0.014345997944474220,-0.113756828010082245,-0.015532093122601509,-0.051766984164714813,-0.038237862288951874,0.033297464251518250,-0.069953911006450653,-0.177109390497207642,0.004564032424241304,0.064766176044940948,0.054927159100770950,0.035077430307865143,-0.016603346914052963,0.045974906533956528
0.112301297485828400,0.109865307807922363,-0.039040800184011459,0.067016348242759705,0.030037155374884605,-0.045536667108535767,0.063777878880500793,0.015746077522635460,-0.017867697402834892,0.011217264458537102,-0.048770770430564880,-0.070654444396495819,0.051063265651464462,0.027945658192038536,0.103058576583862305,-0.012347267940640450,0.044197440147399902,0.094824396073818207,-0.077858991920948029,-0.001134337624534965,-0.000482627801829949,0.065627656877040863,0.008616792969405651,0.043541591614484787,0.015251527540385723,-0.064896695315837860,-0.011432683095335960,-0.049387279897928238,0.041172277182340622,0.014832729473710060,0.073748998343944550,0.040341589599847794
-0.050244744867086411,0.048315510153770447,0.013349912129342556,-0.065984755754470825,0.046022962778806686,0.105772219598293304,-0.168810278177261353,0.092543184757232666,0.011734018102288246,-0.016204699873924255,0.076120913028717041,0.121798329055309296,0.111543320119380951,0.036026868969202042,-0.170244395732879639,-0.032962534576654434,-0.192863926291465759,0.042120628058910370,-0.026235640048980713,0.009298240765929222,-0.091311208903789520,-0.120174817740917206,-0.023011596873402596,-0.010996546596288681,-0.035953275859355927,0.134051337838172913,-0.048067495226860046,-0.177136778831481934,0.080633163452148438,-0.031819727271795273,0.035404283553361893,0.034630861133337021
-0.171291574835777283,-0.002971999580040574,0.075916223227977753,0.032586526125669479,0.037231288850307465,-0.071651153266429901,0.119029462337493896,-0.112011805176734924,0.079524464905261993,0.047200631350278854,-0.001054453081451356,0.097414307296276093,-0.059436663985252380,0.107557401061058044,0.124240562319755554,0.025130227208137512,0.089989855885505676,0.069787092506885529,0.058447021991014481,0.039771776646375656,0.045868258923292160,0.014283156022429466,-0.107196189463138580,-0.047841016203165054,-0.065105058252811432,-0.132975086569786072,-0.115980632603168488,0.022170957177877426,-0.017062615603208542,-0.046634349972009659,0.063058622181415558,-0.085996463894844055
0.146672695875167847,-0.025971602648496628,0.098908409476280212,0.120879799127578735,-0.013997957110404968,-0.146758839488029480,-0.059518337249755859,-0.108089223504066467,-0.003220972372218966,0.053895976394414902,0.021434646099805832,0.074958398938179016,0.085306115448474884,-0.020883588120341301,-0.067699670791625977,0.173360109329223633,-0.018194561824202538,-0.002796983113512397,0.046123534440994263,0.050112094730138779,0.057783249765634537,-0.019213823601603508,0.067260287702083588,-0.067340858280658722,0.023454934358596802,0.065736033022403717,-0.109732784330844879,0.144129112362861633,-0.042687024921178818,-0.148117750883102417,-0.086484178900718689,0.038744315505027771
0.052293967455625534,-0.097482144832611084,0.066755294799804688,0.040089298039674759,-0.011764276772737503,-0.012606657110154629,0.041271194815635681,0.054643660783767700,0.019782509654760361,-0.063125349581241608,0.020833073183894157,0.140340998768806458,-0.084139123558998108,0.026477120816707611,0.052662540227174759,0.000390878121834248,0.027773922309279442,0.026944715529680252,0.109300307929515839,0.086068168282508850,0.042392238974571228,0.067981056869029999,0.053858786821365356,0.078626371920108795,0.101823873817920685,-0.147025495767593384,-0.099435165524482727,0.135987967252731323,0.043881159275770187,-0.155604600906372070,0.000992043875157833,-0.061753436923027039
0.044104114174842834,-0.036951355636119843,0.126504421234130859,-0.153430283069610596,-0.036417230963706970,-0.006195193156599998,-0.009419006295502186,-0.187395796179771423,-0.065286286175251007,-0.060156758874654770,-0.042079102247953415,-0.084240056574344635,-0.052120387554168701,-0.133251652121543884,-0.139401063323020935,-0.052731752395629883,-0.026658801361918449,0.012326931580901146,0.031443070620298386,0.085378922522068024,0.011296664364635944,-0.009287050925195217,0.058818761259317398,-0.107364155352115631,-0.090585000813007355,-0.095109283924102783,0.063827581703662872,-0.044997725635766983,-0.035301581025123596,0.018034713342785835,-0.093189723789691925,-0.042228844016790390
-0.082517124712467194,-0.081801824271678925,0.072097495198249817,0.037048254162073135,0.085886567831039429,0.036369487643241882,-0.153847649693489075,0.073048837482929230,-0.058871224522590637,-0.075354218482971191,-0.006870027631521225,-0.085706405341625214,0.060760091990232468,0.138000085949897766,-0.043587759137153625,0.044565148651599884,-0.010765277780592442,0.059261228889226913,-0.118591599166393280,0.057675499469041824,-0.008874701336026192,0.136242121458053589,-0.157762408256530762,0.087651692330837250,0.017945369705557823,-0.056320823729038239,0.004905975423753262,-0.053479693830013275,0.084249779582023621,0.093004092574119568,0.077985875308513641,-0.051847204566001892
0.099813930690288544,0.075465649366378784,-0.031708162277936935,-0.085215777158737183,-0.061098571866750717,0.038535226136445999,0.097367957234382629,-0.110308758914470673,-0.088483721017837524,0.039651762694120407,-0.000460442621260881,-0.303787678480148315,0.189283683896064758,0.018000073730945587,-0.303756326436996460,0.000641841557808220,-0.009119771420955658,-0.090078905224800110,-0.029152790084481239,-0.092316292226314545,0.126687750220298767,0.123019114136695862,0.071487829089164734,0.007056819275021553,-0.120424702763557434,-0.072395399212837219,0.198828145861625671,-0.049894534051418304,0.100482493638992310,0.109640695154666901,0.131748750805854797,0.055451467633247375
0.016661586239933968,-0.180902227759361267,0.101351618766784668,-0.175820082426071167,0.067836441099643707,-0.121784254908561707,0.092884920537471771,-0.068837091326713562,-0.179488494992256165,0.025049526244401932,0.049785126000642776,-0.006134831812232733,-0.082615025341510773,-0.112174823880195618,0.039225619286298752,0.057325214147567749,-0.005632724147289991,0.117187209427356720,-0.102405838668346405,-0.175706326961517334,-0.084329120814800262,-0.081655226647853851,-0.107063665986061096,-0.140082150697708130,0.118554756045341492,-0.109507448971271515,-0.130436763167381287,0.029589494690299034,0.229606673121452332,-0.008065256290137768,0.142050281167030334,-0.072591669857501984
0.102868363261222839,-0.050035711377859116,0.054913587868213654,0.092524513602256775,0.015944031998515129,0.066464312374591827,-0.131191805005073547,0.032688260078430176,-0.062615476548671722,0.031673654913902283,-0.062627539038658142,0.125618070363998413,0.076569251716136932,0.110111489892005920,0.019694881513714790,0.032715171575546265,-0.084397323429584503,0.035430189222097397,-0.015207979828119278,-0.026341401040554047,-0.109667226672172546,-0.015239752829074860,0.038932222872972488,0.058375827968120575,0.005036892369389534,0.004436275456100702,-0.045822188258171082,0.102076843380928040,0.044706985354423523,-0.152088657021522522,-0.081392914056777954,0.006693516392260790
-0.115243330597877502,0.059192325919866562,-0.032783087342977524,0.080391839146614075,0.084601595997810364,-0.003563088132068515,-0.268588989973068237,0.056082509458065033,-0.086564898490905762,-0.064006030559539795,0.023804189637303352,0.021956879645586014,0.096660703420639038,0.029443355277180672,-0.003043734701350331,0.006436150986701250,-0.078657150268554688,0.058781601488590240,-0.093119092285633087,0.122134648263454437,0.013017683289945126,-0.182406306266784668,-0.097615167498588562,-0.114713184535503387,-0.085071362555027008,0.020306872203946114,0.071504138410091400,-0.097027689218521118,0.128925621509552002,0.105542287230491638,0.016912683844566345,0.067402094602584839
-0.004993866197764874,0.067518696188926697,0.117976248264312744,-0.071452766656875610,-0.029186591506004333,0.021433033049106598,-0.045300818979740143,0.103992350399494171,0.043954811990261078,-0.098003245890140533,-0.073724962770938873,-0.007802168373018503,0.080005459487438202,0.058262366801500320,0.056139044463634491,-0.184937611222267151,-0.060654509812593460,0.044102352112531662,0.030016342177987099,0.055391822010278702,-0.071801982820034027,0.050269842147827148,0.006226697470992804,-0.097830303013324738,-0.104873828589916229,0.073737278580665588,0.105315335094928741,-0.121065996587276459,0.010958073660731316,-0.072827279567718506,-0.085078597068786621,-0.042658027261495590
0.079866036772727966,-0.029236547648906708,0.021210737526416779,0.053087975829839706,0.066758506000041962,0.030265713110566139,-0.105673752725124359,0.006426182575523853,-0.023333750665187836,-0.000478076632134616,0.072570182383060455,0.108645327389240265,-0.144472420215606689,0.008568949997425079,-0.041053328663110733,0.026382980868220329,0.006705382373183966,-0.049055315554141998,0.079882606863975525,0.046793922781944275,-0.022665841504931450,0.056889746338129044,0.090497918426990509,0.048931192606687546,0.049977585673332214,0.018008820712566376,0.003109237877652049,-0.134855896234512329,-0.046862430870532990,0.088980779051780701,0.105762951076030731,-0.132333531975746155
