-0.007634295150637627,0.048020496964454651,0.075842015445232391,-0.028474751859903336,0.033884648233652115,0.026188826188445091,0.005430104210972786,0.083681762218475342,-0.060169644653797150,-0.061656162142753601,0.068320445716381073,0.111043684184551239,-0.013597055338323116,0.005828333552926779,-0.032238688319921494,-0.069400101900100708,-0.105250567197799683,-0.071817509829998016,0.058454811573028564,0.048221196979284286,-0.035280019044876099,-0.037807933986186981,-0.068554453551769257,-0.016557272523641586,-0.055010136216878891,-0.005238890182226896,-0.075727492570877075,0.093750312924385071,-0.024442503228783607,0.112884894013404846,0.187894329428672791,-0.073446750640869141,0.143914118409156799,0.006353181786835194,0.051456570625305176,-0.050316233187913895,-0.012361957691609859,-0.005352834239602089,-0.002570603508502245,-0.141038596630096436,0.063251972198486328,0.046049185097217560,-0.047719195485115051,-0.054602928459644318,-0.018101043999195099,-0.049075670540332794,0.033481866121292114,-0.134458288550376892,0.035261910408735275,-0.041400246322154999,-0.031778808683156967,-0.018012868240475655,0.027949333190917969,0.021121403202414513,-0.024212488904595375,-0.010846517980098724,0.059340897947549820,0.057118251919746399,0.143855288624763489,-0.004762123338878155,0.029597012326121330,-0.049603939056396484,-0.005616080481559038,-0.068517602980136871
-0.000832375837489963,0.044324807822704315,0.013622512109577656,-0.042702220380306244,0.098651833832263947,-0.090961381793022156,0.059787996113300323,-0.060867283493280411,0.093829564750194550,-0.031062753871083260,0.010630476288497448,0.055849406868219376,0.056033339351415634,-0.016475761309266090,0.092080950736999512,-0.119882315397262573,0.091964401304721832,0.149400860071182251,0.074098803102970123,0.057558782398700714,0.035985790193080902,0.129191115498542786,0.113004453480243683,-0.094251893460750580,-0.033064257353544235,0.044871736317873001,0.076462067663669586,-0.071570865809917450,-0.003383444622159004,0.099382244050502777,-0.125445619225502014,-0.039215628057718277,0.012818427756428719,-0.103043265640735626,-0.040749020874500275,-0.000795179163105786,-0.086894877254962921,-0.022043056786060333,-0.146574214100837708,-0.038523763418197632,-0.061254922300577164,-0.065280593931674957,0.024029742926359177,-0.043635021895170212,0.014549387618899345,0.101142585277557373,-0.026263754814863205,-0.099351912736892700,-0.183673769235610962,0.103018209338188171,-0.001864784746430814,0.085506759583950043,0.014195086434483528,0.086561314761638641,-0.001293103327043355,0.071338087320327759,-0.093989066779613495,0.045135270804166794,0.121668212115764618,0.068969346582889557,-0.064787760376930237,0.029154347255825996,0.042452458292245865,0.051442995667457581
0.133262321352958679,-0.043667268007993698,0.072142310440540314,-0.060674823820590973,-0.009859225712716579,0.019342685118317604,-0.083331942558288574,0.127951055765151978,-0.047054696828126907,-0.100018896162509918,0.052354842424392700,-0.123110301792621613,0.111770384013652802,0.102223426103591919,0.027709387242794037,0.049727886915206909,-0.007566207554191351,-0.083779178559780121,0.018952876329421997,-0.029617290943861008,0.053953386843204498,-0.002482458716258407,-0.113475076854228973,0.049267966300249100,0.056137569248676300,0.004928185138851404,0.011818612925708294,0.111537300050258636,0.041686329990625381,-0.008676412515342236,0.051909286528825760,-0.032052297145128250,0.105089180171489716,-0.111137054860591888,0.096144236624240875,0.029944449663162231,0.043789424002170563,-0.009971721097826958,-0.100019715726375580,-0.011622265912592411,0.114448741078376770,-0.009810623712837696,0.049470856785774231,0.073241904377937317,-0.029037110507488251,-0.032855216413736343,0.069473095238208771,-0.028769304975867271,0.050195965915918350,0.039528645575046539,-0.075965665280818939,0.032808277755975723,-0.002530903089791536,0.103250779211521149,0.101590499281883240,0.006075552664697170,-0.056798141449689865,0.039552006870508194,-0.019737599417567253,-0.063297539949417114,-0.085512243211269379,-0.000171436447999440,0.017601525411009789,-0.081839963793754578
0.111391074955463409,0.006579442415386438,0.001042226795107126,0.080846294760704041,0.062340039759874344,0.051301442086696625,0.019982336089015007,-0.297540485858917236,0.134609684348106384,0.036283165216445923,-0.009887683205306530,-0.042679626494646072,-0.101522855460643768,-0.092494234442710876,-0.091860920190811157,-0.052113801240921021,0.130479469895362854,-0.097140870988368988,-0.013192381709814072,0.005192711949348450,0.003824552753940225,-0.026268409565091133,0.117251016199588776,0.021291749551892281,0.032500609755516052,0.182608470320701599,0.019608071073889732,-0.123660542070865631,-0.055571511387825012,-0.041717477142810822,0.026523033156991005,-0.061287157237529755,-0.135820135474205017,-0.112180620431900024,0.002493214560672641,-0.014706587418913841,0.023291513323783875,0.168189838528633118,0.053305480629205704,-0.055455859750509262,-0.142896577715873718,0.027403630316257477,0.029339214786887169,0.088561639189720154,-0.084057107567787170,-0.026786793023347855,0.014912483282387257,0.096378169953823090,-0.142076209187507629,-0.024737630039453506,0.162623643875122070,0.015898801386356354,-0.172550439834594727,-0.119131490588188171,-0.205985382199287415,-0.085222557187080383,0.095058001577854156,0.005860080476850271,0.077547743916511536,0.032997049391269684,0.009879873134195805,-0.055843316018581390,0.013878210447728634,0.208876296877861023
0.104733690619468689,0.109929949045181274,0.072283469140529633,-0.088914699852466583,0.072152629494667053,0.027631483972072601,-0.020585894584655762,0.050124995410442352,-0.137825921177864075,-0.022503482177853584,-0.052564136683940887,0.120501905679702759,-0.050629731267690659,0.024063454940915108,0.014044493436813354,-0.009381286799907684,-0.022105420008301735,0.003854102455079556,-0.042565733194351196,-0.023864025250077248,0.031180575489997864,-0.078803248703479767,0.026099141687154770,-0.080683134496212006,-0.024098375812172890,0.025305617600679398,0.007611866574734449,0.033761445432901382,-0.022349357604980469,-0.093150839209556580,0.006940723396837711,-0.025261510163545609,-0.006755352485924959,0.087338805198669434,0.040869373828172684,-0.047988235950469971,0.005174498073756695,0.159585133194923401,0.065589815378189087,-0.055084042251110077,-0.022941175848245621,0.098917901515960693,0.055754031985998154,0.099756196141242981,-0.001730174175463617,0.054391942918300629,0.024826880544424057,-0.003695328952744603,0.161023437976837158,0.109686791896820068,0.057974085211753845,-0.000333633099216968,-0.073939047753810883,0.002038068603724241,0.102068372070789337,0.049865275621414185,-0.022349238395690918,0.057343509048223495,0.040594514459371567,0.070743925869464874,-0.086855649948120117,0.114934638142585754,0.035719409584999084,-0.034181680530309677
-0.067120775580406189,0.094860196113586426,-0.049100503325462341,0.127430781722068787,-0.014586053788661957,0.073560915887355804,0.094919368624687195,0.049558799713850021,-0.001016356749460101,0.057069487869739532,0.090947121381759644,-0.009757380932569504,0.007048873230814934,0.106880448758602142,0.034029643982648849,-0.059931557625532150,-0.091213241219520569,-0.014985630288720131,-0.000052608316764235,0.019930016249418259,0.015979353338479996,0.090460263192653656,-0.022750228643417358,0.108686529099941254,-0.009030046872794628,0.045119553804397583,-0.103335604071617126,0.119943052530288696,0.024058813229203224,0.079004034399986267,-0.056805245578289032,-0.024807114154100418,0.113898880779743195,0.033462293446063995,-0.060850750654935837,-0.061581484973430634,0.045831639319658279,0.044848646968603134,0.090460285544395447,0.013556906953454018,0.036221239715814590,0.052435588091611862,0.041418161243200302,-0.082306645810604095,-0.110075220465660095,-0.081974662840366364,0.041530884802341461,0.037084478884935379,-0.095773555338382721,-0.024349413812160492,0.016535231843590736,-0.014738918282091618,-0.071360617876052856,-0.034043651074171066,-0.081733524799346924,0.143174767494201660,-0.001351176993921399,0.087374135851860046,-0.048848390579223633,0.218459725379943848,-0.037600129842758179,-0.098537601530551910,0.163549348711967468,0.088128328323364258
0.014956766739487648,0.050355419516563416,-0.003677791683003306,-0.093494325876235962,0.071429342031478882,0.081685900688171387,0.084910213947296143,0.019835578277707100,0.146858483552932739,-0.113417908549308777,0.139747902750968933,-0.072966709733009338,0.056070480495691299,0.130137458443641663,0.047779165208339691,0.036321308463811874,0.121175661683082581,0.011654493398964405,0.056615289300680161,-0.023416345939040184,-0.042159900069236755,0.073857501149177551,0.053162913769483566,-0.034811433404684067,0.016602201387286186,0.139643430709838867,0.000411787128541619,0.005787263158708811,0.009124647825956345,0.103548355400562286,-0.169108584523200989,-0.012476056814193726,-0.018437879160046577,-0.179135248064994812,0.093074902892112732,-0.028076922520995140,-0.144847020506858826,0.013904363848268986,-0.038065936416387558,-0.039601698517799377,0.045690879225730896,-0.070958591997623444,-0.134985655546188354,0.000444556761067361,-0.047894950956106186,-0.022419523447751999,0.055551648139953613,0.042380291968584061,-0.135026171803474426,0.042934339493513107,-0.067921228706836700,-0.042949479073286057,0.017927041277289391,0.079470962285995483,0.041210703551769257,0.023699840530753136,0.052685927599668503,0.206527411937713623,0.009478917345404625,0.026092095300555229,-0.028143687173724174,0.021910211071372032,0.037198845297098160,0.035777270793914795
0.098442465066909790,-0.044496782124042511,-0.059586573392152786,-0.083696320652961731,0.050666838884353638,0.072457022964954376,0.127961173653602600,0.025489078834652901,0.079921692609786987,0.004139998462051153,-0.030472349375486374,-0.002158494200557470,0.013005651533603668,-0.054608568549156189,0.085086718201637268,0.048878885805606842,-0.057371970266103745,0.090060956776142120,0.078946031630039215,0.042536664754152298,-0.060721427202224731,0.015044162981212139,-0.050718892365694046,0.153226763010025024,0.047534957528114319,0.065804235637187958,0.021321732550859451,0.035743124783039093,-0.032692778855562210,0.032262664288282394,-0.039663452655076981,0.023435160517692566,0.120545215904712677,0.003684210591018200,0.023635599762201309,-0.026314090937376022,0.068582214415073395,-0.053648207336664200,-0.096987932920455933,0.050920609384775162,0.061235137283802032,-0.084313213825225830,-0.040992390364408493,0.081229366362094879,0.089472405612468719,0.164148077368736267,-0.037829734385013580,-0.060004837810993195,0.022577410563826561,0.043495219200849533,0.040782708674669266,-0.136860728263854980,0.041012149304151535,0.051522262394428253,-0.028394820168614388,0.060840342193841934,0.046163603663444519,0.089494206011295319,-0.006672230549156666,0.081330649554729462,-0.015898184850811958,-0.046563707292079926,0.050811782479286194,-0.021673781797289848
0.100342072546482086,0.031827643513679504,0.128452301025390625,0.048472728580236435,0.042236842215061188,0.019342014566063881,-0.026342803612351418,0.117216534912586212,0.002801454160362482,-0.013407280668616295,-0.022794293239712715,-0.025213412940502167,0.095180124044418335,0.001191961695440114,-0.074528612196445465,0.070687420666217804,0.013587437570095062,-0.086792498826980591,0.027599964290857315,0.096013993024826050,-0.122764833271503448,0.045968171209096909,0.024332348257303238,0.066710524260997772,0.003809940302744508,-0.086649455130100250,0.082035981118679047,0.062858477234840393,-0.036632526665925980,-0.070720113813877106,-0.041815485805273056,0.096704952418804169,0.153531864285469055,-0.006276763975620270,0.073414877057075500,-0.060310814529657364,0.013267107307910919,0.017889482900500298,0.073355935513973236,0.024749303236603737,0.061477810144424438,-0.050870139151811600,0.053683485835790634,0.001883802819065750,0.069616816937923431,0.151952713727951050,0.025664979591965675,-0.034165635704994202,0.167908698320388794,0.017965672537684441,0.026469258591532707,-0.028307143598794937,0.001598340575583279,-0.012019705958664417,-0.025126982480287552,-0.026086641475558281,-0.019270131364464760,-0.130518987774848938,0.091078311204910278,-0.076649352908134460,-0.018738381564617157,-0.066198602318763733,-0.026441864669322968,0.067962661385536194
0.008561355061829090,-0.039628848433494568,0.020141875371336937,0.067783698439598083,-0.083635270595550537,0.134690433740615845,-0.099620841443538666,-0.037244908511638641,-0.116957321763038635,-0.059251733124256134,-0.028212882578372955,0.028915576636791229,0.017537163570523262,0.101619400084018707,-0.084398746490478516,0.067889839410781860,0.143684685230255127,-0.096228651702404022,-0.042002286761999130,-0.052253611385822296,0.014538164250552654,-0.031781181693077087,-0.116920396685600281,-0.096326090395450592,-0.016003433614969254,0.037362668663263321,0.051978711038827896,-0.003996002487838268,-0.099251508712768555,-0.036633294075727463,-0.090827368199825287,0.094404853880405426,-0.054242946207523346,-0.102678962051868439,-0.130949363112449646,-0.030261846259236336,0.009975000284612179,-0.041064392775297165,0.006328371353447437,0.113787226378917694,0.008711310103535652,-0.017944892868399620,-0.015929834917187691,0.021432086825370789,0.036168541759252548,0.005730825476348400,0.071917764842510223,-0.029006609693169594,0.101824447512626648,0.106495879590511322,0.047958903014659882,-0.036927100270986557,-0.007500520907342434,0.017818428575992584,0.019856370985507965,-0.091339670121669769,-0.079079516232013702,-0.016547493636608124,0.048437979072332382,-0.094722300767898560,0.057667069137096405,0.138021945953369141,-0.025780461728572845,0.032743439078330994
0.080870799720287323,0.050637606531381607,-0.097363129258155823,0.010216777212917805,-0.034462835639715195,0.045624621212482452,-0.038619127124547958,-0.020254600793123245,0.020764689892530441,-0.049602232873439789,-0.064811334013938904,0.102254763245582581,-0.017592491582036018,0.005074234679341316,0.078926384449005127,0.000812627898994833,0.061391234397888184,-0.029495710507035255,-0.135109603404998779,-0.030550900846719742,-0.003847357118502259,-0.037333108484745026,0.036904759705066681,0.039587754756212234,0.048588518053293228,0.100090168416500092,-0.063420727849006653,-0.064544491469860077,0.049867499619722366,0.000982424826361239,0.010712844319641590,0.073719546198844910,0.103852674365043640,0.015735641121864319,-0.101770937442779541,-0.047136805951595306,-0.048549309372901917,-0.009555725380778313,0.071060501039028168,0.007408826146274805,0.039131388068199158,-0.055373586714267731,-0.003349714679643512,-0.000918451347388327,0.011890589259564877,0.093178577721118927,0.079920031130313873,-0.015308031812310219,0.034745741635560989,0.126427620649337769,-0.014697800390422344,0.073454484343528748,0.033724367618560791,-0.045167982578277588,0.056765433400869370,-0.152818828821182251,-0.059169936925172806,0.079126730561256409,-0.035878583788871765,-0.051369611173868179,0.007255263160914183,0.009207776747643948,-0.044040553271770477,-0.031572245061397552
-0.083815455436706543,-0.087534919381141663,0.071823790669441223,0.031576082110404968,-0.024724407121539116,0.069166138768196106,0.067401833832263947,-0.133586823940277100,0.053813364356756210,0.017744483426213264,0.031617224216461182,-0.003327096812427044,-0.073196060955524445,-0.102947473526000977,-0.039602592587471008,0.074529007077217102,0.030314747244119644,-0.031476665288209915,0.073069214820861816,-0.031400702893733978,-0.020094702020287514,-0.015377649106085300,-0.157179623842239380,-0.089995630085468292,0.059086713939905167,0.034306667745113373,0.061684500426054001,0.061685714870691299,-0.010381510481238365,0.050119340419769287,0.016417125239968300,-0.086575709283351898,0.035889200866222382,-0.163894444704055786,-0.013697553426027298,0.081449940800666809,-0.090494982898235321,0.087647020816802979,0.096041955053806305,0.006155929993838072,-0.061902232468128204,-0.076774463057518005,-0.065019011497497559,0.015887370333075523,0.069555953145027161,-0.040146026760339737,-0.021463636308908463,0.070111699402332306,-0.017198488116264343,0.039496526122093201,-0.081940621137619019,0.027360500767827034,-0.058853786438703537,-0.030647220090031624,0.041660923510789871,-0.025051297619938850,-0.007006519008427858,0.015213796868920326,-0.113614901900291443,0.014520772732794285,0.023492114618420601,0.010547074489295483,0.009572426788508892,0.148767054080963135
0.067024864256381989,-0.027385978028178215,-0.058004409074783325,0.096548184752464294,-0.022803526371717453,-0.002681931015104055,0.091915488243103027,-0.006201025564223528,-0.130574181675910950,0.030465919524431229,0.001608222839422524,0.049004636704921722,-0.065401829779148102,0.079394429922103882,0.047447506338357925,-0.038042843341827393,0.063016608357429504,-0.049326196312904358,-0.050228569656610489,0.015534632839262486,0.065516404807567596,-0.044958934187889099,-0.026923952624201775,0.029292695224285126,0.021567884832620621,0.029816543683409691,0.063487567007541656,0.083438649773597717,-0.026713555678725243,0.088003933429718018,-0.022014195099473000,0.028511820361018181,0.084632240235805511,0.024462804198265076,0.067186273634433746,0.098939545452594757,-0.014999582432210445,0.155835330486297607,-0.155890673398971558,0.044580794870853424,0.059019763022661209,0.086343333125114441,0.077397689223289490,0.144323214888572693,0.113231234252452850,0.115446992218494415,0.047874476760625839,-0.065656915307044983,0.063390120863914490,0.006920928135514259,-0.041384186595678329,-0.061552815139293671,-0.027790436521172523,-0.012814007699489594,0.089398041367530823,-0.052079029381275177,-0.206373512744903564,-0.052493173629045486,0.058510828763246536,0.047928038984537125,0.002071432303637266,-0.026464246213436127,-0.036240279674530029,-0.107035383582115173
-0.012763596139848232,-0.031895954161882401,0.025811385363340378,0.031657874584197998,-0.034909628331661224,0.012375454418361187,0.069522865116596222,-0.128804713487625122,-0.010386223904788494,0.094464078545570374,-0.008586546406149864,0.000035557037335820,-0.068576000630855560,0.035747934132814407,0.001013933098874986,0.050541758537292480,0.009815275669097900,-0.036368396133184433,0.086518652737140656,0.015416336245834827,-0.103566579520702362,0.036889117211103439,-0.029167117550969124,0.079736813902854919,0.022389041259884834,0.035493213683366776,0.097234666347503662,0.086669266223907471,-0.013298301026225090,0.070416681468486786,-0.056979302316904068,-0.085937522351741791,0.055988382548093796,0.062077738344669342,0.096170186996459961,-0.002879013540223241,0.053463153541088104,-0.008817145600914955,-0.058307334780693054,-0.058751039206981659,0.078491933643817902,-0.080023929476737976,-0.048237539827823639,-0.018125684931874275,-0.031807821244001389,0.085873864591121674,-0.049359671771526337,0.072232484817504883,0.054414723068475723,0.062703460454940796,0.029842454940080643,-0.058627951890230179,-0.088094547390937805,0.052230749279260635,-0.109963744878768921,0.081635817885398865,0.085109956562519073,-0.057683572173118591,-0.036493737250566483,0.025559669360518456,-0.008522495627403259,-0.113794952630996704,0.052841238677501678,-0.051920302212238312
0.053886786103248596,0.020932467654347420,0.055178899317979813,0.004983183927834034,0.013830062933266163,-0.254884153604507446,-0.029315933585166931,0.065759137272834778,-0.113674558699131012,-0.041681881994009018,0.009230305440723896,0.052422832697629929,0.154092222452163696,0.156076103448867798,0.069739371538162231,-0.200949415564537048,-0.042215462774038315,0.012914543971419334,-0.009061039425432682,-0.082355886697769165,0.068533152341842651,-0.048977963626384735,0.057198759168386459,-0.111250914633274078,0.042151845991611481,0.091877207159996033,-0.047445300966501236,0.078185223042964935,0.103180393576622009,-0.011484218761324883,-0.033136188983917236,-0.027587497606873512,-0.036166992038488388,-0.061239819973707199,-0.014881284907460213,0.007256157696247101,-0.024274546653032303,0.015186865814030170,-0.126329481601715088,0.013573947362601757,-0.033394489437341690,0.089792810380458832,0.126434639096260071,0.051153566688299179,0.005655195564031601,0.118782542645931244,0.067211866378784180,-0.069375656545162201,0.042771816253662109,0.068306982517242432,-0.040872994810342789,0.077472053468227386,0.065439902245998383,0.087569251656532288,0.167251288890838623,-0.045504644513130188,-0.154366642236709595,0.054433777928352356,0.134923100471496582,-0.019792357459664345,0.055554620921611786,0.099904373288154602,0.042637553066015244,-0.082666605710983276
-0.039326280355453491,-0.105025999248027802,-0.048737920820713043,-0.043854918330907822,0.044920392334461212,-0.165029242634773254,0.048417698591947556,0.194752410054206848,-0.127886548638343811,-0.079458177089691162,0.109654784202575684,-0.004126806277781725,0.107529014348983765,0.100678056478500366,0.071106880903244019,-0.109791755676269531,0.025682335719466209,-0.014258755370974541,-0.040234163403511047,-0.003567923093214631,0.044744327664375305,0.048373568803071976,0.076673150062561035,-0.062472045421600342,0.017834795638918877,-0.071440719068050385,0.069013133645057678,0.046017888933420181,0.121173202991485596,-0.033696532249450684,0.039466001093387604,0.047365419566631317,0.014618235640227795,-0.068324580788612366,0.060705576092004776,0.005821163766086102,-0.022440029308199883,-0.082485280930995941,0.001018344657495618,0.023196095600724220,-0.051083222031593323,-0.077917754650115967,0.013624852523207664,0.075445838272571564,0.062489841133356094,0.080310754477977753,0.010106207802891731,-0.121381953358650208,-0.014573773369193077,-0.060238946229219437,0.049091659486293793,0.010980619117617607,0.087354645133018494,0.049683030694723129,-0.032805945724248886,0.078014492988586426,-0.019104097038507462,0.057789262384176254,0.068053230643272400,-0.064146727323532104,0.005433159414678812,-0.012645765207707882,0.014432399533689022,-0.002731517190113664
0.025367379188537598,-0.039533257484436035,0.101164922118186951,-0.109153978526592255,-0.030979666858911514,-0.056003384292125702,0.172161757946014404,0.074166066944599152,0.052860569208860397,-0.137675389647483826,0.018310979008674622,-0.073395378887653351,0.082249730825424194,-0.022511253133416176,0.044082079082727432,-0.185291945934295654,-0.064125992357730865,0.068546600639820099,-0.050454165786504745,0.027847260236740112,0.076899141073226929,0.075341649353504181,0.173544034361839294,-0.065747246146202087,0.035048425197601318,-0.030201056972146034,0.036142181605100632,0.141478538513183594,0.005530004855245352,-0.034781724214553833,-0.024847932159900665,0.014459135010838509,-0.003536547301337123,0.016011334955692291,0.026981530711054802,0.026156358420848846,-0.041495870798826218,-0.027686923742294312,-0.013287506066262722,-0.078856490552425385,-0.147787556052207947,0.050171159207820892,0.023951305076479912,-0.097093023359775543,0.110290549695491791,0.055782672017812729,0.044486675411462784,-0.040329035371541977,-0.219811052083969116,0.115673102438449860,-0.052731435745954514,0.056620836257934570,0.011247673071920872,0.025400215759873390,-0.051783125847578049,-0.059702705591917038,-0.000068849825765938,-0.040638919919729233,0.072257995605468750,0.067799843847751617,0.045998107641935349,-0.041255261749029160,-0.038314662873744965,-0.075582116842269897
0.068157844245433807,0.000368491833796725,0.016726123169064522,-0.074215412139892578,0.017849696800112724,0.163270220160484314,-0.006569997407495975,-0.043803200125694275,-0.028872853145003319,0.029683180153369904,-0.073047429323196411,-0.041211996227502823,0.011573147960007191,-0.009631531313061714,-0.026057818904519081,-0.037200238555669785,0.103305242955684662,-0.003408826421946287,-0.019255187362432480,-0.143925920128822327,-0.008539165370166302,0.004707354586571455,-0.096128650009632111,0.079736351966857910,0.065636917948722839,-0.071738302707672119,-0.045484412461519241,0.097174577414989471,0.062617689371109009,0.098027728497982025,-0.060990814119577408,-0.031009403988718987,0.103844404220581055,0.004884003195911646,-0.019876420497894287,0.032038319855928421,0.030919693410396576,0.136877402663230896,0.008865037932991982,0.070197083055973053,0.135404422879219055,0.040238864719867706,0.012962359935045242,0.079392358660697937,0.019128542393445969,0.086614027619361877,-0.047043301165103912,0.020945850759744644,0.066914603114128113,-0.000272942474111915,0.022989157587289810,-0.089302040636539459,-0.003421769011765718,-0.043237991631031036,-0.120443560183048248,-0.066662900149822235,-0.076741904020309448,0.055301260203123093,0.055185280740261078,-0.033581301569938660,-0.057547386735677719,-0.068130888044834137,0.136875301599502563,0.092760257422924042
0.124571740627288818,-0.150703206658363342,0.004625217523425817,0.098747216165065765,-0.024207215756177902,-0.101352594792842865,0.325472235679626465,-0.046032238751649857,-0.054274834692478180,0.035378318279981613,-0.029714932665228844,0.100955225527286530,-0.020427335053682327,0.031047126278281212,0.005775580648332834,-0.029930360615253448,-0.013019790872931480,-0.002008595503866673,-0.200733408331871033,0.074158959090709686,0.049941916018724442,-0.065847046673297882,0.039888542145490646,-0.079133845865726471,-0.012830026447772980,0.197178795933723450,0.059558093547821045,0.268382996320724487,-0.197828337550163269,0.018877385184168816,0.061738088726997375,0.109698303043842316,0.095825478434562683,-0.100307233631610870,-0.152707397937774658,0.047638617455959320,0.072392724454402924,-0.044552009552717209,-0.134054645895957947,-0.007480991072952747,0.087668262422084808,-0.299487799406051636,0.022931026294827461,-0.010369668714702129,-0.097910173237323761,-0.039230957627296448,-0.003334777429699898,0.101149477064609528,0.074221141636371613,0.126769512891769409,0.131072863936424255,-0.093686260282993317,0.117429248988628387,-0.033666294068098068,0.054089583456516266,-0.080028370022773743,-0.172356262803077698,0.028662778437137604,-0.147966340184211731,-0.037949532270431519,-0.012530667707324028,-0.091985560953617096,-0.061869610100984573,0.015261602587997913
-0.110245481133460999,-0.002233054256066680,0.038112092763185501,0.041129548102617264,0.011504920199513435,-0.016756894066929817,0.034151777625083923,0.108838953077793121,-0.029879217967391014,-0.097553923726081848,0.151205867528915405,-0.135833859443664551,0.044364243745803833,0.063598945736885071,-0.019357897341251373,-0.023876639083027840,0.070543885231018066,0.065941631793975830,-0.056450698524713516,-0.034595333039760590,-0.004766879137605429,0.036892708390951157,-0.011486089788377285,0.010078286752104759,0.033766888082027435,0.040588758885860443,0.072209671139717102,0.009795788675546646,-0.040433682501316071,0.095535807311534882,0.049970757216215134,-0.095527961850166321,-0.043351579457521439,-0.117500402033329010,-0.042851973325014114,0.054895173758268356,-0.067626804113388062,0.022819899022579193,0.119361855089664459,-0.087389260530471802,-0.023866588249802589,-0.020545348525047302,-0.039395913481712341,-0.023337276652455330,-0.078887544572353363,0.074203841388225555,0.033490534871816635,-0.013391431421041489,-0.178485527634620667,0.040390372276306152,-0.071020334959030151,-0.054972451180219650,0.113505624234676361,0.042732860893011093,-0.162134513258934021,0.080951511859893799,-0.079125463962554932,0.042229428887367249,0.115754865109920502,0.074539110064506531,-0.034908741712570190,-0.034144941717386246,0.029678583145141602,-0.031127002090215683
-0.059586681425571442,-0.025769051164388657,0.060979396104812622,0.075824782252311707,0.062859952449798584,0.058171130716800690,0.002197986934334040,0.106794185936450958,0.085826471447944641,0.007430461235344410,0.049114320427179337,-0.069110050797462463,0.003730583470314741,0.026558753103017807,0.013874423690140247,-0.058233518153429031,-0.034735608845949173,-0.082121461629867554,-0.039434652775526047,0.026887217536568642,-0.091581970453262329,0.112308360636234283,-0.138451188802719116,0.005023389589041471,0.116897255182266235,0.067611895501613617,0.004542605485767126,0.085265114903450012,-0.045063588768243790,-0.056248478591442108,0.050125740468502045,-0.041194830089807510,-0.017271690070629120,-0.044521789997816086,-0.002602739725261927,-0.069783747196197510,-0.049391813576221466,0.048659000545740128,-0.013198316097259521,-0.065753422677516937,-0.085767723619937897,0.018388707190752029,-0.003023618366569281,0.032803047448396683,-0.038955237716436386,0.068277895450592041,0.049231644719839096,-0.001922291819937527,-0.044357016682624817,-0.013934089802205563,0.092702247202396393,-0.054031457751989365,0.032751660794019699,0.055470168590545654,-0.119064405560493469,0.027648033574223518,-0.002924138214439154,-0.038526583462953568,-0.113805562257766724,0.090225249528884888,0.064753293991088867,-0.008330851793289185,-0.023501439020037651,0.091648712754249573
0.046562239527702332,-0.027641391381621361,-0.011461110785603523,-0.000034286247682758,0.102143958210945129,0.100627899169921875,0.100407570600509644,0.004173327237367630,-0.027538813650608063,-0.027144202962517738,-0.104067832231521606,0.038283452391624451,0.118656739592552185,0.023790916427969933,-0.034992072731256485,0.063213028013706207,-0.030537884682416916,0.037151377648115158,0.035521090030670166,-0.121635884046554565,-0.037748377770185471,0.084855079650878906,-0.164042770862579346,0.010623437352478504,0.103918790817260742,0.007336803246289492,0.132092505693435669,0.119383133947849274,-0.098004758358001709,0.012432885356247425,-0.027403596788644791,-0.027624718844890594,-0.069009803235530853,-0.123106122016906738,-0.098046675324440002,0.119394123554229736,0.020411930978298187,-0.028635429218411446,0.032905075699090958,0.036668781191110611,-0.013408925384283066,-0.124564699828624725,-0.012054194696247578,0.034914586693048477,0.010579300113022327,0.080858692526817322,0.018211694434285164,0.096115395426750183,0.015053686685860157,0.081069931387901306,0.038135953247547150,-0.044567476958036423,0.003831394249573350,0.019193978980183601,-0.048791576176881790,-0.014170653186738491,0.035643752664327621,0.051840748637914658,-0.102642960846424103,0.030819786712527275,-0.023585146293044090,-0.069972157478332520,0.056985095143318176,0.075851902365684509
-0.091192953288555145,-0.064215682446956635,-0.002238958841189742,0.064122125506401062,-0.008959620259702206,-0.003877383423969150,-0.064940370619297028,0.142350941896438599,-0.166604131460189819,-0.159195989370346069,-0.109128773212432861,-0.071209862828254700,-0.046262849122285843,-0.012743071652948856,0.108665987849235535,-0.035846225917339325,0.068092495203018188,0.042804945260286331,-0.029951281845569611,-0.130194723606109619,-0.005884968675673008,0.177336364984512329,-0.075969964265823364,-0.027707073837518692,-0.022105948999524117,-0.067372128367424011,0.050857156515121460,0.065376944839954376,-0.074980244040489197,0.101130381226539612,-0.029028091579675674,-0.151510298252105713,0.056298010051250458,0.051571801304817200,-0.084940336644649506,-0.029503397643566132,-0.140569359064102173,-0.148091614246368408,-0.008907648734748363,-0.045229341834783554,0.078150421380996704,0.001978194341063499,-0.047770977020263672,0.077480234205722809,-0.040116373449563980,-0.013264829292893410,0.074611723423004150,-0.047795012593269348,-0.080260872840881348,-0.034775853157043457,-0.059606518596410751,0.095948249101638794,0.028687620535492897,-0.023288397118449211,-0.034752972424030304,0.071085490286350250,0.035418808460235596,0.126012459397315979,0.117969647049903870,0.015989504754543304,0.013221982866525650,-0.095308639109134674,0.031850554049015045,-0.050643917173147202
-0.019218739122152328,-0.164642438292503357,0.055484734475612640,0.030734570696949959,-0.000796738779172301,-0.135634914040565491,0.028860462829470634,0.012205900624394417,-0.096924185752868652,0.019800368696451187,0.037210725247859955,-0.039355888962745667,-0.036881946027278900,0.061108209192752838,0.014077025465667248,0.070534452795982361,0.119622439146041870,-0.046254277229309082,0.035137828439474106,0.000422903161961585,0.126724109053611755,0.030060855671763420,-0.130747765302658081,0.000743454496841878,0.153891816735267639,0.026980882510542870,0.014697265811264515,0.045850921422243118,0.057559762150049210,0.084941275417804718,-0.050613503903150558,-0.002203794661909342,0.024367343634366989,-0.063330933451652527,-0.063923776149749756,-0.043579988181591034,0.051698300987482071,-0.042920172214508057,-0.173160657286643982,0.049954164773225784,0.130243614315986633,-0.199661567807197571,0.118979558348655701,-0.012376315891742706,-0.003060278482735157,0.065186433494091034,0.022135490551590919,0.027079785242676735,0.122280351817607880,0.114235103130340576,0.079357668757438660,0.015507595613598824,0.081620059907436371,0.083096012473106384,0.145997494459152222,-0.066572822630405426,-0.008376393467187881,0.028235763311386108,-0.099521026015281677,-0.044865675270557404,0.037969101220369339,-0.017218012362718582,-0.084312446415424347,0.081321455538272858
-0.000928493216633797,0.102756701409816742,0.012543060816824436,0.002654166426509619,-0.123599156737327576,-0.037754055112600327,-0.032534468919038773,0.116123124957084656,0.058157216757535934,-0.096006400883197784,-0.009729772806167603,-0.066523492336273193,0.058578435331583023,0.082773551344871521,0.073888823390007019,-0.203988209366798401,-0.007636434398591518,-0.027698511257767677,-0.006342336535453796,0.060639899224042892,0.081784509122371674,0.007832699455320835,0.150957822799682617,-0.216832086443901062,0.030306901782751083,0.045671708881855011,-0.061935581266880035,-0.004884384572505951,-0.023786855861544609,-0.033348646014928818,-0.001030031125992537,-0.020379202440381050,0.051356174051761627,0.079496860504150391,-0.011131620965898037,-0.094451114535331726,0.082811608910560608,0.066806659102439880,0.063622832298278809,-0.015009704977273941,-0.156310021877288818,0.091223903000354767,0.025124104693531990,0.063029378652572632,0.106880024075508118,0.108583442866802216,0.004059270955622196,-0.038014579564332962,-0.092204742133617401,0.180925682187080383,-0.105927467346191406,0.108776934444904327,-0.005243728403002024,0.140248939394950867,-0.039363376796245575,-0.062000993639230728,0.010708773508667946,-0.022720580920577049,0.049802947789430618,0.058699514716863632,0.118645057082176208,0.116204388439655304,0.050186440348625183,0.073267973959445953
0.050957731902599335,-0.050010640174150467,-0.019498318433761597,0.036216627806425095,0.069955013692378998,-0.010603109374642372,0.074838019907474518,-0.019204000011086464,0.069903038442134857,-0.038478296250104904,0.126226872205734253,0.019587177783250809,0.042848695069551468,0.046962834894657135,0.164339274168014526,-0.135892897844314575,0.048545576632022858,0.100162267684936523,0.009219358675181866,0.027172824367880821,0.038751259446144104,0.024665851145982742,0.114100612699985504,-0.111555278301239014,0.028055816888809204,0.130048185586929321,0.017664767801761627,0.038295030593872070,-0.023349210619926453,0.027627183124423027,-0.047024242579936981,-0.107294268906116486,-0.006509945262223482,-0.026892855763435364,-0.004583647940307856,0.010775711387395859,0.006813331972807646,0.066198438405990601,-0.063891530036926270,0.028753412887454033,0.046880915760993958,-0.009318807162344456,-0.010737907141447067,0.056771263480186462,0.074445873498916626,0.140451967716217041,-0.047794360667467117,-0.095708765089511871,-0.122386626899242401,0.088289633393287659,-0.079395778477191925,0.026312788948416710,-0.021329324692487717,0.049876451492309570,-0.002982271835207939,-0.083673432469367981,-0.091249175369739532,0.089508228003978729,0.138430923223495483,0.016917090862989426,-0.073718674480915070,0.005775770638138056,0.008660596795380116,0.012176685966551304
-0.045488189905881882,-0.015875350683927536,0.117494605481624603,0.061228148639202118,0.002359414240345359,-0.003765843342989683,0.051196638494729996,-0.099749699234962463,0.054581448435783386,-0.026066333055496216,-0.008421312086284161,0.020537864416837692,-0.047675129026174545,0.029946673661470413,-0.072184227406978607,0.075635187327861786,0.110958799719810486,-0.139710247516632080,0.042533580213785172,-0.024245344102382660,-0.015785768628120422,-0.016975417733192444,-0.225196272134780884,-0.162386268377304077,0.030425416305661201,0.086355678737163544,0.006784886121749878,-0.072916783392429352,-0.003311331383883953,-0.117887496948242188,0.057510577142238617,0.079363651573657990,-0.097198940813541412,-0.332001000642776489,0.093259446322917938,-0.046065978705883026,0.024393292143940926,0.086641691625118256,-0.069670706987380981,-0.016718704253435135,0.017484679818153381,0.022406963631510735,0.122274160385131836,0.035222083330154419,-0.031198827549815178,-0.017724988982081413,0.115776591002941132,-0.062603987753391266,-0.023297388106584549,0.053526863455772400,0.065143182873725891,0.070293702185153961,-0.120431065559387207,-0.004575154744088650,0.009517895989120007,-0.090007297694683075,0.092611603438854218,-0.055971603840589523,-0.050266966223716736,0.060370620340108871,0.145286306738853455,0.059387534856796265,0.013335718773305416,0.158366233110427856
0.020892696455121040,0.006861174013465643,0.041719377040863037,0.048842564225196838,-0.057056400924921036,0.074670627713203430,0.041658032685518265,-0.072854027152061462,0.036892041563987732,-0.044740684330463409,0.031095670536160469,0.031325966119766235,0.012592372484505177,0.011055195704102516,-0.032662589102983475,-0.021694924682378769,0.005791593808680773,-0.020993776619434357,-0.065300069749355316,0.018808748573064804,0.006644808687269688,-0.052263144403696060,0.060736533254384995,-0.058733951300382614,-0.058597113937139511,0.074116677045822144,0.036999609321355820,0.044564966112375259,-0.155187264084815979,0.084239795804023743,0.012967362068593502,0.043240867555141449,-0.066004112362861633,-0.050485275685787201,0.008056567050516605,-0.078463636338710785,0.025126444175839424,0.054484799504280090,0.145189970731735229,-0.040783155709505081,-0.183431446552276611,0.081118598580360413,0.043470591306686401,0.048111554235219955,0.010270879603922367,0.138480991125106812,-0.051949240267276764,0.109620533883571625,-0.139635547995567322,0.153772920370101929,0.056672025471925735,0.031837105751037598,0.016103660687804222,0.030421029776334763,-0.156133860349655151,-0.094811320304870605,0.006805913057178259,0.074488073587417603,0.101544596254825592,-0.004593575373291969,0.101444236934185028,0.062876872718334198,-0.019409753382205963,0.120883241295814514
0.081356473267078400,0.073376029729843140,-0.115688487887382507,-0.073661923408508301,-0.004299579188227654,0.013616209849715233,0.106108620762825012,-0.092892564833164215,0.045641146600246429,-0.027383467182517052,-0.024184709414839745,-0.119105212390422821,0.041016325354576111,0.024871218949556351,0.028100384399294853,0.043017733842134476,0.167482703924179077,-0.071911819279193878,-0.063070468604564667,-0.009717685170471668,-0.005397945642471313,0.026845702901482582,-0.122680015861988068,-0.001361354719847441,0.182435601949691772,-0.078630194067955017,-0.050232604146003723,0.066268630325794220,-0.099933549761772156,-0.015473784878849983,-0.159494280815124512,0.000100766497780569,-0.009784650988876820,-0.059153888374567032,0.097851753234863281,-0.044536110013723373,0.062131084501743317,0.078261092305183411,-0.038724940270185471,0.006253649946302176,0.057894866913557053,-0.032593619078397751,0.035274222493171692,-0.049688730388879776,-0.041137933731079102,0.016204984858632088,-0.236404895782470703,-0.053001265972852707,-0.045569121837615967,0.107113018631935120,-0.053244672715663910,0.004660944920033216,-0.046154428273439407,-0.010084147565066814,-0.067152447998523712,-0.015306094661355019,-0.039765339344739914,0.047248948365449905,0.008857031352818012,0.035444211214780807,-0.073447369039058685,0.098453149199485779,0.122038364410400391,-0.117873080074787140
-0.108452655375003815,-0.075315624475479126,0.097709693014621735,0.048446178436279297,-0.019102478399872780,0.038581673055887222,-0.050461370497941971,-0.091395035386085510,0.017148826271295547,-0.068835303187370300,-0.006881663575768471,0.077840544283390045,0.104461126029491425,0.020171167328953743,-0.152618065476417542,-0.037554591894149780,0.117449827492237091,0.096782229840755463,0.100305572152137756,-0.010007458738982677,-0.025769136846065521,-0.051176976412534714,-0.031351529061794281,-0.173092350363731384,0.108994275331497192,0.136915847659111023,0.155580624938011169,0.145722612738609314,-0.007323427591472864,0.054600290954113007,-0.077312521636486053,0.075840108096599579,-0.071442753076553345,-0.194392278790473938,0.015046456828713417,-0.004800547380000353,-0.045150224119424820,0.030302954837679863,-0.024244247004389763,0.047816380858421326,0.039768364280462265,-0.028720404952764511,-0.002254412509500980,-0.038285989314317703,0.109647013247013092,0.065328463912010193,0.011068171821534634,-0.080551914870738983,-0.073537833988666534,0.076994769275188446,-0.044793378561735153,-0.033637803047895432,0.043189194053411484,0.048800352960824966,0.058262452483177185,-0.052998203784227371,0.069610662758350372,0.128760799765586853,-0.037979044020175934,-0.103585854172706604,0.049610391259193420,0.076245740056037903,-0.037722930312156677,0.109076827764511108
-0.072452560067176819,0.009889909997582436,-0.065479978919029236,0.150039047002792358,0.037797935307025909,0.100831337273120880,0.002542610047385097,-0.009682201780378819,0.067072317004203796,-0.049052409827709198,0.036186546087265015,0.082591585814952850,0.049815136939287186,-0.020741533488035202,-0.050230495631694794,0.002178278984501958,0.027622293680906296,0.010929198004305363,0.069523721933364868,-0.084904856979846954,-0.055316306650638580,0.100243955850601196,-0.002661856124177575,-0.047218274325132370,-0.069268465042114258,-0.018790062516927719,-0.010245981626212597,0.084016159176826477,-0.037398301064968109,0.143936008214950562,-0.023519368842244148,0.045189131051301956,0.131887406110763550,-0.011388526298105717,-0.058475118130445480,0.145797818899154663,-0.167111605405807495,0.071404241025447845,0.135356888175010681,0.033782076090574265,0.084485501050949097,-0.011694515123963356,-0.030921293422579765,-0.013096668757498264,-0.005214184988290071,-0.072158463299274445,-0.057673815637826920,0.185953751206398010,-0.164757668972015381,0.183914929628372192,0.147429764270782471,0.121783331036567688,0.065654605627059937,-0.063607446849346161,-0.152198210358619690,-0.068686731159687042,-0.089953236281871796,0.070315778255462646,0.012876288034021854,-0.061746519058942795,0.007512432988733053,0.069578759372234344,-0.006857826374471188,0.069388046860694885
-0.106468118727207184,-0.062386255711317062,0.084994405508041382,0.008542504161596298,0.031166929751634598,-0.054565366357564926,0.040642056614160538,0.058728698641061783,-0.128242567181587219,-0.048896260559558868,-0.085490509867668152,0.131904780864715576,0.069596849381923676,0.109362095594406128,0.007082518655806780,0.141269832849502563,0.012597580440342426,0.018306832760572433,-0.070624530315399170,-0.102748319506645203,0.060137707740068436,-0.018026735633611679,-0.033553775399923325,-0.058233253657817841,0.105068743228912354,0.037261657416820526,0.169846355915069580,-0.024476008489727974,0.056795775890350342,0.123387336730957031,-0.007658357731997967,0.012287528254091740,0.021217836067080498,-0.067140109837055206,0.047393314540386200,-0.040574129670858383,0.082926422357559204,0.047228224575519562,-0.100377857685089111,0.093342013657093048,0.047656733542680740,-0.179539203643798828,0.127459824085235596,0.095369972288608551,-0.003280860139057040,0.102186240255832672,0.055780369788408279,0.022922297939658165,-0.006691908463835716,0.075806669890880585,-0.054720293730497360,0.057465143501758575,0.000251228251727298,0.040705077350139618,0.105904474854469299,-0.039353769272565842,-0.106337003409862518,0.085272118449211121,0.021743237972259521,-0.001444755122065544,0.098457381129264832,0.003288627369329333,-0.084240384399890900,0.017097782343626022
-0.037653803825378418,0.054454587399959564,0.114555180072784424,0.026703588664531708,-0.052311409264802933,-0.083004929125308990,-0.028008064255118370,0.088431283831596375,-0.043037671595811844,0.042980231344699860,0.043174147605895996,-0.030654070898890495,0.018101338297128677,0.045084465295076370,0.018262971192598343,0.018980922177433968,-0.068713255226612091,0.041135482490062714,-0.057089686393737793,-0.100858643651008606,-0.090067543089389801,-0.149413079023361206,-0.044695209711790085,0.101871423423290253,-0.067796587944030762,0.110419087111949921,0.087868764996528625,-0.035009190440177917,0.070265196263790131,0.074616067111492157,0.020444858819246292,-0.049055676907300949,-0.031368419528007507,-0.017592223361134529,-0.011239632032811642,0.073071718215942383,0.027226455509662628,-0.015158414840698242,0.054767772555351257,-0.166735470294952393,-0.035587120801210403,-0.067283801734447479,-0.149304389953613281,-0.041876193135976791,-0.085029602050781250,-0.015291758812963963,0.078551150858402252,-0.034954730421304703,0.068356595933437347,0.080359227955341339,-0.034749958664178848,-0.052622497081756592,-0.079684235155582428,0.045250620692968369,-0.028434583917260170,0.107407107949256897,0.076186574995517731,-0.013978403061628342,-0.042272150516510010,-0.004197232890874147,0.039817746728658676,0.002189478836953640,0.018976904451847076,-0.025806048884987831
-0.011937323026359081,0.063894353806972504,0.026815690100193024,-0.107656151056289673,0.018539194017648697,-0.094873175024986267,0.075752004981040955,0.018254622817039490,0.041221108287572861,-0.167047202587127686,0.091571234166622162,-0.046599958091974258,0.048815771937370300,0.061004970222711563,-0.011575873009860516,-0.189329117536544800,0.058472990989685059,0.134982571005821228,0.055258572101593018,-0.032292068004608154,-0.063651956617832184,0.108489327132701874,0.046245269477367401,0.063653372228145599,-0.033402509987354279,0.062847033143043518,0.061601810157299042,0.034713596105575562,-0.001121520646847785,0.004598811734467745,-0.103406183421611786,0.034711949527263641,-0.053177781403064728,-0.076539553701877594,-0.046783540397882462,-0.022183954715728760,-0.015929775312542915,-0.035808909684419632,-0.094660386443138123,-0.101100124418735504,-0.128506377339363098,0.021049410104751587,0.022330500185489655,0.059248462319374084,0.043060250580310822,0.085899680852890015,0.004189854022115469,0.025682521983981133,-0.264441072940826416,0.096773512661457062,0.000722711440175772,0.010991165414452553,-0.073471859097480774,0.116414785385131836,-0.108319655060768127,-0.024868041276931763,0.062960736453533173,0.087407894432544708,0.053117763251066208,0.038658600300550461,0.012477683834731579,-0.034961871802806854,-0.165814638137817383,-0.010880906134843826
0.052204340696334839,-0.004174282774329185,0.016691716387867928,0.033507049083709717,-0.147659286856651306,-0.094112552702426910,-0.038782387971878052,0.000543434522114694,-0.080394871532917023,-0.049614526331424713,0.040121395140886307,-0.114749319851398468,-0.035090826451778412,0.098934747278690338,-0.002758727408945560,0.087956316769123077,0.009640441276133060,-0.023046938702464104,0.092997357249259949,-0.117304906249046326,0.102522477507591248,-0.056014634668827057,-0.086323983967304230,-0.007573234848678112,0.009141453541815281,-0.043287020176649094,-0.031675588339567184,0.003320593852549791,-0.048522185534238815,0.084456548094749451,0.063376948237419128,0.057710550725460052,0.048742167651653290,-0.010634349659085274,-0.026531077921390533,0.091000899672508240,0.027198018506169319,0.072965949773788452,-0.028038565069437027,-0.036379221826791763,0.083649434149265289,0.076774127781391144,-0.003287809668108821,0.141978040337562561,-0.009191626682877541,-0.090508267283439636,0.036138549447059631,-0.070653252303600311,0.011878415942192078,0.082434460520744324,-0.076664537191390991,-0.016254387795925140,-0.056172885000705719,-0.047962836921215057,0.068956799805164337,-0.091985687613487244,-0.080582015216350555,0.140484973788261414,-0.011183486320078373,-0.090644098818302155,0.002921033883467317,-0.042123433202505112,0.012632505968213081,-0.025247482582926750
0.125722751021385193,0.041781906038522720,0.035225905478000641,0.053568772971630096,0.085349619388580322,0.083709493279457092,-0.038546726107597351,-0.276793599128723145,0.080097138881683350,0.043547779321670532,-0.024826917797327042,-0.042562548071146011,-0.031620495021343231,-0.029514379799365997,-0.235814273357391357,-0.049875635653734207,-0.002691309433430433,0.078929334878921509,0.093245543539524078,-0.003060110844671726,0.000481102644698694,-0.144369795918464661,0.054982937872409821,0.059681758284568787,-0.037160594016313553,0.123719215393066406,-0.036378245800733566,0.079111889004707336,-0.034606844186782837,0.018270293250679970,-0.117778912186622620,0.046852879226207733,-0.068255431950092316,-0.012432891875505447,0.002151083899661899,-0.018607681617140770,0.010019926354289055,0.130085408687591553,0.055659901350736618,-0.054915171116590500,-0.054410696029663086,0.084864139556884766,0.099778249859809875,0.037600208073854446,0.011542239226400852,0.074948355555534363,0.007648220751434565,0.125210255384445190,-0.078757442533969879,0.021774977445602417,-0.003215551143512130,-0.054917268455028534,-0.211364254355430603,-0.007876083254814148,0.008498786017298698,-0.044449899345636368,0.049278791993856430,0.029756482690572739,0.021206209436058998,0.070187464356422424,0.039083201438188553,0.077291555702686310,0.006811202969402075,0.161234393715858459
-0.051369383931159973,0.050521608442068100,0.030972093343734741,-0.037208545953035355,-0.032955288887023926,0.063789159059524536,0.000288389710476622,0.077353782951831818,-0.124280638992786407,0.029547430574893951,0.069644130766391754,0.081719048321247101,-0.055984687060117722,0.074041716754436493,0.006797906011343002,-0.041550520807504654,-0.015571710653603077,-0.094287544488906860,0.095834515988826752,-0.008628590032458305,-0.101235441863536835,-0.026418721303343773,0.028690289705991745,-0.043117351830005646,-0.019642896950244904,0.032408010214567184,0.042470451444387436,-0.050793379545211792,0.082092806696891785,0.003856763709336519,0.059438064694404602,0.034795720130205154,0.081923045217990875,-0.033230792731046677,-0.107162490487098694,-0.081773586571216583,-0.079306267201900482,0.163646951317787170,-0.032815594226121902,-0.007230550982058048,-0.055736094713211060,0.055444985628128052,-0.025230204686522484,-0.004066503141075373,0.096488997340202332,-0.058896582573652267,0.011652772314846516,0.109730139374732971,0.057145614176988602,0.053903292864561081,0.098412699997425079,-0.123794943094253540,0.072758942842483521,0.046595405787229538,0.011827209964394569,0.004717875737696886,0.059846099466085434,0.068285487592220306,-0.010292657651007175,0.062117200344800949,-0.122327715158462524,0.030364509671926498,0.016337998211383820,-0.071304738521575928
-0.049046013504266739,0.052753932774066925,0.053474102169275284,0.094425521790981293,0.069989413022994995,-0.107697024941444397,-0.026186620816588402,0.016544220969080925,-0.002612625248730183,0.118753597140312195,0.115818031132221222,0.090089417994022369,0.039792262017726898,0.039244964718818665,0.090933136641979218,0.041211012750864029,-0.005487113725394011,0.081948950886726379,-0.156353220343589783,-0.042154915630817413,0.038509093225002289,0.026053966954350471,0.138884007930755615,0.020067745819687843,-0.002568761585280299,0.093431778252124786,-0.114143185317516327,0.047881595790386200,-0.072844356298446655,0.093578673899173737,0.041184756904840469,-0.055995814502239227,-0.036622650921344757,0.001644911011680961,0.004686643369495869,-0.012868172489106655,0.077546544373035431,-0.087982609868049622,0.043599881231784821,-0.072336018085479736,0.012551159597933292,0.119231909513473511,0.055734965950250626,-0.089370399713516235,-0.132357954978942871,0.042860217392444611,0.059882242232561111,-0.091975145041942596,-0.113747604191303253,-0.033266428858041763,0.049280375242233276,0.000950842746533453,-0.049249146133661270,-0.023683784529566765,0.009720249101519585,0.108801580965518951,-0.008652949705719948,0.069437906146049500,-0.030097419396042824,0.045829616487026215,0.016353830695152283,-0.121102862060070038,0.016638176515698433,-0.016419935971498489
0.025242427363991737,0.067289687693119049,-0.009668674319982529,-0.035683833062648773,0.112109959125518799,-0.042859330773353577,-0.123521775007247925,-0.011802018620073795,0.062736093997955322,-0.133817210793495178,-0.000365056504961103,-0.057873558253049850,0.112820036709308624,0.051405176520347595,-0.107367962598800659,0.055591069161891937,-0.015527172945439816,-0.112973861396312714,0.079600177705287933,-0.030722301453351974,-0.106013260781764984,-0.017736857756972313,0.011197697371244431,0.064721167087554932,-0.081239715218544006,0.024571277201175690,0.060751158744096756,-0.020543456077575684,0.070982038974761963,-0.005119507666677237,-0.095782667398452759,-0.102472491562366486,0.007532929535955191,-0.231501296162605286,-0.015783697366714478,0.039721190929412842,-0.029191911220550537,0.067478954792022705,-0.037250868976116180,-0.077201582491397858,-0.062157664448022842,0.098728120326995850,-0.063780210912227631,0.027194015681743622,-0.152783766388893127,0.073157310485839844,0.000413930742070079,0.021366927772760391,-0.143464237451553345,0.026728633791208267,-0.090793713927268982,-0.004837056156247854,0.018492298200726509,0.094227679073810577,-0.063824601471424103,0.027588160708546638,0.080768160521984100,0.174237743020057678,-0.038874313235282898,0.066343180835247040,0.055171068757772446,0.012234029360115528,0.068747602403163910,0.102130487561225891
0.094385311007499695,0.008641282096505165,0.087003298103809357,-0.109107077121734619,-0.072434931993484497,-0.022458702325820923,0.044821880757808685,0.009274492971599102,-0.088136352598667145,-0.015691922977566719,-0.039348516613245010,-0.017736352980136871,0.001451754593290389,-0.038535490632057190,-0.033955667167901993,0.100218355655670166,-0.045741707086563110,0.001885675592347980,0.013793130405247211,-0.043746940791606903,-0.035193473100662231,0.008748106658458710,0.009321461431682110,0.079216584563255310,-0.069862969219684601,0.080495327711105347,-0.028439404442906380,0.091063670814037323,0.066786721348762512,0.075808726251125336,0.104408152401447296,0.064409345388412476,0.121160052716732025,-0.043836265802383423,0.057824209332466125,0.021486142650246620,0.050412975251674652,0.038628838956356049,-0.059967312961816788,0.027355628088116646,0.036888662725687027,0.026903536170721054,-0.013557259924709797,0.103390455245971680,-0.027767159044742584,0.161003127694129944,-0.036528583616018295,-0.052404981106519699,0.083964072167873383,0.053635738790035248,0.105687201023101807,0.065959006547927856,0.007198424078524113,-0.022987293079495430,-0.078855231404304504,0.028191778808832169,-0.051081217825412750,0.081413716077804565,-0.041187051683664322,0.028876317664980888,-0.008375247009098530,-0.034962564706802368,-0.005346512421965599,0.014598930254578590
0.065394252538681030,-0.030487725511193275,0.046718683093786240,-0.018572269007563591,0.068698696792125702,0.020814070478081703,0.013666077516973019,0.106810458004474640,0.046666759997606277,0.003863875754177570,-0.074824213981628418,0.041892558336257935,0.014147296547889709,-0.012223147787153721,0.028588913381099701,0.121706999838352203,-0.082602187991142273,0.055679507553577423,0.081860825419425964,0.101991303265094757,-0.112182758748531342,0.046549592167139053,0.079885974526405334,-0.037489227950572968,-0.066106736660003662,-0.010040637105703354,-0.068210497498512268,-0.000805317249614745,0.003282892284914851,0.039838094264268875,0.007103577721863985,0.093368835747241974,0.047072295099496841,0.115431472659111023,0.092298202216625214,-0.092867620289325714,-0.001144293346442282,0.049743536859750748,0.020274858921766281,0.062205277383327484,-0.004643679596483707,-0.110373802483081818,-0.016462799161672592,-0.029223725199699402,0.043858233839273453,0.033282715827226639,0.021000916138291359,0.020794667303562164,0.175273716449737549,-0.037615615874528885,-0.067220546305179596,0.046948697417974472,0.031766030937433243,0.109517388045787811,0.099655881524085999,-0.046167865395545959,-0.022089399397373199,-0.055474936962127686,-0.028191540390253067,0.033873420208692551,0.043924521654844284,0.107511289417743683,0.123118296265602112,0.093194857239723206
-0.083560019731521606,-0.048487544059753418,-0.088478639721870422,-0.064941354095935822,-0.047731719911098480,0.101909898221492767,0.031838905066251755,0.026087813079357147,-0.108220070600509644,0.054878093302249908,-0.012322417460381985,0.030597865581512451,0.066336780786514282,0.013734238222241402,-0.029886804521083832,0.107437416911125183,0.080683976411819458,-0.055814482271671295,0.037069886922836304,0.067007556557655334,0.081097900867462158,0.054353352636098862,-0.030281383544206619,-0.069781944155693054,0.046417187899351120,0.009066171944141388,0.050226647406816483,0.115641213953495026,-0.131517842411994934,-0.026913519948720932,0.012639566324651241,-0.025213794782757759,0.040148224681615829,-0.050428662449121475,-0.021883510053157806,0.044166140258312225,0.001284601865336299,0.048478044569492340,-0.046169765293598175,0.179705604910850525,0.111657172441482544,-0.121722623705863953,-0.075314223766326904,0.047175414860248566,0.020918829366564751,0.090748012065887451,0.090269871056079865,-0.033499971032142639,0.030653517693281174,0.054436948150396347,-0.026357725262641907,-0.061056289821863174,0.046218931674957275,-0.018337504938244820,0.122114159166812897,0.004521472845226526,0.011299415491521358,-0.045557852834463120,-0.030018184334039688,0.075957350432872772,0.003118421183899045,0.132276937365531921,0.070694833993911743,0.032922603189945221
-0.035080101341009140,0.049829520285129547,0.001314279157668352,-0.020712522789835930,0.030571362003684044,-0.051788229495286942,-0.063473179936408997,0.001580545795150101,-0.029980544000864029,-0.084616132080554962,-0.080133549869060516,0.116600275039672852,0.048758961260318756,0.071156725287437439,0.076414130628108978,-0.032503165304660797,0.031781863421201706,0.026415221393108368,-0.097021847963333130,-0.074875317513942719,-0.039577957242727280,0.032671127468347549,0.043413151055574417,0.003462469670921564,0.001143376110121608,0.016797535121440887,0.039621397852897644,0.028921259567141533,0.046440113335847855,0.148877769708633423,0.007932871580123901,0.029546154662966728,0.083603113889694214,0.062367103993892670,0.061780203133821487,0.050316859036684036,-0.045861605554819107,-0.018192881718277931,-0.044049199670553207,0.095496870577335358,-0.014141693711280823,0.035464033484458923,-0.057606741786003113,-0.012350205332040787,-0.068416185677051544,0.059970010071992874,0.062534108757972717,0.048124633729457855,0.033408332616090775,0.147819817066192627,0.048029545694589615,-0.003434754908084869,0.105114661157131195,-0.035982649773359299,-0.005062764044851065,-0.115672074258327484,-0.019160248339176178,0.152113735675811768,-0.064482949674129486,0.026430908590555191,0.035356614738702774,0.063742324709892273,0.069496028125286102,0.086580581963062286
-0.003184676868841052,-0.059663962572813034,-0.085686467587947845,0.031514734029769897,0.000486435630591586,0.082063175737857819,0.058131065219640732,-0.155057042837142944,0.082888230681419373,-0.072066277265548706,-0.077041022479534149,0.034144390374422073,-0.100435167551040649,-0.103711053729057312,-0.204054251313209534,0.029610102996230125,0.040105834603309631,-0.054764226078987122,0.084129758179187775,0.052798781543970108,-0.007691761944442987,-0.059432551264762878,-0.088237352669239044,-0.008975801989436150,0.029395023360848427,0.024509796872735023,0.106965705752372742,-0.028009129688143730,-0.064308151602745056,0.060841970145702362,0.103601835668087006,0.073527500033378601,-0.023428715765476227,-0.223973676562309265,-0.016392806544899940,0.075850062072277069,-0.078675180673599243,0.139492616057395935,0.023014307022094727,-0.034782286733388901,-0.093024097383022308,-0.001839673612266779,-0.035079184919595718,0.066608965396881104,0.080271467566490173,-0.002608207287266850,-0.045297183096408844,0.144139468669891357,0.068422153592109680,0.023063980042934418,-0.035075534135103226,-0.056744378060102463,-0.017324026674032211,0.027262732386589050,-0.024425145238637924,0.019875138998031616,0.065671496093273163,0.035829048603773117,-0.136112228035926819,0.041780762374401093,-0.013138131238520145,0.013335609808564186,-0.022707112133502960,0.091927774250507355
-0.110697060823440552,0.006575857754796743,-0.019443279132246971,0.095794178545475006,0.055140256881713867,-0.014447901397943497,-0.029753921553492546,-0.084257915616035461,-0.092636011540889740,-0.019577082246541977,-0.036455452442169189,-0.064449317753314972,-0.059914566576480865,0.104662485420703888,0.190165549516677856,-0.032288063317537308,0.000341729493811727,-0.120978422462940216,-0.133267536759376526,0.024780176579952240,-0.009509038180112839,-0.009732381440699100,-0.008007873781025410,0.028979046270251274,-0.020497215911746025,-0.039737727493047714,-0.001156844780780375,-0.032360929995775223,-0.072474062442779541,0.067125126719474792,0.046209059655666351,-0.023396074771881104,0.048235289752483368,0.065048813819885254,-0.041923955082893372,-0.020721264183521271,0.107672587037086487,0.129565522074699402,-0.221446841955184937,-0.005485355854034424,0.018100036308169365,-0.083522938191890717,0.051294423639774323,0.022120911628007889,0.085406675934791565,0.102205418050289154,-0.015636917203664780,-0.008750428445637226,0.007305379491299391,0.069642670452594757,-0.031764421612024307,0.000452351552667096,-0.041553810238838196,0.082081973552703857,0.039632007479667664,-0.007111213169991970,-0.144142508506774902,0.097245350480079651,0.091978289186954498,0.105327516794204712,-0.073824495077133179,0.087612487375736237,-0.012786329723894596,-0.094344057142734528
0.019425582140684128,0.050578933209180832,-0.052607923746109009,-0.101718485355377197,-0.010004045441746712,0.008720132522284985,0.008207029663026333,-0.117810748517513275,0.070672050118446350,-0.014415899291634560,-0.045164581388235092,0.025872290134429932,0.007601615507155657,0.012050864286720753,0.019258821383118629,0.048894636332988739,-0.121531523764133453,-0.063311122357845306,0.052117113023996353,-0.090303063392639160,-0.024589229375123978,0.080893546342849731,0.079549893736839294,0.050702538341283798,-0.008329440839588642,0.090006731450557709,0.033690787851810455,0.052862498909235001,-0.066708773374557495,-0.016035238280892372,0.082586064934730530,0.005573804955929518,0.070102348923683167,-0.032770514488220215,-0.015780236572027206,-0.035891570150852203,0.109031848609447479,0.029761031270027161,0.014775489456951618,-0.038401599973440170,-0.051516056060791016,-0.010430892929434776,-0.029414419084787369,0.062803491950035095,0.055593814700841904,0.063414841890335083,0.041067872196435928,0.091991916298866272,-0.045189164578914642,0.073926888406276703,0.018036998808383942,-0.117493793368339539,-0.145713254809379578,0.083602391183376312,-0.081969559192657471,-0.038655497133731842,-0.073727749288082123,0.041774645447731018,0.053585205227136612,-0.016617828980088234,0.045122727751731873,-0.058983847498893738,0.099364221096038818,0.060222964733839035
-0.224703282117843628,0.019239543005824089,-0.039315409958362579,-0.081084139645099640,-0.072553239762783051,-0.166446939110755920,0.062073227018117905,0.016848841682076454,0.030407873913645744,-0.085244536399841309,0.026407087221741676,-0.047439768910408020,0.022877693176269531,0.207532286643981934,0.104562334716320038,-0.165590643882751465,0.020154677331447601,0.114892065525054932,-0.024600174278020859,0.070657141506671906,0.059706736356019974,-0.037136241793632507,0.031303036957979202,0.141454517841339111,0.069033175706863403,0.112445741891860962,-0.044812727719545364,-0.007147706579416990,-0.001162925269454718,-0.023282740265130997,0.006415789481252432,-0.088070742785930634,0.029767356812953949,0.053848873823881149,0.013019748032093048,-0.046053867787122726,-0.023614808917045593,0.047580946236848831,-0.221663787961006165,-0.046249706298112869,-0.044480744749307632,0.058399021625518799,0.029521822929382324,-0.056467019021511078,0.169257819652557373,0.071818865835666656,0.003671323182061315,0.018764290958642960,-0.118567809462547302,0.033323794603347778,-0.103422686457633972,0.068730317056179047,-0.058935824781656265,0.015576494857668877,0.043399222195148468,-0.026933075860142708,-0.098573043942451477,0.089410193264484406,0.067601665854454041,-0.010713297873735428,-0.061911601573228836,0.040493436157703400,0.032836973667144775,-0.108086749911308289
0.028839888051152229,-0.056945264339447021,0.055343899875879288,-0.019158618524670601,0.090635553002357483,-0.090696379542350769,0.055097118020057678,0.055817373096942902,0.024424398317933083,-0.065467312932014465,-0.016083633527159691,-0.093096390366554260,0.005551933776587248,0.078356623649597168,0.078817397356033325,-0.108538940548896790,0.055613089352846146,-0.033724065870046616,0.062110465019941330,-0.009634396992623806,-0.026349902153015137,0.084522344172000885,0.051169645041227341,0.071289218962192535,0.009009812027215958,0.016363348811864853,-0.025204716250300407,0.066836088895797729,-0.003558390308171511,0.032867807894945145,0.094320304691791534,-0.045856077224016190,-0.015747115015983582,-0.031746190041303635,0.004595546983182430,-0.083407402038574219,0.078234687447547913,-0.090454541146755219,-0.053251478821039200,0.048202499747276306,-0.038170229643583298,-0.060021959245204926,0.047398611903190613,-0.032773006707429886,-0.003569731721654534,0.075565233826637268,0.010498958639800549,-0.065537996590137482,-0.024158410727977753,-0.053656652569770813,-0.067274928092956543,0.124265410006046295,-0.012734034098684788,0.008536094799637794,0.094131425023078918,0.091760493814945221,-0.122433662414550781,0.015294019132852554,0.076627187430858612,-0.075047247111797333,0.024845534935593605,0.096800580620765686,0.079896382987499237,-0.058574050664901733
-0.024508738890290260,-0.067453533411026001,0.021591957658529282,-0.032956279814243317,-0.014905826188623905,-0.110331520438194275,0.112811729311943054,-0.088493339717388153,0.106467470526695251,-0.027446947991847992,-0.021206611767411232,0.051635280251502991,0.020008532330393791,0.109721317887306213,-0.020242014899849892,-0.232406079769134521,-0.039473470300436020,0.092621996998786926,-0.010557183995842934,0.035987533628940582,0.001403812202624977,-0.005410510580986738,0.204662069678306580,0.093351349234580994,-0.066016793251037598,0.057905577123165131,0.077183514833450317,0.096853882074356079,-0.034010566771030426,-0.026998922228813171,-0.043619163334369659,0.026380572468042374,0.000003243163519073,0.013619473204016685,0.013309902511537075,-0.071286819875240326,0.026171445846557617,-0.020580114796757698,-0.010874429717659950,-0.100971251726150513,-0.129089936614036560,0.016153544187545776,0.073461636900901794,-0.084734678268432617,0.089467838406562805,0.079841047525405884,-0.023668050765991211,-0.064945660531520844,-0.136643558740615845,-0.046575769782066345,0.059589460492134094,0.059266176074743271,-0.142947971820831299,0.139247655868530273,0.060250796377658844,0.028499806299805641,-0.049632430076599121,0.042094681411981583,-0.010551943443715572,-0.002192999236285686,0.045139994472265244,0.043988201767206192,-0.070633105933666229,0.061482597142457962
0.018460283055901527,0.023456981405615807,0.078666523098945618,-0.031619288027286530,0.034723013639450073,0.004792936611920595,0.013108151033520699,-0.073125772178173065,-0.049768228083848953,0.056357454508543015,0.027346063405275345,-0.069008618593215942,-0.001212632399983704,0.123027235269546509,0.093941904604434967,0.057375740259885788,0.043428614735603333,0.057354953140020370,-0.030170770362019539,0.001351571059785783,-0.083628728985786438,-0.074257440865039825,0.048028700053691864,0.017234193161129951,-0.032034330070018768,0.068860664963722229,-0.018589196726679802,-0.028222747147083282,-0.039190441370010376,-0.044941794127225876,0.010908418335020542,0.030165644362568855,0.054280910640954971,0.068167097866535187,0.055732291191816330,-0.000047490757424384,-0.044540923088788986,0.030078750103712082,0.069553777575492859,0.029223525896668434,0.076628580689430237,-0.066952064633369446,-0.087520077824592590,0.038882598280906677,0.069681011140346527,0.072741158306598663,-0.062125466763973236,-0.029714221134781837,0.051025394350290298,0.021741433069109917,-0.024854637682437897,-0.077868111431598663,0.089007861912250519,-0.119198881089687347,0.006441543344408274,-0.029712954536080360,-0.054329499602317810,0.110497780144214630,-0.033689774572849274,-0.084544047713279724,-0.038111191242933273,0.079158194363117218,-0.033211167901754379,-0.040000967681407928
0.131167665123939514,-0.084699511528015137,-0.023226406425237656,0.231151089072227478,-0.088185317814350128,-0.042564943432807922,0.214417919516563416,0.024624414741992950,-0.017871191725134850,0.220778197050094604,-0.012407053261995316,0.063347071409225464,0.025803720578551292,0.099471263587474823,-0.032109711319208145,-0.011642524972558022,-0.064841210842132568,0.022092452272772789,-0.063629671931266785,-0.077784523367881775,0.103459253907203674,0.001627325778827071,-0.088906750082969666,-0.050367850810289383,-0.127737656235694885,0.155064836144447327,-0.026175376027822495,0.217822998762130737,-0.120896019041538239,0.182018384337425232,0.008458357304334641,0.048469506204128265,0.041503936052322388,-0.037971071898937225,-0.246422767639160156,0.032637584954500198,0.060129158198833466,0.006540821865200996,-0.168874844908714294,0.098133757710456848,0.040944404900074005,-0.128978118300437927,-0.112106099724769592,0.023117467761039734,0.010808009654283524,0.004846034571528435,0.026200480759143829,0.068272888660430908,-0.068694792687892914,0.125330016016960144,0.105744749307632446,-0.055567253381013870,0.018771052360534668,-0.038464635610580444,0.095890358090400696,0.085998788475990295,-0.176415205001831055,-0.039145350456237793,-0.253362447023391724,-0.139163553714752197,-0.011394808068871498,-0.016006197780370712,-0.085390403866767883,0.009451637975871563
-0.026057163253426552,-0.068006530404090881,-0.058002427220344543,0.077222995460033417,-0.001658236724324524,-0.096565328538417816,-0.002487046876922250,0.079932563006877899,-0.036186531186103821,-0.043291721493005753,0.127832219004631042,-0.098937310278415680,0.011483401991426945,-0.001129948534071445,0.080137334764003754,0.021409884095191956,0.062909312546253204,0.027625286951661110,0.044551271945238113,-0.030903507024049759,0.080774500966072083,-0.030939899384975433,0.027951836585998535,0.113432779908180237,-0.116052009165287018,0.129214838147163391,0.027525700628757477,0.163293793797492981,0.063011191785335541,-0.000334368756739423,0.068911746144294739,0.016100384294986725,0.082243606448173523,0.003375262487679720,0.083098165690898895,0.005793351680040359,0.019832620397210121,-0.095716312527656555,0.021930772811174393,-0.096375517547130585,0.038313400000333786,-0.031771987676620483,-0.095529466867446899,-0.068250298500061035,-0.134396374225616455,0.061814274638891220,0.021920232102274895,-0.004685529507696629,-0.076529420912265778,0.032425142824649811,0.031504500657320023,0.016457093879580498,0.006487426348030567,-0.037921421229839325,-0.053303752094507217,-0.057175338268280029,-0.109389431774616241,0.094338774681091309,0.044490214437246323,0.099007703363895416,0.031815208494663239,-0.083596877753734589,0.098073795437812805,0.031512547284364700
-0.137653261423110962,0.003334048902615905,0.024756262078881264,-0.040003880858421326,-0.080040529370307922,0.010335836559534073,0.019465828314423561,-0.067729867994785309,0.103335902094841003,0.032476134598255157,0.057815793901681900,0.008683954365551472,-0.109052523970603943,-0.005234857555478811,-0.023243427276611328,-0.016506932675838470,-0.069591067731380463,-0.021513069048523903,-0.061286512762308121,-0.093249209225177765,0.081113480031490326,-0.087451137602329254,0.026133621111512184,-0.030303338542580605,-0.015942275524139404,0.008470695465803146,-0.022500913590192795,0.078735083341598511,-0.083443507552146912,0.055559236556291580,0.064552731812000275,-0.008908025920391083,0.025449028238654137,0.006321032531559467,0.105718009173870087,-0.010280964896082878,0.043444242328405380,0.004245444200932980,-0.010592130012810230,-0.086237505078315735,-0.054772742092609406,-0.081450939178466797,-0.029429305344820023,0.154104858636856079,-0.018500706180930138,0.099462985992431641,-0.010512348264455795,0.055519428104162216,0.082989804446697235,-0.034749433398246765,-0.020252922549843788,-0.064201496541500092,-0.037971720099449158,0.032476961612701416,0.080292508006095886,-0.060809914022684097,0.017662536352872849,0.012691700831055641,-0.080196283757686615,-0.001758753787726164,-0.021803205832839012,0.028989138081669807,-0.022505028173327446,0.074472688138484955
-0.013947291299700737,-0.056132618337869644,0.011351578868925571,-0.005141710862517357,-0.062490470707416534,-0.008119077421724796,0.013859666883945465,-0.061820212751626968,-0.096889153122901917,-0.055602069944143295,0.051986515522003174,0.001789677189663053,0.005613174289464951,0.024414906278252602,-0.049406450241804123,0.049606025218963623,0.035855252295732498,-0.032813269644975662,-0.103982321918010712,-0.072825692594051361,0.013765308074653149,-0.034421619027853012,-0.053104855120182037,0.022611914202570915,-0.024335350841283798,0.017796505242586136,0.109500490128993988,0.085828155279159546,-0.079248555004596710,-0.018938366323709488,0.049388699233531952,0.021953418850898743,-0.004345423076301813,-0.010097120888531208,-0.034454748034477234,0.042875643819570541,0.008526297286152840,-0.042241256684064865,-0.002024409826844931,0.002391219371929765,-0.023121984675526619,-0.111623309552669525,-0.065287850797176361,0.003806233638897538,0.074294574558734894,0.120598740875720978,-0.011901150457561016,0.093500122427940369,0.045620217919349670,0.111142016947269440,-0.050316598266363144,-0.085092350840568542,0.118701189756393433,0.060269050300121307,-0.090299986302852631,0.010279105976223946,-0.118901871144771576,0.043503642082214355,0.035871554166078568,-0.060828935354948044,0.038717273622751236,-0.075273528695106506,0.073324307799339294,0.059248644858598709
-0.126645773649215698,-0.119512021541595459,-0.104768164455890656,0.084398925304412842,-0.078745543956756592,-0.027271479368209839,-0.077490061521530151,0.174518570303916931,-0.126749426126480103,-0.076746985316276550,-0.116064496338367462,-0.039607323706150055,-0.105778098106384277,0.047309234738349915,0.090092010796070099,-0.001232116832397878,-0.055161003023386002,0.078487388789653778,-0.029629273340106010,-0.153895467519760132,0.036710165441036224,-0.005083780270069838,0.029904795810580254,0.060480352491140366,-0.094828918576240540,-0.083623126149177551,0.053331390023231506,0.070230327546596527,-0.005361797288060188,0.075104951858520508,0.062544904649257660,-0.035305015742778778,-0.021658927202224731,-0.017512759193778038,-0.120252072811126709,0.038722109049558640,-0.048217494040727615,-0.002382814651355147,-0.062723562121391296,0.046998780220746994,0.072734698653221130,-0.066723182797431946,-0.068373732268810272,0.034464806318283081,0.011900288052856922,0.055368613451719284,0.048749912530183792,0.014771929010748863,-0.054548900574445724,0.087467633187770844,0.022889768704771996,0.097026191651821136,-0.052018646150827408,0.043409414589405060,0.102397441864013672,0.053815703839063644,-0.044743206351995468,0.141173526644706726,-0.058987755328416824,-0.029757689684629440,-0.064734593033790588,-0.075192704796791077,0.091073803603649139,-0.074126094579696655
-0.092126652598381042,-0.164570271968841553,-0.055138725787401199,0.061280295252799988,0.004605663474649191,-0.099672496318817139,0.072806395590305328,-0.015942960977554321,-0.176999241113662720,0.064945973455905914,0.048602551221847534,0.038202553987503052,-0.068880632519721985,-0.005255485884845257,0.135250866413116455,-0.005064703058451414,-0.011774140410125256,-0.097224190831184387,-0.068607330322265625,-0.013195564970374107,0.084691338241100311,0.105216294527053833,-0.010098176077008247,-0.017638845369219780,-0.014157501980662346,0.092225037515163422,0.017686083912849426,-0.081604205071926117,-0.045068450272083282,-0.055618319660425186,0.122540138661861420,0.104416377842426300,0.008433202281594276,-0.086621262133121490,0.018144320696592331,-0.077433407306671143,0.040264911949634552,-0.049601022154092789,-0.125240579247474670,0.094441570341587067,0.011941269040107727,-0.111532539129257202,0.085584178566932678,0.081468515098094940,0.064508870244026184,-0.051797084510326385,-0.013778920285403728,0.005526035092771053,0.019099576398730278,-0.057249385863542557,-0.032758809626102448,0.002268245210871100,-0.033452108502388000,0.078465916216373444,-0.010989502072334290,0.051255092024803162,-0.125234469771385193,0.009657483547925949,0.001842284342274070,0.005475840065628290,0.015635862946510315,-0.004789583850651979,0.024020483717322350,-0.098394349217414856
-0.098545029759407043,-0.006051389966160059,-0.025452241301536560,-0.062926389276981354,0.018738685175776482,-0.054772034287452698,0.042685639113187790,0.011237788945436478,0.008402842096984386,-0.033174984157085419,0.076272368431091309,-0.082018114626407623,0.047312121838331223,-0.002907965099439025,0.092826895415782928,-0.100067302584648132,-0.044659245759248734,-0.007229578681290150,0.103506430983543396,0.086284250020980835,-0.010432341136038303,0.007541360799223185,0.047628555446863174,-0.004718407057225704,-0.039076231420040131,-0.024945639073848724,-0.057055201381444931,0.139112681150436401,0.037071138620376587,-0.069203369319438934,-0.065326787531375885,-0.047780193388462067,-0.053851254284381866,0.087008759379386902,0.008149417117238045,-0.093241609632968903,0.097538702189922333,0.024437543004751205,0.005837044678628445,-0.053554743528366089,-0.160841345787048340,0.062737904489040375,0.066918693482875824,0.057501710951328278,0.089812606573104858,0.085380420088768005,0.019227281212806702,-0.023472687229514122,0.017865067347884178,0.087839126586914062,0.049403548240661621,0.123610414564609528,0.014032809063792229,-0.020822411403059959,-0.055943414568901062,0.027894418686628342,-0.026400877162814140,-0.003376384032890201,0.056481905281543732,-0.012079672887921333,-0.023794870823621750,0.185740083456039429,0.034135308116674423,-0.022743614390492439
0.007780627813190222,0.051916550844907761,0.026847315952181816,-0.127440229058265686,-0.009830631315708160,0.076162964105606079,0.071863077580928802,-0.074925094842910767,0.104166306555271149,-0.076136812567710876,0.057892296463251114,-0.047095190733671188,-0.033088572323322296,0.029318969696760178,-0.035538543015718460,-0.156500503420829773,0.045707143843173981,-0.011513679288327694,-0.041409716010093689,0.006731706671416759,0.023488253355026245,0.047473426908254623,0.023143988102674484,-0.009428377263247967,0.063369408249855042,0.021479826420545578,0.051849126815795898,0.097436442971229553,0.003821182996034622,0.042489137500524521,-0.075435645878314972,-0.037091471254825592,0.051329940557479858,-0.005366320256143808,0.042752042412757874,0.031435254961252213,-0.068979591131210327,0.039936769753694534,0.011305084452033043,0.051750469952821732,0.011686990037560463,0.051081091165542603,-0.009809344075620174,-0.007932656444609165,-0.005535376258194447,0.027830960229039192,0.034239720553159714,-0.022440455853939056,-0.092948347330093384,-0.006620240397751331,-0.047679275274276733,0.001451276475563645,-0.106528699398040771,-0.006145062390714884,-0.071884386241436005,0.007094641216099262,-0.053893029689788818,0.058173257857561111,0.084963269531726837,-0.003932866733521223,-0.000510017387568951,0.011100030504167080,-0.017507081851363182,0.078146748244762421
0.059947341680526733,-0.088556788861751556,0.036064200103282928,0.035852707922458649,0.026319827884435654,-0.058282241225242615,0.104916781187057495,-0.152581021189689636,0.009243173524737358,-0.041883889585733414,0.039240248501300812,0.071967631578445435,0.036290995776653290,-0.007843338884413242,-0.129105478525161743,0.066049426794052124,0.080460295081138611,-0.084853358566761017,0.055933427065610886,0.052062027156352997,0.031593520194292068,-0.112239576876163483,-0.118465758860111237,-0.068914219737052917,0.060312252491712570,0.131852760910987854,0.060118149966001511,-0.064140431582927704,-0.096142321825027466,-0.115225136280059814,-0.012051451019942760,0.092135235667228699,-0.080422475934028625,-0.246404573321342468,0.077277854084968567,-0.055365934967994690,0.055005934089422226,0.042664993554353714,0.022611966356635094,0.029464092105627060,0.039913326501846313,0.064997062087059021,0.057933092117309570,0.002272887388244271,0.093794025480747223,0.019583426415920258,0.171435326337814331,0.037988238036632538,0.020916884765028954,0.088725633919239044,0.107359796762466431,-0.014318293891847134,-0.160761535167694092,0.044540565460920334,0.071053549647331238,-0.024343458935618401,0.026137650012969971,-0.046946525573730469,-0.078265450894832611,0.070746481418609619,0.117734409868717194,0.069367848336696625,0.052770696580410004,0.075573906302452087
0.066907413303852081,0.037235725671052933,-0.018301155418157578,0.081987902522087097,-0.035784229636192322,-0.076628640294075012,0.067422740161418915,-0.131193429231643677,0.163304552435874939,-0.019687969237565994,0.081381000578403473,0.064693614840507507,-0.080471374094486237,-0.025055721402168274,-0.159262284636497498,0.069543242454528809,0.010085129179060459,0.057880088686943054,-0.036954704672098160,0.006027997005730867,-0.065949805080890656,-0.050785489380359650,0.019767815247178078,-0.112227655947208405,-0.044886052608489990,0.061873767524957657,-0.025776589289307594,0.114679768681526184,-0.034651085734367371,-0.036768428981304169,0.064543396234512329,0.091849051415920258,0.000339577090926468,0.065228894352912903,0.069442898035049438,-0.082065649330615997,0.052379239350557327,0.016421945765614510,-0.029475500807166100,-0.067591838538646698,-0.235017314553260803,0.106479980051517487,-0.025729136541485786,0.066311903297901154,-0.040851544588804245,0.044980056583881378,0.032169334590435028,0.125528678297996521,0.041060268878936768,0.091775923967361450,0.034316178411245346,-0.089955136179924011,-0.102895662188529968,0.005304222926497459,-0.008131261914968491,-0.060004506260156631,0.008329965174198151,-0.020285652950406075,-0.105952240526676178,0.032313786447048187,0.020757898688316345,-0.055140856653451920,0.026865376159548759,0.035551611334085464
0.060391776263713837,-0.037877097725868225,-0.125768795609474182,-0.088438250124454498,-0.030209325253963470,0.007136390544474125,-0.072714820504188538,0.028311677277088165,-0.013064742088317871,-0.039683282375335693,-0.022095231339335442,-0.015461257658898830,-0.023677455261349678,-0.001928561134263873,0.014926193282008171,-0.016980601474642754,0.108893699944019318,0.063667327165603638,-0.159670561552047729,-0.023056408390402794,0.047603152692317963,0.017613520845770836,0.001475443597882986,0.017935043200850487,0.055085390806198120,-0.085883073508739471,0.046182621270418167,0.046169500797986984,0.001696843886747956,-0.122801207005977631,-0.034158214926719666,0.062555462121963501,-0.087629362940788269,0.005011537112295628,0.096850417554378510,-0.033103603869676590,0.057054746896028519,0.070252470672130585,-0.097228072583675385,0.010477940551936626,0.043529693037271500,0.032509554177522659,-0.038773730397224426,-0.008710361085832119,0.013113846071064472,-0.032871600240468979,-0.065358377993106842,0.001307863858528435,-0.045223843306303024,0.019916119053959846,-0.037096615880727768,-0.034762624651193619,-0.127024129033088684,-0.015016601420938969,0.028777513653039932,-0.031343404203653336,-0.047086123377084732,0.051491919904947281,-0.012506947852671146,-0.044232014566659927,-0.017067033797502518,0.032413702458143234,0.134349972009658813,-0.032092653214931488
0.032736826688051224,-0.125205829739570618,-0.071535870432853699,0.104534782469272614,0.031532894819974899,0.124709568917751312,-0.089209735393524170,-0.098698802292346954,-0.022217221558094025,0.081811383366584778,0.045099489390850067,0.034088134765625000,-0.019426619634032249,-0.036871675401926041,-0.114918395876884460,0.031017240136861801,0.105862021446228027,-0.004599355626851320,0.005678080022335052,0.034348178654909134,0.000929212546907365,0.015078172087669373,-0.132821589708328247,-0.080932565033435822,0.093493424355983734,0.011247971095144749,0.124689742922782898,0.137680664658546448,-0.057730939239263535,-0.001438715727999806,0.050914749503135681,0.036529999226331711,-0.065206415951251984,-0.151480689644813538,-0.059919998049736023,0.084943972527980804,-0.050961539149284363,0.070681028068065643,-0.021525647491216660,0.020514680072665215,0.050328180193901062,0.076966546475887299,0.040930014103651047,0.091364204883575439,0.089508414268493652,-0.002323358785361052,0.038569979369640350,-0.036129754036664963,0.103408403694629669,-0.009012801572680473,-0.068523436784744263,0.016389295458793640,-0.049566432833671570,0.018834756687283516,0.022615268826484680,-0.029029438272118568,0.068484678864479065,0.076017752289772034,0.057128667831420898,0.055310994386672974,0.074656091630458832,0.019081687554717064,-0.039917595684528351,0.062487475574016571
0.044143293052911758,0.046679440885782242,-0.143742501735687256,0.127146944403648376,0.093511670827865601,0.098517574369907379,-0.085585199296474457,-0.065016947686672211,0.096422851085662842,0.014382624998688698,-0.017764721065759659,0.193900167942047119,0.107075855135917664,0.081677764654159546,-0.008517042733728886,0.114183813333511353,0.030873857438564301,0.150938883423805237,0.005854405928403139,-0.061031635850667953,0.002719452138990164,0.043556075543165207,0.015612745657563210,-0.046416182070970535,-0.028047621250152588,-0.006596764549612999,-0.129005521535873413,0.002220512367784977,0.093658961355686188,0.128227904438972473,-0.007806960958987474,-0.094994314014911652,0.136567875742912292,-0.017418831586837769,0.067080661654472351,0.141526937484741211,-0.170946568250656128,0.145067200064659119,0.114763267338275909,-0.027571881189942360,0.084293894469738007,0.029277231544256210,-0.039928276091814041,0.084454968571662903,0.078962445259094238,-0.082123056054115295,-0.062601462006568909,0.096558772027492523,-0.074703857302665710,0.109983265399932861,0.108292475342750549,-0.028362294659018517,-0.021278200671076775,-0.059577323496341705,-0.140511766076087952,0.013392800465226173,0.043500315397977829,0.164457336068153381,0.006875843275338411,-0.102572031319141388,0.057385724037885666,0.062010150402784348,-0.016712049022316933,-0.045255836099386215
-0.062409874051809311,0.024021774530410767,0.034875284880399704,0.118941999971866608,0.062593340873718262,-0.112969778478145599,0.093540869653224945,0.105204902589321136,-0.018241157755255699,-0.080184429883956909,-0.007519232574850321,0.047857053577899933,-0.015727087855339050,0.037841584533452988,0.031991280615329742,0.108069725334644318,0.084789559245109558,0.029040860012173653,-0.047151938080787659,-0.087163701653480530,0.059385094791650772,0.093195043504238129,-0.033800143748521805,0.041004944592714310,-0.007304075639694929,-0.029289346188306808,0.125624611973762512,0.026874005794525146,0.068541847169399261,-0.013943966478109360,0.128212511539459229,0.001799514750018716,-0.065748319029808044,-0.108381599187850952,-0.048592377454042435,0.002134409500285983,0.093177653849124908,0.013912439346313477,-0.150954797863960266,0.016171010211110115,0.080978453159332275,-0.130497783422470093,0.023524200543761253,0.043664112687110901,0.067115910351276398,0.099566951394081116,0.060928914695978165,-0.037749640643596649,-0.007742626592516899,0.009946344420313835,0.071738995611667633,0.037250254303216934,0.010258561000227928,0.068313308060169220,0.026949554681777954,0.087562933564186096,-0.080784998834133148,0.017539568245410919,-0.027019266039133072,0.044185321778059006,0.071691334247589111,0.012205851264297962,0.004024262540042400,-0.048184949904680252
0.048265788704156876,0.082037582993507385,0.152649939060211182,0.015376288443803787,-0.155380457639694214,-0.057607527822256088,0.074459828436374664,0.048581078648567200,-0.034058295190334320,0.024578385055065155,0.079421430826187134,0.003774270415306091,0.024722769856452942,-0.044280894100666046,-0.005429936572909355,-0.030766336247324944,0.084259122610092163,-0.078367829322814941,-0.038993440568447113,-0.093735724687576294,-0.073846288025379181,-0.138665243983268738,-0.087330199778079987,-0.058408308774232864,0.033334497362375259,0.107786163687705994,0.033850472420454025,0.067232623696327209,0.104794166982173920,0.063949592411518097,0.094180598855018616,-0.064341597259044647,-0.057227529585361481,-0.012777433730661869,0.034761510789394379,0.046121664345264435,-0.028465114533901215,0.051512613892555237,0.034514572471380234,-0.123291663825511932,0.020535247400403023,0.126605242490768433,-0.046574674546718597,-0.006998168770223856,0.096062973141670227,0.003065043361857533,-0.004913344513624907,0.012689897790551186,0.063092380762100220,0.117281720042228699,0.077531389892101288,-0.016284909099340439,0.020510552451014519,-0.040632806718349457,-0.007233474869281054,-0.062709055840969086,0.098993957042694092,0.032556422054767609,-0.050383642315864563,-0.090389855206012726,0.026461530476808548,0.068775393068790436,0.005639011040329933,0.048211719840764999
-0.031263567507266998,0.096348516643047333,-0.021328836679458618,-0.015143158845603466,-0.026589877903461456,0.025400755926966667,-0.048551030457019806,-0.047479495406150818,-0.008179188705980778,-0.049474555999040604,0.008761034347116947,0.016108214855194092,0.112598702311515808,0.157042786478996277,-0.200999930500984192,0.018009698018431664,-0.110059462487697601,-0.012997959740459919,0.024840386584401131,0.070802941918373108,0.035220593214035034,0.034743010997772217,-0.032931644469499588,0.092550531029701233,-0.053360335528850555,0.065372072160243988,0.011537180282175541,0.043493829667568207,0.040340226143598557,0.073505096137523651,-0.029644520953297615,0.058103099465370178,-0.096546009182929993,-0.097046151757240295,-0.037880599498748779,0.041775863617658615,0.105061151087284088,-0.018736856058239937,-0.088898643851280212,-0.050079550594091415,-0.137123033404350281,0.015050353482365608,-0.065050557255744934,0.074917957186698914,0.083928219974040985,0.126132309436798096,-0.044957976788282394,0.084180526435375214,-0.164392352104187012,0.015605807304382324,-0.020607879385352135,0.073280431330204010,-0.054363556206226349,0.057919532060623169,-0.004956376273185015,0.047793466597795486,0.001719454419799149,0.080617420375347137,0.020420528948307037,0.089791826903820038,0.018372246995568275,-0.015320953913033009,0.018528399989008904,-0.048008784651756287
0.120335929095745087,0.022681107744574547,-0.127150699496269226,-0.030703967437148094,-0.121445052325725555,-0.070865057408809662,-0.115064024925231934,0.000480621121823788,-0.067870095372200012,-0.055005516856908798,0.050442069768905640,0.012622870504856110,-0.027489863336086273,0.085580229759216309,0.064620696008205414,0.106354184448719025,0.069210462272167206,0.058152701705694199,0.080415792763233185,-0.067514821887016296,0.031873118132352829,-0.083647049963474274,-0.098981283605098724,0.011230881325900555,0.020323462784290314,0.062594488263130188,-0.000449201208539307,0.080267414450645447,0.103418059647083282,-0.024648088961839676,-0.025729686021804810,-0.039539445191621780,0.027848612517118454,-0.039160501211881638,0.003771615447476506,0.056611053645610809,0.026457041501998901,0.023622943088412285,-0.011931308545172215,0.039820730686187744,0.108286358416080475,0.073302142322063446,-0.019763311371207237,0.098949648439884186,0.136994391679763794,-0.004069069866091013,-0.088481247425079346,-0.134376242756843567,-0.014095155522227287,0.026333466172218323,-0.035727947950363159,0.081006266176700592,-0.049232099205255508,0.033674985170364380,0.075852490961551666,0.044893473386764526,0.038428600877523422,0.142773553729057312,-0.040131580084562302,-0.005365322809666395,0.071018241345882416,-0.020557535812258720,-0.064088620245456696,-0.101738266646862030
0.011231003329157829,0.039566598832607269,-0.041152216494083405,-0.021979600191116333,0.014837970025837421,-0.000051152037485735,0.121082216501235962,-0.156082257628440857,0.173295974731445312,0.064350955188274384,-0.041506253182888031,-0.048810437321662903,-0.034011702984571457,0.037152349948883057,-0.116035535931587219,0.007535304408520460,0.066024743020534515,-0.042951900511980057,0.156512737274169922,-0.057126417756080627,-0.015366790816187859,-0.003712301841005683,0.120766386389732361,0.013666845858097076,-0.033322613686323166,0.059172768145799637,0.084160901606082916,0.106734126806259155,-0.027225872501730919,-0.042526580393314362,0.113679118454456329,-0.022087426856160164,0.094821751117706299,0.155144721269607544,0.100859321653842926,0.032541107386350632,0.113438218832015991,0.000453010958153754,0.103456743061542511,-0.071980543434619904,-0.140807867050170898,0.153040200471878052,0.095117151737213135,0.096889279782772064,0.030902847647666931,0.126748412847518921,0.028842793777585030,0.087827429175376892,-0.058213084936141968,-0.003873824840411544,-0.041288204491138458,-0.043740473687648773,-0.103009052574634552,-0.061496149748563766,-0.081533364951610565,-0.015203555114567280,0.132749885320663452,0.036161549389362335,-0.009298527613282204,0.104029990732669830,0.045772615820169449,0.120785623788833618,0.003064205404371023,0.065234005451202393
-0.093300394713878632,0.102243982255458832,-0.000243860064074397,0.054223559796810150,0.013649832457304001,-0.016718482598662376,-0.023920014500617981,0.027545234188437462,-0.088771231472492218,0.005575560033321381,0.041343901306390762,0.095380887389183044,-0.143891572952270508,-0.057392444461584091,-0.022780261933803558,-0.008189341984689236,0.116894334554672241,0.071907915174961090,0.057571154087781906,-0.049770034849643707,-0.011835897341370583,0.056728627532720566,-0.022993581369519234,0.054476488381624222,0.000756116467528045,-0.040669329464435577,0.066192403435707092,-0.004548833705484867,0.121676325798034668,0.052910920232534409,0.122221991419792175,-0.085168130695819855,0.022900326177477837,-0.086685448884963989,-0.019126299768686295,-0.034649636596441269,-0.114183321595191956,0.066729471087455750,0.024687360972166061,0.108848594129085541,0.090704791247844696,0.005405484698712826,-0.023526836186647415,0.065763831138610840,-0.047656010836362839,0.083943553268909454,0.134872302412986755,0.007405226584523916,0.062807083129882812,0.010825579054653645,0.147186860442161560,-0.137991115450859070,0.047254495322704315,-0.072591520845890045,-0.121892169117927551,0.096602968871593475,0.017068637534976006,0.139368593692779541,0.089257441461086273,0.083012312650680542,0.038698516786098480,0.095539793372154236,0.090814359486103058,0.006923382170498371
0.086854852735996246,0.025263836607336998,0.104369983077049255,0.065000385046005249,0.094895549118518829,0.013461464084684849,0.043215133249759674,0.039972200989723206,0.028094781562685966,0.114595867693424225,0.021006120368838310,0.061067521572113037,0.031706433743238449,0.032223459333181381,0.028278714045882225,0.047107525169849396,-0.027128085494041443,0.097957380115985870,-0.127146124839782715,0.010630412027239799,0.062686271965503693,-0.088153898715972900,0.058884847909212112,0.077079609036445618,-0.039867926388978958,0.029862819239497185,0.013838006183505058,0.101208753883838654,0.042253721505403519,0.070809334516525269,-0.055510636419057846,-0.087954476475715637,-0.015143439173698425,0.056706823408603668,-0.001836596522480249,-0.048406954854726791,0.091091573238372803,-0.096665754914283752,0.019462641328573227,-0.067161932587623596,-0.007645708043128252,0.037260971963405609,0.080658249557018280,0.054589904844760895,0.013056570664048195,0.001398309832438827,0.039073091000318527,-0.081654377281665802,0.072288930416107178,0.090234212577342987,0.077152192592620850,-0.030476583167910576,0.013062790036201477,-0.034476567059755325,-0.097703143954277039,0.088200524449348450,-0.046704158186912537,-0.058617811650037766,-0.082588933408260345,-0.086525440216064453,0.041264340281486511,0.005947895813733339,0.066056847572326660,0.022776635363698006
0.048796225339174271,0.044184874743223190,-0.009520814754068851,-0.090326301753520966,-0.035105396062135696,-0.015001901425421238,-0.124432019889354706,0.057223469018936157,0.124962434172630310,-0.085464656352996826,0.093930974602699280,0.072471328079700470,0.092284515500068665,0.155431166291236877,-0.031847052276134491,0.181982830166816711,-0.002917119301855564,-0.114098548889160156,0.089234463870525360,-0.014551266096532345,-0.084530107676982880,0.022685324773192406,-0.031421542167663574,0.096121825277805328,-0.013686167076230049,0.069367788732051849,0.103077955543994904,-0.080725014209747314,0.127612739801406860,0.114299722015857697,0.007207409013062716,-0.028928432613611221,-0.092270813882350922,-0.250387728214263916,0.013888946734368801,0.044766329228878021,-0.055391814559698105,0.061102233827114105,0.012542629614472389,-0.059920575469732285,-0.007010402157902718,0.065051242709159851,-0.111625865101814270,0.030078506097197533,-0.197450086474418640,0.042277470231056213,-0.035945326089859009,0.037177991122007370,-0.066834941506385803,0.052143521606922150,-0.003266849322244525,-0.053676564246416092,0.049046210944652557,-0.068696461617946625,-0.023453449830412865,0.028236623853445053,0.096407987177371979,0.193190827965736389,0.018350576981902122,0.127793043851852417,-0.008655115030705929,0.036169748753309250,0.032635450363159180,0.047937817871570587
0.057145953178405762,0.038058720529079437,0.037431534379720688,-0.094631299376487732,-0.011555620469152927,-0.086610428988933563,0.048421200364828110,0.097324967384338379,0.057160671800374985,0.074841335415840149,-0.058351662009954453,0.045537788420915604,-0.055382225662469864,0.066503010690212250,0.076514817774295807,-0.004870627541095018,-0.075750969350337982,-0.014613669365644455,-0.027671460062265396,-0.078664161264896393,-0.054534040391445160,-0.056383363902568817,-0.070971347391605377,0.080786190927028656,-0.097510479390621185,0.047961685806512833,0.081159897148609161,0.107350118458271027,-0.056367829442024231,0.003940878901630640,0.022520871832966805,0.001925727352499962,0.063617795705795288,0.063287228345870972,0.105857983231544495,0.042030200362205505,0.072783790528774261,0.079975068569183350,0.064221829175949097,0.066282048821449280,-0.088619001209735870,-0.034697245806455612,0.011097300797700882,0.015302616171538830,-0.018020113930106163,0.169048637151718140,0.004530925769358873,-0.065843380987644196,0.024186097085475922,-0.029109135270118713,-0.018201129510998726,-0.024040659889578819,-0.034236401319503784,-0.026003010571002960,0.065666027367115021,0.058114398270845413,-0.074416160583496094,0.055523682385683060,0.059208687394857407,-0.059703506529331207,-0.052935577929019928,-0.044297009706497192,0.085621073842048645,-0.037141907960176468
