-0.032053869217634201,-0.109575413167476654,0.000771301100030541,0.067610099911689758,0.197603896260261536,-0.008518628776073456,0.046809449791908264,0.111996166408061981,-0.063143931329250336,0.009769875556230545,-0.045160707086324692,0.121606364846229553,-0.030336037278175354,-0.028939794749021530,0.060368087142705917,0.016004862263798714,0.005323250312358141,-0.070093251764774323,0.090055748820304871,0.018222423270344734,-0.093561835587024689,0.039473988115787506,-0.116535939276218414,-0.129565075039863586,0.012382547371089458,-0.054134156554937363,0.076948784291744232,0.020820554345846176,0.061139646917581558,0.000844902009703219,0.149463951587677002,-0.056423019617795944,0.005939311813563108,0.028533440083265305,0.134337514638900757,-0.006487314589321613,0.084630787372589111,-0.080671362578868866,0.060932323336601257,-0.006181641947478056,0.028782449662685394,-0.023689456284046173,0.063417039811611176,0.148190379142761230,0.039837084710597992,0.001953871222212911,0.121835425496101379,0.077472448348999023,-0.128058940172195435,-0.168133124709129333,-0.000894967175554484,0.075276903808116913,0.103907234966754913,-0.008388275280594826,-0.011173343285918236,0.005275782663375139,0.054869223386049271,-0.009749867953360081,-0.012392378412187099,-0.002066677901893854,0.119511596858501434,0.070262499153614044,0.033402033150196075,-0.053266339004039764
0.072294011712074280,-0.068209968507289886,0.111084870994091034,0.057958237826824188,0.078933864831924438,-0.035036128014326096,-0.006054935045540333,0.044553387910127640,-0.157945126295089722,0.128886595368385315,-0.034230597317218781,-0.025790732353925705,0.081314258277416229,0.011818648315966129,-0.005290579050779343,-0.047550555318593979,-0.094529554247856140,-0.054529480636119843,-0.012888388708233833,0.175663456320762634,0.077956520020961761,-0.023293936625123024,-0.092898979783058167,-0.075003586709499359,0.009084409102797508,-0.003619487863034010,-0.001732081058435142,-0.109661735594272614,0.086652792990207672,-0.095099411904811859,0.076736725866794586,0.022016722708940506,-0.133723855018615723,-0.159811660647392273,-0.031051004305481911,-0.099729083478450775,0.124020278453826904,-0.002998964395374060,0.034874517470598221,-0.018977116793394089,-0.072161130607128143,0.076494432985782623,-0.054016485810279846,0.060423944145441055,0.167943641543388367,0.042417358607053757,0.014783677645027637,0.092371813952922821,-0.244382202625274658,0.099386096000671387,0.061416778713464737,-0.035619474947452545,0.081968255341053009,0.130201771855354309,-0.042372286319732666,0.110940165817737579,0.000849861069582403,-0.073592491447925568,-0.023617755621671677,-0.065672248601913452,0.040403719991445541,-0.026128822937607765,0.071239233016967773,0.012267515063285828
-0.038543194532394409,-0.103503867983818054,0.026543406769633293,0.031615305691957474,0.050672169774770737,-0.016271326690912247,0.019924577325582504,0.072577118873596191,-0.127786263823509216,0.060353301465511322,-0.009037596173584461,0.013123291544616222,0.047211106866598129,-0.127923399209976196,0.054700218141078949,0.066935330629348755,0.018795603886246681,-0.009380808100104332,-0.130501836538314819,0.089942209422588348,0.055464901030063629,0.067972898483276367,-0.043659757822751999,-0.095973737537860870,0.000358593126293272,0.030310617759823799,0.050417009741067886,0.038561023771762848,0.040894243866205215,-0.076702840626239777,0.059642467647790909,-0.012470571324229240,-0.057593081146478653,0.079608425498008728,-0.016050295904278755,-0.083681389689445496,0.094868466258049011,0.106918640434741974,-0.017458327114582062,-0.028068715706467628,-0.002042453270405531,-0.024424407631158829,-0.044416282325983047,0.136146441102027893,0.111028917133808136,0.147275611758232117,0.045052513480186462,0.052664157003164291,-0.145174399018287659,0.094554498791694641,-0.041712194681167603,-0.102771177887916565,0.064119212329387665,0.091924808919429779,0.007315648719668388,0.082640916109085083,0.030857976526021957,0.052967522293329239,0.085902139544487000,-0.182215884327888489,0.029812725260853767,0.022579845041036606,0.016377681866288185,0.047591138631105423
0.000323232903610915,0.047449883073568344,0.005431862082332373,0.055056709796190262,-0.009490823373198509,-0.083074979484081268,0.035035055130720139,-0.121770501136779785,0.096027947962284088,0.098897345364093781,0.011341148056089878,-0.031416010111570358,-0.033559087663888931,0.042370475828647614,0.100181482732295990,-0.033276390284299850,-0.028938964009284973,0.128469839692115784,0.093668609857559204,0.014626303687691689,0.009782152250409126,0.061413634568452835,0.062819369137287140,0.095202945172786713,0.020125016570091248,-0.013308129273355007,0.027061033993959427,0.076637215912342072,-0.102438494563102722,-0.028646260499954224,0.029918756335973740,0.043933831155300140,0.021041685715317726,-0.012088962830603123,-0.016800139099359512,-0.037655297666788101,-0.008143317885696888,0.093566961586475372,-0.004636063240468502,-0.107707604765892029,0.086309000849723816,0.043496813625097275,0.038723975419998169,0.089723803102970123,-0.004885258153080940,0.038417302072048187,0.117966264486312866,-0.079927109181880951,0.045266453176736832,0.060504861176013947,0.058065887540578842,0.108015373349189758,0.183153316378593445,0.072615787386894226,-0.076595298945903778,-0.021524153649806976,-0.045472603291273117,-0.030615799129009247,-0.031508497893810272,0.074306868016719818,0.022442698478698730,0.044673848897218704,0.031531002372503281,0.017830802127718925
-0.093926608562469482,0.010053332895040512,-0.002371856942772865,0.121198289096355438,0.105959117412567139,0.107272341847419739,-0.156707003712654114,0.015250928699970245,-0.005677912849932909,0.061900895088911057,0.016690170392394066,0.170794814825057983,-0.129453882575035095,0.013227317482233047,0.084726952016353607,-0.043767828494310379,0.047389153391122818,-0.029852442443370819,-0.039964921772480011,-0.028313735499978065,-0.120166800916194916,0.086615242063999176,-0.023217219859361649,-0.040335245430469513,0.047883588820695877,-0.030924499034881592,0.010729018598794937,0.008314360864460468,0.054569344967603683,-0.084437198936939240,-0.156903833150863647,0.039276916533708572,-0.015991941094398499,0.043678756803274155,0.075485862791538239,-0.053707599639892578,-0.007853044196963310,-0.008130924776196480,-0.028082314878702164,0.102098308503627777,-0.012278260663151741,-0.029316028580069542,-0.003930346574634314,0.164948910474777222,-0.018263224512338638,0.121485739946365356,-0.102393001317977905,0.158592075109481812,0.088422290980815887,0.084516927599906921,0.094421684741973877,-0.099871784448623657,0.042057648301124573,0.092511251568794250,-0.049633536487817764,0.001625935081392527,-0.111232109367847443,-0.120480418205261230,0.015900865197181702,-0.004543469753116369,0.068288855254650116,0.037257671356201172,0.138559013605117798,-0.054559320211410522
-0.044776592403650284,-0.054155375808477402,-0.021796457469463348,0.114221215248107910,0.135203421115875244,-0.025082020089030266,-0.076352372765541077,-0.006428059656172991,-0.025270614773035049,0.135944977402687073,0.002166714286431670,0.114088140428066254,0.007208616472780704,0.090945534408092499,-0.026373403146862984,0.178510338068008423,-0.060579501092433929,0.037727039307355881,0.006942797452211380,-0.015761628746986389,0.005924356635659933,-0.010968027636408806,0.007123538758605719,-0.077578820288181305,-0.010433584451675415,0.023689251393079758,0.020436035469174385,-0.037670854479074478,0.055347397923469543,-0.004815892316401005,0.023523939773440361,0.029570311307907104,-0.003375648520886898,-0.036258865147829056,0.082224287092685699,0.049517754465341568,-0.047571808099746704,-0.072622507810592651,0.036060582846403122,0.122756928205490112,-0.073095358908176422,-0.044611643999814987,0.033168230205774307,0.044120024889707565,0.036480195820331573,-0.070444524288177490,0.123230151832103729,0.023471483960747719,0.035399213433265686,-0.034864243119955063,-0.001483626430854201,-0.129105567932128906,0.043676517903804779,0.021064816042780876,-0.056850455701351166,0.017563790082931519,0.005333171226084232,-0.046212773770093918,0.071934908628463745,0.079793214797973633,0.083759352564811707,-0.037877071648836136,0.026659697294235229,-0.063661806285381317
-0.128527224063873291,0.073762767016887665,-0.042075123637914658,-0.108247645199298859,-0.023404648527503014,0.028952665627002716,0.102410450577735901,-0.133773297071456909,0.126810505986213684,0.046751171350479126,-0.109366238117218018,0.075285769999027252,-0.047855842858552933,0.017834533005952835,0.114967450499534607,-0.005615580361336470,0.027827171608805656,-0.016023337841033936,-0.034623913466930389,-0.059741154313087463,0.029666993767023087,0.058840557932853699,0.011471943929791451,-0.056193802505731583,0.129137486219406128,0.046712528914213181,0.068620041012763977,0.114124454557895660,-0.009645698592066765,-0.008400477468967438,0.016266815364360809,0.120062693953514099,-0.061717417091131210,0.137827575206756592,-0.001156945480033755,0.019528966397047043,-0.013180255889892578,0.086713157594203949,0.100798979401588440,-0.155057132244110107,0.083449348807334900,-0.079866498708724976,-0.037345975637435913,0.150456190109252930,0.000980210839770734,0.212996944785118103,-0.048285938799381256,-0.019481580704450607,-0.040653202682733536,0.071863025426864624,-0.046913523226976395,0.000298788945656270,0.117542453110218048,0.104692228138446808,0.066618517041206360,-0.043988738209009171,0.082857362926006317,0.038770325481891632,-0.004417684860527515,0.102250427007675171,-0.047479320317506790,0.045637030154466629,0.007051748689264059,0.108414076268672943
0.120625309646129608,0.048274364322423935,0.019075412303209305,-0.001888832077383995,0.118758194148540497,-0.036179389804601669,0.008885925635695457,-0.055521056056022644,0.065928533673286438,-0.012893139384686947,0.128941714763641357,-0.007611108943820000,-0.083674475550651550,0.002548427786678076,0.105567231774330139,-0.017529236152768135,0.049878578633069992,0.107160538434982300,-0.045409046113491058,0.053997952491044998,0.072164431214332581,0.044236075133085251,0.112204141914844513,-0.033207550644874573,-0.150902688503265381,-0.017784273251891136,-0.030629290267825127,-0.050928488373756409,-0.060712814331054688,-0.068739689886569977,0.008462246507406235,0.026053437963128090,0.034448638558387756,0.079359963536262512,-0.071417041122913361,-0.005126944277435541,0.083840422332286835,0.024905327707529068,0.089486680924892426,-0.107254251837730408,0.001802617567591369,-0.030287098139524460,-0.014226270839571953,0.069056257605552673,0.086279697716236115,0.011192819103598595,-0.085314795374870300,-0.099823400378227234,-0.025497069582343102,0.054035719484090805,-0.026933781802654266,0.025782674551010132,0.121053762733936310,0.056765876710414886,0.017869479954242706,-0.025137621909379959,0.067869104444980621,-0.005571070127189159,0.042990963906049728,0.063336595892906189,0.027534827589988708,0.066997766494750977,-0.057589188218116760,0.081619754433631897
0.096750445663928986,-0.021460659801959991,-0.003397824708372355,0.014307960867881775,0.101197078824043274,-0.003874313086271286,0.094710476696491241,0.105810858309268951,-0.047232158482074738,0.100315310060977936,-0.146150290966033936,-0.013204902410507202,-0.107155203819274902,0.040385097265243530,-0.006233204156160355,0.059659969061613083,-0.151848554611206055,0.017054380849003792,0.017852170392870903,-0.020667785778641701,-0.074326157569885254,0.150123327970504761,0.011944360099732876,0.009369670413434505,-0.021644726395606995,0.041187994182109833,-0.032204434275627136,0.069684609770774841,0.121701747179031372,0.072818823158740997,-0.055155169218778610,0.039871271699666977,-0.005467718932777643,-0.000435596070019528,-0.060423702001571655,0.052221331745386124,-0.086607486009597778,-0.048498068004846573,0.057654410600662231,0.053266633301973343,0.015116124413907528,0.022173587232828140,-0.040374442934989929,0.135427623987197876,0.028051573783159256,0.090145736932754517,0.015946352854371071,0.059457119554281235,-0.053139716386795044,-0.000246228970354423,0.001907915342599154,-0.061053507030010223,0.087681487202644348,0.165022864937782288,-0.006903490517288446,0.027956642210483551,0.017160503193736076,0.016859648749232292,0.016763223335146904,-0.094921849668025970,-0.081084832549095154,0.042702872306108475,-0.023825338110327721,-0.040011823177337646
-0.116424828767776489,0.014276602305471897,-0.035913579165935516,-0.061908967792987823,0.031195843592286110,0.019532075151801109,-0.071061640977859497,-0.044950164854526520,0.076830424368381500,-0.036548323929309845,0.045551303774118423,0.032366350293159485,0.130938008427619934,0.032298963516950607,0.020031103864312172,0.069696463644504547,0.043276883661746979,0.007572212722152472,-0.061092350631952286,0.141053587198257446,0.066363960504531860,0.041593745350837708,-0.081357181072235107,-0.119548268616199493,0.119633890688419342,-0.023965608328580856,-0.005847795400768518,0.024230789393186569,-0.003635900327935815,-0.102813012897968292,0.045359160751104355,-0.046307723969221115,0.050047874450683594,-0.020167807117104530,0.056163955479860306,0.118227131664752960,0.068733863532543182,-0.080014228820800781,0.060043461620807648,0.003057261696085334,0.009892744943499565,0.022869827225804329,0.107588298618793488,0.042749706655740738,0.051915831863880157,-0.044988766312599182,0.077790699899196625,0.006076289806514978,-0.026726534590125084,-0.110883221030235291,0.040712025016546249,0.034331429749727249,-0.063475839793682098,-0.119882337749004364,0.027562933042645454,0.025595096871256828,0.011244006454944611,-0.089299172163009644,0.004757236223667860,0.124911993741989136,0.014629526995122433,-0.062581740319728851,-0.087262228131294250,-0.075592622160911560
-0.012198775075376034,0.012971092946827412,0.025815229862928391,-0.016468346118927002,0.222534716129302979,0.080878585577011108,-0.030084323137998581,0.021836111322045326,-0.024659514427185059,0.101721376180648804,-0.156226351857185364,0.080840483307838440,-0.031869810074567795,-0.014943483285605907,0.032019760459661484,-0.067971557378768921,0.127984985709190369,-0.017662141472101212,0.010531757958233356,0.026000309735536575,-0.029217049479484558,-0.043533533811569214,0.098589375615119934,0.081668101251125336,-0.088413640856742859,0.026567701250314713,0.093995042145252228,-0.020971996709704399,0.126536712050437927,0.037719409912824631,-0.033478416502475739,0.043845847249031067,0.042602829635143280,0.064926199615001678,-0.004230032674968243,0.015692263841629028,0.034364372491836548,0.013115714304149151,-0.097118742763996124,0.136185303330421448,0.148538455367088318,0.047560390084981918,-0.003162364475429058,0.053320288658142090,0.036908738315105438,0.053792513906955719,-0.075879387557506561,0.015095870941877365,0.086253091692924500,0.007323522120714188,0.108466863632202148,0.068288788199424744,0.128153458237648010,-0.001854717847891152,0.109209813177585602,0.065557882189750671,-0.229404509067535400,0.064090587198734283,0.045005351305007935,-0.126710519194602966,0.025772636756300926,0.117301411926746368,0.054230369627475739,0.034865256398916245
0.060439366847276688,-0.012389085255563259,0.133910462260246277,0.021436471492052078,-0.026892421767115593,-0.022519100457429886,-0.012962428852915764,-0.010091023519635201,-0.021076878532767296,0.010232381522655487,0.038824968039989471,0.168951645493507385,0.078391551971435547,0.041023910045623779,-0.043158613145351410,0.092090740799903870,-0.002694349735975266,0.156816914677619934,-0.005509153474122286,0.003224732121452689,-0.085614643990993500,0.052506387233734131,0.052291139960289001,0.072657085955142975,0.057338163256645203,0.004205879755318165,0.021600728854537010,0.029022082686424255,-0.047624815255403519,-0.040828015655279160,0.047530263662338257,0.048727348446846008,0.121154829859733582,0.075691297650337219,-0.065081313252449036,0.029441399499773979,0.078238539397716522,-0.007041027303785086,-0.020323842763900757,-0.026130005717277527,0.118856497108936310,0.113507166504859924,-0.122372731566429138,0.054642964154481888,0.031734254211187363,0.020291421562433243,0.115172632038593292,-0.068678140640258789,0.056829813867807388,-0.006155448034405708,0.012148402631282806,0.013930940069258213,0.188979014754295349,0.008145078085362911,-0.001709976233541965,-0.017973700538277626,-0.041786234825849533,0.115670718252658844,-0.058741807937622070,0.049399115145206451,-0.074190974235534668,-0.029820803552865982,0.026058007031679153,0.109059520065784454
-0.077674165368080139,-0.018601765856146812,-0.054647989571094513,0.038018628954887390,0.043943885713815689,0.019557977095246315,0.039117239415645599,-0.007395865861326456,0.014201478101313114,-0.003331797895953059,-0.041276276111602783,-0.165042296051979065,0.139673188328742981,-0.002142533427104354,-0.032399397343397141,-0.104272104799747467,-0.033822953701019287,-0.008130680769681931,0.044100966304540634,0.035931192338466644,0.014246620237827301,-0.014567315578460693,0.009609574452042580,0.045717846602201462,0.043693903833627701,0.008591465651988983,0.005763955414295197,-0.034105151891708374,0.096892185509204865,0.031515974551439285,-0.009918903000652790,-0.012326959520578384,0.053477749228477478,-0.019535496830940247,-0.069239594042301178,0.011707814410328865,-0.062499884516000748,-0.019849032163619995,-0.044607978314161301,0.062787421047687531,-0.045636903494596481,0.107524000108242035,-0.004316864535212517,0.074076034128665924,0.111566007137298584,0.035891711711883545,0.031985167413949966,-0.047366533428430557,0.050466880202293396,-0.051592912524938583,0.022401448339223862,0.071512743830680847,0.091778099536895752,-0.026145013049244881,0.008029961958527565,0.048098031431436539,0.028136270120739937,0.094663985073566437,0.056416667997837067,-0.046219598501920700,-0.046926960349082947,-0.066100373864173889,-0.205732122063636780,0.083198979496955872
0.016991904005408287,-0.027614515274763107,-0.026748200878500938,-0.030187530443072319,0.066000804305076599,-0.010404292494058609,-0.032333500683307648,-0.016597323119640350,-0.039177007973194122,-0.082800887525081635,-0.071184366941452026,-0.006794963032007217,-0.053304806351661682,-0.000313339580316097,0.052517525851726532,0.026479151099920273,0.015825621783733368,0.072583146393299103,-0.099302865564823151,0.028594845905900002,0.030069869011640549,-0.020156616345047951,0.112368337810039520,0.083702698349952698,-0.004136243369430304,-0.015373424626886845,-0.036727469414472580,-0.012250332161784172,-0.094226069748401642,-0.032688520848751068,-0.048143167048692703,0.019883420318365097,-0.000697049254085869,0.038554754108190536,-0.046981830149888992,0.008862701244652271,-0.157825663685798645,-0.009050933644175529,-0.111488118767738342,-0.115102536976337433,-0.039415214210748672,0.009359522722661495,-0.058858264237642288,0.167670860886573792,-0.041977778077125549,0.094890728592872620,-0.060638174414634705,-0.149142682552337646,-0.039325531572103500,-0.070429518818855286,0.072758734226226807,0.077565737068653107,0.128736048936843872,0.072338588535785675,0.083544157445430756,-0.037058372050523758,-0.016803588718175888,-0.029941288754343987,-0.039979524910449982,0.082660533487796783,-0.036014080047607422,-0.007342289201915264,-0.062018577009439468,0.009201089851558208
-0.017628207802772522,0.096598967909812927,-0.224152013659477234,-0.047686111181974411,0.100554287433624268,-0.069261677563190460,0.020584780722856522,-0.109820425510406494,-0.148073881864547729,0.063199125230312347,0.159836187958717346,0.053759410977363586,0.047401741147041321,0.004141671583056450,-0.151815056800842285,0.007049940060824156,0.036854237318038940,-0.001038056449033320,0.008768594823777676,0.038641095161437988,0.074967689812183380,-0.086244821548461914,-0.057229503989219666,-0.011427603662014008,0.053572457283735275,0.003385734744369984,0.069166578352451324,-0.150893926620483398,-0.006882247049361467,0.005994146689772606,0.138882249593734741,-0.126356661319732666,0.009665058925747871,-0.005389910191297531,-0.023382944986224174,-0.010948671028017998,0.092638686299324036,0.021820314228534698,0.059096261858940125,-0.032771375030279160,-0.000604701926931739,-0.146029755473136902,0.097875356674194336,0.263106822967529297,-0.055741630494594574,-0.035341240465641022,-0.026436677202582359,0.032714188098907471,-0.112748347222805023,0.011838655918836594,-0.024569308385252953,-0.040365632623434067,0.065755814313888550,0.025801960378885269,0.002653758274391294,0.106467269361019135,0.056078419089317322,-0.056169763207435608,-0.022570004686713219,0.066444739699363708,0.025257306173443794,-0.029906647279858589,0.065826654434204102,-0.012403815984725952
-0.139254063367843628,-0.008136247284710407,0.025649931281805038,0.088307917118072510,0.044739820063114166,0.008606589399278164,-0.086125195026397705,0.102821648120880127,-0.171209588646888733,0.005795428995043039,-0.120580576360225677,0.010889356024563313,-0.080667033791542053,-0.016843484714627266,0.043063070625066757,0.041844543069601059,0.005329859908670187,0.039857629686594009,0.043207969516515732,-0.001978009240701795,-0.176560670137405396,0.012613028287887573,0.115071475505828857,0.038479529321193695,-0.008083348162472248,-0.022744039073586464,-0.259575843811035156,0.034718204289674759,0.048468112945556641,0.075809039175510406,-0.091273628175258636,0.069551333785057068,0.039748732000589371,-0.085767962038516998,-0.097588486969470978,-0.024494498968124390,-0.059135388582944870,-0.170131549239158630,0.063195757567882538,0.030995028093457222,-0.046774938702583313,-0.045939542353153229,-0.005847302731126547,0.190738201141357422,-0.068819262087345123,0.104222036898136139,-0.046981468796730042,-0.055953815579414368,-0.136647596955299377,0.038720265030860901,0.224992975592613220,0.083845280110836029,-0.090309873223304749,0.012765272520482540,0.028072573244571686,-0.089584201574325562,-0.143121361732482910,-0.153691098093986511,-0.029471306130290031,0.100411608815193176,0.113176502287387848,-0.000246543786488473,0.100201219320297241,0.030779618769884109
0.024322558194398880,-0.031611040234565735,-0.029684521257877350,-0.066279828548431396,0.081603191792964935,-0.032974056899547577,-0.026650875806808472,0.019837724044919014,0.013129829429090023,0.074595645070075989,0.121710225939750671,-0.046684816479682922,0.037911262363195419,-0.019840883091092110,0.025520144030451775,0.007372520864009857,-0.226766839623451233,-0.021527368575334549,-0.144195839762687683,-0.062044240534305573,0.130552485585212708,-0.073545128107070923,0.062303889542818069,0.039243899285793304,0.035677790641784668,0.071920529007911682,-0.007306243292987347,-0.052312664687633514,-0.012305924668908119,-0.099036738276481628,-0.043745327740907669,-0.013390444219112396,0.098742663860321045,-0.011443651281297207,0.026776114478707314,-0.012140064500272274,0.029777910560369492,0.002449553692713380,0.079277738928794861,0.058946177363395691,0.028537569567561150,0.057943973690271378,0.030471758916974068,0.086596071720123291,-0.203764095902442932,0.045929890125989914,-0.118916913866996765,-0.053561437875032425,-0.047616362571716309,0.080687016248703003,0.069780513644218445,-0.022935796529054642,0.139223635196685791,-0.046557813882827759,0.047732550650835037,-0.030551427975296974,0.015175608918070793,-0.054794996976852417,-0.027643345296382904,0.063784860074520111,0.004562671296298504,-0.014488182030618191,-0.035549674183130264,0.097951754927635193
-0.058789119124412537,-0.029713043943047523,0.052939333021640778,0.196165665984153748,0.156559556722640991,0.001012548455037177,0.004347460810095072,-0.014246962033212185,0.002283480251207948,0.018889497965574265,-0.031520806252956390,-0.088470041751861572,0.068099200725555420,-0.127543017268180847,-0.053075090050697327,-0.149807795882225037,0.026676036417484283,-0.077398523688316345,0.055262975394725800,0.087608501315116882,-0.026371672749519348,0.002221229253336787,-0.014140542596578598,-0.018542373552918434,-0.086371526122093201,0.043058000504970551,-0.131550192832946777,0.026762064546346664,-0.052740674465894699,0.040587261319160461,-0.117825351655483246,-0.063238978385925293,0.012556635774672031,-0.024613207206130028,-0.050533372908830643,0.017100229859352112,-0.094812579452991486,-0.030256493017077446,0.066544935107231140,-0.063609831035137177,0.021904500201344490,0.133114904165267944,-0.020774252712726593,0.162371322512626648,-0.003473010146990418,0.060004334896802902,0.043191269040107727,-0.026954503729939461,0.031911037862300873,-0.010173265822231770,0.005000367294996977,-0.015528899617493153,0.148839712142944336,0.044830590486526489,-0.025383861735463142,0.002789034740999341,0.064180932939052582,0.035781621932983398,0.055457741022109985,-0.125469043850898743,-0.024373482912778854,0.052466675639152527,-0.103002220392227173,0.120930783450603485
0.027413969859480858,0.005065076053142548,0.112371593713760376,0.070888437330722809,0.120463341474533081,-0.001348063466139138,0.030412307009100914,0.031054427847266197,-0.004236609674990177,0.073729388415813446,-0.172515213489532471,0.081368632614612579,0.054151687771081924,0.047189407050609589,0.074951738119125366,-0.044858518987894058,0.059667713940143585,0.056273229420185089,0.049924295395612717,0.026704244315624237,-0.032083388417959213,-0.034102573990821838,0.022769169881939888,0.023204699158668518,0.038155168294906616,0.049713701009750366,0.059395939111709595,-0.140801921486854553,0.040267005562782288,-0.025525724515318871,-0.039548512548208237,0.061468485742807388,-0.033743415027856827,-0.031458508223295212,0.010157671757042408,0.032430931925773621,0.101456277072429657,0.018844978883862495,0.070594906806945801,0.022910621017217636,-0.032432869076728821,-0.066239453852176666,-0.083225853741168976,0.046427708119153976,0.097331285476684570,-0.060219984501600266,-0.052922297269105911,0.056308835744857788,0.128351956605911255,-0.061777774244546890,0.015016477555036545,0.016921069473028183,0.103949889540672302,0.013265658169984818,-0.004259776789695024,-0.057279046624898911,-0.047382306307554245,0.082600474357604980,-0.012637778185307980,-0.039952926337718964,0.075644515454769135,-0.066144809126853943,-0.078467674553394318,-0.019421728327870369
0.058458570390939713,0.015693886205554008,0.058314129710197449,0.040657829493284225,0.063287816941738129,0.039874698966741562,0.109122820198535919,0.019653467461466789,-0.016139512881636620,0.051511690020561218,0.002087509958073497,-0.134461894631385803,0.011543134227395058,0.035482060164213181,0.050004124641418457,0.134276166558265686,-0.080175004899501801,0.027086200192570686,0.063261680305004120,0.029228385537862778,-0.065740279853343964,0.142585441470146179,-0.024589145556092262,-0.085590846836566925,0.104817047715187073,-0.020594060420989990,0.062091868370771408,-0.032718453556299210,0.100010655820369720,-0.048573732376098633,-0.008675523102283478,-0.076956182718276978,0.044948998838663101,-0.064612828195095062,0.012253620661795139,0.017460638657212257,0.095095463097095490,0.031409498304128647,0.177694976329803467,-0.015253146179020405,-0.054460879415273666,-0.041681010276079178,0.018107105046510696,-0.033510196954011917,-0.044442895799875259,0.021256087347865105,0.094662867486476898,0.014797354117035866,-0.121057219803333282,-0.093554832041263580,0.140859529376029968,0.004244019743055105,0.052302323281764984,0.164915621280670166,-0.047161106020212173,-0.098005495965480804,0.128895610570907593,0.136320352554321289,-0.048135064542293549,0.043661165982484818,-0.000631903938483447,0.103722147643566132,0.039683286100625992,0.040264077484607697
0.001755043282173574,-0.048032678663730621,-0.058524973690509796,-0.035492032766342163,-0.043422572314739227,0.074627421796321869,-0.014859281480312347,-0.138855621218681335,0.060613833367824554,-0.071295768022537231,0.057949852198362350,-0.015740394592285156,0.055794771760702133,0.043798994272947311,-0.084025748074054718,0.024521635845303535,-0.053140856325626373,-0.018546508625149727,0.048019301146268845,-0.043110452592372894,0.035137552767992020,0.011138391681015491,0.010521491989493370,-0.020662426948547363,0.086703844368457794,0.044397559016942978,0.005234742071479559,-0.141675725579261780,-0.145890846848487854,-0.021866098046302795,0.037150874733924866,-0.094645470380783081,0.133816048502922058,-0.012215457856655121,-0.053200151771306992,-0.040590960532426834,0.031671412289142609,0.091393738985061646,-0.018342088907957077,0.011956137605011463,0.071290992200374603,0.077894218266010284,-0.005080462433397770,-0.113542206585407257,0.011426322162151337,0.094436712563037872,0.060350470244884491,-0.076130986213684082,0.020805904641747475,-0.111158840358257294,-0.048984836786985397,-0.020973786711692810,0.136541500687599182,-0.080235645174980164,-0.043397292494773865,0.022798798978328705,0.078557707369327545,-0.065123282372951508,0.062875658273696899,0.149840235710144043,-0.033371899276971817,0.062337774783372879,-0.069379352033138275,-0.050166890025138855
0.063829384744167328,0.019836075603961945,-0.002299863146618009,0.093187630176544189,0.121296510100364685,0.012101808562874794,0.009799047373235226,-0.014199694618582726,0.019164038822054863,0.116504020988941193,0.021441951394081116,0.030162878334522247,0.034272100776433945,0.057999182492494583,0.096612446010112762,-0.029801545664668083,-0.143973529338836670,0.053621679544448853,0.053534578531980515,-0.002200268208980560,-0.080253973603248596,-0.014491261914372444,-0.020243799313902855,-0.052197031676769257,-0.088882073760032654,0.143733233213424683,-0.099792666733264923,-0.061381652951240540,-0.005328965373337269,0.022088469937443733,-0.130834311246871948,-0.056920219212770462,-0.048814363777637482,0.058537643402814865,-0.052253764122724533,0.068064749240875244,-0.091945894062519073,-0.038438107818365097,-0.098922722041606903,-0.000944087165407836,-0.038700282573699951,-0.038067702203989029,0.031058104708790779,0.094328060746192932,-0.120263583958148956,0.082038499414920807,0.005642058327794075,-0.001527510583400726,0.030063338577747345,-0.061336837708950043,0.103445231914520264,-0.025445183739066124,0.086879894137382507,0.105158574879169464,0.037565156817436218,0.035712957382202148,-0.009893754497170448,-0.093880273401737213,-0.096345342695713043,0.012092139571905136,-0.120067380368709564,0.034752782434225082,0.035982307046651840,-0.005780611187219620
0.002889312803745270,0.042454302310943604,-0.017680700868368149,-0.006055054720491171,0.162734255194664001,0.111320436000823975,-0.003964191302657127,0.002492153318598866,-0.074696041643619537,0.032510261982679367,0.071508489549160004,-0.019365614280104637,0.038153830915689468,0.027460657060146332,-0.060076840221881866,-0.101519860327243805,-0.039297431707382202,-0.044631738215684891,0.064081706106662750,-0.027737023308873177,0.034768283367156982,0.064110413193702698,-0.097978763282299042,-0.068861857056617737,0.100731678307056427,-0.012669397518038750,-0.025497328490018845,-0.002512959763407707,-0.048658818006515503,-0.010295338928699493,0.003753514727577567,0.006469292566180229,0.082307904958724976,-0.014325719326734543,-0.029160942882299423,0.028023239225149155,0.001459432067349553,-0.006175653543323278,0.087054640054702759,0.003838956588879228,-0.040992185473442078,0.079893134534358978,0.043325528502464294,0.113611623644828796,-0.006693316623568535,-0.067498572170734406,0.056860826909542084,0.004551576916128397,-0.178408280014991760,0.046095844358205795,-0.074687108397483826,0.044783376157283783,0.202006727457046509,0.065945863723754883,-0.024020113050937653,0.087240301072597504,0.102247424423694611,0.069443903863430023,-0.016871735453605652,0.046718440949916840,0.031350322067737579,-0.010534525848925114,0.002063080901280046,0.060677643865346909
-0.102416194975376129,0.030441731214523315,0.015131572261452675,-0.003273155307397246,0.142185404896736145,0.036115624010562897,0.040204115211963654,0.042255438864231110,0.027005229145288467,-0.006194743327796459,-0.091204650700092316,-0.060007233172655106,0.043094307184219360,-0.058625206351280212,0.104458779096603394,0.027148107066750526,0.048899959772825241,0.001511057955212891,0.017323188483715057,-0.011194044724106789,-0.037222232669591904,0.065082013607025146,0.038779418915510178,0.023375641554594040,-0.070253647863864899,-0.072396010160446167,0.011007506400346756,0.038783438503742218,0.005310239270329475,-0.013305022381246090,-0.065139792859554291,0.003490717383101583,-0.023409569635987282,0.045140240341424942,0.035940185189247131,0.064349532127380371,0.000164101191330701,0.031520489603281021,0.048672564327716827,0.064204342663288116,-0.030915960669517517,-0.008721989579498768,0.117852687835693359,0.166369378566741943,-0.041784465312957764,0.029670612886548042,-0.020608795806765556,-0.003472993616014719,-0.116234451532363892,0.048084918409585953,0.081699371337890625,0.022579636424779892,0.025536667555570602,0.007384782657027245,0.027306679636240005,-0.029963651672005653,0.005733658559620380,-0.042687602341175079,0.011296267621219158,-0.008212427608668804,0.098216712474822998,-0.060148172080516815,-0.008719965815544128,-0.001894930843263865
0.064213231205940247,-0.103281408548355103,-0.018673345446586609,0.069963552057743073,0.109744898974895477,0.055505845695734024,0.072840631008148193,-0.128366708755493164,-0.066728159785270691,0.058649510145187378,0.029668204486370087,-0.021326933056116104,-0.007840777747333050,0.090858429670333862,-0.006199428346008062,0.124358378350734711,-0.090539723634719849,-0.038567632436752319,0.045435018837451935,-0.041708365082740784,0.039625614881515503,0.069477520883083344,-0.099037386476993561,0.056960694491863251,0.054091431200504303,0.075498476624488831,0.041962720453739166,-0.080781504511833191,-0.014887252822518349,-0.019211590290069580,0.023907141759991646,0.016445724293589592,-0.019754750654101372,0.089036010205745697,0.124604724347591400,0.000353521085344255,-0.017179645597934723,-0.092090107500553131,0.043378837406635284,-0.083510532975196838,-0.018488753587007523,0.055677812546491623,-0.059910319745540619,-0.052751049399375916,0.125313982367515564,-0.100905798375606537,-0.098161980509757996,-0.024885822087526321,0.081593371927738190,0.019551219418644905,-0.055135447531938553,0.052917566150426865,0.083721227943897247,-0.013526388444006443,-0.064274966716766357,-0.058480277657508850,-0.015565693378448486,-0.016368817538022995,0.059034582227468491,-0.002903219778090715,0.081259243190288544,0.019056506454944611,-0.073367536067962646,-0.092925250530242920
-0.057303685694932938,0.084035247564315796,0.040028907358646393,0.016219094395637512,-0.048191744834184647,-0.074492707848548889,-0.047332141548395157,-0.002488261554390192,-0.073238275945186615,-0.078353375196456909,-0.106682129204273224,0.072708517313003540,0.045652061700820923,-0.093558587133884430,-0.008199665695428848,0.039319016039371490,-0.131688013672828674,0.053570698946714401,-0.030424844473600388,-0.067573711276054382,0.021591400727629662,0.023123607039451599,0.141790047287940979,-0.053392361849546432,-0.067544579505920410,0.018619772046804428,0.014826798811554909,0.101840443909168243,0.054366968572139740,0.058447368443012238,-0.020779209211468697,-0.127194970846176147,0.086547151207923889,0.146116822957992554,0.002720600925385952,0.045696016401052475,-0.028170857578516006,-0.067758619785308838,-0.107247926294803619,-0.055350910872220993,-0.033188976347446442,-0.025032898411154747,-0.047370105981826782,0.144779339432716370,-0.079077541828155518,-0.082799367606639862,-0.016602737829089165,-0.051509961485862732,0.009658272378146648,-0.005224315915256739,0.059817239642143250,-0.003013873938471079,0.164304599165916443,-0.011099931783974171,0.027515178546309471,-0.028075546026229858,-0.052752900868654251,-0.002690837485715747,-0.014961725100874901,0.065009020268917084,-0.070574678480625153,-0.096344292163848877,0.044432953000068665,-0.000216584201552905
-0.102537907660007477,-0.033344000577926636,0.037164676934480667,0.040338221937417984,-0.026942480355501175,-0.122424021363258362,0.024909114465117455,-0.025749312713742256,-0.098367452621459961,-0.088617734611034393,-0.109666153788566589,-0.028130551800131798,0.026728225871920586,-0.015422417782247066,-0.010912601836025715,0.005350330844521523,0.112082011997699738,0.048836693167686462,0.032198961824178696,0.051438819617033005,-0.059065863490104675,0.046872377395629883,0.057184360921382904,-0.017762107774615288,-0.071928746998310089,0.098915636539459229,0.010857064276933670,-0.036174204200506210,-0.103402264416217804,-0.025232436135411263,0.016004176810383797,-0.049776550382375717,0.081186398863792419,0.160360172390937805,0.065789565443992615,0.004313539247959852,-0.004075169563293457,-0.016332257539033890,-0.208620384335517883,-0.090936422348022461,-0.011775187216699123,0.068971425294876099,0.037621922791004181,0.085422269999980927,0.059920199215412140,-0.058866735547780991,-0.098185546696186066,-0.033210687339305878,0.116271935403347015,0.077314674854278564,0.093499302864074707,-0.142829760909080505,0.125279173254966736,-0.001767279114574194,-0.052828297019004822,0.066809840500354767,-0.048382457345724106,0.013606682419776917,0.030148696154356003,0.107551097869873047,0.077423676848411560,-0.010422281920909882,-0.075358092784881592,-0.180149748921394348
-0.088604658842086792,-0.094741471111774445,0.085053719580173492,0.131974279880523682,0.068863458931446075,-0.054349921643733978,-0.031538590788841248,-0.048157405108213425,0.015404728241264820,-0.064237244427204132,-0.009748069569468498,0.026681117713451385,-0.112760938704013824,-0.024747442454099655,0.014184294268488884,0.082600958645343781,-0.000853420409839600,0.071957878768444061,0.106787569820880890,-0.102052152156829834,0.049382239580154419,-0.057215735316276550,-0.022401658818125725,-0.132634013891220093,-0.008392143063247204,0.068608336150646210,-0.086508750915527344,0.151392385363578796,0.004446945153176785,0.118570081889629364,-0.058098904788494110,0.004559167660772800,0.011845624074339867,-0.004065437708050013,0.024912588298320770,-0.090804971754550934,0.008535871282219887,-0.092001691460609436,-0.028483321890234947,0.022154718637466431,0.003471554256975651,-0.063307181000709534,-0.003260595258325338,0.237568527460098267,0.018039010465145111,0.016976911574602127,0.082549102604389191,-0.077952727675437927,-0.097665593028068542,-0.094278775155544281,-0.023146240040659904,0.089580588042736053,0.005527919158339500,0.038083966821432114,-0.024880087003111839,-0.022908534854650497,0.037591755390167236,0.047603063285350800,-0.073743134737014771,-0.068643361330032349,0.027621781453490257,-0.072601810097694397,-0.043663568794727325,0.052446439862251282
0.078783400356769562,-0.037092041224241257,0.005761942360550165,0.000211623759241775,0.230863139033317566,0.146353408694267273,0.018861116841435432,-0.075178615748882294,-0.015859507024288177,0.095942921936511993,0.067734345793724060,-0.042014587670564651,-0.026472508907318115,0.007967429235577583,-0.103990085422992706,-0.070248559117317200,-0.110950700938701630,-0.051208212971687317,-0.067171610891819000,-0.000795587780885398,-0.011590504087507725,-0.091825947165489197,-0.071005381643772125,-0.127287000417709351,-0.087488099932670593,0.025394132360816002,-0.010136129334568977,-0.111204028129577637,-0.038728188723325729,-0.033650577068328857,-0.005104728508740664,-0.030925558879971504,-0.028941944241523743,0.004553646780550480,-0.070773527026176453,0.096390984952449799,-0.025979211553931236,0.013016580604016781,-0.022296467795968056,-0.078240849077701569,0.109016329050064087,0.051194820553064346,-0.059312939643859863,0.041694156825542450,0.027490297332406044,-0.003601030446588993,-0.192011639475822449,-0.019371638074517250,-0.061484649777412415,0.085533127188682556,0.047477155923843384,0.068971529603004456,0.167368233203887939,-0.039965078234672546,0.039262168109416962,0.042913809418678284,-0.036073312163352966,-0.055227451026439667,0.050596866756677628,-0.029438892379403114,0.088848069310188293,-0.032965835183858871,0.008818674832582474,-0.002947283443063498
0.008415882475674152,0.023529032245278358,0.083398737013339996,0.043346446007490158,0.173976793885231018,-0.009353714063763618,0.043341595679521561,-0.064586259424686432,-0.054223317652940750,0.076603204011917114,-0.017052045091986656,-0.010214189998805523,0.007268035784363747,0.033900942653417587,-0.029923679307103157,-0.078313864767551422,-0.050280530005693436,-0.046542026102542877,-0.007772366516292095,-0.022231480106711388,0.044961620122194290,-0.007446992676705122,-0.002950182417407632,0.008928115479648113,0.061216000467538834,-0.059563070535659790,0.061215490102767944,-0.002172817476093769,-0.101185038685798645,-0.051239639520645142,-0.031216790899634361,0.079479672014713287,0.000806928612291813,0.041626632213592529,0.028975116088986397,0.000707116560079157,0.069778144359588623,-0.004587136209011078,-0.002394193084910512,-0.026310095563530922,0.051730692386627197,0.069322958588600159,-0.047959104180335999,0.228748470544815063,-0.002428048290312290,-0.069901727139949799,0.043255161494016647,0.015256641432642937,0.019385995343327522,0.041207697242498398,-0.023469313979148865,0.055900700390338898,0.199651405215263367,0.056110396981239319,0.008417388424277306,0.007219408173114061,0.026009643450379372,-0.044352106750011444,0.050735220313072205,0.059638947248458862,-0.025387989357113838,0.047878060489892960,-0.031276125460863113,0.007765772752463818
0.020821461454033852,-0.022920211777091026,0.102133385837078094,0.070511117577552795,-0.055378828197717667,-0.018668200820684433,0.085352309048175812,-0.040693577378988266,0.002356402110308409,-0.035911936312913895,0.041004415601491928,0.029818046838045120,-0.023811429738998413,-0.024800598621368408,-0.028407692909240723,-0.091887533664703369,0.022803386673331261,0.086076289415359497,0.089129678905010223,-0.008053248748183250,0.028487335890531540,0.026787685230374336,-0.059227049350738525,0.089149154722690582,-0.102450713515281677,-0.007650973740965128,-0.004318856168538332,0.040894426405429840,0.010704154148697853,0.038896959275007248,0.025879636406898499,0.053281873464584351,0.016847301274538040,-0.008843836374580860,-0.071864381432533264,-0.130238562822341919,0.122285224497318268,0.062724500894546509,0.021719574928283691,-0.037227895110845566,-0.018781580030918121,-0.001357458881102502,0.010270547121763229,0.099540121853351593,0.042488489300012589,-0.001284092315472662,0.051340170204639435,0.043158903717994690,0.026281693950295448,0.088209487497806549,-0.050924684852361679,-0.045816596597433090,0.121554076671600342,-0.042733501642942429,-0.043300356715917587,-0.010116345249116421,0.016871120780706406,-0.041253615170717239,-0.016146464273333549,-0.054392401129007339,0.035467348992824554,0.052360642701387405,-0.034146796911954880,0.077747188508510590
-0.038620766252279282,0.167452707886695862,0.085781626403331757,0.014945840463042259,0.044211588799953461,-0.091750785708427429,0.024980766698718071,-0.107946619391441345,-0.092930674552917480,0.019660918042063713,-0.019016724079847336,0.115119583904743195,0.029107153415679932,0.075004756450653076,0.133794754743576050,-0.062987744808197021,-0.051567487418651581,-0.012424552813172340,0.010483991354703903,0.093447625637054443,0.063146315515041351,-0.045129690319299698,0.100165970623493195,-0.079068243503570557,0.038466513156890869,-0.117065019905567169,0.028434257954359055,-0.003354578046128154,0.032929677516222000,-0.114877246320247650,0.168540775775909424,-0.050919257104396820,0.077611796557903290,0.165934592485427856,-0.123798914253711700,0.069437712430953979,0.003596163820475340,-0.019769411534070969,0.047588486224412918,0.002382666571065784,-0.126998871564865112,0.012756329961121082,-0.058899536728858948,0.001775329001247883,-0.037131540477275848,-0.050447646528482437,-0.021795075386762619,0.088726796209812164,-0.122256308794021606,0.075362242758274078,-0.029214208945631981,-0.013831184245646000,-0.020366953685879707,0.037237871438264847,0.169986695051193237,0.118754982948303223,-0.016606282442808151,0.085068054497241974,-0.029069606214761734,0.085838586091995239,0.003075702348724008,0.038921520113945007,0.055329699069261551,0.070597015321254730
-0.086849391460418701,0.102532692253589630,0.033343244343996048,-0.011774852871894836,0.046172112226486206,-0.090960107743740082,-0.096379660069942474,0.010970906354486942,-0.048535246402025223,0.059947103261947632,0.093544200062751770,0.098847173154354095,0.009108329191803932,-0.123263336718082428,0.053979713469743729,0.042400714010000229,0.059944212436676025,-0.043063357472419739,0.093454413115978241,0.011523527093231678,0.017554657533764839,0.069786183536052704,-0.125885158777236938,-0.068577304482460022,0.079100012779235840,-0.032943621277809143,0.010556363500654697,-0.074149355292320251,0.104641854763031006,-0.048483580350875854,-0.004884085152298212,0.033667925745248795,-0.010942688211798668,0.017675960436463356,0.048178505152463913,-0.095074445009231567,0.082820773124694824,-0.058993134647607803,-0.049032509326934814,0.093731805682182312,0.041445303708314896,-0.016039669513702393,-0.043145101517438889,0.224731236696243286,-0.076488144695758820,0.013824158348143101,-0.000872028351295739,0.102180048823356628,-0.019461562857031822,-0.092976175248622894,0.069985099136829376,0.007874307222664356,0.025403765961527824,0.037179160863161087,0.078237339854240417,0.043131537735462189,0.072430312633514404,0.039695404469966888,-0.108710125088691711,-0.019142717123031616,0.036769941449165344,0.008871388621628284,0.017508853226900101,-0.046065539121627808
0.101977370679378510,-0.025716258212924004,-0.165719419717788696,-0.038311731070280075,-0.028912361711263657,0.027650846168398857,0.008023545145988464,-0.011378613300621510,0.070251606404781342,-0.031301930546760559,-0.025570575147867203,0.037814609706401825,0.017733070999383926,-0.108559548854827881,0.111008070409297943,0.115717798471450806,0.123877078294754028,0.061704397201538086,-0.027160966768860817,0.029548058286309242,0.042174719274044037,-0.039232935756444931,0.009277275763452053,-0.003394422819837928,0.034008093178272247,-0.009695367887616158,0.009654424153268337,0.039515886455774307,-0.058198809623718262,0.056534368544816971,-0.067346207797527313,-0.054238066077232361,0.007363388780504465,-0.113986529409885406,0.054480813443660736,0.065955027937889099,0.019757013767957687,-0.118186295032501221,-0.051843896508216858,-0.062849186360836029,0.090945050120353699,-0.020392540842294693,0.095061279833316803,0.235178127884864807,-0.060646817088127136,0.138486117124557495,0.056887533515691757,-0.192013829946517944,-0.099218875169754028,0.031534206122159958,0.072397090494632721,0.062467593699693680,0.088720686733722687,0.001541559700854123,0.035256210714578629,-0.109933421015739441,0.128724768757820129,0.013102347962558270,-0.063878774642944336,0.073018386960029602,0.125473663210868835,-0.122226826846599579,-0.012076710350811481,0.089640654623508453
0.020742552354931831,0.042178697884082794,0.045021463185548782,-0.017701651901006699,-0.002804524265229702,0.014155844226479530,0.011487539857625961,-0.028513416647911072,0.042548500001430511,-0.007497160229831934,0.028865255415439606,0.039691451936960220,-0.034624293446540833,0.045818090438842773,0.070263072848320007,-0.095272734761238098,-0.059505857527256012,0.067595973610877991,0.017201846465468407,0.019170608371496201,0.046669639647006989,0.057402867823839188,-0.022921146824955940,0.052722293883562088,-0.054995700716972351,0.047802887856960297,-0.070189118385314941,0.035527244210243225,-0.083767876029014587,-0.089288070797920227,-0.017061984166502953,0.069161884486675262,-0.048503059893846512,0.064276032149791718,-0.030463900417089462,-0.049011107534170151,-0.016293466091156006,0.041725814342498779,0.009558499790728092,-0.023480579257011414,0.040272485464811325,0.022279396653175354,-0.034941472113132477,0.130905821919441223,-0.014326942153275013,0.015087272971868515,0.080316223204135895,-0.061562541872262955,-0.009975589811801910,0.061119932681322098,0.033297225832939148,-0.066029749810695648,0.076043188571929932,0.057801052927970886,-0.098264761269092560,-0.022380709648132324,0.011004686355590820,0.000429885374614969,-0.028530705720186234,-0.070929601788520813,-0.085823632776737213,-0.018870972096920013,0.006302181631326675,0.060350790619850159
-0.066772669553756714,-0.025024624541401863,-0.035185582935810089,0.093319557607173920,-0.004426237195730209,-0.001615933491848409,0.077286742627620697,0.099235154688358307,-0.000524389964994043,0.037070482969284058,-0.114018514752388000,-0.013534689322113991,-0.051196198910474777,0.051246922463178635,0.085117451846599579,0.087351098656654358,0.004417304880917072,-0.128853633999824524,-0.043110884726047516,-0.053942710161209106,-0.148328676819801331,-0.003159682499244809,-0.044785920530557632,0.006259694229811430,0.025939861312508583,-0.001581343589350581,0.014115589670836926,0.049668993800878525,0.013324252329766750,-0.000174265267560259,-0.054262157529592514,0.005001532379537821,0.042403314262628555,-0.012291959486901760,0.084675282239913940,-0.027639588341116905,0.036958981305360794,0.084316663444042206,0.107686758041381836,0.166787162423133850,0.074373587965965271,0.077345930039882660,0.021945010870695114,-0.089633725583553314,0.104978047311306000,-0.051943510770797729,0.077107340097427368,0.014041042886674404,0.051789060235023499,0.054250888526439667,0.099862784147262573,0.054558821022510529,0.066871769726276398,0.052730403840541840,-0.009019532240927219,-0.025783253833651543,-0.004103980027139187,0.074573218822479248,-0.080016188323497772,-0.012449688278138638,-0.063577137887477875,-0.067321889102458954,-0.015260183252394199,0.015842808410525322
-0.121143721044063568,-0.013009444810450077,0.029743526130914688,0.041369594633579254,0.004019882064312696,-0.023324947804212570,-0.028842011466622353,0.046460140496492386,0.005575069691985846,0.009706686250865459,0.065156660974025726,0.030977627262473106,-0.063941299915313721,0.016420178115367889,0.095917940139770508,-0.001139889005571604,0.017106456682085991,0.044362682849168777,-0.126168921589851379,-0.005994772072881460,-0.019740615040063858,0.013878458179533482,-0.014321688562631607,0.021154526621103287,-0.010252832435071468,-0.029017359018325806,-0.125408411026000977,0.098578922450542450,-0.036710999906063080,-0.066289775073528290,-0.060205411165952682,0.004208585247397423,0.057144142687320709,0.111671313643455505,0.105389051139354706,-0.019539007917046547,-0.080750800669193268,-0.073221467435359955,0.004914371762424707,0.000582458160351962,0.004667235538363457,0.147159799933433533,-0.031459927558898926,0.179759532213211060,-0.105575658380985260,0.039094597101211548,0.060346290469169617,-0.030706154182553291,0.007145434617996216,0.072004258632659912,-0.075659282505512238,-0.085988320410251617,0.061363726854324341,-0.008730256929993629,-0.017779150977730751,-0.036863129585981369,0.092062801122665405,0.061719726771116257,-0.115572378039360046,-0.095477275550365448,-0.006505416240543127,0.064644046127796173,0.074158392846584320,0.161721855401992798
0.026901273056864738,0.023728078231215477,0.001084757037460804,0.045934274792671204,0.015081016346812248,0.099576875567436218,-0.110899619758129120,0.041610278189182281,-0.029316050931811333,-0.029730662703514099,-0.036923576146364212,0.019229548051953316,0.007639489602297544,-0.024067491292953491,-0.012334586121141911,0.128185063600540161,0.031143102794885635,0.083606280386447906,-0.021228274330496788,-0.020623590797185898,0.019330978393554688,0.022263910621404648,-0.090305969119071960,-0.089145809412002563,0.091526411473751068,0.039698623120784760,0.039583645761013031,0.055960427969694138,0.039396557956933975,-0.046613395214080811,-0.042604308575391769,0.050996318459510803,0.024175036698579788,-0.083904534578323364,0.008275617845356464,0.019134769216179848,-0.058495879173278809,-0.059349399060010910,-0.000259862572420388,0.092925667762756348,-0.047261852771043777,-0.054826326668262482,-0.046476110816001892,-0.001239311066456139,0.066480815410614014,-0.070198185741901398,0.114650949835777283,0.025072768330574036,0.009394370019435883,0.012284821830689907,-0.086403973400592804,-0.093047380447387695,0.084285251796245575,-0.069785013794898987,0.003213953226804733,-0.009303397499024868,-0.011488667689263821,-0.085731856524944305,-0.032057888805866241,0.037737581878900528,0.076714053750038147,-0.069446779787540436,0.001677307882346213,0.014727344736456871
0.033123519271612167,-0.113042175769805908,-0.089966177940368652,0.081348769366741180,0.046682886779308319,-0.012689501047134399,-0.042417198419570923,0.018146499991416931,-0.006053971592336893,0.048354577273130417,-0.103396661579608917,-0.031968049705028534,-0.030863068997859955,-0.105947673320770264,0.072086118161678314,0.057632628828287125,0.018299814313650131,0.018794357776641846,0.024740025401115417,0.012625048868358135,0.036151323467493057,0.066290676593780518,-0.014843042008578777,0.069030731916427612,0.022139159962534904,0.018336450681090355,-0.055107645690441132,-0.014292837120592594,0.032883286476135254,-0.060454294085502625,-0.007251385133713484,0.048006467521190643,0.068687856197357178,0.003344692056998610,0.055546715855598450,0.086314514279365540,-0.106410831212997437,-0.044178981333971024,0.087470419704914093,0.037867628037929535,-0.003409962169826031,-0.036290828138589859,-0.027268437668681145,0.131448566913604736,-0.006028494797646999,-0.010879940353333950,0.049531333148479462,-0.033975675702095032,-0.068781241774559021,-0.059168331325054169,0.062116827815771103,-0.030844436958432198,0.056107915937900543,-0.044569995254278183,0.018805496394634247,0.007984166033565998,-0.010534755885601044,-0.116810664534568787,-0.028331067413091660,0.035993132740259171,-0.020619641989469528,-0.021816240623593330,-0.002297968603670597,0.038204036653041840
-0.047653272747993469,-0.025503987446427345,0.029920170083642006,-0.005147912073880434,0.019206551834940910,-0.026979798451066017,-0.022465247660875320,-0.220245793461799622,0.058871585875749588,-0.121373876929283142,0.055405978113412857,-0.004886780865490437,-0.106741569936275482,0.061539411544799805,0.035702094435691833,0.042919296771287918,-0.035780329257249832,0.028700621798634529,0.023115152493119240,0.040661480277776718,0.074919380247592926,0.039648290723562241,0.076580151915550232,-0.022268278524279594,0.085119135677814484,-0.062199380248785019,0.048263259232044220,0.013794082216918468,-0.122667670249938965,-0.069230444729328156,0.074690535664558411,0.054315913468599319,-0.106172583997249603,0.012087262235581875,0.009022754617035389,0.059689823538064957,0.072216771543025970,-0.135084912180900574,0.053230360150337219,-0.048642512410879135,0.102626942098140717,-0.085958249866962433,0.040375232696533203,0.062857590615749359,-0.011824393644928932,0.019390081986784935,0.024703364819288254,-0.060587350279092789,0.100154928863048553,-0.089773803949356079,-0.015462475828826427,-0.043832752853631973,0.103383667767047882,0.019000869244337082,0.010138230398297310,0.014266849495470524,0.011773190461099148,0.028239797800779343,0.087015680968761444,0.167426288127899170,0.044269829988479614,-0.033969383686780930,0.052131853997707367,-0.047124743461608887
0.007142484188079834,-0.079231269657611847,-0.002655944321304560,-0.041027180850505829,0.052487444132566452,0.029535144567489624,-0.064041942358016968,-0.049012638628482819,-0.110550358891487122,0.012876231223344803,0.030112996697425842,0.041528284549713135,-0.075748726725578308,-0.009316776879131794,0.043238352984189987,0.014139533974230289,-0.038273457437753677,0.085243247449398041,0.050430875271558762,-0.112014412879943848,0.067417688667774200,0.069895014166831970,0.055037513375282288,0.072826497256755829,0.075817205011844635,0.020571848377585411,-0.063017152249813080,0.030406067147850990,-0.109678722918033600,-0.023517275229096413,-0.032536368817090988,-0.006134352181106806,-0.025209577754139900,0.042330127209424973,0.055556386709213257,-0.063839524984359741,-0.061176456511020660,-0.055948536843061447,-0.010736234486103058,0.043590828776359558,-0.030864827334880829,-0.071243137121200562,0.113603875041007996,0.085543945431709290,-0.041210778057575226,-0.080735646188259125,-0.017631292343139648,-0.025871818885207176,-0.023617237806320190,-0.027277484536170959,-0.010127525776624680,0.012015259824693203,0.152068674564361572,-0.035783883184194565,0.023369437083601952,-0.112615205347537994,0.025755474343895912,0.054241895675659180,-0.047908943146467209,0.077161617577075958,0.015268485993146896,0.041976742446422577,0.084203757345676422,-0.023298120126128197
0.037541739642620087,-0.004527662880718708,-0.065203867852687836,0.147305011749267578,0.066567592322826385,0.009633697569370270,0.052435524761676788,0.092291019856929779,0.046023603528738022,-0.020348912104964256,-0.124063424766063690,-0.024590274319052696,0.169240012764930725,-0.002785097574815154,-0.110892720520496368,0.099931590259075165,0.059534579515457153,-0.083561062812805176,0.083614863455295563,0.049447208642959595,0.000192346895346418,-0.048480968922376633,-0.050495654344558716,0.003358162706717849,-0.175616040825843811,-0.140535727143287659,0.080469064414501190,-0.101191714406013489,0.133558601140975952,0.109728172421455383,-0.035526651889085770,-0.003991783596575260,-0.087194181978702545,-0.163097381591796875,-0.056796807795763016,-0.116559781134128571,-0.051836855709552765,-0.039135448634624481,0.003448640927672386,0.029435232281684875,-0.058879107236862183,0.078368358314037323,-0.069258220493793488,0.179835125803947449,0.132538616657257080,-0.069379948079586029,0.039408896118402481,-0.027542393654584885,-0.046785961836576462,0.017944533377885818,-0.146410226821899414,-0.014129713177680969,0.190968453884124756,-0.032036356627941132,0.055806484073400497,0.053689785301685333,-0.053116645663976669,0.083774365484714508,0.067456148564815521,-0.188356474041938782,-0.009677033871412277,-0.089541360735893250,-0.025698505342006683,-0.032658390700817108
0.084453448653221130,0.070031970739364624,-0.010750812478363514,0.075347527861595154,0.055020857602357864,0.039584651589393616,-0.061443891376256943,-0.047383990138769150,0.015721295028924942,-0.107081651687622070,0.098045296967029572,0.048595774918794632,-0.081473760306835175,-0.154719114303588867,-0.052871670573949814,-0.064191885292530060,0.093508139252662659,0.007726409472525120,0.051613047719001770,0.067356944084167480,0.027401665225625038,0.044363711029291153,-0.072883680462837219,0.080658584833145142,-0.029552234336733818,-0.063640795648097992,-0.000892672396730632,-0.145061820745468140,-0.063560307025909424,0.081724233925342560,0.045813225209712982,-0.153556495904922485,0.064669191837310791,0.016687212511897087,-0.102189056575298309,-0.061394084244966507,-0.127036601305007935,-0.038198396563529968,-0.094312474131584167,-0.069600120186805725,-0.080701202154159546,0.034805398434400558,-0.056931000202894211,0.113638393580913544,0.091076478362083435,-0.030010528862476349,0.078169263899326324,-0.045702010393142700,-0.044279947876930237,-0.003616035217419267,-0.131030470132827759,0.067085146903991699,0.163767799735069275,-0.057147797197103500,0.053337465971708298,-0.027501273900270462,-0.018927598372101784,0.011625371873378754,0.076631233096122742,-0.043875146657228470,-0.080652840435504913,0.038974553346633911,-0.023185592144727707,0.122955940663814545
0.128325268626213074,0.048869784921407700,0.008480793796479702,0.013277666643261909,-0.011454899795353413,0.037247329950332642,0.057780023664236069,-0.043662294745445251,0.080766402184963226,0.039404489099979401,-0.039888586848974228,0.071981191635131836,-0.011977882124483585,0.139198586344718933,0.066950485110282898,0.164756551384925842,-0.026769096031785011,0.070401377975940704,0.083139754831790924,0.042946416884660721,-0.096452377736568451,0.058019481599330902,0.102399744093418121,0.028894409537315369,-0.003272666363045573,-0.065213017165660858,0.043634291738271713,-0.038851991295814514,-0.080947741866111755,-0.003360505215823650,0.084718666970729828,-0.027210518717765808,0.092428095638751984,0.095994926989078522,-0.008630701340734959,0.069530300796031952,0.046541132032871246,0.077721990644931793,-0.077694065868854523,0.018991330638527870,0.064122818410396576,0.254596889019012451,0.085223019123077393,0.119582943618297577,0.042192887514829636,0.056452821940183640,-0.020155854523181915,-0.028588125482201576,0.040654171258211136,-0.042414847761392593,-0.095419585704803467,0.042392287403345108,0.050467688590288162,-0.017267886549234390,0.102510727941989899,-0.054930891841650009,-0.041562668979167938,0.066678166389465332,0.031995322555303574,0.048935215920209885,-0.065407589077949524,-0.002833071863278747,0.055233616381883621,-0.136385619640350342
0.054280489683151245,0.084687866270542145,0.051290113478899002,0.018535172566771507,0.090014010667800903,0.176790609955787659,-0.043372344225645065,-0.069340527057647705,0.088240757584571838,-0.047805778682231903,0.046681247651576996,-0.155843973159790039,0.000110178167233244,-0.103868924081325531,-0.100204825401306152,0.015742955729365349,0.075275875627994537,-0.034374393522739410,-0.062699995934963226,0.073176890611648560,-0.005903107579797506,0.019121648743748665,-0.042249437421560287,0.033702872693538666,0.062676072120666504,-0.001605104887858033,0.031240765005350113,-0.005052761174738407,-0.023271264508366585,-0.065639071166515350,-0.056919354945421219,-0.014720372855663300,0.055376328527927399,0.054869063198566437,-0.019434494897723198,0.055422902107238770,-0.012695810757577419,0.068418733775615692,-0.064644277095794678,-0.021782543510198593,-0.088537700474262238,-0.009831559844315052,0.014609444886445999,0.068959496915340424,0.019595880061388016,-0.116323612630367279,-0.045479558408260345,0.027023941278457642,-0.055958516895771027,-0.001819328870624304,0.043200194835662842,0.103152796626091003,0.229604080319404602,0.005126519594341516,0.055402975529432297,-0.052961871027946472,0.104013629257678986,0.078854180872440338,-0.006852687336504459,0.058182518929243088,0.043335050344467163,-0.004350048489868641,0.013721207156777382,-0.011607186868786812
0.053006432950496674,0.052024360746145248,0.092983461916446686,-0.045846313238143921,-0.019114438444375992,0.038574092090129852,-0.039564888924360275,0.077150344848632812,0.030437311157584190,0.040970820933580399,0.049839843064546585,0.011317329481244087,0.024062385782599449,-0.007177282124757767,-0.058434460312128067,-0.077354706823825836,0.037624612450599670,-0.068735308945178986,-0.051994424313306808,0.019764008000493050,0.070740558207035065,0.020011249929666519,-0.052897598594427109,0.033309053629636765,-0.076239101588726044,0.054584499448537827,0.013491916470229626,0.061624940484762192,0.029504070058465004,0.026536975055932999,0.024011189118027687,-0.044932086020708084,-0.104316912591457367,-0.017525011673569679,-0.027816636487841606,-0.027224972844123840,0.035630010068416595,0.020428655669093132,0.028507374227046967,-0.024638287723064423,-0.014199478551745415,-0.067382104694843292,0.073802806437015533,0.166292712092399597,0.037179589271545410,0.025902710855007172,-0.061389792710542679,0.015653701499104500,-0.057315241545438766,0.008428652770817280,-0.030518768355250359,-0.050911858677864075,0.165693029761314392,-0.057139690965414047,0.001617050846107304,0.036744397133588791,0.008067671209573746,0.039847012609243393,0.050580512732267380,-0.044811565428972244,-0.069380469620227814,0.108333066105842590,-0.057659167796373367,-0.044834323227405548
0.043793752789497375,0.057349003851413727,0.006189199630171061,-0.090060122311115265,-0.052394937723875046,0.131286159157752991,0.093120276927947998,-0.027305159717798233,0.095227405428886414,0.006217757705599070,-0.085456162691116333,-0.002301415894180536,0.091393999755382538,0.064675375819206238,0.035336770117282867,-0.068566262722015381,-0.037991169840097427,0.075316876173019409,-0.070222109556198120,-0.037660416215658188,0.043045312166213989,0.062009703367948532,0.008870736695826054,-0.017310956493020058,-0.112774915993213654,0.136530563235282898,-0.041076872497797012,0.001521754078567028,0.013541934080421925,-0.117717899382114410,-0.076736301183700562,-0.070554181933403015,0.021818716078996658,0.072203777730464935,-0.022773707285523415,0.058715980499982834,0.043224606662988663,-0.037398517131805420,-0.147997364401817322,0.014476539567112923,0.027308270335197449,-0.089885950088500977,-0.010638372972607613,0.015975767746567726,-0.013681353069841862,0.118619829416275024,-0.108127541840076447,0.067848078906536102,0.084488674998283386,0.097992114722728729,0.077879041433334351,0.024805335327982903,0.201984480023384094,0.018001481890678406,0.062948852777481079,-0.042340911924839020,-0.008465171791613102,-0.044835399836301804,0.098985649645328522,0.106431499123573303,-0.010604805313050747,-0.014837803319096565,0.089457802474498749,-0.047021161764860153
-0.026228895410895348,0.061673864722251892,-0.045855723321437836,0.034335725009441376,-0.008066814392805099,0.032939735800027847,-0.051956448704004288,-0.010296693071722984,0.031101597473025322,0.142770722508430481,-0.093488790094852448,0.091513611376285553,0.027780367061495781,0.006006706506013870,0.009001395665109158,0.143367186188697815,-0.070181071758270264,-0.089910693466663361,0.097440011799335480,0.002775585278868675,0.024635434150695801,0.017240405082702637,-0.024763461202383041,0.070184633135795593,0.006062516011297703,-0.145619645714759827,-0.041347451508045197,0.020718498155474663,0.003663960611447692,0.057720616459846497,-0.042589288204908371,0.106654904782772064,-0.036867428570985794,-0.025212081149220467,0.029033681377768517,-0.053477730602025986,-0.034281991422176361,-0.062780424952507019,0.011565255932509899,0.056627251207828522,-0.004668062552809715,0.074387371540069580,-0.053321100771427155,0.140247195959091187,0.030409265309572220,-0.041458752006292343,0.016184687614440918,0.003743541194126010,-0.044786073267459869,0.024385925382375717,-0.008409427478909492,-0.047428656369447708,0.071089923381805420,0.101131983101367950,0.070242635905742645,-0.031076023355126381,-0.006890713237226009,-0.006618893239647150,-0.069976881146430969,0.020659953355789185,-0.070738740265369415,0.026847207918763161,0.044325310736894608,0.049787349998950958
-0.028350256383419037,0.063281901180744171,0.029484758153557777,0.013412917032837868,-0.055686648935079575,0.030058369040489197,-0.047768004238605499,-0.175505012273788452,-0.083967328071594238,-0.107940696179866791,0.095844767987728119,0.025215907022356987,-0.038837213069200516,-0.128901675343513489,0.111856415867805481,0.034425210207700729,0.129326134920120239,0.097315765917301178,-0.005188062321394682,-0.074440643191337585,0.010999868623912334,0.011600876227021217,0.022921241819858551,0.032015409320592880,-0.103518478572368622,0.076404437422752380,-0.023535631597042084,-0.047088343650102615,-0.038356557488441467,0.089250877499580383,0.123935811221599579,-0.012940982356667519,-0.010558906011283398,0.023213038221001625,-0.094686642289161682,-0.084063015878200531,0.022709693759679794,-0.001711686840280890,-0.064804181456565857,-0.165027230978012085,-0.009204883128404617,-0.093987889587879181,-0.030037486925721169,0.085681907832622528,-0.018265353515744209,-0.054714038968086243,0.056533336639404297,-0.064925476908683777,-0.069925658404827118,0.081463783979415894,0.007460155058652163,-0.076111674308776855,0.029790373519062996,-0.063703224062919617,-0.047616224735975266,-0.131922632455825806,-0.127311870455741882,-0.042565479874610901,0.060142975300550461,0.034247882664203644,-0.073855742812156677,-0.049954734742641449,-0.004805930424481630,0.107532531023025513
0.034416187554597855,-0.038572449237108231,-0.012838993221521378,-0.048642776906490326,0.088622860610485077,0.037630323320627213,-0.086416102945804596,-0.082061924040317535,0.009800243191421032,-0.101057358086109161,-0.045169692486524582,-0.011474276892840862,0.009483622387051582,-0.047734640538692474,0.018742315471172333,0.021533805876970291,0.014095975086092949,0.063830703496932983,0.036457333713769913,-0.050287671387195587,-0.089042969048023224,0.050426144152879715,0.084707506000995636,0.006914310622960329,-0.128716543316841125,0.044047161936759949,0.015083000995218754,0.060595098882913589,0.039115089923143387,0.041275296360254288,-0.003170360578224063,-0.038524229079484940,0.042518705129623413,0.104549385607242584,-0.044204942882061005,0.002127771964296699,0.019024483859539032,0.057855576276779175,-0.129013374447822571,0.048053119331598282,-0.015262372791767120,0.043266654014587402,0.018950676545500755,0.079824090003967285,0.043875619769096375,0.015074159018695354,0.024318167939782143,-0.092423021793365479,0.014973885379731655,-0.067094929516315460,-0.033605512231588364,0.008307860232889652,0.120403692126274109,-0.091516830027103424,0.033576905727386475,-0.009880748577415943,-0.049318652600049973,0.031753167510032654,-0.020598845556378365,-0.046620216220617294,-0.065045386552810669,0.034729138016700745,-0.082299493253231049,-0.046035952866077423
0.056628715246915817,0.090120695531368256,-0.040353741496801376,-0.020875159651041031,-0.098334357142448425,0.014341885223984718,0.083266705274581909,0.044499028474092484,0.122702158987522125,0.083481445908546448,-0.099163323640823364,0.029719613492488861,0.059455636888742447,0.010608591139316559,0.010573138482868671,0.002745917532593012,0.093334227800369263,0.063287697732448578,-0.014660091139376163,0.022322338074445724,-0.007409397047013044,0.074233531951904297,0.017184769734740257,-0.084938205778598785,0.090169332921504974,-0.020468739792704582,-0.017245687544345856,-0.015797194093465805,0.095799066126346588,-0.024640897288918495,-0.085575893521308899,-0.061539523303508759,0.130852952599525452,-0.012965184636414051,0.190790712833404541,-0.030017161741852760,-0.018972124904394150,0.043393276631832123,-0.043939843773841858,0.094449087977409363,0.027926962822675705,-0.031145099550485611,0.209858357906341553,0.109012313187122345,0.082382008433341980,0.115614503622055054,0.011466461233794689,0.031533189117908478,-0.207544177770614624,0.104345396161079407,0.039975550025701523,0.058003753423690796,0.107681654393672943,0.102952592074871063,0.058437086641788483,-0.059096485376358032,-0.053999286144971848,0.080423995852470398,0.029415449127554893,-0.020868787541985512,0.082102574408054352,-0.128988966345787048,0.123291693627834320,0.074265338480472565
0.084316752851009369,-0.018435204401612282,-0.035191461443901062,0.005102706607431173,-0.042945623397827148,-0.083725325763225555,0.044481251388788223,0.010076594538986683,0.099095121026039124,0.093916326761245728,-0.015580774284899235,-0.062287747859954834,0.059947792440652847,0.014199461787939072,0.024941857904195786,0.036470897495746613,0.050843611359596252,0.126606151461601257,-0.015586695633828640,-0.082589767873287201,-0.064621821045875549,-0.072368204593658447,0.065970480442047119,0.062332373112440109,-0.136840820312500000,-0.022911155596375465,-0.060750618577003479,-0.205281406641006470,-0.078914448618888855,0.015331658534705639,0.072791568934917450,-0.247135117650032043,-0.012313077226281166,0.086638920009136200,-0.025874149054288864,0.003332597436383367,-0.066736862063407898,0.012434194795787334,-0.217981547117233276,0.044877950102090836,0.020943669602274895,0.040531765669584274,0.098059311509132385,-0.022389354184269905,-0.078030340373516083,-0.094622984528541565,-0.206164017319679260,0.003077401313930750,-0.009787219576537609,0.076117955148220062,0.070210501551628113,-0.007126217707991600,0.034975625574588776,0.047719735652208328,-0.025384293869137764,-0.058576039969921112,-0.054730717092752457,0.009939607232809067,0.059222012758255005,0.009784781374037266,0.031899698078632355,0.035428129136562347,-0.041249483823776245,0.038477711379528046
0.036088790744543076,0.078233197331428528,-0.050642192363739014,0.195551857352256775,-0.016024462878704071,-0.055366314947605133,0.009053170680999756,-0.070732243359088898,0.019301960244774818,-0.099582031369209290,0.116807714104652405,-0.024886079132556915,-0.055543210357427597,-0.027273407205939293,0.085785821080207825,-0.075217999517917633,-0.096704162657260895,0.130798995494842529,-0.017566159367561340,0.028414942324161530,0.033584814518690109,-0.028252432122826576,0.081480853259563446,0.046748094260692596,-0.020681167021393776,0.079623803496360779,0.078082337975502014,-0.000742645526770502,-0.012475637719035149,0.061575911939144135,0.017146699130535126,0.078237116336822510,0.140284970402717590,0.064957648515701294,-0.081185564398765564,0.000515934545546770,-0.001454008161090314,0.057984855026006699,-0.042991969734430313,-0.086334452033042908,0.009302541613578796,0.072363801300525665,-0.052793260663747787,0.090904876589775085,-0.027261298149824142,0.085860222578048706,0.068814672529697418,-0.049210619181394577,-0.016994679346680641,-0.076253965497016907,0.054439194500446320,0.053455740213394165,0.067591287195682526,0.025125984102487564,0.108068414032459259,0.071513935923576355,0.082482315599918365,-0.095188990235328674,-0.017467632889747620,0.071541272103786469,-0.038693476468324661,-0.072269968688488007,-0.027004599571228027,-0.073487758636474609
-0.069136448204517365,0.054908335208892822,0.027117956429719925,-0.009475498460233212,0.006777455564588308,-0.010116823948919773,0.091219916939735413,-0.055127147585153580,0.006241259165108204,0.049846623092889786,0.097312204539775848,-0.054958414286375046,0.009286303073167801,-0.029964052140712738,0.060422103852033615,0.045524422079324722,-0.003917727153748274,0.004292379599064589,0.065696202218532562,-0.049954447895288467,-0.050313230603933334,-0.014272953383624554,0.102933481335639954,-0.000999963143840432,0.019417753443121910,0.051963470876216888,0.017139796167612076,-0.056776665151119232,-0.036007791757583618,0.068128325045108795,0.038993265479803085,-0.097000740468502045,0.159317493438720703,0.027685174718499184,0.003495876910164952,0.017449367791414261,-0.037574760615825653,0.034982807934284210,0.101304613053798676,0.026823058724403381,0.083903029561042786,0.068518757820129395,-0.039160870015621185,-0.096979528665542603,0.031979605555534363,0.085697464644908905,-0.075617857277393341,-0.028206361457705498,0.121366284787654877,-0.046573471277952194,0.004982804879546165,-0.032736249268054962,0.156466901302337646,-0.063590824604034424,-0.029892485588788986,0.034622825682163239,0.011130042374134064,0.038070410490036011,0.011174387298524380,-0.037619717419147491,-0.054914787411689758,-0.054741378873586655,0.012880224734544754,0.081440702080726624
-0.053479894995689392,0.003944749012589455,-0.043348155915737152,-0.053101267665624619,0.034363199025392532,0.081867165863513947,0.045327719300985336,-0.047417037189006805,0.061694186180830002,-0.062309231609106064,0.106476984918117523,-0.009728320874273777,-0.028038255870342255,0.029009135439991951,0.015479003079235554,-0.001853179302997887,0.025427136570215225,0.012545067816972733,-0.101514331996440887,0.004556323867291212,0.128825783729553223,0.040983103215694427,-0.052691936492919922,0.019201125949621201,-0.044147249311208725,-0.009187065996229649,-0.056668069213628769,0.029706928879022598,-0.076231680810451508,-0.000535167870111763,0.006362340413033962,-0.108992524445056915,0.052464041858911514,0.028721196576952934,-0.027833545580506325,-0.033392377197742462,0.058568175882101059,0.105438597500324249,0.032175134867429733,-0.015835404396057129,-0.005367054138332605,-0.050192639231681824,0.052974838763475418,0.098466113209724426,-0.056913595646619797,0.008732448332011700,-0.043635036796331406,-0.076476320624351501,0.028133554384112358,-0.045519907027482986,0.010948379524052143,-0.001515336683951318,0.054507981985807419,-0.020961720496416092,-0.105047754943370819,-0.108243390917778015,0.009641611948609352,-0.031827468425035477,-0.063154824078083038,0.002787141827866435,0.002780611626803875,0.031472992151975632,-0.089062966406345367,0.074274465441703796
-0.022528201341629028,-0.020918946713209152,-0.061373706907033920,-0.046259168535470963,0.177813321352005005,0.048312805593013763,0.003387789940461516,0.019140826538205147,0.084517970681190491,0.029667610302567482,0.025558495894074440,-0.029487850144505501,-0.027698725461959839,-0.047999061644077301,0.050774887204170227,-0.088628053665161133,0.090639688074588776,0.018879523500800133,-0.070995010435581207,0.043140389025211334,-0.007133560255169868,0.102678492665290833,-0.021437827497720718,0.067363031208515167,0.056684028357267380,0.013200644403696060,0.048491831868886948,-0.039054896682500839,0.074053391814231873,-0.114567652344703674,-0.153113767504692078,-0.001976346131414175,0.050599537789821625,0.048730552196502686,-0.053761437535285950,-0.043850507587194443,-0.023888053372502327,0.130118623375892639,0.053742371499538422,0.051167923957109451,0.096240311861038208,-0.097125269472599030,0.104711756110191345,0.234817758202552795,-0.026869829744100571,0.042105596512556076,-0.120714865624904633,0.049405150115489960,-0.003114701248705387,-0.068937286734580994,0.044254880398511887,-0.029581286013126373,0.178216040134429932,-0.021448940038681030,0.039577763527631760,0.026310745626688004,-0.005376711953431368,-0.051635593175888062,-0.014872809872031212,-0.004687745589762926,-0.054144982248544693,-0.110074892640113831,0.061613921076059341,0.056007742881774902
-0.028980161994695663,-0.079772338271141052,0.110692322254180908,0.046566892415285110,0.022947652265429497,0.098628193140029907,0.050128165632486343,-0.046460807323455811,0.029001260176301003,0.037597488611936569,-0.135363355278968811,-0.022526651620864868,0.090644940733909607,-0.088921114802360535,0.018222711980342865,-0.019507115706801414,0.024266283959150314,-0.026505706831812859,0.028816062957048416,-0.011856067925691605,-0.033485785126686096,0.044961884617805481,-0.020178893581032753,-0.008945602923631668,-0.069482572376728058,-0.043895646929740906,0.031579077243804932,-0.007839727215468884,0.066684536635875702,0.001222185208462179,-0.114701516926288605,0.029024092480540276,-0.093473993241786957,-0.045510575175285339,0.027060203254222870,-0.021498642861843109,-0.073492757976055145,0.037173368036746979,0.013918071053922176,0.077226981520652771,0.101223222911357880,0.027708774432539940,-0.087820880115032196,0.039679847657680511,0.015510359779000282,0.064128488302230835,0.000808094104286283,0.088420778512954712,0.111135222017765045,0.077018283307552338,-0.027678305283188820,-0.033024769276380539,0.014136935584247112,-0.009098630398511887,-0.059612724930047989,0.021334290504455566,-0.059847872704267502,-0.023788278922438622,0.007708279881626368,-0.133049517869949341,-0.027780111879110336,-0.028526663780212402,0.034586284309625626,-0.032938320189714432
-0.048644147813320160,0.005975457374006510,0.049503356218338013,0.015332276932895184,0.129784479737281799,-0.004246261902153492,-0.029631797224283218,0.003329489147290587,0.026162577793002129,-0.021129041910171509,-0.051320981234312057,0.021281585097312927,0.033017449080944061,0.094429261982440948,-0.015300868079066277,0.094891197979450226,0.057236243039369583,-0.034585952758789062,-0.027967302128672600,-0.025576349347829819,-0.042590755969285965,-0.000481665658298880,0.063165985047817230,0.060423303395509720,-0.018224917352199554,-0.070998787879943848,0.030498715117573738,0.009373522363603115,0.044767994433641434,-0.006580390501767397,-0.070324905216693878,0.018799712881445885,0.090603724122047424,-0.025433024391531944,-0.006160501856356859,-0.039564047008752823,-0.012835302390158176,0.007251043338328600,-0.021932652220129967,-0.000172746222233400,0.085501365363597870,0.017158003523945808,-0.017303561791777611,0.064488381147384644,0.006560966372489929,-0.020398138090968132,0.053536843508481979,-0.087509810924530029,0.121052615344524384,-0.048973254859447479,0.040773704648017883,0.029426420107483864,0.176482975482940674,0.006203285884112120,-0.067976802587509155,-0.064609222114086151,-0.032388802617788315,0.080624133348464966,-0.016836257651448250,0.009462400339543819,-0.004966030362993479,-0.001879450865089893,0.004450812004506588,0.087741345167160034
0.020662181079387665,0.123864956200122833,-0.143611654639244080,0.118492186069488525,0.209242612123489380,0.085918404161930084,0.045009944587945938,0.102017745375633240,-0.021746601909399033,0.147557154297828674,0.114847332239151001,-0.076901115477085114,-0.075437173247337341,0.000047259352868423,-0.136048242449760437,-0.071771293878555298,0.059804398566484451,0.049021158367395401,0.075535662472248077,-0.037037871778011322,0.116351999342441559,-0.056762143969535828,-0.091010928153991699,0.007398569490760565,0.056555844843387604,0.015130325220525265,-0.040504198521375656,-0.099683627486228943,0.038676802068948746,-0.086551152169704437,0.016733890399336815,-0.073697514832019806,0.031726855784654617,-0.017834415659308434,0.038932248950004578,-0.109855405986309052,-0.073884904384613037,0.016090838238596916,0.030280599370598793,0.040628787130117416,-0.141096696257591248,0.051765691488981247,0.116405732929706573,0.017054721713066101,-0.016229754313826561,-0.040215317159891129,-0.059677261859178543,0.017076693475246429,-0.203396737575531006,0.189456135034561157,0.099752970039844513,0.023434206843376160,0.077887848019599915,0.001548766158521175,-0.072476379573345184,0.050497513264417648,0.021502908319234848,0.053495999425649643,0.041705116629600525,-0.084096617996692657,0.004616092890501022,0.016496125608682632,0.063755758106708527,-0.057690046727657318
0.018410097807645798,0.044232983142137527,0.032414339482784271,0.108816601336002350,0.030083827674388885,0.008073977194726467,-0.007659864611923695,-0.024758493527770042,0.086810380220413208,0.074862383306026459,-0.063168473541736603,-0.100356578826904297,0.051792562007904053,0.009916504845023155,-0.015164123848080635,-0.010605236515402794,0.104098431766033173,-0.125955507159233093,-0.050930432975292206,0.080980934202671051,-0.048192217946052551,0.027738561853766441,-0.038487751036882401,0.065817847847938538,0.013173500075936317,-0.027034165337681770,-0.022881943732500076,-0.071896627545356750,0.032705582678318024,-0.028156794607639313,-0.126186564564704895,-0.095131799578666687,0.048680558800697327,-0.100742630660533905,-0.027308946475386620,-0.026334455236792564,-0.054908882826566696,-0.065478138625621796,-0.028307180851697922,-0.004092626739293337,-0.053438130766153336,0.061608817428350449,0.038058888167142868,-0.030557151883840561,0.078329719603061676,-0.035238239914178848,0.002312671393156052,0.012612341903150082,0.086927101016044617,0.012659226544201374,0.051002983003854752,0.092038668692111969,0.160856708884239197,0.067808814346790314,0.068713426589965820,0.000385794526664540,0.075611367821693420,-0.078757569193840027,-0.013537403196096420,-0.091770283877849579,0.023096626624464989,0.049064908176660538,-0.075756408274173737,-0.027331646531820297
-0.019630579277873039,0.010122299194335938,0.047947380691766739,0.099530324339866638,0.018641002476215363,0.003174035577103496,0.031857669353485107,-0.074426159262657166,-0.029268298298120499,-0.032965663820505142,-0.096230402588844299,-0.119579322636127472,0.051270686089992523,0.091317385435104370,-0.048107225447893143,-0.143596887588500977,0.000790839840192348,-0.067344769835472107,0.084935106337070465,-0.051064327359199524,-0.108984574675559998,0.087030164897441864,0.046874295920133591,0.138669818639755249,-0.089363761246204376,-0.064598836004734039,-0.009864999912679195,-0.053831093013286591,0.040783327072858810,0.072935722768306732,-0.044801507145166397,-0.075840465724468231,0.082278482615947723,-0.042975742369890213,-0.005627261009067297,-0.012220177799463272,-0.075899861752986908,0.072513252496719360,-0.043132752180099487,0.051741160452365875,-0.100118562579154968,0.169966772198677063,-0.017325852066278458,0.072741873562335968,0.129714876413345337,-0.021501218900084496,-0.004431845154613256,0.002002621069550514,0.097379304468631744,-0.017388902604579926,0.108509831130504608,0.038625854998826981,0.078830197453498840,0.066579014062881470,-0.012526183389127254,0.040879964828491211,-0.022029837593436241,0.081834882497787476,0.030532736331224442,0.009521742351353168,-0.123299978673458099,0.086138464510440826,-0.039993602782487869,-0.028380138799548149
0.069963507354259491,-0.057083714753389359,-0.008785492740571499,-0.035439442843198776,-0.060800239443778992,0.083950318396091461,-0.027240462601184845,-0.124182231724262238,0.040067348629236221,-0.030450295656919479,-0.084421411156654358,0.040316186845302582,-0.027241714298725128,0.058954089879989624,-0.054995957762002945,0.127167999744415283,0.031133081763982773,0.065330371260643005,0.072969667613506317,-0.011269604787230492,-0.000061768667364959,-0.038252208381891251,-0.102446056902408600,0.171039015054702759,0.066533215343952179,0.008022909983992577,0.050040319561958313,0.026933355256915092,-0.000479956273920834,-0.075036123394966125,-0.023583758622407913,-0.025066636502742767,-0.115134082734584808,0.030960803851485252,-0.118883855640888214,0.067360036075115204,-0.001544678467325866,0.024326780810952187,-0.018499974161386490,0.032482441514730453,-0.035284258425235748,0.027347790077328682,-0.101599358022212982,0.048860620707273483,-0.108309842646121979,-0.025953087955713272,0.012252259999513626,-0.054256144911050797,0.056065913289785385,-0.049393810331821442,-0.022191232070326805,-0.051110193133354187,0.076949641108512878,-0.049153033643960953,0.052290387451648712,-0.149359568953514099,0.052772097289562225,-0.011278662830591202,-0.049792535603046417,0.007987744174897671,0.028561426326632500,0.002864355454221368,0.029306748881936073,0.046860579401254654
-0.049414291977882385,-0.180554211139678955,0.049460135400295258,-0.040857378393411636,0.168455243110656738,0.012315758503973484,-0.014466374181210995,0.023712072521448135,0.093552261590957642,0.125253632664680481,-0.005672384053468704,-0.005586872808635235,-0.052743013948202133,0.020609945058822632,0.080961912870407104,0.169516459107398987,0.041394893079996109,0.043245751410722733,-0.021468445658683777,-0.095264270901679993,-0.017636245116591454,0.088602446019649506,-0.049643810838460922,0.003816305426880717,-0.003853965550661087,0.066560678184032440,-0.002872961806133389,0.015202355571091175,0.110800489783287048,0.009372039698064327,-0.067247308790683746,-0.038895197212696075,0.054518692195415497,-0.023726595565676689,0.062126763164997101,-0.003334397217258811,-0.181006163358688354,-0.156908839941024780,0.061356212943792343,0.002205081982538104,0.090649120509624481,-0.127792835235595703,0.109007768332958221,0.083623178303241730,-0.071087643504142761,0.082342900335788727,0.066590592265129089,0.019937343895435333,-0.045354884117841721,0.096293933689594269,0.026696735993027687,-0.095489405095577240,0.128771752119064331,-0.051295116543769836,0.014231883920729160,-0.203234732151031494,0.005960629321634769,-0.103706389665603638,-0.018800875172019005,-0.139401629567146301,0.099499851465225220,0.037805020809173584,0.002689606742933393,-0.013572253286838531
-0.018879253417253494,-0.016611890867352486,0.162634357810020447,0.077526792883872986,-0.015812776982784271,-0.039417520165443420,-0.053204581141471863,0.013634181581437588,-0.091930679976940155,0.016240101307630539,-0.062205705791711807,0.116916909813880920,-0.046574603766202927,0.058425448834896088,0.043537165969610214,-0.080897614359855652,0.024743515998125076,-0.058671589940786362,0.095617778599262238,0.017992835491895676,0.042734839022159576,0.109712831676006317,0.094114504754543304,0.008005687966942787,-0.048320610076189041,0.032168056815862656,0.001827843254432082,0.041035022586584091,0.003201329614967108,-0.074781000614166260,-0.014444811269640923,0.017062563449144363,-0.046451728790998459,-0.080622047185897827,-0.050827801227569580,-0.039678927510976791,0.003248983761295676,0.045831527560949326,-0.130875319242477417,-0.029980435967445374,0.077217832207679749,0.115754224359989166,-0.115701146423816681,0.150003924965858459,-0.012076986022293568,0.005114720202982426,0.117191687226295471,-0.034962017089128494,0.153173059225082397,0.055538974702358246,-0.008981878869235516,0.016590397804975510,0.133471012115478516,0.005076831206679344,0.006601366214454174,-0.059584513306617737,-0.018753528594970703,0.037408456206321716,-0.028349816799163818,-0.005005858838558197,-0.103141985833644867,0.017714256420731544,0.021943051367998123,-0.027384409680962563
-0.119908049702644348,0.001273687812499702,-0.069326028227806091,0.038085885345935822,0.060365788638591766,-0.103632919490337372,0.057404574006795883,-0.043968159705400467,-0.010837673209607601,0.077037692070007324,0.033098749816417694,0.091606989502906799,-0.007800004910677671,-0.030025573447346687,0.053324036300182343,0.070816703140735626,-0.022379137575626373,-0.054044630378484726,0.078359708189964294,0.086335629224777222,-0.023767011240124702,-0.020895652472972870,-0.049592327326536179,-0.081604145467281342,0.039254438132047653,-0.015544409863650799,0.052236020565032959,-0.003317790338769555,-0.050214249640703201,-0.013755026273429394,0.070660851895809174,-0.041964620351791382,0.033091951161623001,0.070903331041336060,0.073739759624004364,-0.027638414874672890,0.086680360138416290,-0.142633810639381409,-0.016020067036151886,0.062105841934680939,-0.026537755504250526,-0.006127182394266129,-0.049186967313289642,0.140880674123764038,0.030818361788988113,-0.078924655914306641,0.113451555371284485,0.076324589550495148,-0.019908718764781952,-0.055098555982112885,0.087378725409507751,0.000628564332146198,0.108807973563671112,0.047430407255887985,-0.008686207234859467,-0.017405653372406960,0.066024571657180786,-0.041451692581176758,-0.033007457852363586,-0.038792382925748825,-0.056313347071409225,-0.059011444449424744,-0.077434204518795013,-0.053427122533321381
0.068876922130584717,-0.028435723856091499,0.007319662254303694,0.085001438856124878,0.073994569480419159,-0.071663334965705872,-0.062308326363563538,-0.000961087294854224,-0.161243885755538940,0.185737580060958862,-0.036904208362102509,-0.030707875266671181,0.077813751995563507,-0.055601358413696289,0.088932968676090240,0.053264964371919632,0.015246947295963764,-0.171756371855735779,0.031004734337329865,0.057778310030698776,0.054334077984094620,-0.050185259431600571,-0.013266834430396557,0.010475230403244495,0.051961593329906464,-0.020805401727557182,0.046140037477016449,-0.125266149640083313,0.007331415545195341,-0.029346507042646408,0.052775479853153229,0.112066000699996948,-0.056317646056413651,-0.057409781962633133,-0.113785326480865479,-0.094916805624961853,0.068586409091949463,-0.013124272227287292,-0.007166918832808733,0.032308943569660187,0.066953681409358978,-0.019861064851284027,-0.087201781570911407,0.081973724067211151,0.222161382436752319,0.084237180650234222,-0.001570378779433668,0.127940818667411804,-0.257000923156738281,0.189711764454841614,-0.007374533452093601,0.072277903556823730,0.104809097945690155,0.075630962848663330,-0.078096218407154083,0.067929297685623169,-0.088641904294490814,-0.048228692263364792,0.066460072994232178,-0.131997540593147278,-0.056918080896139145,-0.019103931263089180,0.004763922654092312,-0.115752942860126495
-0.079017125070095062,-0.024509847164154053,0.052446268498897552,-0.015067634172737598,-0.034465044736862183,0.013470465317368507,0.024435870349407196,0.060258489102125168,-0.085479542613029480,0.110136531293392181,-0.040754523128271103,-0.013687260448932648,0.059755560010671616,-0.105825968086719513,0.079256750643253326,-0.030923213809728622,-0.004457233939319849,0.045004915446043015,0.004525942727923393,0.089499384164810181,-0.004920226521790028,0.045106034725904465,-0.074910514056682587,0.041374787688255310,0.035216756165027618,-0.049231540411710739,0.036069285124540329,0.030144883319735527,-0.090049408376216888,-0.048219580203294754,0.056032087653875351,0.108285106718540192,-0.023051727563142776,0.120147049427032471,-0.097035661339759827,-0.002831876976415515,0.094300217926502228,0.051309563219547272,0.024198003113269806,0.015816783532500267,0.051448788493871689,-0.011127498000860214,0.043621387332677841,0.176168158650398254,0.007020151708275080,0.154587700963020325,0.019603302702307701,0.075216799974441528,0.022169344127178192,0.199493885040283203,0.036292895674705505,-0.012745420448482037,-0.039797876030206680,0.087959654629230499,0.008980552665889263,0.096747033298015594,0.094755053520202637,0.031818397343158722,0.064267978072166443,-0.154523089528083801,-0.141052216291427612,0.028580708429217339,0.035157803446054459,-0.015768000856041908
-0.035399649292230606,0.077272318303585052,0.052844963967800140,-0.037646651268005371,0.116031803190708160,0.042764272540807724,0.065447963774204254,-0.036793764680624008,0.073755629360675812,0.005331093911081553,0.080008998513221741,-0.037003722041845322,-0.006830042228102684,-0.018349876627326012,0.019108209758996964,-0.112321093678474426,0.052834115922451019,-0.050284832715988159,0.066086642444133759,-0.047409679740667343,0.050515260547399521,0.054346453398466110,0.018699835985898972,0.038442190736532211,-0.056877687573432922,0.059818271547555923,0.011654177680611610,0.020460546016693115,-0.089685887098312378,-0.025891335681080818,-0.017882337793707848,-0.015527367591857910,0.150729939341545105,-0.057847574353218079,-0.009454797022044659,0.015661181882023811,0.054222904145717621,-0.043005809187889099,0.001139956526458263,-0.024175474420189857,0.039002038538455963,0.068911693990230560,-0.080161176621913910,0.136946767568588257,0.047340020537376404,-0.016030944883823395,0.060832437127828598,-0.041409626603126526,0.001829343382269144,0.036584794521331787,-0.033151742070913315,-0.064072303473949432,0.074714913964271545,-0.043882336467504501,-0.092981569468975067,0.037004828453063965,0.085223138332366943,-0.005254387389868498,0.068268842995166779,0.098998323082923889,-0.026151420548558235,0.010537203401327133,-0.071940772235393524,0.019938891753554344
-0.094758406281471252,-0.031089678406715393,0.029863517731428146,0.036483652889728546,0.092693783342838287,-0.045898064970970154,-0.247863516211509705,-0.014706613495945930,0.028756268322467804,-0.013479629531502724,0.099318437278270721,0.053887359797954559,-0.149519994854927063,0.077799312770366669,0.090458922088146210,0.028507364913821220,0.079905137419700623,0.048056729137897491,-0.047420788556337357,-0.108957499265670776,0.022715616971254349,0.027024459093809128,0.056035201996564865,0.007545331958681345,0.008313511498272419,-0.038456697016954422,-0.051840584725141525,0.047786440700292587,0.087773963809013367,-0.092785343527793884,-0.019098708406090736,0.017867198213934898,-0.031537402421236038,0.073390558362007141,0.007135874591767788,0.005130813922733068,-0.074502646923065186,-0.047639470547437668,0.023299718275666237,0.018515963107347488,-0.041124112904071808,0.095056533813476562,0.028602307662367821,0.046773377805948257,0.063871629536151886,-0.010826749727129936,-0.054618839174509048,0.008143136277794838,0.102189958095550537,0.053299505263566971,-0.023745857179164886,-0.127350628376007080,0.078584894537925720,0.123535767197608948,0.006235933396965265,0.000522681162692606,-0.144817918539047241,0.032939471304416656,0.072882883250713348,-0.072994902729988098,-0.058215588331222534,-0.008976027369499207,0.024936392903327942,0.078710101544857025
-0.045502323657274246,0.034606549888849258,-0.044532470405101776,0.029756598174571991,0.109524019062519073,-0.093947611749172211,-0.074094757437705994,0.035172142088413239,-0.104095011949539185,0.118466451764106750,0.121714435517787933,0.092464737594127655,-0.033342357724905014,-0.032904453575611115,-0.046590294688940048,0.068638615310192108,0.025255938991904259,0.047321762889623642,0.006717367563396692,0.022436933591961861,0.075027637183666229,-0.041582275182008743,-0.004244313575327396,-0.069303549826145172,-0.036825470626354218,-0.021743707358837128,-0.043980222195386887,0.068208433687686920,-0.002489477396011353,0.033316109329462051,-0.002953545888885856,0.044645756483078003,0.063552238047122955,-0.018148887902498245,0.055645648390054703,0.086416959762573242,-0.069219112396240234,-0.098646961152553558,-0.036445427685976028,0.091941855847835541,0.026256121695041656,-0.062159411609172821,-0.108098611235618591,0.080123588442802429,0.044415373355150223,-0.091156780719757080,0.104586921632289886,-0.111886300146579742,0.082057863473892212,0.053435638546943665,-0.034215476363897324,-0.189290851354598999,0.069108068943023682,0.008697439916431904,-0.087073653936386108,0.059282742440700531,0.031840149313211441,-0.117574937641620636,-0.013195419684052467,0.058253474533557892,0.068556278944015503,-0.051892001181840897,-0.051967974752187729,0.103483796119689941
-0.069429345428943634,0.074344173073768616,-0.003535133088007569,-0.002893621334806085,0.003966847900301218,0.023237198591232300,0.088895745575428009,-0.021424299106001854,-0.016809262335300446,0.085645556449890137,-0.035094417631626129,-0.016848944127559662,-0.058075163513422012,-0.017931893467903137,0.013260022737085819,0.063992135226726532,0.028200535103678703,0.058905720710754395,-0.019740179181098938,-0.032550390809774399,0.019614757969975471,-0.048216268420219421,-0.027544090524315834,-0.038307338953018188,0.009862213395535946,0.014176459982991219,0.025760475546121597,0.019080661237239838,0.034139603376388550,-0.001394147053360939,-0.055637411773204803,0.045110978186130524,-0.045661810785531998,0.037018612027168274,0.075466036796569824,-0.001224031555466354,0.056965060532093048,-0.027873886749148369,0.095946833491325378,0.012904243543744087,0.015415442176163197,-0.029643511399626732,0.034968961030244827,0.195850223302841187,-0.052019830793142319,0.141034021973609924,-0.006480244919657707,0.085054025053977966,-0.052847061306238174,-0.012490393593907356,0.064433254301548004,0.025901952758431435,0.055102497339248657,0.160223037004470825,0.065793909132480621,-0.061955526471138000,-0.009784089401364326,0.047433935105800629,0.009441265836358070,0.082471482455730438,-0.042132280766963959,0.100318223237991333,-0.012896723113954067,-0.072777226567268372
0.079548716545104980,-0.029109599068760872,-0.056761510670185089,-0.045283723622560501,0.034192174673080444,-0.025149364024400711,-0.043257959187030792,0.012379623018205166,-0.025124708190560341,0.029265983030200005,0.013069229200482368,-0.159506082534790039,0.039088979363441467,0.029375998303294182,-0.022587206214666367,0.055854257196187973,-0.035556230694055557,0.109968535602092743,-0.029310842975974083,-0.052638608962297440,0.070017382502555847,-0.014354065060615540,-0.016639094799757004,-0.031170234084129333,-0.110829204320907593,0.147651389241218567,0.107055872678756714,0.086534127593040466,-0.077735260128974915,-0.122525110840797424,-0.042956694960594177,-0.006935000885277987,0.086767643690109253,0.088811025023460388,-0.127328410744667053,-0.018144479021430016,0.093664981424808502,0.101736880838871002,0.024695992469787598,-0.050655696541070938,-0.068958796560764313,-0.026772137731313705,0.002699161879718304,0.142552793025970459,-0.020948050543665886,0.056666534394025803,-0.007231371011584997,0.031185265630483627,-0.075104638934135437,-0.074356257915496826,-0.040003564208745956,-0.024891318753361702,0.123272448778152466,0.006058309227228165,-0.064672015607357025,0.069157898426055908,-0.010128265246748924,0.021683385595679283,0.030039105564355850,-0.013958634808659554,-0.075438588857650757,0.093037433922290802,0.078406184911727905,0.029395896941423416
