0.060511838644742966,0.025217622518539429,0.004767957609146833,-0.012707008048892021,0.076801627874374390,-0.016825998201966286,-0.068835444748401642,0.097581811249256134,0.089010417461395264,0.061128117144107819,0.067982532083988190,-0.045529548078775406,-0.118224978446960449,0.040119048207998276,0.031644813716411591,0.053167499601840973,-0.112787395715713501,0.037430841475725174,-0.025222998112440109,-0.122712701559066772,0.022692775353789330,-0.031533140689134598,-0.026294156908988953,0.145738124847412109,-0.211435750126838684,0.054843544960021973,-0.048342060297727585,-0.010542787611484528,-0.088492594659328461,-0.051819603890180588,-0.091437794268131256,0.149404227733612061
-0.065008662641048431,-0.032421600073575974,0.111568003892898560,-0.057070765644311905,-0.072750195860862732,0.094734996557235718,0.004034635145217180,0.124320790171623230,-0.143555015325546265,0.141561314463615417,-0.060467358678579330,-0.042414769530296326,-0.125998497009277344,0.032214902341365814,-0.071413978934288025,0.011856062337756157,-0.011821274645626545,0.082850575447082520,-0.056920826435089111,-0.117539830505847931,0.020857244729995728,0.080665953457355499,0.066449716687202454,0.005792664363980293,0.093641541898250580,-0.093681767582893372,-0.045417662709951401,0.123138055205345154,0.074416577816009521,0.114667356014251709,0.149794384837150574,-0.123608201742172241
-0.014514983631670475,0.077095858752727509,-0.106532424688339233,-0.081708312034606934,0.079782500863075256,0.085069358348846436,0.051921460777521133,-0.084730744361877441,0.098746590316295624,-0.058444693684577942,-0.044999975711107254,-0.071038305759429932,0.025495294481515884,0.090115390717983246,0.016302393749356270,0.084011465311050415,0.050938367843627930,0.035169322043657303,0.011436903849244118,-0.069707319140434265,-0.098468214273452759,0.144694373011589050,0.068506591022014618,-0.107745632529258728,0.183779776096343994,0.069664523005485535,0.109573476016521454,0.070252731442451477,-0.041013091802597046,0.123725689947605133,0.051832199096679688,-0.063418954610824585
0.107673756778240204,-0.141214430332183838,0.004309666808694601,-0.064047127962112427,-0.098495803773403168,0.076282300055027008,0.034628745168447495,-0.109977670013904572,0.010453389026224613,0.038914196193218231,-0.080598726868629456,-0.068942531943321228,0.129358515143394470,-0.082797162234783173,0.034938562661409378,0.071109190583229065,-0.025032863020896912,-0.134043365716934204,0.042341299355030060,-0.097554162144660950,0.103636495769023895,-0.056613113731145859,0.033554192632436752,-0.075710929930210114,-0.090553082525730133,0.020644491538405418,-0.080981560051441193,0.004895411897450686,-0.041293017566204071,-0.145354032516479492,-0.117107972502708435,-0.084563873708248138
-0.001221585320308805,-0.129477679729461670,0.132884040474891663,0.049230974167585373,0.102375589311122894,-0.112181559205055237,-0.114244326949119568,-0.043819393962621689,0.002373951487243176,-0.029017474502325058,0.033734232187271118,0.079043805599212646,-0.015578803606331348,-0.071226261556148529,-0.056732352823019028,-0.099242307245731354,-0.171187460422515869,0.057905483990907669,-0.077724866569042206,-0.010492391884326935,-0.090989194810390472,-0.124763414263725281,-0.109507270157337189,0.027374595403671265,-0.049544315785169601,-0.079885810613632202,-0.088146582245826721,-0.154832988977432251,0.122992232441902161,0.061581555753946304,0.090860635042190552,-0.013175347819924355
0.192196667194366455,0.029588980600237846,0.048343915492296219,-0.059313975274562836,0.028765616938471794,-0.019760366529226303,-0.016328550875186920,-0.093737132847309113,0.101938739418983459,0.080808386206626892,0.084004469215869904,-0.076255790889263153,-0.008073869161307812,0.088669054210186005,0.042599532753229141,0.101090945303440094,-0.028765706345438957,0.093275122344493866,0.056418098509311676,0.084727473556995392,-0.029786664992570877,0.019603276625275612,0.048662073910236359,0.018547963351011276,-0.034586951136589050,-0.045998122543096542,0.132264599204063416,-0.067705534398555756,0.082662068307399750,0.216507568955421448,-0.113771304488182068,-0.084497630596160889
-0.080594338476657867,-0.041390173137187958,-0.017950307577848434,0.171583488583564758,0.048181667923927307,-0.018663737922906876,-0.030976209789514542,-0.085930608212947845,-0.011940947733819485,-0.090048924088478088,0.093322835862636566,0.174919486045837402,-0.051872145384550095,0.092276252806186676,0.076678097248077393,-0.005882776342332363,-0.093797408044338226,-0.002303004730492830,0.095309711992740631,0.092685543000698090,0.088970191776752472,-0.042159188538789749,-0.019765974953770638,-0.055360067635774612,0.087236456573009491,0.041345790028572083,-0.001867413520812988,-0.125926986336708069,0.043804876506328583,-0.080479674041271210,0.024194857105612755,0.143136858940124512
-0.053264290094375610,0.105113245546817780,-0.074567288160324097,-0.013393077068030834,0.084043569862842560,-0.105879262089729309,0.018417337909340858,0.142064690589904785,-0.002674596151337028,0.135970458388328552,0.110632091760635376,0.113036759197711945,0.057308495044708252,0.100523754954338074,-0.160242363810539246,0.027613807469606400,0.005406519863754511,0.116060756146907806,0.036263462156057358,-0.029154753312468529,-0.030906975269317627,0.021400786936283112,0.014507691375911236,0.071121774613857269,-0.014539176598191261,0.146016150712966919,0.035995908081531525,0.027352355420589447,-0.078225627541542053,-0.122783489525318146,0.125237330794334412,-0.161924347281455994
0.039752360433340073,0.192838296294212341,0.059931244701147079,0.089757904410362244,-0.081483922898769379,-0.044602055102586746,-0.095512233674526215,-0.001492495182901621,-0.067448191344738007,0.077239662408828735,0.093573898077011108,-0.004194218665361404,-0.001688734046183527,-0.141319543123245239,-0.075000345706939697,0.112279959022998810,-0.135323524475097656,-0.032327476888895035,-0.076075501739978790,-0.110058963298797607,-0.082982026040554047,-0.146299988031387329,-0.158065035939216614,-0.005511950701475143,-0.051112432032823563,0.057257167994976044,0.044664025306701660,0.050334617495536804,-0.092370338737964630,-0.048709996044635773,0.032153245061635971,-0.162471324205398560
-0.086640149354934692,0.049838993698358536,0.130324393510818481,-0.048297643661499023,0.049268603324890137,-0.052484590560197830,0.037059050053358078,0.087627239525318146,0.026291327551007271,-0.086833991110324860,-0.019693277776241302,0.024511670693755150,-0.178204655647277832,-0.061344455927610397,0.034496705979108810,0.169192805886268616,-0.135451287031173706,-0.117511086165904999,-0.085235200822353363,0.041850969195365906,-0.006569841876626015,-0.157094374299049377,0.036527100950479507,0.164238676428794861,-0.048296760767698288,0.078950487077236176,-0.012629420496523380,0.004956188611686230,-0.144361808896064758,0.049755275249481201,-0.030789725482463837,0.043104283511638641
0.095354184508323669,-0.071334347128868103,-0.112751431763172150,0.106929279863834381,-0.045206405222415924,0.160506755113601685,-0.073294058442115784,-0.097345411777496338,0.028500804677605629,-0.115556858479976654,-0.109360575675964355,-0.028350589796900749,-0.206471860408782959,-0.062340565025806427,0.082213826477527618,0.080551184713840485,0.091023504734039307,0.013569730333983898,-0.063976988196372986,0.093306884169578552,0.050580441951751709,-0.012910635210573673,0.135941579937934875,-0.047121897339820862,0.089010611176490784,-0.085092507302761078,0.028913123533129692,-0.054376915097236633,-0.091803677380084991,-0.075240954756736755,0.147697076201438904,0.082584425806999207
0.114837773144245148,-0.109165661036968231,-0.033517364412546158,-0.058623898774385452,0.036874067038297653,0.026458309963345528,-0.035272162407636642,-0.065478205680847168,-0.117195941507816315,-0.090919837355613708,0.086523897945880890,-0.024628728628158569,-0.103400915861129761,-0.056597400456666946,0.110609382390975952,0.022508697584271431,-0.007946122437715530,-0.065622813999652863,-0.087446466088294983,0.032434917986392975,-0.056226637214422226,0.120224572718143463,0.115204080939292908,-0.024191133677959442,-0.099052540957927704,0.089229717850685120,-0.084144681692123413,-0.015440116636455059,0.032646317034959793,-0.079290136694908142,0.049836084246635437,0.088810212910175323
-0.060354061424732208,-0.124875590205192566,-0.146772623062133789,-0.068408526480197906,-0.116678938269615173,0.016656752675771713,0.159813106060028076,0.164476320147514343,-0.124908454716205597,-0.127132743597030640,0.142560213804244995,-0.019737547263503075,-0.106307074427604675,0.113661408424377441,0.139848470687866211,0.003624061821028590,-0.015238892287015915,0.077348150312900543,0.051058158278465271,0.089083515107631683,0.122537821531295776,0.051272507756948471,0.112948730587959290,-0.080755934119224548,0.076080359518527985,0.058956772089004517,0.022689362987875938,0.046639904379844666,-0.047942254692316055,0.166479811072349548,-0.078985497355461121,-0.143925026059150696
-0.075837470591068268,-0.030144579708576202,-0.101249851286411285,-0.106945484876632690,0.087859950959682465,0.170393273234367371,-0.030864015221595764,0.166644781827926636,0.072956010699272156,-0.032141491770744324,0.081789568066596985,0.038093309849500656,0.006856943015009165,0.134687036275863647,-0.018454108387231827,-0.096448302268981934,0.071691021323204041,-0.039430826902389526,0.079827181994915009,0.105129607021808624,0.069052830338478088,0.014548555947840214,0.016350001096725464,-0.104050487279891968,-0.051164049655199051,-0.102779321372509003,0.036294307559728622,-0.079400226473808289,0.090387172996997833,0.019174173474311829,-0.117324821650981903,0.051282469183206558
-0.056657854467630386,0.001725589274428785,-0.115916758775711060,-0.130151301622390747,0.013548628427088261,0.107718005776405334,-0.000763288175221533,0.146188363432884216,0.010483024641871452,0.040576037019491196,-0.105991534888744354,-0.098382875323295593,-0.144383281469345093,0.128029420971870422,0.037969250231981277,-0.037705149501562119,-0.006804907228797674,-0.063820153474807739,-0.083059795200824738,0.189337924122810364,0.019003083929419518,0.096097402274608612,-0.100641265511512756,0.032175444066524506,0.051511008292436600,0.104313641786575317,0.066027201712131500,-0.116910375654697418,-0.092033959925174713,-0.007300299126654863,-0.002943579806014895,0.046784766018390656
-0.102769277989864349,0.032302614301443100,0.027681123465299606,0.059422228485345840,0.001979091204702854,0.013835352845489979,0.013820851221680641,0.040029160678386688,-0.049985133111476898,0.100044578313827515,-0.064335688948631287,-0.080311141908168793,0.180128484964370728,-0.155881777405738831,0.073855824768543243,0.123254328966140747,0.090204343199729919,-0.090304620563983917,-0.092485398054122925,0.008849994279444218,-0.032775040715932846,-0.072774849832057953,0.144223511219024658,-0.098577804863452911,0.102124832570552826,-0.012645687907934189,-0.031492810696363449,0.000679057964589447,-0.133577629923820496,-0.159105703234672546,-0.039338313043117523,-0.053717859089374542
-0.077176585793495178,0.117689691483974457,-0.064352735877037048,0.026847841218113899,-0.080797515809535980,-0.103657089173793793,-0.020128531381487846,0.166321203112602234,0.114228852093219757,0.089542478322982788,-0.063386611640453339,-0.071040660142898560,-0.033067718148231506,0.015964573249220848,-0.066129662096500397,-0.076248630881309509,-0.076602950692176819,-0.033511187881231308,0.126981988549232483,-0.103250950574874878,0.024038629606366158,-0.143687769770622253,0.139045581221580505,-0.126601129770278931,-0.107323214411735535,-0.080950401723384857,-0.055287145078182220,0.074088521301746368,-0.097420468926429749,-0.134583488106727600,0.133924558758735657,0.065006814897060394
0.091597490012645721,-0.071017399430274963,0.128918543457984924,0.102219015359878540,0.018129847943782806,-0.114835947751998901,0.180386200547218323,-0.019445179030299187,0.136515110731124878,-0.041975192725658417,-0.063844799995422363,-0.037301845848560333,-0.055855140089988708,0.100414700806140900,0.023720193654298782,-0.011233435943722725,0.005307073704898357,-0.155351430177688599,0.029065309092402458,0.108372032642364502,-0.087457254528999329,0.011531231924891472,-0.055476289242506027,-0.048051748424768448,-0.106015078723430634,-0.021514993160963058,0.091693982481956482,0.104602016508579254,-0.064104668796062469,-0.155418291687965393,0.021997801959514618,-0.055517010390758514
0.085430823266506195,0.167084604501724243,-0.004799068905413151,-0.079566307365894318,-0.126695349812507629,-0.057768370956182480,0.107096865773200989,0.025130489841103554,-0.106662400066852570,-0.109570801258087158,-0.035580012947320938,0.068084701895713806,0.064749971032142639,-0.067526459693908691,-0.127851858735084534,-0.023326264694333076,0.012851623818278313,0.050609588623046875,-0.066512867808341980,0.140043973922729492,0.017273858189582825,0.034416448324918747,-0.151208877563476562,0.188905552029609680,0.089154243469238281,0.026288267225027084,-0.059634897857904434,-0.120945982635021210,0.146297410130500793,0.117484360933303833,0.062584295868873596,0.120458893477916718
-0.069020502269268036,0.136396497488021851,0.033960629254579544,0.028384188190102577,0.009955847635865211,0.018303893506526947,-0.174429535865783691,-0.083055108785629272,-0.024963960051536560,0.083558969199657440,0.015467138029634953,0.190343067049980164,-0.007708006072789431,-0.018047826364636421,-0.015573949553072453,0.119748488068580627,0.052404910326004028,-0.190413311123847961,0.140417248010635376,-0.045479170978069305,-0.137462764978408813,0.020007904618978500,-0.054837569594383240,-0.024610798805952072,0.070445783436298370,-0.092631511390209198,-0.131919071078300476,0.071954503655433655,-0.057538732886314392,0.137825071811676025,0.096365220844745636,0.018087446689605713
0.087869063019752502,-0.088889360427856445,0.042595610022544861,0.005826108157634735,0.110045753419399261,0.128682851791381836,0.035588927567005157,-0.097916349768638611,-0.161837279796600342,0.040066752582788467,-0.092827014625072479,0.150325164198875427,0.038452733308076859,-0.176443904638290405,-0.129553616046905518,-0.121857330203056335,0.051892682909965515,-0.029768249019980431,0.030070999637246132,0.136156007647514343,0.034091707319021225,-0.022584395483136177,-0.071106009185314178,-0.014586821198463440,-0.039096392691135406,-0.085928820073604584,0.087947696447372437,-0.027835728600621223,0.048910249024629593,-0.108891107141971588,0.112825691699981689,0.092371650040149689
-0.068856179714202881,0.044326961040496826,-0.027905654162168503,-0.030574999749660492,0.103171199560165405,0.078980952501296997,0.081009477376937866,-0.092246197164058685,0.117874205112457275,-0.140230774879455566,-0.077916458249092102,0.049661912024021149,0.000696711009368300,-0.028671821579337120,0.049185130745172501,-0.117341019213199615,0.102327220141887665,0.139286607503890991,0.021295130252838135,-0.016167175024747849,0.122906133532524109,0.119312018156051636,-0.182010158896446228,0.013128795661032200,0.083514310419559479,0.003112163394689560,0.106093816459178925,-0.136228442192077637,0.052253801375627518,0.104361228644847870,0.072894945740699768,-0.119479827582836151
-0.027211630716919899,-0.071957968175411224,-0.000800078792963177,0.071873366832733154,-0.009045271202921867,0.130887195467948914,-0.157451570034027100,-0.085573069751262665,-0.130160272121429443,0.058780483901500702,0.062673166394233704,0.014970241114497185,0.085787542164325714,0.054548148065805435,0.114964485168457031,-0.155579209327697754,0.152072086930274963,0.068103753030300140,0.138582810759544373,-0.131608173251152039,-0.100291512906551361,-0.101165674626827240,-0.184540078043937683,0.061975389719009399,-0.018280014395713806,-0.050495781004428864,0.136136278510093689,0.026451338082551956,0.004927658475935459,0.036650627851486206,-0.171733900904655457,0.031531613320112228
-0.081907026469707489,0.085774824023246765,-0.101543195545673370,-0.005501627456396818,-0.116655111312866211,-0.073737099766731262,-0.020058983936905861,0.097181618213653564,-0.039233550429344177,0.061111424118280411,0.107249334454536438,-0.049099430441856384,-0.009637665003538132,0.054150912910699844,0.102351844310760498,0.003509876318275928,-0.003323817392811179,0.082575500011444092,0.100706763565540314,-0.101834915578365326,0.021052848547697067,0.090440094470977783,0.034452557563781738,0.142117261886596680,-0.063667513430118561,-0.047163706272840500,0.034660417586565018,0.046029634773731232,0.020444432273507118,-0.151665821671485901,-0.117654889822006226,0.061675265431404114
0.070020712912082672,-0.062488224357366562,0.043575018644332886,0.038688361644744873,-0.043414458632469177,-0.098179101943969727,0.048122718930244446,-0.056224018335342407,0.128819152712821960,-0.126041203737258911,0.066575184464454651,-0.085819654166698456,0.156990796327590942,-0.090408191084861755,-0.064951196312904358,-0.097889006137847900,0.108587890863418579,0.043746534734964371,-0.126849070191383362,-0.002203983021900058,0.075004026293754578,0.131321832537651062,0.020576253533363342,-0.106358088552951813,0.069194279611110687,-0.018070869147777557,-0.055560082197189331,0.068690635263919830,0.110336735844612122,0.133600592613220215,-0.091914825141429901,0.001200439292006195
0.034844368696212769,0.040117885917425156,0.035594698041677475,0.035888254642486572,0.029507257044315338,-0.168829023838043213,0.028177067637443542,-0.124601066112518311,-0.086136527359485626,-0.050078213214874268,0.075495108962059021,-0.124851658940315247,0.112336561083793640,0.099163554608821869,-0.134110271930694580,0.077903807163238525,0.082498505711555481,-0.023391118273139000,-0.039389766752719879,-0.121808759868144989,-0.075815334916114807,-0.039073910564184189,-0.017370989546179771,-0.119073785841464996,-0.071733914315700531,-0.130854919552803040,-0.079967051744461060,0.106535546481609344,0.143807142972946167,0.074726149439811707,-0.133934736251831055,-0.061873223632574081
-0.116843931376934052,-0.116195380687713623,0.103792302310466766,0.013148942962288857,0.058209922164678574,-0.125619232654571533,0.131227269768714905,-0.109141632914543152,0.122886948287487030,-0.067562878131866455,-0.124219544231891632,-0.009034297429025173,-0.072790615260601044,-0.069128140807151794,0.013666954822838306,-0.130956754088401794,-0.062895089387893677,0.102665126323699951,-0.107365988194942474,0.000492337276227772,0.041641395539045334,0.051963802427053452,0.159918144345283508,0.117580674588680267,0.038036160171031952,0.081620082259178162,-0.107503719627857208,0.063294164836406708,0.138718798756599426,-0.034695960581302643,-0.052600972354412079,0.147824674844741821
