-0.137005627155303955,-0.108344033360481262,-0.162495926022529602,-0.131959766149520874,-0.057964447885751724,0.134574294090270996,0.211193576455116272,-0.063615806400775909,0.321007341146469116,0.082537405192852020,-0.097152166068553925,0.205104410648345947,-0.120384857058525085,0.217538580298423767,-0.023019788786768913,0.003579824697226286,0.125062510371208191,0.022778458893299103,-0.163650840520858765,-0.087769187986850739,0.071129985153675079,-0.150231614708900452,-0.197007074952125549,0.143307909369468689,0.270886063575744629,0.170208334922790527,-0.075756654143333435,-0.042351529002189636,0.042742986232042313,-0.044966462999582291,-0.194120019674301147,0.089210756123065948,0.017500378191471100,-0.225592240691184998,-0.063340701162815094,-0.169876679778099060,0.132663711905479431,0.156702876091003418,-0.078149296343326569,0.218224599957466125,-0.147265240550041199,-0.045300751924514771,-0.081474177539348602,-0.008904421702027321,0.142698481678962708,0.160604849457740784,0.059051655232906342,-0.118622288107872009,-0.130958765745162964,0.061466917395591736,-0.157882735133171082,-0.121057182550430298,0.113122396171092987,-0.176150947809219360,-0.021539781242609024,-0.067658267915248871,0.216643407940864563,-0.185765355825424194,-0.094530947506427765,0.014478133991360664,0.072109051048755646,-0.225923910737037659,-0.075733073055744171,0.198607653379440308,0.210083723068237305,-0.049746878445148468,0.049709368497133255,-0.100536428391933441,-0.057829678058624268,-0.107861116528511047,0.110120758414268494,0.274447590112686157,0.215710580348968506,0.067170575261116028,-0.008518531918525696,-0.179884105920791626,0.231353893876075745,0.123730964958667755,0.127339065074920654,0.006388817448168993,-0.121863983571529388,0.098901823163032532,-0.036633521318435669,0.200397297739982605,-0.052042361348867416,0.198775380849838257,-0.149893924593925476,-0.104845300316810608,-0.247843012213706970,0.052238393574953079,0.144879162311553955,-0.121778137981891632,0.191442221403121948,-0.102553516626358032,-0.128040269017219543,0.098433844745159149,-0.133248269557952881,0.112727791070938110
0.098102942109107971,0.055538486689329147,0.046771533787250519,-0.131039068102836609,0.258925706148147583,-0.103401966392993927,0.147288382053375244,-0.058330439031124115,-0.017282363027334213,-0.082345709204673767,0.015050024725496769,-0.061761997640132904,0.066965773701667786,0.124446116387844086,-0.018876079469919205,-0.010841154493391514,0.163449183106422424,-0.005881007760763168,-0.076503850519657135,-0.087151288986206055,-0.007256206590682268,0.007586961146444082,0.146826848387718201,0.068745501339435577,-0.131199717521667480,-0.260906517505645752,-0.054659273475408554,0.001106858835555613,0.164229154586791992,-0.120186582207679749,-0.048657257109880447,0.010000796988606453,0.249441415071487427,0.086752004921436310,-0.073704525828361511,-0.143795788288116455,0.125269621610641479,0.168518841266632080,-0.078999713063240051,-0.125865519046783447,0.223448127508163452,0.023655405268073082,0.062961742281913757,-0.128104314208030701,0.178359776735305786,-0.095434367656707764,0.234559744596481323,-0.009520855732262135,0.110655367374420166,-0.098272852599620819,0.136396452784538269,0.035142794251441956,-0.138998642563819885,0.168353214859962463,0.155738428235054016,-0.180793806910514832,-0.160769909620285034,0.158595532178878784,-0.077464006841182709,-0.153759628534317017,0.058474402874708176,0.171834841370582581,-0.024070391431450844,-0.216635406017303467,0.025227606296539307,-0.061782386153936386,0.091117270290851593,0.086784958839416504,-0.051617518067359924,-0.075620748102664948,-0.222993716597557068,0.063867270946502686,-0.151853337883949280,0.020728128030896187,-0.017849192023277283,0.102007701992988586,-0.224105387926101685,-0.035641867667436600,0.082929417490959167,0.056750126183032990,0.135796502232551575,0.103582300245761871,0.185695260763168335,-0.051786441355943680,0.134931042790412903,-0.199211910367012024,-0.189321711659431458,-0.074439987540245056,0.105229496955871582,0.280308246612548828,0.089639700949192047,0.050630040466785431,0.187620162963867188,-0.117905177175998688,-0.095690377056598663,-0.188632607460021973,0.159855484962463379,-0.135548666119575500
-0.283499568700790405,0.062705300748348236,-0.158566340804100037,-0.112063921988010406,0.042501442134380341,-0.080043949186801910,-0.103090763092041016,-0.119063898921012878,-0.253437697887420654,0.082487396895885468,-0.059863038361072540,-0.021426981315016747,0.031521286815404892,0.030286980792880058,0.172134637832641602,-0.249833151698112488,-0.122325628995895386,-0.027045572176575661,0.143830955028533936,-0.085551008582115173,0.202747762203216553,-0.215608969330787659,0.098634600639343262,0.125250771641731262,-0.232201203703880310,-0.253272265195846558,0.007183469831943512,0.234518393874168396,-0.024974795058369637,-0.087707437574863434,0.138578906655311584,-0.000494397943839431,0.081022329628467560,-0.017823891714215279,-0.002755336230620742,0.082292385399341583,0.037660978734493256,0.159862533211708069,-0.109922289848327637,0.012630846351385117,-0.087609484791755676,0.115122564136981964,0.080672256648540497,-0.154287353157997131,0.213038906455039978,-0.045184027403593063,-0.087330691516399384,0.103694207966327667,0.061011750251054764,-0.081327952444553375,0.151987716555595398,0.004941254854202271,-0.150450110435485840,-0.098485961556434631,0.013358961790800095,-0.108480520546436310,-0.160702034831047058,0.133932217955589294,0.086859695613384247,0.173784524202346802,0.308442026376724243,-0.132491648197174072,0.028354387730360031,0.159592032432556152,-0.160996988415718079,-0.140704467892646790,-0.008222524076700211,0.037505097687244415,0.119081035256385803,-0.235572218894958496,0.046570826321840286,-0.068185716867446899,0.167511850595474243,0.066105857491493225,-0.046360306441783905,-0.143852248787879944,-0.160249605774879456,-0.029189165681600571,0.056824430823326111,-0.091915339231491089,-0.093129292130470276,-0.022089315578341484,0.068884491920471191,0.055444177240133286,-0.199999168515205383,-0.009872408583760262,-0.002394809387624264,0.269197702407836914,-0.047815542668104172,0.209783628582954407,0.221384942531585693,-0.112155072391033173,0.003856331110000610,-0.104309514164924622,-0.142767116427421570,0.066391356289386749,0.176386460661888123,0.133900433778762817
-0.004040718078613281,0.187304079532623291,-0.147902637720108032,0.049341913312673569,0.187431201338768005,0.150552436709403992,-0.028880612924695015,0.077823512256145477,0.032063852995634079,-0.026592448353767395,0.149773955345153809,-0.144996374845504761,-0.131962642073631287,0.090497113764286041,-0.040027622133493423,-0.073071613907814026,0.081428155303001404,-0.213521420955657959,0.108939349651336670,0.131111711263656616,0.048299629241228104,-0.035757839679718018,0.076616749167442322,0.204418063163757324,0.023378886282444000,-0.065314628183841705,0.090344585478305817,-0.122745893895626068,-0.096862331032752991,-0.041274208575487137,-0.107704840600490570,-0.230852752923965454,0.142542541027069092,0.071208313107490540,0.107536531984806061,0.072104468941688538,-0.118815623223781586,0.075145125389099121,-0.129575699567794800,-0.139757350087165833,0.202198907732963562,-0.058622024953365326,0.081276103854179382,0.042339127510786057,0.041182581335306168,0.074104033410549164,-0.015268048271536827,-0.159488022327423096,-0.067536011338233948,-0.145194113254547119,0.154612466692924500,-0.077619224786758423,-0.032252017408609390,-0.032023690640926361,-0.039769612252712250,0.008229028433561325,-0.057183712720870972,0.000752896303310990,0.019078634679317474,-0.053668972104787827,0.124107144773006439,-0.023522751405835152,-0.012268572114408016,-0.076057314872741699,0.057949520647525787,0.137560680508613586,0.051397867500782013,-0.162669286131858826,-0.092730470001697540,0.220533147454261780,0.098484106361865997,-0.160783261060714722,-0.145557135343551636,-0.217943966388702393,-0.159483194351196289,-0.099235735833644867,0.063732311129570007,-0.151117667555809021,0.085644371807575226,-0.215063363313674927,0.083367787301540375,0.045413732528686523,-0.250942945480346680,-0.183035463094711304,-0.124819032847881317,-0.139372900128364563,0.189362362027168274,0.188936859369277954,-0.140868142247200012,-0.099677860736846924,0.171177759766578674,-0.108480259776115417,0.084064215421676636,-0.145598381757736206,0.069715738296508789,0.181466549634933472,-0.037635989487171173,-0.093664743006229401
-0.171567082405090332,0.156810030341148376,0.141265437006950378,0.192965596914291382,0.214345514774322510,-0.174858346581459045,0.220463275909423828,0.113107591867446899,-0.037345353513956070,0.038003489375114441,0.022994123399257660,0.118301458656787872,-0.202088102698326111,-0.081074260175228119,-0.244610458612442017,-0.090981781482696533,-0.244027927517890930,0.193613260984420776,-0.165924757719039917,-0.012165133841335773,0.158594965934753418,-0.092725396156311035,0.170951679348945618,0.246017187833786011,0.232185676693916321,0.062403358519077301,0.229373782873153687,0.155406102538108826,0.190623179078102112,-0.122238866984844208,0.019898293539881706,0.201929137110710144,-0.124755106866359711,-0.029624769464135170,0.269272744655609131,-0.036206670105457306,-0.146987482905387878,0.118550121784210205,-0.068284101784229279,0.166853949427604675,0.221967175602912903,0.169939190149307251,0.007275841198861599,-0.184934318065643311,0.004018533974885941,0.255133718252182007,-0.035657223314046860,0.034520585089921951,-0.131801143288612366,-0.086469911038875580,0.014738520607352257,0.126700192689895630,0.039418209344148636,-0.096637889742851257,-0.079300470650196075,-0.064803250133991241,0.103989072144031525,0.089942932128906250,-0.282432019710540771,0.239281624555587769,0.079765588045120239,-0.064505875110626221,0.207482621073722839,-0.039538122713565826,0.081872224807739258,-0.086369998753070831,0.091367878019809723,0.056578829884529114,0.028880579397082329,0.046265479177236557,-0.192878082394599915,0.129838809370994568,0.086298704147338867,-0.219283387064933777,-0.156568720936775208,0.197113797068595886,0.102690964937210083,0.151352465152740479,0.166977167129516602,0.055855631828308105,0.168197631835937500,0.183477684855461121,-0.180136740207672119,-0.156528308987617493,0.194822326302528381,-0.011929647997021675,-0.238240465521812439,0.056574277579784393,0.131708920001983643,0.263349771499633789,-0.116084232926368713,0.206434443593025208,0.207532569766044617,-0.036205835640430450,-0.022772058844566345,-0.084290064871311188,0.121620029211044312,-0.082075074315071106
0.002178928349167109,-0.131074517965316772,-0.000575455953367054,-0.021132184192538261,-0.204047352075576782,0.140011534094810486,0.212067261338233948,-0.091172620654106140,0.081951498985290527,-0.132861256599426270,0.124800115823745728,0.081689484417438507,0.017785562202334404,0.083891659975051880,0.169827252626419067,-0.169653534889221191,-0.056482531130313873,-0.095776766538619995,-0.043868683278560638,-0.164166852831840515,-0.061081450432538986,0.161536991596221924,-0.020174674689769745,-0.055748082697391510,0.194699034094810486,0.027028173208236694,-0.187306821346282959,-0.231256231665611267,-0.021600935608148575,0.106437392532825470,0.005201181862503290,0.042797476053237915,-0.039354465901851654,-0.098845101892948151,-0.093667604029178619,0.063752748072147369,-0.037090651690959930,0.179576367139816284,-0.001687176991254091,-0.038953404873609543,-0.093710526823997498,-0.176964387297630310,-0.028965413570404053,-0.152970597147941589,-0.079615242779254913,0.221175134181976318,-0.010674191638827324,0.194819152355194092,0.144445434212684631,0.028481878340244293,-0.141636446118354797,0.023674577474594116,-0.012654760852456093,-0.126406133174896240,0.049418356269598007,0.082671053707599640,-0.148745745420455933,-0.255540698766708374,-0.189028203487396240,0.142397433519363403,0.110970906913280487,0.157019242644309998,-0.071619540452957153,0.133416056632995605,0.102928832173347473,0.133356168866157532,0.134002670645713806,-0.078437075018882751,-0.112646318972110748,-0.052427332848310471,0.128696814179420471,0.236711785197257996,0.133260339498519897,-0.119598247110843658,0.159885212779045105,0.063651077449321747,0.240427508950233459,0.020745482295751572,-0.051868800073862076,0.112031430006027222,0.020699439570307732,0.113161377608776093,-0.023265853524208069,-0.082555040717124939,-0.119955100119113922,0.172293514013290405,0.055548403412103653,-0.007234672550112009,-0.124871723353862762,-0.284174352884292603,-0.170114293694496155,-0.025715561583638191,0.191470205783843994,0.208065405488014221,0.056708618998527527,0.101441994309425354,0.226652011275291443,0.001825517858378589
-0.177199959754943848,-0.024912131950259209,0.260593235492706299,-0.013396117836236954,0.257011204957962036,0.062327899038791656,-0.155659258365631104,-0.066638350486755371,0.129260107874870300,-0.144038259983062744,0.021273329854011536,-0.008494154550135136,0.144375219941139221,-0.187452793121337891,-0.173465922474861145,-0.146877169609069824,-0.063119843602180481,-0.045467011630535126,0.073878608644008636,0.091754421591758728,-0.001648070057854056,0.039398182183504105,-0.040335249155759811,-0.135339245200157166,0.090911597013473511,0.085359863936901093,-0.069050692021846771,0.256361126899719238,0.012155983597040176,-0.034761752933263779,-0.103363774716854095,-0.108997277915477753,0.192849904298782349,0.135518014430999756,-0.028150325641036034,0.032452568411827087,-0.186975523829460144,0.007784969639033079,0.063044488430023193,0.135210081934928894,-0.224011570215225220,-0.000516002299264073,-0.043329697102308273,-0.026140218600630760,0.102907389402389526,0.176151722669601440,-0.145370051264762878,-0.101561561226844788,0.046127602458000183,-0.047360714524984360,0.127980202436447144,0.032456934452056885,0.067315749824047089,-0.033537339419126511,-0.134111419320106506,0.176048189401626587,-0.227004736661911011,-0.024248657748103142,-0.075816899538040161,-0.046210855245590210,0.039965216070413589,-0.185801565647125244,0.008264999836683273,-0.179220497608184814,-0.045829620212316513,-0.078195109963417053,0.031351711601018906,0.137234628200531006,0.083809018135070801,0.056090541183948517,0.211814060807228088,-0.111103236675262451,-0.161024585366249084,-0.202022105455398560,0.032349493354558945,-0.143085077404975891,-0.050729461014270782,0.156869769096374512,-0.030154006555676460,0.021523650735616684,0.008201315067708492,0.082924522459506989,-0.164419621229171753,0.103127695620059967,-0.072281412780284882,-0.211498245596885681,-0.077601239085197449,-0.170962765812873840,-0.060577064752578735,0.143102616071701050,-0.029013324528932571,0.166110947728157043,0.193514406681060791,0.030395694077014923,-0.289212852716445923,0.146335288882255554,-0.162798449397087097,0.064638577401638031
-0.117379635572433472,0.037288192659616470,-0.207142710685729980,0.040273196995258331,-0.198221415281295776,-0.065584115684032440,-0.169826731085777283,0.091604135930538177,0.024910263717174530,0.148767441511154175,0.154328286647796631,0.155327528715133667,-0.040360152721405029,0.169237598776817322,0.127139106392860413,-0.095063276588916779,-0.100945845246315002,0.165187627077102661,0.100770734250545502,-0.003634951310232282,0.165537297725677490,-0.067443363368511200,-0.004837185144424438,-0.030569851398468018,-0.158024713397026062,-0.182021677494049072,0.105342537164688110,0.025277912616729736,-0.160514727234840393,0.018074117600917816,-0.174209222197532654,-0.088212825357913971,-0.133444264531135559,0.126186028122901917,-0.035683814436197281,-0.098295815289020538,0.057390801608562469,-0.054031368345022202,-0.070028319954872131,0.011382277123630047,0.094670958817005157,0.018816096708178520,0.084083050489425659,0.130144581198692322,-0.178395941853523254,-0.200890630483627319,-0.190383747220039368,-0.096783131361007690,0.200982064008712769,-0.010815153829753399,-0.081074826419353485,-0.182568803429603577,0.172365233302116394,0.060659859329462051,-0.200428903102874756,-0.215874493122100830,0.071658022701740265,0.222677513957023621,-0.024609621614217758,-0.132053181529045105,0.073276028037071228,0.201215624809265137,-0.128688573837280273,-0.153847664594650269,0.159755468368530273,-0.101530954241752625,-0.053968243300914764,-0.219682872295379639,0.121933966875076294,-0.114382594823837280,-0.143877118825912476,0.148161590099334717,0.063236497342586517,0.010420752689242363,-0.196097865700721741,-0.067289367318153381,-0.079013720154762268,-0.216850101947784424,0.194884330034255981,-0.047234836965799332,0.186802089214324951,0.042556546628475189,0.081391252577304840,-0.045984886586666107,0.144003644585609436,-0.196164190769195557,-0.056143164634704590,0.187194675207138062,-0.081438213586807251,0.063486598432064056,0.046259894967079163,-0.150791123509407043,-0.001175408600829542,0.129838451743125916,0.198738306760787964,-0.043244265019893646,0.218737617135047913,0.078501656651496887
-0.162386551499366760,0.071420781314373016,-0.007743088994175196,0.129277691245079041,0.040644776076078415,-0.166033014655113220,0.023490590974688530,-0.121705479919910431,-0.083924949169158936,-0.102464996278285980,-0.020076034590601921,0.107561305165290833,0.049886107444763184,-0.003288060892373323,-0.127346783876419067,0.046364076435565948,0.111883245408535004,0.071143560111522675,-0.182956755161285400,0.003435302991420031,0.057490210980176926,-0.031777080148458481,-0.151851236820220947,0.046724040061235428,0.065562330186367035,-0.035035625100135803,0.035914275795221329,-0.080562181770801544,-0.235301852226257324,0.069201037287712097,0.069597892463207245,-0.095914058387279510,0.068953402340412140,0.138806238770484924,0.042818348854780197,-0.017493396997451782,-0.166288182139396667,0.105643637478351593,0.107948429882526398,0.078444778919219971,0.217888325452804565,-0.037196252495050430,-0.168748408555984497,0.099417313933372498,-0.125469654798507690,-0.097472622990608215,-0.109229862689971924,0.006037911400198936,-0.171826407313346863,-0.205183327198028564,-0.089933238923549652,0.027136728167533875,0.154184937477111816,0.037063222378492355,0.154301509261131287,0.007905485108494759,0.042179528623819351,-0.142792716622352600,-0.110685378313064575,0.099390879273414612,0.107535526156425476,0.112490564584732056,-0.185147345066070557,0.192249879240989685,0.203211277723312378,0.177399545907974243,0.057430386543273926,-0.070111684501171112,0.033105261623859406,-0.226488873362541199,-0.120166473090648651,-0.123521372675895691,0.021220985800027847,0.011367590166628361,-0.217311531305313110,-0.132431313395500183,0.126968607306480408,0.095011182129383087,-0.145088598132133484,-0.149183824658393860,-0.153379663825035095,-0.009869953617453575,-0.234992101788520813,-0.006138363853096962,0.158462449908256531,0.058343585580587387,-0.153485342860221863,0.217897757887840271,-0.058430425822734833,0.025669151917099953,-0.046137854456901550,0.082330226898193359,0.050091471523046494,0.154314130544662476,0.196557804942131042,0.186067700386047363,0.072325825691223145,0.232382968068122864
0.002356558805331588,0.037396103143692017,0.012647625990211964,0.045470688492059708,-0.019906034693121910,-0.158666089177131653,-0.285040974617004395,0.012846667319536209,-0.139052152633666992,-0.174876391887664795,0.233554601669311523,-0.239261403679847717,-0.067552544176578522,-0.147700607776641846,0.140034332871437073,-0.271816611289978027,0.018858682364225388,-0.093698889017105103,0.147732451558113098,-0.164712771773338318,0.252238839864730835,-0.245183601975440979,0.254970282316207886,-0.110633730888366699,-0.226336613297462463,-0.084613613784313202,-0.041945062577724457,0.168592244386672974,0.040071021765470505,0.085310183465480804,0.025402532890439034,-0.047776456922292709,-0.218492016196250916,-0.002177151618525386,0.167570754885673523,-0.034049462527036667,0.197060286998748779,0.104143872857093811,0.039985280483961105,0.056170627474784851,-0.165158182382583618,0.038995418697595596,0.079527162015438080,0.215880960226058960,0.064117006957530975,-0.103953510522842407,-0.153501421213150024,0.290548801422119141,0.126828655600547791,-0.018990777432918549,-0.135124921798706055,-0.152426570653915405,-0.076729871332645416,-0.008552052080631256,-0.164790764451026917,-0.008248130790889263,-0.223574861884117126,0.056805659085512161,-0.205470561981201172,0.091932646930217743,-0.003939540591090918,-0.101413577795028687,0.210257053375244141,0.094344489276409149,0.031622193753719330,0.094023875892162323,-0.096172757446765900,0.018157240003347397,-0.139402672648429871,-0.003777441568672657,0.054173726588487625,-0.102478750050067902,0.165432095527648926,0.134364590048789978,0.062960289418697357,0.121876634657382965,-0.181814864277839661,0.179212614893913269,0.279481798410415649,0.251685559749603271,0.097144156694412231,0.009860651567578316,0.099325470626354218,-0.203195646405220032,-0.085538759827613831,-0.042209714651107788,-0.044570013880729675,-0.064938686788082123,-0.101472333073616028,0.213573455810546875,0.045557409524917603,0.072178147733211517,0.165331467986106873,-0.038991142064332962,0.150897249579429626,0.150438860058784485,0.300000429153442383,-0.004127738997340202
-0.014537170529365540,-0.029517745599150658,0.261829227209091187,0.020141573622822762,0.144353806972503662,-0.032716736197471619,-0.065957069396972656,-0.085222773253917694,0.114527791738510132,-0.068221285939216614,-0.119040422141551971,-0.049330666661262512,-0.032550174742937088,-0.113286755979061127,0.059058785438537598,-0.053577430546283722,-0.037078890949487686,0.125735357403755188,0.063143029808998108,0.137528911232948303,-0.107743605971336365,0.013648757711052895,0.119324304163455963,0.129059746861457825,-0.096509695053100586,0.052477490156888962,0.023551419377326965,0.124635338783264160,0.286724299192428589,0.026848793029785156,-0.038174580782651901,0.083244390785694122,-0.041469905525445938,0.103907182812690735,0.163876980543136597,-0.000278916093520820,0.130294293165206909,0.169617623090744019,-0.050576351583003998,0.217694878578186035,0.001936032553203404,0.141627088189125061,0.035123087465763092,-0.124520987272262573,-0.115289188921451569,0.057415053248405457,-0.035936780273914337,0.124992191791534424,0.015308242291212082,-0.132809549570083618,-0.106272496283054352,-0.131992563605308533,0.120688140392303467,0.035930640995502472,-0.036703187972307205,0.227127030491828918,-0.057219419628381729,0.148480698466300964,-0.138689607381820679,0.206102743744850159,-0.061531256884336472,0.116503611207008362,-0.022015040740370750,-0.151862487196922302,0.130726978182792664,0.050386097282171249,0.044685300439596176,0.017380502074956894,0.079370275139808655,0.240835070610046387,-0.156263038516044617,0.107905849814414978,-0.151564344763755798,-0.068000897765159607,0.006451378110796213,0.140083655714988708,0.067650102078914642,0.000384889426641166,-0.124868981540203094,-0.104296609759330750,0.098357886075973511,-0.232199609279632568,0.027600396424531937,-0.145704433321952820,0.113751284778118134,-0.169436216354370117,0.102621562778949738,-0.075602225959300995,-0.189738318324089050,0.037357244640588760,0.197738856077194214,-0.154464960098266602,0.074784420430660248,0.133917182683944702,-0.263822495937347412,-0.135948851704597473,0.057191923260688782,-0.221338108181953430
-0.132639214396476746,-0.114103808999061584,0.090802982449531555,0.197312653064727783,0.182491093873977661,0.108662456274032593,-0.165771514177322388,-0.143357649445533752,-0.077244535088539124,-0.165027141571044922,0.064405798912048340,0.134688898921012878,0.182343840599060059,-0.141275659203529358,0.141604125499725342,0.179613471031188965,-0.012568707577884197,0.119782119989395142,-0.031333208084106445,-0.024654265493154526,0.085095353424549103,0.118638254702091217,0.003419152228161693,0.017832789570093155,0.120428733527660370,0.063686005771160126,-0.002301841042935848,0.011955624446272850,0.079495079815387726,0.050948522984981537,0.208043247461318970,-0.111066140234470367,0.143314257264137268,-0.153204694390296936,-0.047208011150360107,-0.047867242246866226,0.062597498297691345,-0.193568170070648193,0.020685115829110146,0.050161272287368774,0.199453234672546387,0.108199842274188995,-0.175387665629386902,0.230438306927680969,-0.128824889659881592,0.234601125121116638,-0.065621726214885712,-0.147022023797035217,-0.172187462449073792,-0.103529743850231171,-0.196636721491813660,0.155182242393493652,-0.081441603600978851,0.146183788776397705,-0.031241202726960182,0.122333608567714691,-0.064778670668601990,0.132216528058052063,0.165438085794448853,-0.040424384176731110,-0.190913707017898560,-0.081244893372058868,0.186726614832878113,-0.127359896898269653,-0.074298575520515442,0.199678808450698853,0.015453970991075039,0.168649181723594666,0.027215940877795219,-0.004154271911829710,0.065277017652988434,0.120000354945659637,0.040342923253774643,-0.073162280023097992,0.003423791378736496,-0.186364367604255676,-0.187788337469100952,0.093564614653587341,0.143750503659248352,0.086895562708377838,0.141078978776931763,-0.127212822437286377,0.086049817502498627,-0.216887414455413818,0.140103280544281006,0.020699201151728630,0.116332307457923889,0.000682424230035394,0.083265960216522217,0.071862861514091492,-0.198258489370346069,-0.087239727377891541,0.207212373614311218,0.195397824048995972,-0.002461959142237902,-0.183234378695487976,0.196853518486022949,0.165657222270965576
-0.108348332345485687,0.113327763974666595,-0.070140957832336426,0.357450217008590698,0.115794345736503601,0.075920589268207550,-0.150726288557052612,-0.000405934551963583,0.281035602092742920,-0.077290840446949005,-0.106836169958114624,0.142778232693672180,0.036562658846378326,-0.069999665021896362,0.004614555742591619,0.221432358026504517,-0.000295381119940430,-0.149841576814651489,0.005551886744797230,0.029585488140583038,0.328619211912155151,-0.243808433413505554,0.146165058016777039,0.080214150249958038,-0.067262470722198486,0.174397841095924377,0.135868564248085022,-0.066642247140407562,-0.252027422189712524,0.044324684888124466,-0.005407836753875017,-0.068196512758731842,-0.201763138175010681,-0.057274166494607925,0.302537113428115845,0.117011718451976776,-0.111161217093467712,-0.235700443387031555,-0.088450148701667786,0.183886364102363586,-0.051280017942190170,0.008490971289575100,-0.087236240506172180,0.085747510194778442,-0.120641224086284637,-0.232187554240226746,-0.104073792695999146,-0.049745138734579086,-0.204475924372673035,0.069364406168460846,-0.010758162476122379,0.029645770788192749,-0.154202982783317566,0.143784508109092712,-0.083599939942359924,0.295234620571136475,0.019428698346018791,0.168247938156127930,0.174998328089714050,0.280149072408676147,0.132558465003967285,0.044719081372022629,-0.053892500698566437,0.022989550605416298,-0.021214649081230164,0.003565523074939847,-0.028040062636137009,0.134493201971054077,0.101240329444408417,-0.095591872930526733,-0.174559429287910461,0.122012339532375336,-0.194584026932716370,-0.058572575449943542,0.053934004157781601,-0.127325072884559631,0.040882132947444916,0.072101719677448273,-0.219014182686805725,-0.148602575063705444,-0.178962334990501404,0.024290470406413078,-0.227696627378463745,-0.180584698915481567,0.001427779207006097,0.184049546718597412,-0.192452087998390198,0.182988643646240234,0.129333704710006714,0.070482641458511353,0.151330545544624329,-0.103991940617561340,0.047064866870641708,0.201515004038810730,0.081956364214420319,0.295338124036788940,-0.078697443008422852,0.167196139693260193
0.161684185266494751,0.067433096468448639,-0.129338636994361877,-0.008539178408682346,0.025006957352161407,0.070892356336116791,-0.045403540134429932,0.090255632996559143,0.086604505777359009,-0.059506502002477646,0.150529697537422180,-0.137734189629554749,0.111568912863731384,0.035536717623472214,0.113335438072681427,0.010417777113616467,0.030855398625135422,0.106238946318626404,0.009457908570766449,0.019681332632899284,0.056093044579029083,-0.137664377689361572,-0.037587303668260574,-0.114360526204109192,0.002818054752424359,0.036907613277435303,0.012312006205320358,-0.098034225404262543,-0.147051945328712463,-0.163858607411384583,-0.086801216006278992,0.117033220827579498,0.041552800685167313,0.101777411997318268,0.081400245428085327,-0.171697363257408142,-0.128315195441246033,-0.046437799930572510,0.107587039470672607,0.054552234709262848,0.199110537767410278,0.068083226680755615,0.045413497835397720,-0.091210454702377319,0.115940384566783905,-0.064265169203281403,0.072031140327453613,0.118816584348678589,-0.186004430055618286,0.026184940710663795,-0.069325402379035950,-0.090013809502124786,-0.114367179572582245,-0.008375270292162895,0.086075372993946075,-0.085453167557716370,0.043626978993415833,0.086067266762256622,0.146575629711151123,0.160510376095771790,0.003991532605141401,0.123048380017280579,0.073482431471347809,0.023561431095004082,0.173809945583343506,0.118098229169845581,0.015331780537962914,0.102488227188587189,0.086776293814182281,0.137386083602905273,-0.086954876780509949,-0.017453925684094429,0.155664682388305664,-0.036865051835775375,0.036445956677198410,-0.100994735956192017,-0.106496617197990417,0.112729527056217194,0.049689695239067078,-0.059699282050132751,-0.115216813981533051,-0.069436892867088318,0.136946693062782288,0.132414653897285461,0.187459275126457214,0.128653213381767273,0.138520091772079468,0.111444987356662750,0.089056104421615601,-0.110664919018745422,0.004179642070084810,-0.185112670063972473,-0.154159948229789734,0.051190089434385300,0.157942265272140503,0.047128390520811081,-0.129466250538825989,-0.066709205508232117
0.118255756795406342,-0.337131202220916748,-0.111605718731880188,0.058130200952291489,-0.231689423322677612,-0.212286293506622314,-0.297050654888153076,-0.096227802336215973,0.078356176614761353,0.080668009817600250,0.297579318284988403,0.143955156207084656,0.086490958929061890,0.040414687246084213,-0.102263189852237701,-0.291795641183853149,-0.171793803572654724,-0.059930391609668732,-0.019613636657595634,-0.358426868915557861,0.068345382809638977,-0.092932097613811493,-0.037955261766910553,0.177968621253967285,0.072725914418697357,-0.229854717850685120,-0.166375309228897095,-0.011274540796875954,0.176190525293350220,0.227777674794197083,-0.093305498361587524,0.014438723213970661,0.016607323661446571,0.137640818953514099,-0.033107474446296692,0.215375989675521851,-0.109734453260898590,-0.030095616355538368,-0.198830470442771912,0.112800493836402893,0.056063171476125717,0.193457797169685364,-0.040468864142894745,0.011627625674009323,0.084777154028415680,0.001322534983046353,-0.015814835205674171,0.158351674675941467,0.056473501026630402,-0.071069002151489258,0.080282434821128845,-0.119626976549625397,-0.025042885914444923,0.023015063256025314,-0.192078351974487305,0.283575206995010376,-0.142777666449546814,0.179364114999771118,-0.264396965503692627,0.246750727295875549,0.134845018386840820,0.121328502893447876,0.074736490845680237,0.097162134945392609,0.097084119915962219,-0.206921905279159546,-0.078343816101551056,0.143595486879348755,-0.099837005138397217,-0.186303406953811646,-0.066542200744152069,-0.061038136482238770,0.235476061701774597,-0.253462076187133789,-0.034270193427801132,-0.112371325492858887,0.060550820082426071,0.175957262516021729,0.191512465476989746,0.049777682870626450,-0.015625894069671631,-0.237882182002067566,0.122540101408958435,-0.103094935417175293,0.205030962824821472,0.008657016791403294,0.004670999012887478,0.131819918751716614,-0.032436396926641464,0.103509783744812012,-0.176625370979309082,-0.166895419359207153,0.094103634357452393,-0.197454869747161865,-0.129346415400505066,0.115702182054519653,0.214634433388710022,0.271540164947509766
-0.175332710146903992,0.099843710660934448,-0.011599591933190823,0.074660345911979675,0.076701276004314423,0.158180162310600281,-0.225240975618362427,-0.142029255628585815,0.078311488032341003,0.024007266387343407,0.017226601019501686,0.085128538310527802,0.060030132532119751,0.027160888537764549,-0.007099402602761984,-0.215144708752632141,0.132092058658599854,-0.082321085035800934,0.094631142914295197,-0.086620785295963287,-0.087605379521846771,-0.238925531506538391,0.078626297414302826,0.128434449434280396,0.228566244244575500,0.031601846218109131,0.056184250861406326,0.156765297055244446,-0.210164621472358704,0.150390416383743286,0.033794447779655457,0.141388207674026489,-0.077267646789550781,-0.001433138386346400,-0.031127573922276497,0.157451048493385315,0.092563904821872711,0.154345855116844177,-0.102589540183544159,0.207479000091552734,0.102312691509723663,-0.243517786264419556,0.005742523819208145,0.092610411345958710,0.199857026338577271,0.120518624782562256,-0.120664007961750031,0.046649843454360962,-0.062501542270183563,-0.077263258397579193,-0.106448419392108917,0.041801840066909790,-0.008866898715496063,-0.093353912234306335,-0.058781832456588745,-0.063074938952922821,-0.217249989509582520,-0.064981132745742798,-0.044214338064193726,0.246029585599899292,-0.156582072377204895,0.121369644999504089,0.134948655962944031,0.060034811496734619,-0.001785475295037031,-0.094840772449970245,0.108664885163307190,0.072696909308433533,0.166108191013336182,-0.060847178101539612,-0.078463301062583923,0.038629211485385895,0.010794971138238907,-0.121168769896030426,0.107848882675170898,-0.134187743067741394,0.012353972531855106,-0.048824157565832138,0.112921498715877533,-0.132441952824592590,-0.243671119213104248,0.085718393325805664,-0.070677906274795532,0.089017711579799652,0.114977926015853882,0.113257147371768951,-0.063592649996280670,0.076336920261383057,0.049836352467536926,-0.096500135958194733,0.158993318676948547,-0.089375622570514679,0.140919402241706848,-0.034992571920156479,0.046421680599451065,0.042927499860525131,0.193912968039512634,-0.080542400479316711
-0.080640822649002075,0.040653929114341736,0.255692183971405029,0.111689373850822449,0.071904189884662628,-0.046810656785964966,-0.073211275041103363,-0.092647165060043335,0.237789526581764221,-0.013440661132335663,-0.194911122322082520,0.218255802989006042,-0.013172494247555733,0.072391726076602936,-0.121627718210220337,-0.033905256539583206,-0.108410365879535675,0.201478064060211182,-0.054632667452096939,0.030535254627466202,0.009622176177799702,0.050752770155668259,0.033218681812286377,0.066373750567436218,0.285990536212921143,-0.040459044277667999,0.005548047833144665,-0.159889891743659973,0.010416768491268158,-0.104409679770469666,0.037663038820028305,-0.004853981547057629,-0.019473277032375336,-0.138127490878105164,-0.165636271238327026,0.107124395668506622,-0.018265988677740097,-0.089675121009349823,-0.146620661020278931,0.069721698760986328,0.113669417798519135,-0.042721841484308243,0.140419214963912964,0.206570595502853394,-0.178042694926261902,0.133186846971511841,-0.142460003495216370,-0.223378956317901611,0.029971182346343994,-0.077851772308349609,0.015121988020837307,0.031784355640411377,0.070138633251190186,0.010515897534787655,-0.221270009875297546,-0.223601073026657104,0.085387006402015686,-0.082400381565093994,-0.130165562033653259,-0.021585509181022644,0.163813263177871704,-0.000013064360246062,-0.140026420354843140,-0.091182917356491089,-0.037721395492553711,0.045791391283273697,-0.056406680494546890,0.067903712391853333,-0.164174690842628479,0.286678105592727661,-0.017752040177583694,0.046694830060005188,0.201304316520690918,0.038637053221464157,0.146849453449249268,0.146845430135726929,0.158884942531585693,-0.295363962650299072,0.225433275103569031,0.011734439991414547,-0.135623201727867126,0.043526276946067810,-0.240395978093147278,-0.060914039611816406,0.233164787292480469,-0.062202174216508865,-0.090096808969974518,0.010342085734009743,-0.093816511332988739,-0.220641046762466431,-0.166640847921371460,-0.083463713526725769,0.276621669530868530,-0.023636907339096069,-0.033785823732614517,0.214199855923652649,-0.290612220764160156,-0.016497103497385979
-0.140978142619132996,0.200562268495559692,-0.026138409972190857,-0.020762955769896507,-0.149732738733291626,0.081542693078517914,0.140835866332054138,-0.021810410544276237,0.049502432346343994,-0.102676786482334137,0.185129106044769287,-0.104015879333019257,-0.110771477222442627,0.175130844116210938,0.184568613767623901,-0.198848634958267212,0.085063308477401733,-0.224434882402420044,0.168246448040008545,0.056461308151483536,0.153770446777343750,-0.050097920000553131,0.023693291470408440,-0.049376424401998520,0.291949927806854248,0.063800632953643799,-0.141257926821708679,0.071770504117012024,0.113284669816493988,-0.137353971600532532,-0.020919077098369598,0.188154637813568115,0.079570241272449493,-0.083128891885280609,0.004638172220438719,0.111079312860965729,-0.040792487561702728,-0.154979243874549866,0.148234188556671143,0.122213467955589294,0.087898612022399902,0.045892160385847092,-0.176307156682014465,0.083311408758163452,0.106333598494529724,-0.070665024220943451,0.053602088242769241,-0.155919983983039856,-0.012656268663704395,0.151193067431449890,-0.009481489658355713,-0.084848336875438690,-0.182364374399185181,-0.187419980764389038,0.063932523131370544,-0.043744813650846481,0.039416022598743439,0.069939576089382172,-0.150437161326408386,-0.053769752383232117,-0.177496865391731262,0.010330345481634140,0.132756337523460388,-0.124889634549617767,0.075058460235595703,-0.138010799884796143,0.068013839423656464,0.142126142978668213,0.163469210267066956,0.011334883049130440,0.150203049182891846,0.048867486417293549,0.104838885366916656,-0.037297617644071579,-0.143695101141929626,0.016765449196100235,0.178948655724525452,0.107572525739669800,-0.204176872968673706,-0.104140341281890869,-0.014951373450458050,0.176104068756103516,0.019007975235581398,0.103894293308258057,0.031687505543231964,0.055229704827070236,-0.071839243173599243,0.082430988550186157,0.011961463838815689,-0.146440997719764709,0.138789013028144836,0.218468070030212402,-0.090914621949195862,-0.110616035759449005,-0.176588237285614014,-0.013190797530114651,0.182670280337333679,-0.129882916808128357
0.186269402503967285,-0.129086360335350037,0.165869429707527161,0.085555247962474823,0.150377526879310608,-0.082946129143238068,0.147806420922279358,-0.156210124492645264,0.146255493164062500,0.106896191835403442,-0.153612598776817322,-0.112143248319625854,-0.017752025276422501,0.178454309701919556,0.081339560449123383,0.101297743618488312,-0.064387999475002289,0.037017963826656342,-0.143520370125770569,-0.018732985481619835,0.044221438467502594,0.181569963693618774,0.067592754960060120,0.033023022115230560,-0.112574681639671326,-0.013151493854820728,0.137879401445388794,-0.000566655537113547,0.102363869547843933,0.024353338405489922,-0.014179691672325134,-0.116230241954326630,0.080336667597293854,-0.173533841967582703,-0.116909787058830261,-0.063344702124595642,0.117563292384147644,0.064693182706832886,-0.036576271057128906,0.114067420363426208,-0.117016531527042389,0.145029693841934204,-0.051067709922790527,-0.117907434701919556,0.118619263172149658,-0.103817500174045563,0.093746982514858246,0.023347070440649986,0.116242595016956329,-0.006631542928516865,0.164430454373359680,-0.088038772344589233,-0.070601299405097961,-0.162257179617881775,0.087829239666461945,0.091539666056632996,-0.084344625473022461,-0.119987793266773224,0.057388115674257278,0.168083176016807556,0.159647449851036072,-0.062864750623703003,0.018438223749399185,0.171668961644172668,0.040364459156990051,-0.059410642832517624,-0.113922968506813049,0.135936021804809570,0.048821602016687393,-0.161014124751091003,-0.048663284629583359,-0.060958743095397949,0.169046789407730103,0.157929375767707825,-0.141203105449676514,-0.107447385787963867,0.092726059257984161,-0.148229658603668213,0.174632355570793152,-0.016295816749334335,0.000212093305890448,-0.013734491541981697,-0.160355508327484131,0.168769925832748413,-0.170494824647903442,0.109252907335758209,0.143451735377311707,0.075346313416957855,-0.045423667877912521,-0.023284427821636200,0.157199233770370483,-0.089718803763389587,-0.119984552264213562,-0.158627450466156006,-0.027777610346674919,-0.055832330137491226,-0.061676487326622009,-0.181289523839950562
-0.048358380794525146,-0.147540628910064697,-0.137558132410049438,-0.249001622200012207,-0.041938938200473785,-0.130441933870315552,-0.137421026825904846,-0.115603320300579071,0.006072885356843472,-0.020470069721341133,-0.010575951077044010,-0.133565634489059448,0.147322505712509155,0.045915130525827408,0.173228368163108826,0.108529314398765564,0.026958897709846497,-0.084378518164157867,-0.129293456673622131,-0.138481825590133667,-0.087650485336780548,-0.027701022103428841,-0.179087921977043152,0.058817189186811447,-0.051263339817523956,-0.085097633302211761,-0.057066112756729126,-0.131272971630096436,0.299868494272232056,-0.034279327839612961,0.019488757476210594,0.046346545219421387,0.110408738255500793,0.087571360170841217,-0.182872995734214783,-0.122644774615764618,0.111622765660285950,0.140509426593780518,0.139403671026229858,0.035068616271018982,0.098608553409576416,0.208960816264152527,0.077061004936695099,-0.135436832904815674,0.081767655909061432,-0.178778693079948425,0.010758805088698864,0.156464800238609314,0.012230140157043934,0.116809763014316559,-0.060164738446474075,-0.016974523663520813,-0.055212050676345825,0.043597158044576645,0.112464301288127899,0.021958120167255402,-0.095981672406196594,-0.178562343120574951,0.104685455560684204,0.145715594291687012,-0.030919335782527924,0.120844475924968719,-0.075175695121288300,0.133791193366050720,0.120558694005012512,-0.113621585071086884,-0.148264139890670776,-0.122425332665443420,-0.114690855145454407,-0.083873026072978973,0.061227947473526001,0.124399274587631226,0.091339170932769775,0.132335901260375977,0.301467031240463257,-0.176092326641082764,-0.122009605169296265,-0.019606422632932663,-0.002339921891689301,0.092145785689353943,0.140427768230438232,0.040188439190387726,0.225559219717979431,-0.023531673476099968,0.007501417305320501,0.238204047083854675,-0.007667916361242533,-0.032029371708631516,0.002444317331537604,0.094519257545471191,-0.140146628022193909,-0.002106357133015990,0.068377181887626648,0.235209763050079346,-0.140843808650970459,-0.158973708748817444,0.085880167782306671,-0.053610727190971375
-0.057978920638561249,0.049590133130550385,0.108631432056427002,-0.094111815094947815,0.291420847177505493,-0.087646730244159698,-0.131876826286315918,-0.092717200517654419,-0.028655949980020523,-0.075037218630313873,-0.155377715826034546,0.141517356038093567,-0.003318891162052751,0.149871692061424255,0.169943377375602722,-0.070424824953079224,-0.054251898080110550,-0.039316922426223755,0.058567080646753311,0.023966141045093536,0.080504283308982849,-0.148632049560546875,-0.048373263329267502,0.039966579526662827,0.110881596803665161,0.139676824212074280,0.135247409343719482,0.047796111553907394,-0.182710841298103333,-0.110603012144565582,-0.040534701198339462,0.010919524356722832,0.209428429603576660,0.012982455082237720,-0.021899292245507240,-0.160506129264831543,-0.118026472628116608,-0.063956066966056824,0.124844133853912354,0.077220022678375244,0.077229984104633331,0.068771034479141235,-0.099323138594627380,-0.164996787905693054,0.045941680669784546,0.061389282345771790,0.210270926356315613,-0.016733447089791298,-0.142350122332572937,-0.073487214744091034,-0.062483910471200943,0.109962880611419678,-0.005091589875519276,0.173960804939270020,0.193399995565414429,0.031157776713371277,0.052464041858911514,-0.013332373462617397,0.027855062857270241,-0.165691897273063660,-0.176073148846626282,0.123352810740470886,0.136449679732322693,0.036874700337648392,-0.045920897275209427,0.006299202796071768,-0.006422293372452259,-0.081189215183258057,-0.071316286921501160,0.023526793345808983,0.004705696366727352,0.221823886036872864,-0.123908326029777527,0.074058987200260162,0.118380069732666016,-0.076767772436141968,0.230926454067230225,-0.148316442966461182,0.010228490456938744,-0.059648416936397552,0.127248331904411316,-0.097831122577190399,-0.174458444118499756,0.195814386010169983,0.125007987022399902,-0.009024224244058132,0.161345764994621277,0.066712923347949982,0.178822532296180725,0.031894542276859283,0.263310670852661133,0.178299129009246826,-0.086074903607368469,-0.104720585048198700,-0.082927696406841278,0.135148823261260986,-0.268176645040512085,-0.204290896654129028
0.048702575266361237,0.205584421753883362,0.098904639482498169,0.172245398163795471,-0.008534298278391361,-0.224386930465698242,0.111088015139102936,-0.057505939155817032,-0.022371215745806694,-0.146065264940261841,0.064583621919155121,0.019535539671778679,-0.193490996956825256,0.084687083959579468,0.141619995236396790,0.034007545560598373,0.178716808557510376,-0.146887347102165222,-0.155848264694213867,0.140410348773002625,0.015058742836117744,0.057169187813997269,0.139858812093734741,0.081076174974441528,0.151139885187149048,0.039245288819074631,-0.161717668175697327,0.217883080244064331,-0.086519688367843628,-0.112873226404190063,-0.114480055868625641,0.016695385798811913,0.047169506549835205,-0.057173430919647217,0.122401311993598938,-0.073936328291893005,-0.092090472579002380,-0.048897717148065567,0.181473895907402039,0.115782983601093292,-0.059796109795570374,-0.145941868424415588,-0.181442007422447205,-0.278844386339187622,-0.143921554088592529,0.116191849112510681,-0.137864172458648682,0.197101384401321411,0.069777026772499084,-0.187803849577903748,-0.127578914165496826,-0.039763361215591431,-0.201675772666931152,0.123868152499198914,-0.000457031070254743,-0.110410958528518677,0.113710105419158936,0.253055125474929810,0.123153060674667358,-0.147362053394317627,-0.003989112563431263,0.063073866069316864,-0.191797271370887756,-0.118222117424011230,-0.097309939563274384,0.267552852630615234,-0.011843380518257618,0.060910925269126892,-0.153021097183227539,0.039527390152215958,-0.125069767236709595,-0.060993578284978867,-0.079710595309734344,0.141956746578216553,-0.205944836139678955,0.171952113509178162,0.159720301628112793,-0.107264876365661621,-0.023086486384272575,0.053943630307912827,0.021538501605391502,-0.163683041930198669,0.034916672855615616,0.007304447237402201,0.051613684743642807,-0.062791936099529266,0.088159359991550446,-0.165620163083076477,-0.081440396606922150,0.036503165960311890,-0.061160903424024582,-0.076009273529052734,-0.079190634191036224,-0.022770630195736885,0.209449350833892822,0.056603338569402695,0.025120010599493980,-0.099070079624652863
0.061449464410543442,0.007686997298151255,0.177325889468193054,0.119813725352287292,-0.128651380538940430,0.012067638337612152,0.006750837434083223,-0.067102074623107910,-0.366513311862945557,0.020970549434423447,-0.124976791441440582,-0.099582448601722717,-0.071579888463020325,-0.280205219984054565,0.147595360875129700,0.061255630105733871,-0.179178044199943542,0.038627967238426208,0.042339824140071869,0.133666872978210449,0.038542322814464569,0.092203050851821899,0.199560552835464478,0.096978023648262024,-0.309072852134704590,0.082583203911781311,0.102051958441734314,0.088357299566268921,0.278342247009277344,0.001212173723615706,0.083899796009063721,0.018250577151775360,-0.026726556941866875,-0.037437051534652710,0.150088071823120117,0.040662385523319244,-0.078239209949970245,-0.028353644534945488,0.022297363728284836,0.095909714698791504,-0.097753651440143585,0.342251062393188477,0.030430700629949570,0.133195459842681885,-0.074038617312908173,-0.177424237132072449,-0.127559259533882141,0.015202914364635944,0.002835283288732171,-0.057803358882665634,-0.048602607101202011,-0.120540641248226166,0.152861982583999634,-0.078506171703338623,0.090145096182823181,-0.198177263140678406,-0.147108063101768494,0.351980656385421753,-0.124211393296718597,-0.070460490882396698,0.178663700819015503,-0.023735232651233673,0.147246137261390686,-0.205150201916694641,-0.234265983104705811,-0.094077482819557190,0.109417408704757690,0.086175918579101562,0.014503285288810730,-0.074314571917057037,-0.012298586778342724,-0.201180085539817810,0.116237878799438477,0.057383108884096146,0.175130575895309448,0.034585509449243546,-0.269264310598373413,0.099126823246479034,0.051701694726943970,0.117123290896415710,0.014818742871284485,-0.031991854310035706,0.195787966251373291,-0.126802876591682434,0.136260360479354858,0.094919688999652863,-0.026668738573789597,0.002573681063950062,0.064737103879451752,0.044844292104244232,0.004604442976415157,-0.203524008393287659,0.162039160728454590,-0.094413481652736664,0.050877545028924942,0.115998141467571259,0.106978952884674072,0.073517620563507080
-0.211840778589248657,0.205033466219902039,0.149398356676101685,-0.303806275129318237,0.195218876004219055,-0.127773702144622803,-0.240235492587089539,-0.097151935100555420,-0.000632251729257405,-0.114715978503227234,0.120700828731060028,-0.169633924961090088,-0.043862584978342056,0.230619370937347412,0.205893918871879578,-0.195747628808021545,0.073068238794803619,0.030558699741959572,-0.059978842735290527,-0.294097453355789185,0.076769597828388214,-0.068051517009735107,-0.023505596444010735,0.012039978057146072,0.216350764036178589,-0.256052494049072266,0.175988167524337769,0.039269927889108658,-0.090274512767791748,-0.178648397326469421,0.033457867801189423,0.051131196320056915,0.259271919727325439,-0.037332952022552490,-0.231372565031051636,-0.119755253195762634,0.034132711589336395,0.127669960260391235,-0.211532667279243469,0.059547491371631622,0.247065797448158264,0.036764279007911682,0.192471757531166077,-0.091980256140232086,0.150653108954429626,0.114800930023193359,0.017392864450812340,0.171614766120910645,0.133765399456024170,-0.188616186380386353,0.113612137734889984,-0.098710358142852783,-0.021175518631935120,-0.146444424986839294,0.222849532961845398,0.066077515482902527,-0.132669478654861450,0.137362524867057800,0.072463452816009521,-0.152841851115226746,-0.058952089399099350,0.204620286822319031,-0.041280824691057205,-0.236978396773338318,0.096964135766029358,0.176233023405075073,-0.151330888271331787,0.056047558784484863,-0.119677633047103882,0.011568985879421234,0.114892438054084778,0.055998738855123520,-0.260534465312957764,0.019626043736934662,0.069796875119209290,0.078565843403339386,-0.234328359365463257,0.102643102407455444,0.059718027710914612,0.161102235317230225,0.186155796051025391,-0.125242516398429871,-0.140669375658035278,-0.018431305885314941,-0.016589406877756119,-0.214724004268646240,-0.189343899488449097,-0.060967452824115753,-0.024862017482519150,0.130271241068840027,-0.028387265279889107,0.211105346679687500,0.186387464404106140,-0.164566323161125183,0.105175763368606567,-0.264064371585845947,0.141346141695976257,0.045798148959875107
-0.084855280816555023,-0.091222248971462250,-0.163104191422462463,0.051080316305160522,-0.032305736094713211,0.040292523801326752,0.126961857080459595,0.150213479995727539,0.082803308963775635,-0.033516842871904373,0.125626459717750549,-0.106826037168502808,-0.149138256907463074,0.125007450580596924,-0.183035925030708313,-0.130945309996604919,-0.015542770735919476,0.125036388635635376,-0.164973706007003784,-0.060797277837991714,-0.200491413474082947,0.062495987862348557,-0.242319688200950623,-0.171237528324127197,0.134305655956268311,-0.179382920265197754,-0.062561616301536560,-0.250001192092895508,-0.089311011135578156,0.174755498766899109,0.076134845614433289,-0.170802041888237000,-0.096060447394847870,-0.183702632784843445,-0.152031213045120239,-0.061831772327423096,0.151303425431251526,0.055849060416221619,-0.104356527328491211,-0.103726118803024292,0.055470809340476990,-0.211793854832649231,-0.028271643444895744,0.085833303630352020,0.055791724473237991,0.041642624884843826,0.072243876755237579,-0.138476595282554626,0.193041801452636719,0.116867549717426300,0.052293498069047928,-0.116363294422626495,0.125495821237564087,0.000151643849676475,-0.133716762065887451,-0.018738202750682831,0.154515668749809265,-0.218529865145683289,0.223735272884368896,-0.075047858059406281,-0.030928388237953186,-0.149671882390975952,0.141633629798889160,-0.041069410741329193,-0.070026598870754242,0.021756863221526146,0.117403477430343628,0.090204343199729919,-0.158621862530708313,-0.102426849305629730,-0.007133649662137032,0.161291912198066711,-0.012265995144844055,-0.116787023842334747,0.193895146250724792,-0.220602750778198242,0.004230163525789976,-0.003777318401262164,0.113196991384029388,-0.235464140772819519,0.070836067199707031,0.191346079111099243,-0.332000613212585449,0.160011500120162964,-0.074520088732242584,0.103872239589691162,-0.011709704063832760,0.202626198530197144,-0.033525291830301285,-0.120662786066532135,-0.034603789448738098,-0.157616481184959412,0.097052969038486481,-0.111962832510471344,0.093661725521087646,-0.019537543877959251,-0.001664456096477807,0.283982217311859131
-0.069537051022052765,-0.173323497176170349,0.049768060445785522,0.090030774474143982,-0.099517688155174255,0.042146120220422745,-0.080585904419422150,0.119215384125709534,-0.193900674581527710,-0.185713738203048706,-0.047655794769525528,-0.035700585693120956,-0.074041180312633514,0.063354067504405975,-0.090931579470634460,-0.027196506038308144,0.210918933153152466,-0.007557948585599661,-0.031968448311090469,-0.081585004925727844,-0.083525471389293671,-0.127646535634994507,-0.130778387188911438,-0.036559443920850754,0.050508461892604828,-0.017921525985002518,-0.154875561594963074,0.050246991217136383,0.187437921762466431,-0.100984789431095123,-0.120216108858585358,0.195404395461082458,0.023286473006010056,-0.153050392866134644,0.036391448229551315,-0.011078592389822006,0.121229171752929688,-0.040062434971332550,-0.029972890391945839,0.017257692292332649,0.069592677056789398,-0.000908330490346998,0.034513782709836960,0.175496608018875122,-0.129593357443809509,0.082330502569675446,-0.078368581831455231,-0.117526739835739136,-0.144873112440109253,0.130721747875213623,0.084098510444164276,-0.052799209952354431,0.088565908372402191,-0.030831880867481232,0.101887114346027374,0.049610584974288940,-0.103482373058795929,-0.129641681909561157,-0.119851715862751007,0.054709821939468384,0.166794329881668091,0.055261429399251938,-0.070470720529556274,0.105694085359573364,-0.032748725265264511,0.067115716636180878,-0.020464899018406868,-0.045307364314794540,-0.129071995615959167,-0.168952539563179016,-0.064825169742107391,-0.217602595686912537,0.028857812285423279,0.131133764982223511,0.250311315059661865,0.029674757272005081,-0.115831688046455383,0.082811497151851654,-0.045821238309144974,0.071002766489982605,0.017594181001186371,-0.038571659475564957,-0.125151932239532471,-0.101113952696323395,0.133635714650154114,-0.066732563078403473,-0.029577050358057022,-0.039095479995012283,0.202584788203239441,0.020663520321249962,-0.117231249809265137,-0.064248695969581604,-0.283251136541366577,-0.106916859745979309,0.244304209947586060,0.156780064105987549,0.148201018571853638,-0.081256106495857239
-0.001933986437506974,-0.109420165419578552,0.174527958035469055,0.127102911472320557,-0.063230358064174652,0.133723869919776917,0.011264281347393990,-0.002441723598167300,-0.030143693089485168,-0.059641003608703613,-0.050049889832735062,0.100680135190486908,0.067612156271934509,-0.190943613648414612,-0.072792895138263702,0.194717884063720703,0.221677005290985107,-0.007417275570333004,-0.120233707129955292,0.246355056762695312,0.105257347226142883,0.134755253791809082,-0.171909406781196594,-0.083038754761219025,-0.064746290445327759,-0.226490154862403870,-0.153110161423683167,-0.011568788439035416,-0.103151470422744751,0.036139659583568573,-0.101102218031883240,-0.237538501620292664,-0.062294695526361465,0.181023180484771729,-0.142953187227249146,-0.209326311945915222,-0.086136505007743835,-0.103141374886035919,0.181534603238105774,-0.261367082595825195,0.188496336340904236,-0.207839474081993103,0.154763206839561462,0.011947189457714558,0.068955235183238983,0.250177204608917236,0.124565161764621735,0.094198934733867645,0.078268617391586304,-0.099987961351871490,0.222630962729454041,-0.149172365665435791,-0.161497041583061218,-0.005072628613561392,0.062078073620796204,-0.086383260786533356,0.127034321427345276,-0.049750305712223053,0.031986244022846222,-0.221701115369796753,-0.196449413895606995,-0.144540071487426758,-0.090328231453895569,0.214549005031585693,-0.084289215505123138,-0.017755527049303055,-0.102227106690406799,-0.020889094099402428,0.105024039745330811,-0.081267476081848145,0.167506337165832520,-0.035588636994361877,-0.194227427244186401,0.065600372850894928,0.005064528901129961,-0.164165616035461426,-0.001913353684358299,-0.106493100523948669,0.029931036755442619,-0.202294513583183289,0.073651678860187531,0.007923826575279236,0.013531126081943512,-0.013028120622038841,0.160544112324714661,0.171508267521858215,0.193521559238433838,0.070548772811889648,0.078873343765735626,0.058461084961891174,0.059160288423299789,0.135008335113525391,0.039704445749521255,0.042306471616029739,-0.087018378078937531,-0.184332385659217834,0.127390325069427490,-0.065136626362800598
0.223214730620384216,-0.131052553653717041,0.140227451920509338,-0.163737162947654724,0.088398508727550507,0.125016763806343079,-0.009137018583714962,-0.131037950515747070,-0.244574204087257385,0.094711028039455414,-0.192302271723747253,-0.219428539276123047,0.163361132144927979,0.061765745282173157,-0.021773083135485649,0.009467791765928268,0.197430104017257690,-0.221602752804756165,-0.002719334559515119,-0.018929209560155869,0.110910274088382721,0.065865546464920044,0.142103627324104309,-0.001893265987746418,-0.274446427822113037,-0.030856035649776459,-0.127367585897445679,0.068350926041603088,0.141092032194137573,0.005665615666657686,0.144803717732429504,-0.214471653103828430,0.129247397184371948,-0.073177672922611237,-0.110661379992961884,0.092247173190116882,-0.001409575226716697,0.005324176046997309,0.185833603143692017,-0.098530963063240051,0.129101753234863281,-0.033329803496599197,0.098025545477867126,-0.129225224256515503,0.243521168828010559,-0.020018728449940681,-0.065185852348804474,0.188734903931617737,0.099083952605724335,-0.096552439033985138,0.118467852473258972,-0.124553047120571136,0.038816377520561218,0.006497420370578766,0.007675145752727985,-0.017386212944984436,-0.148760482668876648,0.085060089826583862,0.256036728620529175,-0.176595583558082581,0.205634877085685730,-0.170948326587677002,-0.044754624366760254,-0.101773850619792938,0.095487140119075775,0.167377397418022156,0.044954121112823486,-0.142368853092193604,0.054462634027004242,0.026367690414190292,0.170788943767547607,-0.157003432512283325,0.152614280581474304,0.202943354845046997,-0.015969401225447655,-0.055369477719068527,-0.197019636631011963,0.136660099029541016,-0.156252354383468628,-0.174706444144248962,0.068782977759838104,0.203471258282661438,-0.103528641164302826,0.223921507596969604,-0.091486275196075439,-0.030463945120573044,0.154395431280136108,0.033695995807647705,-0.179091557860374451,-0.035364463925361633,0.254887580871582031,0.256852418184280396,-0.228733226656913757,-0.012009023688733578,0.149811983108520508,0.204907670617103577,-0.120662219822406769,-0.182480856776237488
0.083068445324897766,-0.188429862260818481,0.150090187788009644,-0.064585067331790924,-0.138207301497459412,0.088663153350353241,0.097942575812339783,0.057656444609165192,-0.125171691179275513,-0.155319407582283020,0.007143376395106316,-0.126891180872917175,-0.158172085881233215,0.249765813350677490,-0.029515601694583893,0.067701920866966248,-0.108695171773433685,-0.145126953721046448,-0.044294241815805435,0.009350799955427647,0.177821785211563110,-0.022984394803643227,-0.218110948801040649,-0.068868540227413177,-0.029106391593813896,0.224217116832733154,0.061484795063734055,-0.093076176941394806,0.126507863402366638,-0.131632521748542786,0.204067364335060120,-0.113252274692058563,-0.190318495035171509,-0.069241441786289215,-0.061272457242012024,-0.120414912700653076,-0.198470279574394226,0.091209083795547485,-0.121295392513275146,-0.149876147508621216,-0.086322933435440063,-0.106869801878929138,-0.098607055842876434,0.127210319042205811,-0.148886948823928833,-0.191326066851615906,0.141724139451980591,0.099011003971099854,0.193252190947532654,-0.001445201691240072,0.165310353040695190,-0.079503774642944336,-0.035906098783016205,-0.099107764661312103,0.018263917416334152,-0.075932890176773071,0.275864899158477783,0.064470037817955017,0.257057249546051025,0.199295774102210999,0.138593912124633789,0.112468197941780090,0.166718393564224243,0.172011852264404297,0.043812945485115051,-0.117680236697196960,-0.089478231966495514,0.027951629832386971,0.076537437736988068,-0.102138474583625793,-0.130121693015098572,-0.075051531195640564,0.149675548076629639,0.116188004612922668,0.121518030762672424,0.168470397591590881,0.121771000325679779,-0.086097352206707001,0.049202773720026016,0.159686461091041565,-0.125469610095024109,0.228130608797073364,-0.022275045514106750,0.126350909471511841,0.218597233295440674,0.139524534344673157,0.001053723506629467,0.064281903207302094,0.171990364789962769,-0.063484422862529755,-0.109988570213317871,-0.164139732718467712,-0.143825158476829529,-0.144567012786865234,0.043796405196189880,0.293385624885559082,-0.048354763537645340,0.323957651853561401
-0.012100595980882645,0.113735049962997437,0.024748576804995537,0.064385995268821716,0.186453014612197876,0.123336941003799438,0.166033580899238586,0.018658397719264030,0.189189001917839050,-0.041211932897567749,-0.091233640909194946,0.010615911334753036,-0.067383751273155212,-0.237619966268539429,-0.145039111375808716,0.266585290431976318,0.148301213979721069,-0.089740268886089325,-0.098475202918052673,0.195211693644523621,-0.214061677455902100,-0.153168022632598877,-0.172589227557182312,0.015278021804988384,0.078660584986209869,-0.093781650066375732,-0.122969344258308411,-0.003888979554176331,-0.009732939302921295,0.157778680324554443,0.114828027784824371,-0.213323742151260376,0.127631112933158875,-0.041364058852195740,-0.036515180021524429,0.055322248488664627,0.046521492302417755,-0.034837517887353897,-0.081569649279117584,0.003337013069540262,0.231615051627159119,0.144124403595924377,0.089335851371288300,0.144278064370155334,-0.259458243846893311,0.018992481753230095,-0.005634271539747715,-0.140600413084030151,-0.015441451221704483,-0.022484369575977325,-0.023100147023797035,-0.060819000005722046,0.217206940054893494,-0.057602532207965851,0.077385306358337402,0.010251264087855816,-0.094656549394130707,-0.027376856654882431,0.165105789899826050,-0.057622514665126801,0.196618124842643738,-0.052139893174171448,0.010678552091121674,-0.053518757224082947,-0.013424923643469810,0.022960111498832703,-0.012348545715212822,-0.068010926246643066,-0.015764705836772919,0.112759232521057129,-0.074497520923614502,-0.141099527478218079,0.160139992833137512,0.005604485515505075,0.125669166445732117,0.160564780235290527,0.025315139442682266,-0.138643920421600342,0.028754072263836861,0.093066133558750153,-0.211002379655838013,-0.144658446311950684,0.089331835508346558,-0.155873641371726990,0.089207828044891357,-0.124467201530933380,0.070152468979358673,0.004013512283563614,0.033997938036918640,-0.208577200770378113,0.186352148652076721,-0.054781943559646606,0.147431746125221252,0.029858315363526344,-0.041339658200740814,-0.204662710428237915,0.039469365030527115,-0.015319765545427799
-0.029508329927921295,0.022052628919482231,0.292821019887924194,0.113913483917713165,-0.196163445711135864,-0.080232493579387665,0.092518642544746399,-0.040706854313611984,0.027559600770473480,0.001603135489858687,0.090542145073413849,-0.230057090520858765,0.006637261249125004,0.147562101483345032,-0.135701924562454224,0.036865241825580597,-0.163423389196395874,-0.068066477775573730,-0.139802426099777222,0.080938763916492462,-0.017752759158611298,-0.071238741278648376,-0.059249050915241241,0.056008096784353256,0.023339124396443367,-0.151925191283226013,0.055146999657154083,0.170462086796760559,0.019064513966441154,-0.074483007192611694,0.225891351699829102,-0.045082189142704010,0.031352341175079346,0.064818754792213440,-0.039845738559961319,-0.026255913078784943,-0.047126200050115585,0.120548062026500702,-0.221166789531707764,-0.024231670424342155,0.173850089311599731,0.165502518415451050,-0.115399710834026337,-0.012376326136291027,0.173450559377670288,0.063323281705379486,-0.108878992497920990,0.022944074124097824,-0.087624847888946533,0.088035143911838531,0.273748725652694702,-0.092348866164684296,0.075569555163383484,-0.095432296395301819,-0.162094533443450928,0.183367252349853516,0.112973719835281372,-0.167418688535690308,0.109018728137016296,-0.065621204674243927,0.059373818337917328,0.080791428685188293,0.053938668221235275,0.256805270910263062,0.047694232314825058,-0.196225419640541077,0.052058529108762741,0.043304495513439178,0.150892212986946106,0.014436249621212482,-0.103034622967243195,0.017353352159261703,-0.102658271789550781,-0.246714279055595398,-0.063955791294574738,-0.004036547616124153,-0.071697324514389038,0.260098487138748169,0.141569346189498901,-0.082828536629676819,-0.178975388407707214,0.048364818096160889,0.003791593480855227,-0.093853212893009186,0.332951247692108154,-0.128383070230484009,-0.234934806823730469,0.196344748139381409,0.217835903167724609,-0.101325795054435730,-0.150506079196929932,0.112976178526878357,0.002226884476840496,-0.078599162399768829,0.159785032272338867,0.150306284427642822,-0.000234733015531674,0.324769556522369385
-0.024555929005146027,0.053652096539735794,0.196847528219223022,-0.153844863176345825,0.047785971313714981,-0.070203378796577454,-0.104586869478225708,0.031683813780546188,0.027510657906532288,-0.163756713271141052,0.007605682127177715,-0.004544546362012625,-0.014632907696068287,0.079728804528713226,-0.101851962506771088,0.067440971732139587,-0.064254641532897949,0.195880219340324402,-0.152644947171211243,0.016295462846755981,-0.132461473345756531,0.170698419213294983,0.111813046038150787,-0.152225360274314880,0.150222077965736389,-0.050447560846805573,0.176569148898124695,-0.094390928745269775,0.258943945169448853,0.016159353777766228,0.162998273968696594,-0.001581098069436848,0.144410356879234314,0.131056413054466248,-0.025417869910597801,-0.021383248269557953,-0.057873442769050598,0.168722480535507202,0.252714306116104126,0.045643512159585953,0.090711951255798340,-0.024243319407105446,0.148734137415885925,0.081425502896308899,0.187519907951354980,-0.069677062332630157,0.100911885499954224,-0.093473561108112335,0.022317994385957718,0.175201043486595154,0.180173695087432861,-0.034462511539459229,-0.093269415199756622,0.135856419801712036,-0.109907716512680054,0.027264093980193138,0.194668188691139221,0.017136104404926300,0.031884126365184784,0.138727337121963501,-0.005261618643999100,-0.234946578741073608,0.099976174533367157,0.185453176498413086,0.043669309467077255,0.049403611570596695,-0.178037971258163452,-0.135770305991172791,-0.066964894533157349,0.008786707185208797,-0.110705390572547913,0.032660242170095444,0.185992553830146790,0.218828529119491577,0.143154174089431763,-0.125183284282684326,0.163279756903648376,0.074579231441020966,-0.161401927471160889,-0.003033621236681938,-0.115952581167221069,0.205192118883132935,-0.060586463660001755,0.252708286046981812,-0.094129621982574463,0.035083003342151642,-0.066700004041194916,0.118633337318897247,0.031416483223438263,0.051705360412597656,0.037793539464473724,0.047536026686429977,0.125452890992164612,0.069137096405029297,-0.241536915302276611,0.119046539068222046,-0.037442751228809357,-0.097941957414150238
-0.005625632125884295,0.055598132312297821,-0.095936134457588196,-0.137907221913337708,-0.097771652042865753,0.162421703338623047,-0.162672117352485657,-0.059474628418684006,0.142794549465179443,0.084721684455871582,-0.113920859992504120,-0.081628024578094482,-0.079449184238910675,0.077926844358444214,-0.113122962415218353,-0.012710946612060070,-0.121940389275550842,0.122880153357982635,-0.112070821225643158,-0.015243895351886749,-0.041638828814029694,-0.033384554088115692,0.036292873322963715,0.098070427775382996,-0.041994772851467133,0.185540065169334412,0.122845903038978577,0.236053571105003357,0.103230193257331848,0.145145699381828308,-0.189450383186340332,-0.186346977949142456,0.049694776535034180,0.018434789031744003,0.149015694856643677,0.126756593585014343,-0.142779007554054260,0.109382770955562592,0.164032235741615295,-0.036067802459001541,-0.043513368815183640,0.182744458317756653,0.060273181647062302,0.083605431020259857,-0.098458930850028992,0.212033271789550781,0.078697852790355682,-0.075971052050590515,0.143682539463043213,0.097073629498481750,-0.184460759162902832,0.103725612163543701,0.027816571295261383,0.039754282683134079,0.191083163022994995,-0.096178062260150909,-0.157706737518310547,0.135550692677497864,0.190690100193023682,0.136853590607643127,-0.148953229188919067,-0.214862108230590820,0.061030864715576172,0.062629021704196930,0.025439383462071419,0.105562523007392883,-0.057655025273561478,0.065297588706016541,-0.124322526156902313,0.070188127458095551,0.175452589988708496,0.178032517433166504,0.058669183403253555,0.053316932171583176,0.063430629670619965,-0.060448154807090759,-0.209337770938873291,0.100189872086048126,-0.003762101521715522,-0.064290173351764679,-0.061817482113838196,0.042812172323465347,0.179566487669944763,-0.160135030746459961,-0.063638508319854736,0.126805514097213745,-0.093755580484867096,-0.172577321529388428,0.041392840445041656,0.145064830780029297,0.177401781082153320,-0.136826813220977783,0.077809289097785950,-0.042336069047451019,0.203430563211441040,-0.046258818358182907,-0.001044673379510641,-0.221825882792472839
-0.136151283979415894,0.037636850029230118,0.268614083528518677,0.066060557961463928,-0.061377834528684616,0.210423484444618225,-0.155799418687820435,-0.094387695193290710,-0.144364401698112488,-0.031906001269817352,-0.021928476169705391,0.117185913026332855,0.158397093415260315,-0.220259010791778564,-0.007696788292378187,0.134456291794776917,0.174285292625427246,0.276749312877655029,-0.092435173690319061,-0.093385502696037292,-0.044550225138664246,0.265836477279663086,0.115345269441604614,-0.014067062176764011,-0.067551583051681519,0.098543599247932434,0.027576677501201630,-0.125626206398010254,0.115479268133640289,-0.055388171225786209,0.116874784231185913,0.011295069009065628,0.148997247219085693,0.232378929853439331,-0.019753128290176392,0.009483080357313156,-0.154577821493148804,-0.116580121219158173,-0.144914656877517700,-0.027068506926298141,0.131809920072555542,-0.138024002313613892,-0.017814189195632935,-0.043187875300645828,-0.208153411746025085,0.267342329025268555,-0.072425678372383118,-0.231610462069511414,-0.170280739665031433,-0.003526990767568350,-0.153439089655876160,0.170381426811218262,0.325513601303100586,0.099508047103881836,-0.128470256924629211,-0.233515933156013489,0.101463012397289276,-0.116986103355884552,0.153863176703453064,-0.017570557072758675,0.141923859715461731,-0.145811840891838074,0.087359085679054260,-0.040167644619941711,0.200503915548324585,-0.082178667187690735,0.070239186286926270,0.124083384871482849,0.083331868052482605,0.197107881307601929,0.057412505149841309,0.194280207157135010,-0.155927941203117371,-0.141262874007225037,-0.114764213562011719,0.199342578649520874,0.059125527739524841,-0.289956361055374146,0.264241665601730347,0.197100654244422913,-0.115073949098587036,0.223194673657417297,0.039366502314805984,0.190708026289939880,0.004560229368507862,-0.020954225212335587,0.155851021409034729,-0.048136387020349503,-0.218929141759872437,0.203784465789794922,0.036927450448274612,0.123515143990516663,-0.209824472665786743,0.087034933269023895,-0.066188417375087738,-0.252753973007202148,0.047810409218072891,-0.011805357411503792
0.152107894420623779,0.031006179749965668,-0.124324478209018707,0.005660654976963997,0.066806331276893616,-0.120048366487026215,0.038996566087007523,0.056564122438430786,-0.002678524702787399,0.122412689030170441,-0.001477635349147022,0.278471112251281738,-0.066970378160476685,-0.131354644894599915,0.176724061369895935,0.255573481321334839,-0.063942871987819672,0.010071098804473877,-0.083829164505004883,0.137360706925392151,-0.069186031818389893,-0.092593021690845490,-0.267910212278366089,0.154828578233718872,0.136900871992111206,0.129139974713325500,-0.150576427578926086,-0.149525195360183716,-0.076080076396465302,0.137398645281791687,-0.006448902189731598,0.215567305684089661,0.029952906072139740,-0.073609486222267151,0.102962225675582886,-0.152845874428749084,0.006611439399421215,-0.249605387449264526,0.100737117230892181,0.054004572331905365,-0.052273988723754883,0.137813106179237366,-0.166666239500045776,-0.071736395359039307,-0.006221641786396503,0.018478957936167717,-0.115572519600391388,-0.131765708327293396,0.127860456705093384,-0.032926712185144424,-0.179605886340141296,-0.163480132818222046,-0.178074464201927185,-0.111304976046085358,0.095549941062927246,-0.017808634787797928,0.151829525828361511,0.028451330959796906,0.078939609229564667,-0.096281655132770538,-0.084238030016422272,0.078497916460037231,-0.084802925586700439,-0.189547315239906311,0.148813217878341675,0.275248199701309204,-0.164282366633415222,0.053927212953567505,-0.114760622382164001,0.029100768268108368,0.130902841687202454,-0.022055421024560928,-0.124064348638057709,-0.041030228137969971,-0.132121980190277100,0.190259963274002075,0.044212326407432556,-0.090832158923149109,-0.161553949117660522,0.138066694140434265,0.175738275051116943,-0.249314114451408386,-0.107108719646930695,0.058297298848628998,0.059660509228706360,-0.087157286703586578,0.101553171873092651,-0.193549618124961853,-0.046640049666166306,-0.013380735181272030,0.015956468880176544,-0.182769849896430969,-0.124916434288024902,0.236568212509155273,0.191883176565170288,-0.120544478297233582,0.026350034400820732,-0.019828651100397110
0.182510718703269958,0.244204670190811157,-0.041434898972511292,-0.167461872100830078,0.085820101201534271,-0.243746787309646606,0.207099959254264832,0.025806171819567680,0.055022496730089188,-0.127284362912178040,0.071348175406455994,0.230335474014282227,-0.143689051270484924,0.053066905587911606,-0.008644813671708107,-0.008290718309581280,0.007591549772769213,-0.130120217800140381,-0.052362754940986633,-0.030973872169852257,0.036332283169031143,-0.073551319539546967,-0.039296235889196396,0.017460003495216370,0.167183279991149902,-0.031990092247724533,-0.228039070963859558,-0.216532215476036072,-0.047662906348705292,-0.215870216488838196,0.046749074012041092,-0.042044702917337418,-0.005989986937493086,-0.014289094135165215,0.164094507694244385,-0.184824004769325256,0.050560615956783295,0.071452960371971130,0.253117382526397705,-0.083173736929893494,-0.115701369941234589,-0.193833827972412109,-0.026012197136878967,-0.206141799688339233,-0.042831089347600937,-0.201200902462005615,0.021593132987618446,0.015434806235134602,-0.059374913573265076,0.144428148865699768,-0.209920108318328857,-0.016457661986351013,-0.157636225223541260,0.046069331467151642,-0.099075734615325928,0.175745174288749695,0.165132835507392883,-0.108111597597599030,0.021365191787481308,0.123591490089893341,-0.109499856829643250,0.014520062133669853,-0.051272172480821609,-0.137452393770217896,0.152127191424369812,0.231187179684638977,-0.019977470859885216,0.100013859570026398,0.042886979877948761,-0.070542812347412109,0.009499812498688698,-0.056545112282037735,0.168924957513809204,0.009809276089072227,0.007464875001460314,0.116879589855670929,0.165477171540260315,0.149985492229461670,0.177016109228134155,-0.117951184511184692,-0.070256307721138000,0.058996066451072693,-0.040892511606216431,0.007553876377642155,0.047061294317245483,-0.127799957990646362,-0.013088001869618893,0.073757067322731018,0.109937794506549835,0.155916318297386169,0.143655493855476379,0.102820977568626404,-0.083078272640705109,-0.104328326880931854,0.093018129467964172,0.030922105535864830,-0.170487642288208008,0.066694222390651703
0.160798504948616028,0.107158735394477844,-0.077672041952610016,-0.163230210542678833,0.136907100677490234,-0.213056489825248718,0.075651004910469055,-0.145293101668357849,0.226186424493789673,-0.065140381455421448,-0.125730708241462708,0.051609646528959274,0.108024567365646362,-0.183182820677757263,-0.023541769012808800,0.015886317938566208,-0.176144510507583618,0.303520560264587402,-0.033764250576496124,-0.148405581712722778,0.191603690385818481,0.100799091160297394,-0.110214695334434509,-0.132474243640899658,0.156914129853248596,0.228750273585319519,-0.149772092700004578,0.155400454998016357,-0.024326587095856667,-0.135314896702766418,0.001189568080008030,0.117460556328296661,0.026803374290466309,0.141264274716377258,0.061606254428625107,0.072794072329998016,-0.055652976036071777,0.096079021692276001,0.240866899490356445,-0.148726299405097961,0.183827251195907593,0.179591566324234009,-0.120718941092491150,-0.157720267772674561,-0.144180908799171448,0.212165743112564087,0.094436749815940857,-0.208881512284278870,0.126983508467674255,-0.021708292886614799,-0.202091678977012634,-0.146172478795051575,0.234984785318374634,0.161224335432052612,-0.178216621279716492,-0.028599333018064499,0.135400727391242981,0.004669481888413429,0.067199520766735077,0.076451122760772705,0.041648443788290024,0.135434851050376892,-0.092021897435188293,0.010895191691815853,0.151739016175270081,0.121143937110900879,-0.132675170898437500,-0.187003046274185181,-0.009586683474481106,0.128602653741836548,-0.043179817497730255,0.084122851490974426,-0.046652842313051224,0.186468511819839478,-0.041243627667427063,0.077604673802852631,0.185186788439750671,-0.017518205568194389,0.156710162758827209,-0.049947038292884827,0.185358852148056030,0.154882967472076416,0.138313144445419312,0.245440885424613953,-0.006444729864597321,-0.036400508135557175,0.094899915158748627,0.191078022122383118,0.007467497605830431,-0.157423123717308044,-0.131974011659622192,0.056526601314544678,0.197945415973663330,0.203700378537178040,-0.063183128833770752,-0.195442751049995422,-0.187899589538574219,0.116368949413299561
-0.080227673053741455,0.253742367029190063,-0.037003837525844574,-0.180011332035064697,0.170552387833595276,-0.102041386067867279,-0.020430611446499825,0.076213575899600983,-0.038120564073324203,-0.159683123230934143,0.097217477858066559,0.000051457900553942,-0.139469876885414124,0.187235727906227112,0.041963778436183929,0.253591746091842651,0.022373648360371590,-0.151621058583259583,0.082380801439285278,0.150570809841156006,0.018325177952647209,0.062341645359992981,-0.139836862683296204,0.165663748979568481,-0.021192600950598717,-0.029438257217407227,0.005177449900656939,0.123197704553604126,0.008493477478623390,0.048131305724382401,-0.206625998020172119,0.128256291151046753,0.148007199168205261,-0.235004723072052002,0.152356505393981934,-0.068957842886447906,0.175086960196495056,-0.283269613981246948,0.203187376260757446,0.162178307771682739,0.220583707094192505,0.059605725109577179,-0.062896862626075745,0.038976356387138367,-0.086827777326107025,-0.171219602227210999,0.049964752048254013,-0.095418609678745270,-0.125411778688430786,0.008826527744531631,-0.022666489705443382,-0.082450807094573975,-0.041824426501989365,0.051665998995304108,-0.134667679667472839,-0.091046713292598724,0.037494730204343796,-0.036190561950206757,0.071336135268211365,0.049039825797080994,-0.210743114352226257,0.199170514941215515,-0.177634567022323608,-0.228506401181221008,0.187845215201377869,0.221706897020339966,-0.064989656209945679,-0.003715405240654945,-0.075485192239284515,0.050291758030653000,-0.003406934672966599,-0.132593810558319092,-0.194600701332092285,0.223500058054924011,0.023907184600830078,0.237919762730598450,-0.124468564987182617,0.030531626194715500,0.023470077663660049,0.025698477402329445,0.240453466773033142,0.095095381140708923,-0.022727001458406448,-0.023062080144882202,0.153690963983535767,-0.077205367386341095,0.183794856071472168,0.119163736701011658,0.034978844225406647,0.096101395785808563,0.177497029304504395,0.139615803956985474,-0.058737352490425110,0.006878077052533627,0.161778151988983154,-0.041710037738084793,0.121116980910301208,0.094540849328041077
-0.127211958169937134,0.109428428113460541,-0.031765487045049667,-0.038776494562625885,0.132830440998077393,0.094434954226016998,0.032777994871139526,0.174638912081718445,0.038212236016988754,0.007922124117612839,0.089627444744110107,0.032907482236623764,0.041779626160860062,0.236699134111404419,-0.087092526257038116,-0.111747086048126221,0.074738390743732452,0.019148422405123711,0.042412590235471725,-0.195382162928581238,0.044996812939643860,0.072540953755378723,0.052346073091030121,0.202273681759834290,-0.004155825357884169,-0.050270028412342072,0.029538271948695183,0.080461546778678894,-0.144095450639724731,0.133870407938957214,0.035519916564226151,0.266859292984008789,-0.107548214495182037,0.096763856709003448,-0.004455484449863434,-0.047681435942649841,0.156719207763671875,-0.059984855353832245,0.077157787978649139,0.240266188979148865,0.060432456433773041,-0.199949949979782104,-0.041593771427869797,-0.097755730152130127,-0.064609810709953308,-0.022657522931694984,-0.066361516714096069,-0.161632657051086426,0.121688328683376312,0.084228932857513428,-0.079738624393939972,0.002790957689285278,0.060387860983610153,-0.189652204513549805,-0.136978656053543091,0.124179184436798096,0.009426430799067020,0.096513167023658752,-0.041007641702890396,-0.137096256017684937,-0.082542538642883301,0.104200839996337891,0.151609390974044800,-0.041145954281091690,0.004343648441135883,0.196282178163528442,0.018372226506471634,-0.218274220824241638,0.039338242262601852,-0.054863855242729187,-0.179994136095046997,0.101539961993694305,0.042147085070610046,0.097529284656047821,-0.232887253165245056,-0.083958409726619720,-0.086552329361438751,0.176818802952766418,0.035121589899063110,0.036854188889265060,0.126598000526428223,-0.031018819659948349,-0.059355985373258591,0.165166497230529785,0.069476284086704254,-0.121180586516857147,-0.116212882101535797,-0.148124471306800842,-0.089033484458923340,0.173630088567733765,-0.180893972516059875,0.114287041127681732,-0.102632030844688416,-0.104858204722404480,-0.047984544187784195,-0.030561046674847603,-0.066797584295272827,-0.027871657162904739
0.210914835333824158,-0.161742329597473145,0.088354110717773438,0.106907211244106293,-0.101639196276664734,-0.078065156936645508,0.091879740357398987,0.025337148457765579,0.028812479227781296,-0.156574577093124390,0.097609393298625946,0.078490480780601501,0.078761331737041473,0.159057512879371643,-0.063193671405315399,0.040000464767217636,0.108913652598857880,-0.016512408852577209,0.124664619565010071,0.180172637104988098,-0.108363017439842224,-0.048498902469873428,-0.138865694403648376,-0.127122670412063599,-0.069468237459659576,0.054905306547880173,-0.203202739357948303,-0.053521644324064255,0.212749898433685303,-0.052348002791404724,-0.070315726101398468,-0.086201682686805725,-0.179312095046043396,0.148315861821174622,-0.144089758396148682,-0.138194859027862549,-0.043039765208959579,0.055361121892929077,0.078018873929977417,-0.213347256183624268,0.045503925532102585,-0.181692540645599365,-0.176796913146972656,0.265103280544281006,0.009525123983621597,-0.140084937214851379,-0.124800644814968109,-0.078151561319828033,-0.020961755886673927,-0.175931498408317566,0.105244539678096771,-0.144328981637954712,0.039723932743072510,0.089139617979526520,-0.008844660595059395,-0.069307081401348114,0.143932193517684937,-0.212340265512466431,0.211945325136184692,-0.140646979212760925,-0.075887240469455719,-0.062869280576705933,-0.154110804200172424,0.065143972635269165,-0.077708117663860321,-0.017766315490007401,-0.165723562240600586,-0.207621335983276367,-0.038277614861726761,-0.155880898237228394,0.148044601082801819,-0.032474346458911896,-0.037343163043260574,0.156017526984214783,0.229893922805786133,-0.160327866673469543,0.057889532297849655,0.152710974216461182,-0.126797363162040710,0.028079545125365257,0.103478282690048218,0.113846220076084137,0.062536612153053284,0.070018105208873749,-0.132545456290245056,0.172474265098571777,0.133991688489913940,-0.090069055557250977,0.162787795066833496,-0.122075743973255157,-0.226649552583694458,0.149530857801437378,-0.161251217126846313,0.003532755188643932,0.105245746672153473,0.266093283891677856,-0.079961575567722321,0.198316752910614014
0.183035835623741150,-0.188966661691665649,-0.155668035149574280,-0.157995969057083130,-0.068078473210334778,-0.139786124229431152,0.085886597633361816,0.111715942621231079,0.166234493255615234,0.057255946099758148,0.023557901382446289,-0.011278429999947548,-0.113873049616813660,0.019214659929275513,0.149180799722671509,0.014625127427279949,-0.280886292457580566,0.196862041950225830,-0.169012144207954407,-0.015508287586271763,-0.128097981214523315,0.021725734695792198,0.003096770728006959,0.128949418663978577,0.087416850030422211,0.041112482547760010,-0.017584452405571938,-0.183818757534027100,-0.052105665206909180,0.241959765553474426,-0.088761277496814728,0.178461253643035889,-0.014778451062738895,0.011212309822440147,-0.023127339780330658,0.146809875965118408,-0.067697040736675262,0.116310440003871918,0.075896605849266052,0.124220244586467743,-0.055975735187530518,-0.005861675832420588,-0.048825841397047043,0.009402843192219734,-0.036887805908918381,0.151931717991828918,-0.123525403439998627,0.229562982916831970,0.017371958121657372,0.174483150243759155,-0.030686618760228157,-0.124577045440673828,0.100483007729053497,-0.210808411240577698,-0.121561400592327118,0.185503497719764709,-0.193174228072166443,-0.235538855195045471,0.025317616760730743,-0.088000424206256866,-0.050750806927680969,-0.165809690952301025,0.146799772977828979,0.268463402986526489,-0.169719055294990540,-0.111707836389541626,-0.174290180206298828,-0.068538323044776917,-0.029763404279947281,0.032895565032958984,-0.075503960251808167,0.000771342543885112,-0.064982697367668152,-0.070796385407447815,-0.091141708195209503,0.003144787624478340,0.063721835613250732,-0.067559972405433655,0.153879493474960327,0.111251540482044220,0.186476543545722961,-0.201756000518798828,0.115815274417400360,0.035675533115863800,-0.160487562417984009,0.177400901913642883,0.036394748836755753,0.011216810904443264,-0.146956309676170349,0.042248748242855072,-0.099166810512542725,0.086228705942630768,0.123758450150489807,-0.022229511290788651,-0.058690898120403290,-0.068760916590690613,-0.077183648943901062,0.048222441226243973
-0.095148257911205292,0.247793659567832947,0.117505848407745361,-0.004657623823732138,0.164909809827804565,-0.037254866212606430,0.090319231152534485,-0.181916594505310059,0.135359495878219604,0.123315885663032532,-0.096291914582252502,0.168538063764572144,-0.147328510880470276,-0.063099451363086700,0.228488653898239136,0.115427963435649872,-0.037804819643497467,-0.013053383678197861,-0.043921947479248047,-0.007655672263354063,-0.173609599471092224,-0.107175633311271667,-0.215303733944892883,0.134854510426521301,0.114213690161705017,-0.215329051017761230,0.010891987942159176,-0.178217694163322449,-0.011014871299266815,0.118843816220760345,0.083073578774929047,0.011222994886338711,0.053129363805055618,-0.188047632575035095,-0.119231693446636200,-0.144050672650337219,0.085858121514320374,-0.142483264207839966,-0.010228418745100498,-0.138362765312194824,0.226677507162094116,-0.023199817165732384,0.083114281296730042,-0.010627381503582001,-0.168458536267280579,-0.018987001851201057,0.142356500029563904,-0.034546282142400742,0.022393478080630302,-0.157457441091537476,0.005078628193587065,-0.062843725085258484,0.059004791080951691,-0.125268444418907166,0.058306280523538589,0.000365875661373138,-0.086801014840602875,-0.070962928235530853,0.148495092988014221,-0.137059047818183899,-0.148579522967338562,-0.210893571376800537,-0.051287975162267685,-0.038162771612405777,0.153081685304641724,0.015640735626220703,-0.148689270019531250,-0.206167101860046387,0.123295649886131287,0.096436560153961182,0.054025486111640930,0.220475688576698303,-0.189652353525161743,0.091576829552650452,0.094068631529808044,-0.103460170328617096,0.076945804059505463,0.071728579699993134,0.187259793281555176,-0.121716879308223724,-0.007196248974651098,0.131395444273948669,-0.007244896143674850,-0.067760497331619263,0.149606630206108093,0.122513964772224426,-0.139621779322624207,-0.114602670073509216,-0.096406817436218262,0.063645876944065094,0.236444130539894104,0.229088544845581055,-0.172086313366889954,0.036247655749320984,0.097680009901523590,-0.046433482319116592,-0.034637231379747391,-0.008003104478120804
0.058416835963726044,0.106611788272857666,-0.155132517218589783,0.038090292364358902,0.097724571824073792,-0.116210103034973145,0.133393153548240662,-0.076657734811306000,-0.040610644966363907,0.078551396727561951,0.039440631866455078,-0.071468718349933624,-0.020079648122191429,0.075193211436271667,0.106899306178092957,-0.061565790325403214,0.172792196273803711,-0.114776164293289185,0.114676408469676971,0.002723182318732142,0.130282744765281677,0.125042632222175598,0.120642200112342834,0.074912987649440765,0.215647026896476746,-0.041686587035655975,0.107077926397323608,0.147088676691055298,0.063728980720043182,0.072023384273052216,0.150724023580551147,-0.063671611249446869,0.033587340265512466,-0.151634275913238525,0.099572844803333282,0.029900424182415009,0.140760570764541626,-0.022006595507264137,0.096545748412609100,-0.104899883270263672,0.154452040791511536,0.010849920101463795,-0.056264985352754593,-0.079694084823131561,-0.100967630743980408,-0.163909107446670532,0.012550500221550465,0.071666143834590912,-0.205559894442558289,0.063603475689888000,0.000188238176633604,-0.027435034513473511,-0.080436505377292633,-0.181739822030067444,0.020597781985998154,0.049132909625768661,0.117667868733406067,-0.065815135836601257,0.088942959904670715,-0.157149910926818848,0.103162221610546112,0.088280975818634033,-0.051083695143461227,-0.037987537682056427,-0.067428544163703918,0.141491234302520752,0.101357907056808472,-0.020791428163647652,-0.150519564747810364,-0.159869670867919922,-0.019054630771279335,0.179508149623870850,-0.119289472699165344,0.032523795962333679,-0.128388091921806335,0.140420824289321899,0.151447057723999023,-0.143669232726097107,0.005461731459945440,-0.029763137921690941,-0.029967771843075752,-0.185767337679862976,-0.186354383826255798,-0.007782885339111090,-0.106580749154090881,-0.172543585300445557,-0.113338418304920197,0.066466487944126129,0.010024863295257092,0.065618619322776794,-0.123032547533512115,0.011808267794549465,0.017131511121988297,-0.053290236741304398,0.172098666429519653,0.026912031695246696,-0.127084612846374512,0.153094723820686340
0.172040760517120361,-0.183269843459129333,-0.162167921662330627,0.104391522705554962,-0.137885332107543945,-0.022684164345264435,-0.007719807326793671,-0.022290624678134918,0.211672931909561157,0.168279260396957397,-0.070076391100883484,0.094747863709926605,0.172382965683937073,0.018898580223321915,0.096403099596500397,0.074349693953990936,0.044685948640108109,0.136248856782913208,0.128858223557472229,0.196483343839645386,-0.023209471255540848,-0.094911262392997742,0.241623982787132263,-0.192543685436248779,-0.075317323207855225,0.095387533307075500,0.193705409765243530,-0.122076377272605896,0.030288947746157646,0.081982716917991638,-0.199993997812271118,-0.085005432367324829,-0.157492667436599731,0.021526072174310684,0.069196499884128571,-0.078460849821567535,0.018370972946286201,-0.050578463822603226,-0.204579427838325500,0.141770437359809875,-0.117348037660121918,-0.010874512605369091,0.134383291006088257,-0.113395251333713531,0.064046680927276611,0.095045261085033417,-0.143131524324417114,-0.226828441023826599,0.024609971791505814,-0.170002907514572144,0.070062272250652313,-0.148922696709632874,0.081341505050659180,-0.181915879249572754,-0.099973313510417938,-0.073301762342453003,0.091691315174102783,-0.092578291893005371,0.069770306348800659,-0.047327987849712372,0.068699151277542114,0.093928948044776917,0.020646790042519569,-0.063460938632488251,-0.039636686444282532,-0.229116156697273254,-0.044605057686567307,-0.097589723765850067,0.123742364346981049,-0.182423219084739685,-0.030016051605343819,0.006399862468242645,0.251089096069335938,-0.053174231201410294,-0.036175373941659927,0.035871692001819611,0.114382654428482056,0.151573508977890015,0.227368012070655823,0.037938244640827179,-0.002404177794232965,-0.068318076431751251,0.040127363055944443,-0.056870788335800171,-0.214860275387763977,-0.080598331987857819,0.094016633927822113,0.119434595108032227,0.022167706862092018,0.183854624629020691,0.152200520038604736,0.152501404285430908,0.196423515677452087,-0.116966523230075836,0.121173046529293060,0.235718756914138794,-0.009432516992092133,0.086329169571399689
-0.172410428524017334,0.336655437946319580,-0.024490296840667725,-0.008138485252857208,-0.011957946233451366,-0.048924658447504044,-0.043707080185413361,-0.186080858111381531,0.164487168192863464,0.027033077552914619,0.056022904813289642,-0.022115714848041534,0.161360487341880798,0.088978201150894165,-0.053805321455001831,-0.196526870131492615,0.063613779842853546,-0.113785773515701294,0.053652942180633545,0.007883783429861069,-0.108730435371398926,-0.108146183192729950,-0.210418134927749634,0.022129992023110390,-0.065646842122077942,-0.061984006315469742,-0.153225809335708618,-0.087475024163722992,-0.254654973745346069,-0.139724195003509521,0.140697225928306580,0.095626562833786011,0.097265109419822693,-0.107542634010314941,-0.256010830402374268,-0.064618341624736786,0.105278447270393372,-0.278907299041748047,0.063569225370883942,-0.124471955001354218,0.214551210403442383,-0.105288349092006683,0.110695898532867432,-0.153302401304244995,-0.040543992072343826,-0.088156104087829590,0.112178213894367218,-0.032851137220859528,-0.000708064297214150,-0.194210767745971680,-0.089434087276458740,-0.176261678338050842,-0.074526809155941010,0.083269588649272919,0.060264095664024353,0.062661349773406982,0.229326859116554260,-0.189731121063232422,-0.120264030992984772,-0.001929701771587133,0.040635887533426285,0.252435863018035889,-0.016571035608649254,-0.006313766818493605,0.126905009150505066,-0.049745671451091766,-0.043066319078207016,-0.041288744658231735,-0.071318283677101135,-0.205335989594459534,-0.169474780559539795,-0.087568439543247223,0.133161917328834534,0.048059642314910889,-0.132826641201972961,0.202023744583129883,0.097748897969722748,-0.091929197311401367,0.078306511044502258,-0.120597481727600098,-0.084897778928279877,0.087149873375892639,-0.079833671450614929,-0.073506236076354980,0.007648902013897896,-0.269610404968261719,-0.068942226469516754,0.077395111322402954,-0.121531799435615540,0.100870162248611450,-0.133342519402503967,0.177827104926109314,-0.052326515316963196,-0.089369945228099823,0.338210254907608032,-0.210019752383232117,0.110334329307079315,0.074182026088237762
0.075031392276287079,0.125781193375587463,-0.079192832112312317,0.256351113319396973,0.102185435593128204,0.167820990085601807,0.118222557008266449,0.004403916653245687,-0.012777940370142460,-0.058946181088685989,-0.036894921213388443,0.154685601592063904,-0.128140151500701904,-0.046640839427709579,-0.164342582225799561,0.121146805584430695,0.123626120388507843,-0.099798373878002167,-0.089538507163524628,0.250852316617965698,-0.053064513951539993,-0.061111841350793839,-0.088524445891380310,-0.066292501986026764,-0.198749542236328125,-0.121882878243923187,-0.037519074976444244,-0.007988410070538521,-0.111687369644641876,0.229218780994415283,-0.167824849486351013,0.144313097000122070,-0.198913902044296265,0.054881416261196136,-0.174282521009445190,-0.058424130082130432,0.029374154284596443,-0.127093762159347534,0.116514071822166443,0.148964375257492065,0.307774901390075684,-0.165162831544876099,0.036551330238580704,0.092155948281288147,-0.144045755267143250,0.152402773499488831,-0.212642654776573181,-0.029809365049004555,0.063657961785793304,0.130602002143859863,-0.133908569812774658,-0.183706268668174744,-0.034965891391038895,-0.063060492277145386,0.010381918400526047,-0.145934268832206726,-0.222825810313224792,-0.007969889789819717,-0.063315898180007935,0.065563440322875977,0.027596166357398033,0.180470168590545654,0.061082668602466583,-0.096906587481498718,0.071148246526718140,0.152360364794731140,0.134438693523406982,0.012622074224054813,-0.101987987756729126,-0.210708647966384888,0.196417585015296936,-0.257832139730453491,0.226609751582145691,-0.153419807553291321,0.089187391102313995,0.087850809097290039,-0.023875897750258446,-0.185205310583114624,0.266470968723297119,0.195446982979774475,-0.211227759718894958,0.082316763699054718,-0.119100876152515411,-0.011808260343968868,-0.139547869563102722,0.060379259288311005,0.190182119607925415,-0.045192051678895950,-0.197670578956604004,0.016272904351353645,-0.032499782741069794,-0.181391790509223938,-0.105622760951519012,-0.006952861789613962,0.016850737854838371,-0.118683084845542908,0.087819948792457581,0.089654549956321716
-0.016998173668980598,-0.164935946464538574,-0.096882872283458710,0.008433531038463116,-0.148864775896072388,0.165173590183258057,-0.142103686928749084,-0.108326070010662079,-0.035193946212530136,-0.041763793677091599,-0.114934712648391724,-0.052550069987773895,0.135634288191795349,0.165170118212699890,0.177315637469291687,0.176535427570343018,0.129201591014862061,-0.033616159111261368,-0.128403052687644958,0.030996004119515419,-0.075551249086856842,0.005324000027030706,0.096432492136955261,-0.023544443771243095,-0.047708332538604736,-0.077340915799140930,0.167167469859123230,-0.072582975029945374,-0.110364407300949097,-0.030085252597928047,-0.105921097099781036,0.206820160150527954,0.124039866030216217,-0.023712193593382835,-0.142072632908821106,-0.181712388992309570,-0.014287755824625492,0.166623398661613464,0.045684538781642914,0.027235995978116989,-0.068266540765762329,0.153825119137763977,-0.063872173428535461,-0.037969924509525299,-0.159040987491607666,-0.089381873607635498,0.072271287441253662,-0.133985236287117004,0.062395323067903519,0.010085712186992168,-0.113372884690761566,0.092492967844009399,-0.125780478119850159,0.046156205236911774,0.091484799981117249,-0.051717344671487808,0.213644847273826599,-0.001887492486275733,-0.042658343911170959,0.175552666187286377,-0.114165417850017548,0.117575049400329590,-0.080158814787864685,-0.010181215591728687,-0.101803936064243317,0.197508588433265686,0.074255429208278656,-0.083714976906776428,0.092371970415115356,-0.125184386968612671,-0.053830739110708237,-0.065867401659488678,-0.050059191882610321,0.004492580890655518,-0.169787317514419556,-0.069492906332015991,0.171978086233139038,-0.042544890195131302,0.054528452455997467,-0.014415840618312359,-0.100440800189971924,-0.150719583034515381,0.041603278368711472,-0.049225673079490662,-0.076840586960315704,0.154681384563446045,0.007006584666669369,0.104199938476085663,-0.141272559762001038,0.106662705540657043,-0.056041032075881958,-0.009433711878955364,-0.017913198098540306,0.241021215915679932,-0.019149977713823318,-0.055515274405479431,-0.122917205095291138,-0.143081471323966980
