0.253616154193878174,0.090792477130889893,-0.107654199004173279,-0.201444223523139954,-0.045947484672069550,0.124641805887222290,0.003251029178500175,-0.378357887268066406,-0.015438423492014408,0.140871584415435791
-0.098059169948101044,0.292136549949645996,-0.319709479808807373,-0.414688527584075928,-0.158140599727630615,-0.198399424552917480,-0.126898288726806641,0.048387065529823303,-0.049010451883077621,-0.099054396152496338
-0.188593715429306030,0.055744610726833344,-0.216631397604942322,-0.003051016479730606,0.201438605785369873,0.205285161733627319,0.172046065330505371,0.190483286976814270,-0.266901671886444092,0.220632687211036682
0.271663755178451538,-0.289766401052474976,0.021670036017894745,-0.177653595805168152,0.246970936655998230,-0.344040632247924805,0.062904030084609985,-0.197984442114830017,0.280798465013504028,0.212461411952972412
-0.306817412376403809,0.093220278620719910,0.285636216402053833,-0.045764461159706116,-0.353678256273269653,-0.224009037017822266,0.160725429654121399,-0.035570092499256134,-0.018624819815158844,-0.378350406885147095
-0.051480725407600403,0.235013619065284729,0.317324399948120117,-0.128127470612525940,0.195573523640632629,-0.126067042350769043,0.375193834304809570,-0.181361511349678040,-0.175287500023841858,-0.393941551446914673
-0.146831035614013672,0.283054560422897339,-0.422060519456863403,-0.049088202416896820,-0.192917898297309875,-0.020708924159407616,-0.341145873069763184,-0.092523738741874695,0.083676554262638092,-0.028486836701631546
0.331009179353713989,-0.280103325843811035,0.147523924708366394,-0.360161244869232178,0.245416358113288879,0.022264536470174789,-0.179861173033714294,-0.041515480726957321,-0.052974525839090347,-0.232651427388191223
0.219249650835990906,-0.299724519252777100,-0.246751293540000916,-0.023448619991540909,-0.376172035932540894,-0.034449189901351929,0.180763468146324158,0.029654040932655334,0.144134119153022766,0.057630132883787155
0.068873777985572815,-0.145910575985908508,-0.082177825272083282,-0.293744266033172607,0.166616201400756836,-0.300153166055679321,-0.204856649041175842,-0.244287222623825073,0.265637099742889404,-0.100249178707599640
-0.154335096478462219,-0.036009643226861954,-0.238989725708961487,0.195415735244750977,-0.034009445458650589,-0.017125437036156654,-0.087932720780372620,-0.100560158491134644,0.258511126041412354,-0.222076639533042908
-0.260490059852600098,0.168725207448005676,0.098164796829223633,-0.379334747791290283,-0.048918701708316803,0.041377030313014984,-0.113881886005401611,0.028347626328468323,0.250625610351562500,-0.264711469411849976
-0.146079391241073608,-0.040010757744312286,0.281007915735244751,-0.067474693059921265,0.190976306796073914,0.183297649025917053,0.215044319629669189,-0.155596166849136353,0.021055750548839569,0.130447342991828918
0.054862204939126968,-0.091325730085372925,-0.035114120692014694,-0.174048617482185364,-0.370126813650131226,0.239439889788627625,0.282774209976196289,0.140304848551750183,0.018423983827233315,-0.129485651850700378
-0.185173824429512024,-0.176862373948097229,0.096692860126495361,0.198567599058151245,0.048355426639318466,-0.199238881468772888,-0.304207384586334229,0.196804463863372803,0.207463368773460388,0.271884530782699585
-0.159741669893264771,-0.110235325992107391,-0.380357116460800171,0.270024359226226807,-0.054036948829889297,0.115899696946144104,0.080539204180240631,-0.294145196676254272,0.241381153464317322,-0.015797881409525871
0.104065842926502228,0.036613307893276215,0.055454481393098831,-0.246053218841552734,0.032780010253190994,0.225612089037895203,-0.232633203268051147,-0.123565487563610077,-0.111008502542972565,-0.099615357816219330
-0.038259044289588928,-0.232267931103706360,-0.093459770083427429,-0.216634780168533325,0.242264896631240845,-0.171875461935997009,-0.188838914036750793,-0.144187763333320618,0.294295072555541992,-0.245947927236557007
-0.328177422285079956,0.109612703323364258,-0.122767649590969086,0.223159387707710266,0.293465346097946167,-0.013645679689943790,0.163084372878074646,0.335702508687973022,-0.553578555583953857,0.333262234926223755
0.130569458007812500,-0.082226157188415527,0.197916254401206970,0.083715565502643585,-0.057251125574111938,0.016898311674594879,-0.105769872665405273,0.002200397662818432,0.051937904208898544,0.150881484150886536
0.005821388680487871,-0.041957482695579529,0.200515925884246826,0.269067347049713135,-0.475598990917205811,-0.170131877064704895,-0.215486064553260803,-0.199759200215339661,0.135181695222854614,-0.250177800655364990
-0.308347046375274658,-0.353774815797805786,0.188980370759963989,0.159044772386550903,0.213698312640190125,-0.157282724976539612,-0.318554788827896118,0.418593376874923706,0.055879235267639160,-0.239631280303001404
-0.119885563850402832,-0.341607779264450073,0.194601774215698242,0.001377919688820839,-0.145723491907119751,0.109320655465126038,0.209662303328514099,0.340654730796813965,0.245415344834327698,-0.320560485124588013
0.307839065790176392,-0.196662485599517822,-0.243289783596992493,-0.053003501147031784,-0.312690347433090210,-0.290698796510696411,-0.243049725890159607,0.289151698350906372,0.089757315814495087,0.086868368089199066
-0.056120663881301880,-0.361907452344894409,0.048574440181255341,-0.230706796050071716,-0.115504190325737000,-0.164486080408096313,0.346934348344802856,0.329013109207153320,-0.076962523162364960,-0.147741764783859253
0.118157260119915009,-0.326082587242126465,-0.140995115041732788,0.015875244513154030,0.129726633429527283,0.057664252817630768,-0.026455316692590714,0.155392080545425415,-0.360811322927474976,-0.151585757732391357
0.156906932592391968,-0.313890755176544189,-0.147688314318656921,-0.331984311342239380,-0.015512203797698021,-0.012372813187539577,0.021147631108760834,0.286557942628860474,-0.528509140014648438,-0.284261047840118408
0.144854292273521423,-0.142993822693824768,0.163343533873558044,0.032052334398031235,0.028104107826948166,0.021457795053720474,-0.390006452798843384,-0.336710214614868164,0.143095955252647400,0.093499228358268738
-0.186253085732460022,-0.276775717735290527,0.100265130400657654,0.217231318354606628,-0.355565458536148071,0.315169751644134521,-0.252091199159622192,-0.371121823787689209,0.100660011172294617,0.199507907032966614
0.291533619165420532,-0.044753167778253555,-0.272490024566650391,-0.060029074549674988,0.244159027934074402,-0.017946654930710793,0.044749114662408829,0.050792016088962555,-0.181359618902206421,-0.057646349072456360
-0.226388067007064819,-0.072971113026142120,0.134236901998519897,0.265600979328155518,-0.497604370117187500,-0.290951341390609741,-0.422700226306915283,-0.074994660913944244,0.080930657684803009,0.009511662647128105
-0.347240209579467773,0.151814684271812439,-0.139662176370620728,-0.037957042455673218,-0.330176651477813721,0.378049284219741821,0.095482841134071350,-0.384680360555648804,0.131425306200981140,0.030017433688044548
0.056593555957078934,-0.302293628454208374,-0.158329859375953674,-0.021422499790787697,0.045083086937665939,-0.433419466018676758,-0.404388219118118286,0.005509744863957167,-0.067838281393051147,-0.097446545958518982
-0.166076198220252991,0.405863612890243530,-0.322825700044631958,0.023817598819732666,0.068628191947937012,0.265270173549652100,-0.276413112878799438,-0.200551286339759827,-0.314146637916564941,-0.239354491233825684
0.209666043519973755,-0.380343019962310791,0.173565536737442017,-0.181663557887077332,-0.428238928318023682,-0.089858859777450562,-0.338891208171844482,-0.108332976698875427,-0.159930601716041565,-0.310295373201370239
-0.182168602943420410,0.171051532030105591,-0.315296769142150879,0.079393327236175537,-0.484468758106231689,0.186772629618644714,-0.061162043362855911,0.237600728869438171,0.150032982230186462,-0.372249186038970947
0.081970751285552979,0.242616832256317139,-0.114502511918544769,-0.169207662343978882,0.007890330627560616,-0.210884600877761841,-0.040463034063577652,-0.234493508934974670,0.205242559313774109,-0.062696948647499084
0.149679303169250488,-0.098180800676345825,-0.144346892833709717,-0.233131706714630127,0.099428348243236542,-0.047612670809030533,-0.152960419654846191,-0.426103234291076660,0.314543902873992920,-0.008550647646188736
-0.317101776599884033,0.123225770890712738,-0.240352332592010498,-0.185499981045722961,0.299487441778182983,-0.244001477956771851,0.053781341761350632,0.280573397874832153,-0.031948048621416092,-0.071855440735816956
0.269287824630737305,-0.025262480601668358,0.291616499423980713,0.136522173881530762,-0.255893826484680176,-0.090646423399448395,-0.158739626407623291,-0.248091131448745728,0.036387883126735687,0.145036071538925171
0.023291260004043579,-0.110682487487792969,0.280017703771591187,0.005541581660509109,0.075787864625453949,-0.317367136478424072,-0.399957686662673950,0.313806861639022827,0.065178029239177704,-0.363985985517501831
-0.160927236080169678,-0.117687433958053589,-0.012570475228130817,0.212754264473915100,-0.005096905864775181,-0.250330954790115356,0.036522790789604187,0.216284900903701782,-0.035947773605585098,0.185958459973335266
-0.347317606210708618,-0.045577310025691986,-0.257676213979721069,0.358503907918930054,0.028455415740609169,0.076592504978179932,-0.234366476535797119,-0.404971301555633545,-0.062295258045196533,-0.158936515450477600
-0.142150640487670898,0.095543622970581055,-0.235974624752998352,-0.329488754272460938,0.129932254552841187,0.329925477504730225,0.121590010821819305,-0.463150322437286377,0.067120209336280823,0.134033009409904480
-0.325128197669982910,-0.094539284706115723,0.151031523942947388,0.358183622360229492,-0.445304363965988159,-0.228589951992034912,-0.255259722471237183,-0.180645540356636047,0.013984851539134979,-0.281957358121871948
0.075325891375541687,-0.219226703047752380,-0.194894179701805115,-0.020400552079081535,0.144631609320640564,-0.142100930213928223,-0.292009472846984863,-0.306143581867218018,-0.135115265846252441,0.016969645395874977
-0.056896589696407318,-0.220775425434112549,-0.310177147388458252,0.069279201328754425,-0.421731203794479370,0.313770383596420288,-0.193172514438629150,-0.086280904710292816,-0.312229394912719727,0.225972309708595276
-0.366773813962936401,0.173280373215675354,-0.476995825767517090,-0.507192015647888184,0.034933261573314667,-0.201029464602470398,0.124974422156810760,-0.316785693168640137,0.220388382673263550,0.117733605206012726
0.304484516382217407,-0.159986287355422974,-0.132456257939338684,0.188082680106163025,0.017704356461763382,0.351956129074096680,-0.137192174792289734,-0.321582049131393433,-0.390965431928634644,0.114217594265937805
-0.000570690375752747,-0.451395153999328613,0.312110781669616699,0.138895541429519653,-0.090560913085937500,-0.229708284139633179,0.201069191098213196,-0.398034662008285522,0.209745585918426514,-0.061988402158021927
-0.128756746649742126,-0.075963333249092102,-0.020011926069855690,-0.180986851453781128,0.184368401765823364,-0.074646644294261932,-0.294678390026092529,-0.107901960611343384,-0.432851701974868774,0.245429247617721558
-0.148532420396804810,0.361514508724212646,-0.286704391241073608,-0.080178543925285339,-0.196686953306198120,-0.127077713608741760,-0.348957002162933350,0.023570969700813293,-0.191502228379249573,-0.304721504449844360
-0.063539572060108185,0.125909119844436646,-0.187086731195449829,0.066589295864105225,-0.273527234792709351,0.008631915785372257,0.277389228343963623,-0.066890679299831390,-0.166524708271026611,0.038231465965509415
0.063450515270233154,-0.027995292097330093,-0.130343437194824219,0.030787969008088112,-0.196995049715042114,-0.321582168340682983,-0.289284229278564453,0.052811320871114731,0.104404710233211517,0.071878954768180847
-0.362435787916183472,-0.130202710628509521,-0.018726104870438576,0.091812267899513245,0.276675730943679810,0.182980462908744812,-0.530022561550140381,0.145942807197570801,-0.321847736835479736,0.136060029268264771
-0.303633451461791992,0.234499260783195496,0.194265499711036682,-0.067458234727382660,-0.153296127915382385,-0.560563862323760986,-0.215394958853721619,0.305751621723175049,-0.024598872289061546,0.239548578858375549
-0.381796687841415405,-0.252593398094177246,-0.020011842250823975,-0.325735002756118774,0.124454297125339508,0.227471709251403809,-0.410988420248031616,-0.103110998868942261,-0.003650523256510496,0.331639349460601807
0.343181163072586060,-0.378312706947326660,0.044843312352895737,-0.324866592884063721,0.150892958045005798,0.148562565445899963,0.201987907290458679,0.185799136757850647,-0.061084911227226257,0.153045028448104858
-0.303994387388229370,-0.335629343986511230,-0.256267845630645752,0.128164902329444885,0.184103325009346008,0.009955660440027714,-0.494353026151657104,-0.053896032273769379,0.086754873394966125,0.127463787794113159
0.171633124351501465,-0.027337122708559036,0.194330275058746338,-0.090069741010665894,-0.420345097780227661,0.213391825556755066,-0.346129596233367920,-0.250348478555679321,-0.211109861731529236,-0.175130635499954224
0.163217961788177490,0.049063134938478470,-0.125555887818336487,-0.175260350108146667,-0.140151247382164001,-0.285746514797210693,-0.353783667087554932,0.185303881764411926,-0.190536588430404663,0.265008479356765747
0.341522157192230225,-0.254775464534759521,-0.270871937274932861,0.185393363237380981,-0.091137140989303589,-0.255466938018798828,0.127441138029098511,-0.295910388231277466,-0.072143241763114929,-0.095756597816944122
-0.165257275104522705,-0.307146608829498291,0.328696787357330322,-0.051591519266366959,0.117394410073757172,0.271668434143066406,0.229832574725151062,-0.014530736953020096,0.100514478981494904,-0.254559963941574097
0.094585925340652466,-0.239905819296836853,0.068979285657405853,0.159868031740188599,-0.001834852038882673,0.235825240612030029,0.317387670278549194,-0.343179941177368164,-0.085638627409934998,0.053353134542703629
0.044971592724323273,-0.325191140174865723,-0.195494562387466431,0.109232954680919647,-0.287874549627304077,-0.155622541904449463,0.337940007448196411,-0.499043554067611694,-0.286760598421096802,-0.478176772594451904
0.209510043263435364,-0.089864365756511688,-0.315360605716705322,-0.343369871377944946,0.131314098834991455,-0.144805654883384705,0.349772721529006958,-0.080851927399635315,-0.448618769645690918,0.195137351751327515
-0.216955989599227905,0.103603959083557129,-0.106176145374774933,0.177294224500656128,-0.204986169934272766,0.190359026193618774,0.086521908640861511,-0.012529874220490456,0.241965979337692261,0.010036312974989414
-0.233639299869537354,0.386784762144088745,0.236441522836685181,-0.473574429750442505,0.356249362230300903,0.085885800421237946,-0.171833053231239319,0.056900113821029663,-0.158780395984649658,-0.198155909776687622
-0.117056943476200104,-0.320201456546783447,-0.408903598785400391,-0.032002292573451996,-0.002844853093847632,0.047142561525106430,0.039889115840196609,-0.283036082983016968,-0.008283451199531555,-0.149953484535217285
0.027149356901645660,0.202392220497131348,0.121446654200553894,-0.136591777205467224,-0.199026629328727722,0.240445777773857117,0.252508848905563354,-0.239837437868118286,0.042372345924377441,0.043780140578746796
-0.247660502791404724,0.325178056955337524,0.141342818737030029,0.160521477460861206,0.168010175228118896,0.247441276907920837,-0.006013492122292519,-0.284935802221298218,-0.268044829368591309,0.259816825389862061
-0.206985265016555786,0.194227650761604309,0.321878373622894287,-0.154358118772506714,-0.215778052806854248,-0.235089883208274841,0.088970541954040527,-0.254470914602279663,-0.111721880733966827,-0.058778263628482819
-0.401391327381134033,0.073539763689041138,0.005194735713303089,0.177505418658256531,-0.036643452942371368,-0.380994439125061035,-0.402839690446853638,-0.077178850769996643,-0.274398922920227051,-0.294779211282730103
-0.007009559776633978,0.242058932781219482,0.232392922043800354,0.080312423408031464,0.137754768133163452,-0.019676094874739647,0.256870239973068237,-0.107702873647212982,0.151608034968376160,0.142080083489418030
0.099098496139049530,0.310819208621978760,-0.058778326958417892,-0.034025296568870544,-0.183758646249771118,-0.383609294891357422,-0.071016214787960052,-0.157314822077751160,0.172208786010742188,-0.104457363486289978
