0.045001775026321411
0.005166606977581978
-0.004593325313180685
-0.009800559841096401
0.033163256943225861
0.063998162746429443
-0.091097399592399597
-0.068622246384620667
-0.135279089212417603
-0.043120607733726501
0.049931537359952927
-0.035333141684532166
-0.039118576794862747
0.057856585830450058
0.016214070841670036
-0.011323257349431515
-0.060520928353071213
-0.085800081491470337
-0.060091372579336166
-0.112695366144180298
0.046430911868810654
-0.092285707592964172
0.056156113743782043
0.058734435588121414
0.069395393133163452
-0.126106455922126770
0.001863390672951937
0.048453845083713531
0.059049133211374283
0.025775801390409470
0.014232571236789227
-0.106635332107543945
-0.060717076063156128
0.024538617581129074
0.084938488900661469
0.053604193031787872
0.071037039160728455
-0.139810770750045776
-0.070578962564468384
-0.161543890833854675
0.073994867503643036
-0.006357672624289989
-0.039500828832387924
-0.140183866024017334
0.017295630648732185
-0.036699466407299042
-0.010143571533262730
-0.005354783032089472
-0.004378765821456909
0.070092931389808655
-0.091094613075256348
-0.008274127729237080
0.013524953275918961
-0.010551664978265762
0.118959970772266388
-0.052090812474489212
-0.060833536088466644
-0.066601492464542389
0.019934132695198059
-0.073489904403686523
-0.014483187347650528
0.016897959634661674
0.087517060339450836
-0.008496537804603577
-0.006080870982259512
-0.001215654774568975
0.032937247306108475
-0.044942419975996017
-0.025608466938138008
-0.023413538932800293
-0.009246471337974072
0.023245880380272865
-0.002796688117086887
-0.004994395654648542
-0.137513518333435059
0.034488853067159653
-0.086798824369907379
0.024809716269373894
-0.027080176398158073
-0.003637972287833691
-0.011470560915768147
-0.028807310387492180
0.027545824646949768
0.104112066328525543
-0.074615538120269775
0.061400365084409714
-0.030633481219410896
-0.008285683579742908
-0.014527861028909683
-0.043976236134767532
-0.071776047348976135
-0.041908986866474152
0.004415129777044058
-0.050334647297859192
-0.045477882027626038
0.016812110319733620
-0.003587972605600953
0.051001578569412231
-0.037759892642498016
0.073154903948307037
-0.013823403045535088
-0.000711011583916843
-0.043891463428735733
-0.006606218870729208
0.028124643489718437
0.047262806445360184
-0.082233719527721405
-0.030673988163471222
-0.009292251430451870
0.001591012231074274
-0.003343036863952875
0.016395706683397293
-0.030110109597444534
-0.053606186062097549
-0.002157114911824465
-0.034747619181871414
0.100392654538154602
0.011557578109204769
0.018741508945822716
-0.055069059133529663
-0.035529866814613342
0.039638336747884750
0.033474452793598175
-0.087634727358818054
-0.005193340592086315
-0.017974259331822395
-0.079698361456394196
-0.012957736849784851
