-0.157263293862342834,0.215105846524238586,0.078804582357406616,-0.021562671288847923,0.051114700734615326,-0.206856444478034973,-0.058033134788274765,0.033699240535497665,-0.119185037910938263,0.097187623381614685,-0.129048079252243042,0.010728316381573677,-0.048149343580007553,-0.113112889230251312,0.059339776635169983,-0.036314316093921661,-0.130077317357063293,0.012169270776212215,-0.055257771164178848,0.010398532263934612,0.009170249104499817,0.010313263162970543,-0.030353317037224770,0.231027334928512573,0.139955282211303711,0.083441250026226044,0.042448241263628006,-0.058868516236543655,0.197638839483261108,0.055469889193773270,-0.057727679610252380,-0.045340400189161301,0.111084550619125366,0.066147305071353912,-0.137246191501617432,-0.111082032322883606,-0.148246273398399353,0.001983934780582786,0.003191387280821800,0.072866253554821014,0.053298946470022202,-0.035333681851625443,0.121676385402679443,-0.104931451380252838,0.169906988739967346,-0.034820627421140671,0.050352502614259720,-0.021556226536631584,-0.022292057052254677,-0.010465327650308609,-0.110377982258796692,-0.075039066374301910,-0.087867498397827148,0.021771159023046494,0.125792816281318665,-0.046129293739795685,0.068305552005767822,0.010969805531203747,-0.022075179964303970,-0.013992417603731155,0.162406876683235168,-0.006520609837025404,0.228880509734153748,-0.027313768863677979,-0.050949554890394211,-0.146800681948661804,-0.019523786380887032,-0.073307044804096222,0.149170041084289551,0.029752392321825027,0.035679053515195847,0.079243779182434082,0.070634976029396057,-0.109876073896884918,-0.113113850355148315,0.035219594836235046,-0.107583470642566681,-0.087211035192012787,-0.009994875639677048,-0.077185273170471191,-0.003644492710009217,0.028193861246109009,-0.098977565765380859,0.094840787351131439,-0.005746289622038603,-0.121666140854358673,-0.106869377195835114,-0.100894294679164886,-0.092499129474163055,-0.039534915238618851,-0.168276444077491760,0.078361287713050842,0.130822241306304932,-0.063234962522983551,0.005541064310818911,0.127971380949020386,-0.037318270653486252,0.116932936012744904,0.190764129161834717,0.041186124086380005,0.005303280893713236,-0.112528719007968903,-0.100051514804363251,0.012999366968870163,-0.038199391216039658,-0.033126845955848694,-0.070783406496047974,-0.069909445941448212,-0.037173010408878326,0.025791864842176437,0.074547417461872101,-0.088299103081226349,0.054959520697593689,0.244947060942649841,-0.122113920748233795,-0.002606056630611420,0.217951476573944092,0.079780280590057373,0.099396497011184692,0.096615225076675415,-0.054411109536886215,-0.091387405991554260,-0.093800455331802368,-0.049115076661109924,0.004482609685510397,0.048624519258737564,0.000469323858851567,0.028184847906231880
-0.092819571495056152,0.125102922320365906,0.140443816781044006,-0.005685377866029739,0.095035418868064880,-0.248819470405578613,-0.151983022689819336,0.036695461720228195,-0.104850679636001587,0.123696424067020416,-0.055684216320514679,-0.055874433368444443,-0.131947770714759827,-0.083929769694805145,-0.065339364111423492,-0.011345667764544487,-0.195098102092742920,0.056349821388721466,-0.079423502087593079,-0.000909886322915554,0.044474113732576370,0.059111919254064560,0.002172761829569936,0.231362029910087585,0.213387936353683472,0.137733131647109985,0.030170505866408348,-0.080922380089759827,0.161083191633224487,0.069977656006813049,-0.037280023097991943,-0.094548493623733521,0.057565696537494659,0.162769287824630737,-0.250008761882781982,-0.199410870671272278,-0.229592949151992798,-0.076040796935558319,0.021386010572314262,-0.070596203207969666,0.120544172823429108,0.015297655016183853,0.006659230217337608,-0.060135159641504288,0.143597394227981567,0.044423904269933701,0.006581719499081373,0.022390265017747879,-0.084181874990463257,0.108121439814567566,-0.116438895463943481,0.008146781474351883,-0.132847666740417480,0.023348342627286911,0.088220939040184021,-0.094971217215061188,0.069466523826122284,-0.022366307675838470,0.086807332932949066,-0.082461468875408173,0.244573682546615601,-0.096157722175121307,0.123472906649112701,0.032689247280359268,0.018571311607956886,-0.203047826886177063,-0.142240777611732483,-0.068388625979423523,0.141436710953712463,0.006023653782904148,0.028736475855112076,0.034641221165657043,0.028983660042285919,-0.147248461842536926,-0.152126088738441467,0.090975433588027954,-0.096565857529640198,-0.112882971763610840,-0.032557144761085510,-0.130618035793304443,-0.077340424060821533,0.040689844638109207,-0.121569044888019562,0.094125308096408844,-0.091227628290653229,-0.050116140395402908,-0.008060949854552746,-0.078767791390419006,-0.155316218733787537,-0.042159058153629303,-0.179400488734245300,0.092751450836658478,0.190575927495956421,-0.017240997403860092,0.062815524637699127,0.191177859902381897,-0.084671474993228912,0.076319999992847443,0.025506230071187019,0.025140296667814255,-0.013169691897928715,-0.046165019273757935,-0.007470584474503994,-0.048609983175992966,-0.034540142863988876,0.024813631549477577,-0.216254010796546936,-0.128478586673736572,0.013593170791864395,0.032631907612085342,0.045879244804382324,-0.143518596887588501,0.056073527783155441,0.216367036104202271,-0.040657017379999161,-0.002543888986110687,0.214763924479484558,0.171523168683052063,0.197706073522567749,0.110706172883510590,-0.000072930241003633,-0.104981549084186554,-0.067897029221057892,-0.081102386116981506,0.009633976966142654,-0.046129416674375534,0.045023575425148010,0.027196062728762627
0.034025780856609344,0.131004750728607178,0.076133422553539276,0.011083614081144333,0.064971342682838440,0.006696562282741070,-0.027505781501531601,-0.046588230878114700,0.019131556153297424,0.039558622986078262,-0.019618283957242966,-0.059582017362117767,-0.059715490788221359,-0.047946151345968246,0.026899399235844612,-0.043025940656661987,-0.023140380159020424,0.014607428573071957,0.008561859838664532,0.154543355107307434,-0.071471005678176880,-0.027867903932929039,-0.068967945873737335,0.066786147654056549,0.117582075297832489,0.057132132351398468,-0.103535465896129608,-0.030117694288492203,-0.088971339166164398,0.031650431454181671,-0.005553913768380880,0.071545645594596863,0.039077222347259521,0.048204544931650162,-0.060111969709396362,-0.055611491203308105,0.003814569208770990,0.018485886976122856,0.015105117112398148,-0.002610501134768128,0.019697017967700958,0.047873768955469131,0.080099798738956451,0.010548492893576622,0.042125198990106583,-0.021034061908721924,-0.018456159159541130,0.031519401818513870,0.007824139669537544,0.043371923267841339,0.026203192770481110,0.069993585348129272,-0.019263375550508499,-0.008621416985988617,-0.014994360506534576,-0.074080161750316620,0.105677194893360138,-0.046655878424644470,0.010395331308245659,-0.065300412476062775,0.107766747474670410,-0.041167721152305603,0.080844528973102570,-0.043960820883512497,-0.014833889901638031,-0.103393569588661194,0.022112125530838966,-0.082496598362922668,0.120863229036331177,-0.073558568954467773,0.016495157033205032,0.079971641302108765,0.025222770869731903,-0.036530748009681702,-0.001765176188200712,-0.106484867632389069,-0.086725786328315735,-0.013991178013384342,0.014670658856630325,-0.034994602203369141,0.081354580819606781,-0.048988450318574905,0.003706776769831777,0.011005320586264133,0.031350255012512207,0.038844775408506393,0.036545637995004654,0.007818449288606644,-0.036351814866065979,-0.011287428438663483,0.046358224004507065,0.047538775950670242,0.060447625815868378,-0.001706009381450713,0.035474661737680435,-0.080535992980003357,0.036561664193868637,0.010283408686518669,0.184895932674407959,-0.040086187422275543,0.043318402022123337,0.017631633207201958,-0.044997483491897583,0.028176102787256241,-0.000987922423519194,0.015989597886800766,-0.010133797302842140,-0.006522712763398886,-0.030121838673949242,-0.043246705085039139,-0.145091146230697632,-0.063384823501110077,0.020815784111618996,0.090225018560886383,-0.003636206500232220,-0.007886447012424469,-0.089425511658191681,0.082611925899982452,-0.028645569458603859,0.024809716269373894,0.134142339229583740,0.010118373669683933,-0.017504287883639336,0.002592386910691857,0.006709038279950619,0.030557367950677872,0.016488675028085709,-0.043591167777776718
0.029084101319313049,0.128726348280906677,0.078128807246685028,0.008483551442623138,0.016478136181831360,-0.010091021656990051,-0.105282515287399292,-0.006464420817792416,-0.084801614284515381,0.012988618575036526,0.000960090779699385,0.055298257619142532,-0.058183625340461731,-0.124820768833160400,0.029435420408844948,-0.051633175462484360,-0.183611512184143066,0.009847563691437244,-0.136518508195877075,0.055370368063449860,0.026447281241416931,-0.025621214881539345,-0.040525630116462708,0.069468654692173004,0.078310541808605194,0.027717050164937973,-0.036054126918315887,-0.072427846491336823,-0.018428212031722069,-0.095191769301891327,0.055594991892576218,-0.074446611106395721,0.029284650459885597,-0.051610674709081650,0.021825999021530151,-0.034147284924983978,0.011474723927676678,0.011337341740727425,-0.030289370566606522,-0.111101903021335602,-0.035149857401847839,-0.006118902936577797,0.067914679646492004,-0.011870007961988449,0.075438968837261200,-0.047754809260368347,-0.140141874551773071,-0.034875735640525818,-0.142984986305236816,0.115851730108261108,0.008751934394240379,0.071000531315803528,0.018611589446663857,-0.046850580722093582,-0.026920057833194733,-0.116825602948665619,-0.013184751383960247,-0.025479216128587723,-0.004843891132622957,-0.078007407486438751,0.075303785502910614,0.029815586283802986,0.037965033203363419,0.015756707638502121,0.034983273595571518,0.004952201619744301,-0.040974602103233337,-0.073468998074531555,0.118409104645252228,-0.070667669177055359,-0.008264622651040554,0.035973105579614639,0.128588110208511353,-0.027954893186688423,-0.115071341395378113,0.053530279546976089,-0.074898771941661835,-0.028279321268200874,0.037834130227565765,0.044905316084623337,0.109332494437694550,-0.006284035742282867,-0.142972260713577271,0.140468060970306396,0.002887665759772062,0.064258985221385956,0.028812672942876816,0.019342835992574692,-0.041409548372030258,-0.050840154290199280,-0.010931804776191711,-0.030476231127977371,0.088977426290512085,0.000665240513626486,-0.063451774418354034,0.039921060204505920,0.007439114153385162,0.037253107875585556,0.075443863868713379,0.058797325938940048,-0.047688663005828857,-0.010454092174768448,-0.044140778481960297,0.040709182620048523,-0.105745553970336914,0.142988309264183044,-0.099520199000835419,0.011261681094765663,-0.049523945897817612,0.011806698516011238,-0.007082037162035704,0.024494981393218040,0.034025583416223526,0.031321022659540176,0.057992015033960342,-0.044734410941600800,0.104293264448642731,0.107835479080677032,0.045114744454622269,0.005251723341643810,-0.019346926361322403,0.031156681478023529,-0.006376849953085184,0.079510919749736786,0.009310835972428322,-0.047610316425561905,-0.014581081457436085,-0.011805130168795586
-0.066495954990386963,-0.034040350466966629,-0.052261475473642349,0.012643102556467056,0.073951251804828644,-0.127850234508514404,-0.143836319446563721,0.025465402752161026,-0.106629982590675354,0.043468613177537918,-0.143889248371124268,0.127437591552734375,-0.082692123949527740,-0.240036964416503906,0.194244980812072754,-0.071488864719867706,-0.096328809857368469,0.085501246154308319,0.040304820984601974,0.110947348177433014,0.072265192866325378,-0.104356296360492706,0.158359691500663757,0.003773190081119537,0.152248516678810120,-0.116275064647197723,0.135140597820281982,0.038362264633178711,0.074122741818428040,-0.109427697956562042,-0.067177765071392059,-0.014908907003700733,-0.034852165728807449,0.044599436223506927,-0.138580203056335449,-0.083868637681007385,-0.231637537479400635,0.034004349261522293,-0.027249487116932869,0.146870687603950500,0.018415587022900581,-0.007347546517848969,0.179380103945732117,-0.065773196518421173,0.205733031034469604,-0.031219011172652245,0.018285619094967842,-0.010069715790450573,0.003210689174011350,-0.016557255759835243,-0.125559419393539429,-0.074837528169155121,-0.152076363563537598,-0.034042909741401672,0.026010040193796158,-0.134589955210685730,-0.029532492160797119,-0.010288691148161888,-0.125943943858146667,-0.069427378475666046,0.102462202310562134,0.008979367092251778,0.058450974524021149,0.003936134278774261,-0.012285716831684113,-0.194919317960739136,0.068717658519744873,0.088562510907649994,-0.033046245574951172,-0.043586947023868561,-0.003498218953609467,0.132432460784912109,0.077710889279842377,-0.063713595271110535,-0.011906757019460201,-0.036650732159614563,-0.034554101526737213,0.044196940958499908,-0.029638910666108131,-0.152129352092742920,-0.010756313800811768,-0.060871236026287079,0.029361806809902191,0.209112808108329773,-0.107073612511157990,-0.127709239721298218,-0.006423560436815023,-0.046661674976348877,0.169199258089065552,-0.037636294960975647,-0.147301539778709412,0.054837737232446671,0.184724062681198120,0.019423348829150200,0.050513133406639099,0.037627708166837692,0.071876212954521179,0.109423018991947174,-0.017270136624574661,-0.143497571349143982,0.059727948158979416,-0.072644151747226715,0.030024437233805656,-0.040460050106048584,0.116870410740375519,0.028866438195109367,0.004027978051453829,0.101841792464256287,0.034986738115549088,-0.018029101192951202,-0.083309672772884369,-0.155765250325202942,-0.031850535422563553,0.150295674800872803,-0.099461808800697327,-0.009936557151377201,-0.073671877384185791,-0.108284868299961090,0.127205640077590942,0.102185577154159546,-0.001303025055676699,-0.091511800885200500,0.003013713052496314,0.034236755222082138,-0.121486797928810120,0.040968921035528183,0.010309807956218719,-0.021689238026738167
-0.052435368299484253,0.131685495376586914,0.010729446075856686,0.034643720835447311,0.107823349535465240,-0.175595656037330627,-0.159865975379943848,-0.044489447027444839,-0.110629007220268250,0.148347169160842896,-0.105225704610347748,0.030259089544415474,-0.216953203082084656,-0.261423408985137939,0.054699227213859558,-0.031842358410358429,-0.025249477475881577,0.029096608981490135,-0.004293539561331272,-0.004060641862452030,0.135917171835899353,-0.065860807895660400,0.092462033033370972,0.083169005811214447,0.092124812304973602,-0.192796960473060608,0.103361949324607849,0.046129625290632248,0.072132475674152374,-0.017220452427864075,0.017820699140429497,0.037024613469839096,0.030136400833725929,0.114389203488826752,-0.238921374082565308,-0.204009801149368286,-0.206106081604957581,0.002964850282296538,0.087006695568561554,0.000713084707967937,-0.032282460480928421,0.027570191770792007,0.076724328100681305,-0.106896705925464630,0.130136951804161072,-0.019611313939094543,0.058366917073726654,0.000048604066250846,0.011301386170089245,0.124788187444210052,-0.064213156700134277,-0.093497432768344879,-0.197093367576599121,0.005974184721708298,0.108512267470359802,-0.116042077541351318,-0.041417755186557770,-0.033175438642501831,-0.087473198771476746,-0.127923548221588135,0.214027956128120422,-0.063730068504810333,0.114733159542083740,0.023511473089456558,0.113419212400913239,-0.164884492754936218,0.014288724400103092,-0.014171166345477104,-0.016252888366580009,-0.000110910827061161,-0.012059319764375687,0.129114568233489990,0.130513861775398254,-0.061005324125289917,-0.093081519007682800,-0.096962459385395050,-0.137222751975059509,0.020853137597441673,0.005553770810365677,-0.143655210733413696,0.012165626510977745,-0.060571938753128052,-0.043160986155271530,0.127129852771759033,-0.117721676826477051,-0.091344840824604034,-0.014702124521136284,-0.123866192996501923,-0.006768222432583570,-0.062623299658298492,-0.080090448260307312,0.036468584090471268,0.080647833645343781,-0.008287664502859116,0.070901647210121155,0.142308264970779419,0.053037501871585846,0.133980005979537964,0.033082392066717148,-0.069308504462242126,0.075617380440235138,-0.070189639925956726,0.013148459605872631,-0.014119766652584076,0.113453827798366547,-0.015988359227776527,-0.037972304970026016,0.001438371837139130,0.020887743681669235,0.056634612381458282,-0.043853469192981720,-0.181340306997299194,-0.049322176724672318,0.136082798242568970,-0.072786405682563782,-0.007959512993693352,0.102398224174976349,0.070779763162136078,0.185852438211441040,0.105801768600940704,0.027027538046240807,-0.125931411981582642,-0.100836142897605896,-0.057300213724374771,-0.098032385110855103,0.042444866150617599,0.020880833268165588,0.013220323249697685
-0.027407525107264519,0.173595145344734192,0.092879697680473328,0.031480703502893448,0.006246161181479692,-0.002065766835585237,-0.144729658961296082,0.040576163679361343,-0.104435287415981293,-0.029015624895691872,0.054154731333255768,-0.022206258028745651,-0.092181503772735596,-0.003673871746286750,-0.035929664969444275,-0.163161978125572205,-0.134286358952522278,-0.052501618862152100,-0.106895565986633301,0.027357732877135277,0.015792623162269592,-0.071236513555049896,-0.009417273104190826,0.021315155550837517,0.156367480754852295,0.032232612371444702,-0.087316371500492096,-0.098159380257129669,0.072185792028903961,-0.145822539925575256,0.026973458006978035,-0.093474552035331726,0.018883777782320976,0.004841221496462822,-0.063198633491992950,0.006514336913824081,-0.027601996436715126,-0.075166516005992889,0.021174220368266106,-0.179560229182243347,0.059908289462327957,0.008977234363555908,0.045488309115171432,-0.013391387648880482,0.066820144653320312,-0.000109603934106417,-0.081186220049858093,0.020148895680904388,-0.087236680090427399,0.054379217326641083,-0.078200072050094604,0.056883171200752258,0.137573406100273132,-0.038772832602262497,0.041940517723560333,-0.049630519002676010,0.064821176230907440,0.025888660922646523,-0.008075493387877941,-0.063688509166240692,0.105853334069252014,0.041275024414062500,0.072514377534389496,-0.039403568953275681,-0.039456903934478760,-0.025408674031496048,-0.009232159703969955,-0.106453053653240204,0.142647728323936462,-0.109582260251045227,0.008783388882875443,-0.023832498118281364,0.112860120832920074,-0.104455254971981049,-0.137844890356063843,0.072068855166435242,-0.091983743011951447,-0.021320229396224022,0.044500473886728287,0.061191651970148087,0.140885829925537109,0.025667777284979820,-0.058619730174541473,0.183567091822624207,0.010410507209599018,0.077280104160308838,0.015398988500237465,-0.074164040386676788,-0.122569188475608826,0.035799447447061539,-0.072032645344734192,-0.027135064825415611,0.084046140313148499,-0.016590733081102371,-0.008185911923646927,-0.044800858944654465,-0.035282392054796219,0.008933946490287781,0.108241647481918335,0.173479780554771423,-0.017533058300614357,0.091578848659992218,-0.070874840021133423,0.047180544584989548,-0.185628995299339294,0.101170346140861511,-0.172483637928962708,0.040731057524681091,0.046991553157567978,-0.001822605961933732,-0.080077968537807465,0.051995765417814255,-0.027717160061001778,0.094169795513153076,0.159167125821113586,-0.030097592622041702,0.178984433412551880,0.102422297000885010,0.051669798791408539,0.046235948801040649,0.084476202726364136,0.012171641923487186,0.038645949214696884,0.043603163212537766,0.041438687592744827,0.047289025038480759,0.025865707546472549,0.005845240782946348
-0.005991663318127394,0.078881956636905670,0.054601062089204788,-0.002221047878265381,-0.005193668883293867,-0.002593104727566242,-0.119350351393222809,0.029293455183506012,-0.077419593930244446,-0.037727579474449158,0.070390187203884125,0.059001151472330093,-0.031516440212726593,-0.069851160049438477,0.050512954592704773,-0.121247261762619019,-0.148380905389785767,0.007122005335986614,0.032245911657810211,-0.011846506036818027,0.069037824869155884,-0.077624507248401642,0.099611066281795502,0.043315004557371140,0.145161882042884827,0.080343969166278839,0.016794085502624512,-0.056812893599271774,0.110958978533744812,-0.152363866567611694,-0.017962632700800896,-0.026537302881479263,-0.086302392184734344,-0.088228054344654083,-0.080954536795616150,-0.074045613408088684,-0.060382425785064697,-0.020866390317678452,-0.008821149356663227,0.069672204554080963,0.016753777861595154,-0.032606493681669235,0.039215043187141418,-0.017662916332483292,0.018495969474315643,-0.001313671702519059,-0.041657794266939163,0.004190314561128616,-0.168213337659835815,0.055941391736268997,0.013150768354535103,-0.058244302868843079,-0.038556560873985291,-0.029487702995538712,-0.045382168143987656,-0.055204916745424271,0.092383012175559998,-0.071310900151729584,-0.079491317272186279,-0.053302649408578873,0.019264249131083488,0.092361859977245331,0.045418534427881241,0.033842954784631729,-0.041469767689704895,-0.098005115985870361,-0.004262041300535202,0.002643063897266984,0.050551649183034897,-0.023548582568764687,-0.020370021462440491,0.053627744317054749,0.036214418709278107,-0.049812730401754379,0.065792329609394073,0.092439368367195129,-0.074029929935932159,0.019428761675953865,-0.010374343022704124,0.090717956423759460,-0.029826551675796509,0.027342118322849274,-0.005551548209041357,0.130316764116287231,0.055456887930631638,-0.055360428988933563,0.036035880446434021,-0.017663216218352318,-0.054434020072221756,-0.029386484995484352,-0.040309108793735504,-0.029244750738143921,0.114250347018241882,-0.007206913083791733,-0.040385216474533081,0.060687713325023651,-0.035202804952859879,0.099132232367992401,0.006840278860181570,-0.061930630356073380,0.012235012836754322,0.056766182184219360,-0.049251232296228409,-0.042281359434127808,0.045604806393384933,0.109608642756938934,-0.066339597105979919,-0.011875079944729805,-0.043068129569292068,-0.120437696576118469,0.027223054319620132,0.075919099152088165,0.050539501011371613,0.055426444858312607,0.014482310041785240,-0.017368134111166000,0.132461234927177429,-0.110744424164295197,0.075912967324256897,-0.053809531033039093,0.046329461038112640,-0.060299742966890335,-0.047105275094509125,0.111199550330638885,0.062310930341482162,-0.017224257811903954,-0.004302300512790680,0.030178168788552284
-0.084586277604103088,0.013720054179430008,0.120466984808444977,-0.029190922155976295,0.035600777715444565,-0.040585666894912720,-0.235873535275459290,-0.017939783632755280,-0.026902278885245323,0.093536831438541412,-0.111143514513969421,0.055720001459121704,-0.104045629501342773,-0.137616991996765137,0.038665182888507843,-0.244508519768714905,-0.059742975980043411,0.109389774501323700,0.043218847364187241,0.187100961804389954,-0.055027958005666733,-0.237660139799118042,-0.007488709874451160,0.055647578090429306,0.094828300178050995,-0.097128182649612427,-0.013952736742794514,-0.154190793633460999,-0.025746755301952362,-0.115901924669742584,-0.019592575728893280,0.003161134663969278,-0.048789966851472855,-0.012593355029821396,-0.240574911236763000,-0.031822245568037033,-0.179807439446449280,0.102652586996555328,-0.026720643043518066,0.268817931413650513,-0.097522385418415070,0.010741375386714935,0.325569242238998413,-0.157653450965881348,0.020464276894927025,-0.171226546168327332,-0.034998103976249695,-0.101703785359859467,-0.029291598126292229,-0.231809765100479126,0.031784702092409134,-0.152577906847000122,-0.096801742911338806,-0.008504884317517281,-0.135111421346664429,-0.142355591058731079,-0.009859905578196049,0.022282905876636505,-0.193841889500617981,-0.025890363380312920,0.037811137735843658,0.084839135408401489,-0.137148365378379822,0.011671281419694424,0.098798178136348724,0.068480171263217926,-0.052776198834180832,0.062450274825096130,-0.086083061993122101,0.051313880831003189,-0.022910295054316521,0.014438032172620296,0.039814542979001999,0.024479225277900696,-0.038783088326454163,0.028414804488420486,-0.063614584505558014,0.123661912977695465,0.006243279669433832,-0.102018050849437714,-0.037795510143041611,-0.013320028781890869,-0.022706750780344009,0.075674153864383698,0.083614692091941833,0.009276505559682846,0.092850357294082642,-0.047102130949497223,0.230359494686126709,-0.034473653882741928,-0.040612265467643738,-0.012347081676125526,0.430337339639663696,0.048223003745079041,0.001110318931750953,0.084697805345058441,-0.020376041531562805,-0.016084944829344749,0.079466722905635834,-0.187005773186683655,0.012880351394414902,-0.064795255661010742,0.059284005314111710,0.017138373106718063,0.097180008888244629,-0.049124378710985184,0.042511284351348877,0.050790295004844666,0.041237164288759232,0.038077004253864288,-0.031446430832147598,-0.070470444858074188,0.018030354753136635,0.145229667425155640,0.004374960903078318,-0.075024589896202087,-0.309302955865859985,-0.104362934827804565,-0.093311563134193420,0.283430635929107666,-0.092477761209011078,0.099599853157997131,-0.013394880108535290,0.105021961033344269,-0.132093444466590881,0.010429553687572479,0.046098135411739349,-0.003005021950230002
-0.069684930145740509,0.008089076727628708,-0.035875022411346436,-0.017914939671754837,0.086743056774139404,-0.022978471592068672,-0.152501508593559265,-0.053443301469087601,-0.093853957951068878,0.149458780884742737,-0.042896341532468796,0.082504138350486755,-0.208975419402122498,-0.205383226275444031,-0.010301740840077400,-0.156527936458587646,-0.054100669920444489,0.022938316687941551,0.081751093268394470,0.061909753829240799,0.092730134725570679,-0.230222210288047791,0.079701393842697144,0.066361665725708008,-0.005691678263247013,-0.214314371347427368,0.070543766021728516,-0.059900436550378799,-0.090187378227710724,-0.107814699411392212,-0.017158970236778259,-0.066275596618652344,-0.066284261643886566,-0.008614703081548214,-0.138643145561218262,-0.066003188490867615,-0.205155640840530396,0.106089487671852112,0.048520896583795547,0.149643823504447937,-0.066289961338043213,-0.040808986872434616,0.208388060331344604,-0.154593572020530701,0.133874550461769104,-0.226884663105010986,0.062338396906852722,-0.061744567006826401,0.107971146702766418,-0.036689784377813339,-0.130401656031608582,0.002290421398356557,-0.135999158024787903,0.017654156312346458,-0.042228359729051590,-0.170581296086311340,0.017198516055941582,-0.094071738421916962,-0.146009206771850586,-0.193950295448303223,0.041411802172660828,0.083299294114112854,-0.021490652114152908,-0.052677016705274582,0.079276077449321747,0.034151177853345871,0.045140407979488373,0.074837118387222290,-0.084654748439788818,0.061105858534574509,-0.010014319792389870,0.031871482729911804,-0.030250627547502518,0.030999271199107170,-0.123208716511726379,-0.164842873811721802,-0.122718349099159241,0.115729108452796936,0.015492826700210571,-0.174541592597961426,-0.085152201354503632,-0.044022910296916962,0.054988652467727661,0.076699368655681610,-0.028967447578907013,-0.026527877897024155,0.094690762460231781,-0.109238319098949432,0.179016694426536560,-0.041986417025327682,0.017273444682359695,0.044367302209138870,0.237772688269615173,0.051867250353097916,-0.033540721982717514,0.092918604612350464,0.106227301061153412,0.070836000144481659,0.041219972074031830,-0.216819003224372864,0.030541939660906792,-0.082032456994056702,0.012255415320396423,-0.042232014238834381,0.151822254061698914,-0.004590434953570366,0.005138290114700794,0.111852191388607025,0.021130416542291641,-0.029387852177023888,0.002923113061115146,-0.079430706799030304,-0.091934405267238617,0.061150543391704559,-0.042390372604131699,-0.005045067984610796,-0.287560731172561646,-0.059464193880558014,-0.082581497728824615,0.150856629014015198,-0.103426605463027954,0.105633378028869629,-0.057382080703973770,-0.005944046191871166,-0.146733760833740234,0.015013867989182472,0.103277862071990967,-0.024050835520029068
-0.041705016046762466,-0.107490934431552887,0.060575295239686966,-0.020257640630006790,-0.037654347717761993,-0.047180548310279846,-0.115573324263095856,-0.028735013678669930,-0.087728470563888550,0.006028927862644196,-0.049244184046983719,-0.023328781127929688,-0.122480541467666626,-0.027338067069649696,-0.039353910833597183,0.053048577159643173,-0.035602569580078125,-0.075972579419612885,0.063821427524089813,-0.020959602668881416,0.015516456216573715,-0.029789149761199951,0.039100632071495056,0.171831071376800537,0.106519229710102081,0.016267588362097740,0.084969326853752136,-0.144150495529174805,0.167070388793945312,-0.186084315180778503,-0.088295914232730865,-0.086625061929225922,-0.103218875825405121,-0.120790265500545502,-0.030743079259991646,-0.003813204122707248,-0.040354065597057343,0.063004933297634125,-0.000815885548945516,0.064334839582443237,0.000599166960455477,0.031538818031549454,0.042476311326026917,-0.059809982776641846,-0.080539800226688385,0.027261344715952873,0.057745620608329773,-0.031139552593231201,-0.087398380041122437,0.119475498795509338,-0.089202478528022766,-0.065902367234230042,-0.049770932644605637,-0.013700951822102070,-0.053250484168529510,-0.015249975956976414,0.115611366927623749,0.038133852183818817,-0.070986494421958923,0.075139969587326050,-0.058271914720535278,-0.045176081359386444,0.085861548781394958,0.044155541807413101,-0.069655202329158783,-0.080303229391574860,-0.027717418968677521,0.113235615193843842,0.144872501492500305,-0.089230917394161224,-0.005147315561771393,0.104670278728008270,-0.022518089041113853,-0.100009411573410034,-0.026088060811161995,0.078955776989459991,-0.025907933712005615,-0.046140823513269424,0.013899292796850204,-0.017525263130664825,-0.102115102112293243,0.051377445459365845,0.071353115141391754,0.137904897332191467,0.032800160348415375,0.044756989926099777,-0.094210334122180939,-0.062534905970096588,-0.030767628923058510,-0.014626104384660721,-0.036198541522026062,0.102357558906078339,0.166517540812492371,0.034560091793537140,-0.047964680939912796,-0.029895536601543427,-0.054168596863746643,-0.021985840052366257,-0.062763154506683350,-0.103209957480430603,-0.028099365532398224,0.033751025795936584,-0.052347652614116669,0.020551610738039017,0.033327434211969376,0.057208608835935593,-0.104400023818016052,0.028236046433448792,0.027088198810815811,-0.093309082090854645,-0.000435588619438931,0.020669341087341309,-0.060830332338809967,0.138479918241500854,0.035785797983407974,0.048249814659357071,0.032663851976394653,-0.123683810234069824,0.183904275298118591,0.017389317974448204,0.163296490907669067,-0.027774529531598091,-0.100989602506160736,0.019761638715863228,-0.053084712475538254,-0.042541947215795517,-0.007762661669403315,0.000692438334226608
-0.079755544662475586,-0.122662946581840515,-0.001232803799211979,0.024630617350339890,-0.047111138701438904,-0.007841343991458416,-0.170522913336753845,0.023203650489449501,-0.024414161220192909,0.025170372799038887,0.156396597623825073,0.134875223040580750,-0.044028241187334061,0.019697768613696098,0.192297205328941345,-0.120771668851375580,-0.087869115173816681,0.080960780382156372,-0.027812600135803223,-0.170024827122688293,0.177287042140960693,-0.125648260116577148,0.102138683199882507,-0.002846196526661515,0.169088408350944519,-0.179372102022171021,0.044304195791482925,0.104766577482223511,0.061156298965215683,-0.004382902756333351,0.025676185265183449,-0.214633956551551819,-0.142230615019798279,-0.003126035211607814,0.036975815892219543,0.111163832247257233,-0.049004655331373215,-0.035337179899215698,-0.055036369711160660,-0.066318660974502563,-0.013911564834415913,-0.026585184037685394,-0.059888429939746857,-0.225543260574340820,0.045808143913745880,-0.099029749631881714,-0.064828447997570038,0.025325747206807137,-0.052782129496335983,-0.038569759577512741,0.039971619844436646,-0.062798775732517242,-0.091003887355327606,-0.016831886023283005,0.061632134020328522,-0.080456167459487915,-0.046812601387500763,0.069645039737224579,-0.233035072684288025,-0.064550705254077911,-0.018936952576041222,0.049066796898841858,-0.065416410565376282,0.002511091995984316,-0.049556035548448563,-0.054146692156791687,0.086180835962295532,0.049169499427080154,-0.162817955017089844,-0.106821268796920776,0.002513240091502666,0.125786244869232178,0.093624301254749298,-0.091714628040790558,-0.085518665611743927,-0.088293172419071198,-0.104922376573085785,0.265596359968185425,-0.041089598089456558,0.080130778253078461,0.070108719170093536,-0.021911658346652985,0.161626577377319336,0.171260118484497070,0.084367401897907257,-0.097629278898239136,-0.025214452296495438,-0.004901299253106117,0.275056779384613037,-0.044933203607797623,-0.010219710879027843,-0.028165055438876152,0.198377206921577454,0.031334612518548965,0.033767003566026688,-0.007909748703241348,0.061131816357374191,0.115791186690330505,-0.063055135309696198,-0.026263810694217682,0.008417841047048569,0.000040968061512103,-0.013477354310452938,0.004572493024170399,0.110998049378395081,0.197294980287551880,-0.075950540602207184,0.063437536358833313,0.007671727798879147,-0.037558868527412415,-0.054174266755580902,-0.024745542556047440,0.080881014466285706,-0.080630227923393250,0.060090091079473495,-0.080499954521656036,-0.108493447303771973,-0.102786459028720856,0.122644007205963135,-0.065549075603485107,0.007786548696458340,-0.019151704385876656,0.041514031589031219,0.064844787120819092,-0.063818953931331635,0.018294794484972954,0.014955002814531326,0.018524535000324249
-0.016131659969687462,0.170638203620910645,0.053800728172063828,0.036292914301156998,0.048310134559869766,-0.014972304925322533,-0.104194834828376770,-0.037857297807931900,-0.097656197845935822,0.145833805203437805,0.078800179064273834,0.096211649477481842,-0.153622835874557495,0.089003637433052063,-0.013622438535094261,-0.256215393543243408,0.041086547076702118,0.054108563810586929,-0.009037826210260391,0.074406877160072327,-0.005301362834870815,-0.221989586949348450,0.147259578108787537,0.160703763365745544,0.018024178221821785,-0.083206370472908020,0.037782777100801468,-0.198471024632453918,0.037959195673465729,-0.024724936112761497,-0.010940395295619965,0.002418218879029155,-0.070192113518714905,-0.184142589569091797,-0.123139977455139160,-0.138127282261848450,-0.260057389736175537,-0.046179678291082382,-0.013818863779306412,0.054131060838699341,-0.178185403347015381,-0.022379720583558083,0.124728456139564514,-0.089311435818672180,0.152392804622650146,-0.049657057970762253,-0.021433055400848389,-0.032132625579833984,-0.029647007584571838,0.070945329964160919,-0.048965428024530411,-0.023685080930590630,-0.136454537510871887,-0.042266890406608582,-0.035241730511188507,-0.017575288191437721,-0.036548614501953125,-0.046776708215475082,0.021170411258935928,0.116250947117805481,0.083342663943767548,-0.072417937219142914,0.068078793585300446,0.036889575421810150,0.064739532768726349,0.086635030806064606,0.059061449021100998,0.136255592107772827,-0.145556852221488953,0.009196436963975430,0.025689065456390381,0.072728313505649567,0.151666074991226196,0.049852862954139709,0.071098603308200836,0.123206324875354767,-0.129473924636840820,0.036748312413692474,0.033028364181518555,0.033915836364030838,0.013529890216886997,0.015822470188140869,-0.000442044809460640,0.080421984195709229,0.105551123619079590,-0.033786021173000336,-0.027432357892394066,-0.000980605720542371,0.406419306993484497,0.018596595153212547,-0.106129236519336700,-0.113376408815383911,0.223699063062667847,-0.054370749741792679,-0.003304481972008944,-0.079147487878799438,0.078238353133201599,0.088371612131595612,0.098648644983768463,-0.132288739085197449,-0.020252093672752380,-0.059817381203174591,-0.127596884965896606,0.034004021435976028,-0.014152829535305500,0.017437741160392761,0.058287482708692551,0.122619271278381348,0.008050419390201569,0.096315704286098480,0.021871343255043030,0.030558185651898384,0.090658895671367645,-0.031514078378677368,0.070550933480262756,-0.046943742781877518,-0.288527995347976685,-0.152051508426666260,-0.007575036957859993,0.167204305529594421,-0.126032292842864990,0.034365832805633545,0.047421079128980637,0.059666644781827927,-0.040239863097667694,0.032942354679107666,0.022689986974000931,0.038454059511423111
0.098702311515808105,0.118195943534374237,-0.011657225899398327,0.041460756212472916,0.030357554554939270,-0.050164736807346344,-0.150613248348236084,-0.019911166280508041,-0.066729918122291565,0.076181896030902863,0.004579090513288975,0.019627336412668228,-0.158973321318626404,0.072526991367340088,0.033830001950263977,-0.197700753808021545,0.000106603903986979,0.031962715089321136,0.002618195721879601,-0.006801755633205175,0.000328638154314831,-0.236951351165771484,0.081049948930740356,0.110333085060119629,-0.032620321959257126,-0.016557767987251282,0.108850486576557159,-0.140688017010688782,-0.014580097980797291,-0.145448774099349976,-0.002088452689349651,-0.041985660791397095,-0.031599517911672592,-0.034067969769239426,-0.194019347429275513,-0.133729279041290283,-0.231203526258468628,0.000250396697083488,-0.025070358067750931,0.107820093631744385,-0.058258563280105591,-0.007969953119754791,0.166881725192070007,-0.152155935764312744,0.088794343173503876,-0.039953391999006271,0.027677090838551521,-0.035889018326997757,0.057050406932830811,0.128951102495193481,-0.189724445343017578,-0.126130446791648865,-0.130066946148872375,0.019553311169147491,0.101891048252582550,-0.003679804038256407,-0.096335537731647491,-0.036159753799438477,0.051773589104413986,0.031954787671566010,0.002014873316511512,0.031948830932378769,0.027562126517295837,-0.055424131453037262,0.052849739789962769,-0.024186560884118080,0.114435665309429169,0.050668902695178986,-0.053384047001600266,0.138303652405738831,0.043674238026142120,-0.008722459897398949,-0.023779187351465225,0.047914594411849976,0.056497585028409958,0.068196229636669159,0.003222248982638121,0.068312063813209534,0.004361703060567379,-0.161419078707695007,-0.078637309372425079,-0.060032889246940613,-0.003343449439853430,0.002291784388944507,0.048511866480112076,-0.059576228260993958,-0.008925825357437134,-0.013874891214072704,0.179859548807144165,-0.032161157578229904,-0.080964639782905579,-0.036688264459371567,0.238792940974235535,0.058273743838071823,-0.065367832779884338,0.086535438895225525,0.021700600162148476,0.003963969182223082,0.003250012407079339,-0.220106005668640137,0.049607001245021820,-0.060163706541061401,-0.019080959260463715,0.005901392083615065,-0.023412449285387993,0.012259923852980137,-0.035010691732168198,0.016233019530773163,0.021839771419763565,0.014553852379322052,-0.004872648511081934,-0.026792934164404869,-0.008817517198622227,0.044111084192991257,0.128533348441123962,-0.003210331546142697,-0.256538629531860352,-0.135738134384155273,-0.114489749073982239,0.061121657490730286,-0.140914797782897949,0.012979182414710522,-0.076339334249496460,0.030491542071104050,0.048892274498939514,0.041215240955352783,0.116436176002025604,0.018773414194583893
-0.144167080521583557,0.039464931935071945,0.134082585573196411,-0.022809017449617386,-0.125865295529365540,-0.087948054075241089,-0.242613732814788818,0.042376723140478134,-0.144790261983871460,0.142256438732147217,-0.089918397367000580,0.175382971763610840,-0.109324567019939423,-0.221550658345222473,0.045354612171649933,-0.134772941470146179,-0.176609531044960022,-0.193695902824401855,0.116710796952247620,-0.110450327396392822,-0.002751442370936275,-0.160954833030700684,0.091179221868515015,-0.092738457024097443,0.235015749931335449,0.015885200351476669,0.054620958864688873,-0.122867085039615631,0.110564790666103363,-0.017182651907205582,-0.166706308722496033,-0.104109771549701691,0.171613559126853943,0.056604024022817612,-0.123826600611209869,0.163980364799499512,-0.202508598566055298,0.205687433481216431,-0.005530763417482376,-0.038932185620069504,-0.051654446870088577,-0.023900592699646950,0.178376048803329468,-0.012405488640069962,0.145311191678047180,0.004431601613759995,0.059096649289131165,-0.046383954584598541,0.002416764153167605,-0.036923695355653763,-0.241974309086799622,-0.103895045816898346,-0.179066687822341919,-0.051631331443786621,-0.106784865260124207,-0.053718831390142441,0.164653718471527100,0.055901173502206802,-0.143174722790718079,-0.066290296614170074,0.007480014581233263,0.137850821018218994,0.074681937694549561,-0.018693214282393456,-0.030791081488132477,-0.227060377597808838,0.082177191972732544,0.225246086716651917,0.097509630024433136,-0.079348407685756683,0.022597698494791985,0.220658898353576660,-0.044414788484573364,-0.182812571525573730,-0.045516572892665863,0.017113436013460159,-0.128105685114860535,0.175239071249961853,-0.033175803720951080,-0.102828726172447205,0.023713028058409691,-0.017870701849460602,0.201067283749580383,-0.096385106444358826,0.013423801399767399,-0.009397990070283413,-0.144618198275566101,-0.056119635701179504,0.242369696497917175,-0.035231545567512512,-0.089314512908458710,0.208068147301673889,0.367990761995315552,0.022007815539836884,-0.044274963438510895,0.139093115925788879,-0.041008923202753067,-0.026650948449969292,-0.026150673627853394,0.077965341508388519,0.014647776260972023,-0.102550975978374481,-0.121855415403842926,0.028751995414495468,-0.009779250249266624,-0.034908078610897064,-0.023230373859405518,0.012675493024289608,-0.027113486081361771,-0.105290435254573822,-0.071953900158405304,0.016870947554707527,-0.060555566102266312,0.242063283920288086,0.152502387762069702,0.025188179686665535,-0.022763561457395554,0.092842034995555878,0.055643290281295776,0.012894583866000175,0.139188289642333984,0.043788753449916840,-0.058804668486118317,0.071473084390163422,-0.008726500906050205,-0.025803212076425552,-0.048555124551057816,0.020768450573086739
-0.026326101273298264,-0.071440339088439941,0.189042598009109497,-0.036945022642612457,-0.139746725559234619,0.187310025095939636,-0.108238168060779572,0.060207139700651169,-0.076020807027816772,-0.058102071285247803,0.073743462562561035,0.089857071638107300,-0.065866440534591675,0.028057070448994637,0.115189313888549805,-0.146272450685501099,-0.122418329119682312,0.042178086936473846,0.018085002899169922,-0.002911781193688512,0.178320378065109253,-0.117364116013050079,0.013672296889126301,0.026077227666974068,0.045947592705488205,-0.294496119022369385,0.006479203701019287,0.109057553112506866,0.045667972415685654,0.144748508930206299,0.030103448778390884,0.025283791124820709,-0.103717684745788574,0.073265299201011658,0.102277234196662903,0.148781687021255493,-0.014575401321053505,-0.076155468821525574,0.047503177076578140,-0.078911565244197845,0.063609108328819275,0.026527743786573410,0.040703438222408295,-0.333110868930816650,0.094564929604530334,-0.214675709605216980,-0.245229378342628479,-0.060640364885330200,-0.197041451930999756,-0.123857401311397552,0.041449956595897675,0.075784809887409210,-0.004985933657735586,-0.002882548840716481,0.065264791250228882,-0.122965641319751740,-0.004199769347906113,0.116730429232120514,-0.202141955494880676,-0.182445362210273743,0.085920944809913635,-0.071137860417366028,-0.148707792162895203,-0.010597679764032364,0.011961550451815128,-0.135667607188224792,0.021057086065411568,0.075068742036819458,-0.198696598410606384,0.070296004414558411,-0.030894687399268150,0.013077785260975361,0.116904124617576599,-0.069072216749191284,0.035878550261259079,0.133453190326690674,-0.198341101408004761,0.159667924046516418,-0.000858877669088542,-0.107357472181320190,0.086940288543701172,0.067280732095241547,-0.079524666070938110,-0.034362927079200745,-0.012150146998465061,-0.123843289911746979,-0.025700060650706291,0.010541523806750774,0.341134071350097656,-0.007395129185169935,-0.116047747433185577,-0.145501866936683655,0.155018344521522522,0.032616626471281052,0.001581646269187331,-0.033777348697185516,-0.234693631529808044,0.274548739194869995,0.023340396583080292,0.001672259066253901,-0.003826013766229153,0.038206577301025391,0.031511239707469940,-0.044143110513687134,0.039527192711830139,0.135565817356109619,0.061390526592731476,0.047678228467702866,-0.008380264043807983,0.092233337461948395,-0.121234551072120667,-0.049532622098922729,0.135345920920372009,0.033998779952526093,0.064791813492774963,-0.042389277368783951,-0.214548423886299133,-0.042254693806171417,0.126844272017478943,-0.088287122547626495,-0.097859539091587067,0.012532659806311131,0.046868670731782913,0.065055288374423981,-0.080421194434165955,-0.042718306183815002,0.052729710936546326,-0.050905518233776093
-0.095037341117858887,0.018474299460649490,0.109953060746192932,-0.024091338738799095,-0.035147290676832199,-0.040983781218528748,-0.065361931920051575,0.017775421962141991,-0.043729357421398163,-0.102846302092075348,0.080203428864479065,0.079794466495513916,-0.197147056460380554,0.040841139853000641,0.091229416429996490,-0.188875511288642883,0.081810683012008667,-0.028432140126824379,-0.100529186427593231,0.106709733605384827,0.142650067806243896,-0.026282992213964462,0.242770269513130188,0.058508500456809998,0.088546760380268097,-0.148150876164436340,0.006911966949701309,-0.034708462655544281,0.048402562737464905,-0.013304143212735653,-0.066571436822414398,-0.113677814602851868,0.065424956381320953,-0.234055772423744202,-0.097518645226955414,-0.069857552647590637,-0.076669216156005859,-0.054528743028640747,0.033723350614309311,-0.058868631720542908,-0.229313343763351440,-0.018397893756628036,0.103960148990154266,-0.197846487164497375,0.101294681429862976,0.051859099417924881,-0.048848077654838562,-0.062104646116495132,-0.032904867082834244,0.081537470221519470,0.022154441103339195,0.004594931378960609,-0.133547410368919373,-0.025246430188417435,-0.028369706124067307,-0.055659819394350052,-0.057593058794736862,-0.016248118132352829,-0.031755570322275162,-0.087130859494209290,0.100349329411983490,0.046969730406999588,0.136372685432434082,0.017089342698454857,0.002782534342259169,-0.077293358743190765,0.045495703816413879,-0.016399435698986053,-0.024472085759043694,-0.090178363025188446,0.035440113395452499,0.136855736374855042,0.024459077045321465,-0.012332191690802574,0.049614101648330688,0.075949132442474365,-0.051445350050926208,0.018435074016451836,0.016081323847174644,0.189612299203872681,0.176329076290130615,-0.089358970522880554,0.062611959874629974,0.234212309122085571,0.093839704990386963,0.022598326206207275,0.070934280753135681,0.028276264667510986,0.172053709626197815,-0.008204032666981220,-0.056724667549133301,-0.058661296963691711,0.025446064770221710,-0.057093001902103424,0.051806561648845673,-0.166434302926063538,0.019137797877192497,-0.043416861444711685,0.069710329174995422,0.006781146395951509,-0.036541149020195007,-0.027419872581958771,-0.122910611331462860,-0.016748361289501190,0.102249749004840851,-0.018651757389307022,-0.022695293650031090,0.033629652112722397,0.030979368835687637,-0.013170230202376842,0.028492910787463188,0.005157464649528265,-0.010457861237227917,-0.130525633692741394,0.045120354741811752,-0.031146135181188583,-0.093205139040946960,0.009570821188390255,-0.131501048803329468,0.151122301816940308,-0.115854240953922272,-0.028624475002288818,0.181332930922508240,0.102262616157531738,0.000009846164175542,0.009095816873013973,-0.051237914711236954,0.037357632070779800
0.005068892147392035,-0.067677758634090424,0.061102539300918579,-0.035034764558076859,0.116323150694370270,-0.114571876823902130,-0.093111388385295868,0.013484826311469078,-0.084577523171901703,0.032165858894586563,0.137779727578163147,0.117499932646751404,-0.205544978380203247,-0.031594209372997284,0.090276733040809631,-0.233086630702018738,0.032492857426404953,0.082368858158588409,-0.068366795778274536,0.157698780298233032,0.123676456511020660,-0.064922548830509186,0.166194498538970947,0.043044824153184891,0.051496602594852448,-0.073311738669872284,0.081593178212642670,-0.199921071529388428,-0.022357333451509476,-0.027954636141657829,0.004418331664055586,-0.123226009309291840,0.036133151501417160,-0.155133008956909180,-0.147165358066558838,-0.140627190470695496,-0.197551205754280090,-0.107332579791545868,0.041650265455245972,-0.086308225989341736,-0.203009650111198425,-0.030439538881182671,0.116344608366489410,-0.209782958030700684,0.072767190635204315,-0.018031701445579529,-0.055693466216325760,-0.062061779201030731,-0.052608586847782135,0.060339085757732391,0.036394763737916946,-0.132110014557838440,-0.114609323441982269,-0.024017717689275742,0.055024936795234680,-0.060750219970941544,-0.098575532436370850,-0.181100949645042419,0.063847109675407410,-0.038641918450593948,0.090850025415420532,-0.010432953014969826,0.109233006834983826,-0.046850986778736115,-0.014401333406567574,-0.075924597680568695,0.089643619954586029,0.029964281246066093,-0.021261392161250114,0.034243553876876831,-0.037920467555522919,0.081105813384056091,-0.051733929663896561,0.029748793691396713,0.038998741656541824,0.100787878036499023,-0.022009000182151794,-0.030265379697084427,-0.024344857782125473,0.040558245033025742,0.043732468038797379,-0.149614572525024414,-0.020420350134372711,0.100627548992633820,0.083410806953907013,0.005185449495911598,0.041678342968225479,0.133963659405708313,0.162886887788772583,-0.044565595686435699,-0.139204844832420349,-0.023598162457346916,0.075385548174381256,0.037331886589527130,-0.059293475002050400,-0.154405459761619568,0.059648111462593079,0.101819954812526703,0.044733356684446335,-0.251490473747253418,0.049662530422210693,-0.033893056213855743,-0.086347714066505432,0.038364920765161514,-0.040943387895822525,-0.024519277736544609,0.097229622304439545,0.134092196822166443,0.045533608645200729,0.021562865003943443,0.018359443172812462,0.075007259845733643,0.103182844817638397,-0.126732498407363892,0.033631473779678345,-0.014103434979915619,-0.120664246380329132,-0.089484333992004395,-0.239288792014122009,0.213163599371910095,-0.112109579145908356,0.045723341405391693,0.106292083859443665,-0.032282911241054535,0.025933146476745605,0.008120253682136536,0.039221502840518951,0.042241375893354416
0.003660232061520219,0.059269621968269348,0.190577059984207153,0.043213281780481339,-0.041080582886934280,-0.056363161653280258,-0.179488047957420349,-0.032366178929805756,-0.067237176001071930,0.151296257972717285,0.006149206776171923,0.138689905405044556,-0.111041568219661713,0.004809823352843523,-0.094925142824649811,-0.108191356062889099,-0.147983506321907043,-0.119690135121345520,0.274120122194290161,-0.151422351598739624,-0.042629797011613846,-0.178354188799858093,0.174376681447029114,-0.021480686962604523,-0.019274130463600159,-0.059119444340467453,0.043075274676084518,-0.138336762785911560,0.170498162508010864,-0.014291581697762012,-0.188181489706039429,0.057855784893035889,0.054360613226890564,0.080911472439765930,-0.154818117618560791,0.114264510571956635,0.030996745452284813,0.056628186255693436,-0.019911333918571472,0.171915456652641296,0.046082578599452972,-0.008909367024898529,-0.019382821395993233,-0.007482774555683136,0.156662747263908386,-0.081167474389076233,0.266851127147674561,0.006627415306866169,0.145670160651206970,0.095189437270164490,-0.106853500008583069,0.090659454464912415,-0.104847937822341919,0.003221303923055530,-0.089653179049491882,-0.054720189422369003,0.171868219971656799,0.000853826175443828,-0.020509686321020126,-0.109683193266391754,-0.029197461903095245,0.154996320605278015,0.104872547090053558,0.009868232533335686,0.032454449683427811,-0.250916898250579834,-0.105553954839706421,0.127431824803352356,0.112412102520465851,-0.045402489602565765,-0.021896753460168839,0.307621836662292480,0.035827450454235077,-0.039021335542201996,0.052402794361114502,0.081449776887893677,-0.181763872504234314,0.121776171028614044,-0.042791474610567093,-0.167961150407791138,-0.048641242086887360,-0.014848975464701653,0.151415541768074036,-0.041292164474725723,0.041631445288658142,-0.164282009005546570,-0.139797851443290710,-0.174096658825874329,0.214358359575271606,0.025694446638226509,-0.002720765303820372,0.075927995145320892,0.140461981296539307,0.042023222893476486,-0.037750888615846634,0.080703571438789368,0.021744832396507263,0.122414134442806244,0.012379311025142670,-0.122293837368488312,-0.003143592271953821,0.011698007583618164,0.036474224179983139,-0.028194356709718704,-0.132222920656204224,0.047844119369983673,0.024304365739226341,0.053510610014200211,0.028832558542490005,-0.031401306390762329,-0.252506136894226074,-0.017278838902711868,-0.091876626014709473,0.103318504989147186,-0.018197668716311455,0.023174908012151718,-0.010843393392860889,0.018141029402613640,0.047383241355419159,0.041062906384468079,0.033592931926250458,-0.221040502190589905,-0.125860214233398438,-0.011166511103510857,0.041241593658924103,0.000295464909868315,-0.039211865514516830,-0.049523111432790756
0.043299607932567596,-0.095595099031925201,0.276240825653076172,-0.017267843708395958,-0.065544679760932922,0.031780939549207687,-0.027111381292343140,0.024436177685856819,0.096777379512786865,-0.122126705944538116,0.032141018658876419,0.212366104125976562,-0.044416144490242004,0.031013814732432365,0.171048492193222046,-0.221756637096405029,-0.088337868452072144,0.089247070252895355,0.045386500656604767,0.004687297623604536,0.101930722594261169,-0.242340773344039917,0.094272740185260773,-0.093652702867984772,-0.093918092548847198,-0.080457583069801331,0.199811801314353943,0.070037014782428741,0.116335563361644745,0.141674011945724487,0.132288083434104919,0.038452342152595520,-0.086254343390464783,0.007208339404314756,0.077950581908226013,0.019704991951584816,-0.061254862695932388,0.078703127801418304,-0.053519926965236664,0.126800239086151123,0.056562855839729309,0.021554041653871536,0.053351677954196930,-0.304610341787338257,0.036786388605833054,-0.209765449166297913,-0.037183079868555069,-0.074029497802257538,-0.005992210004478693,-0.126427829265594482,0.145522937178611755,-0.131120949983596802,-0.152805864810943604,-0.039382860064506531,0.003624675329774618,-0.040907330811023712,-0.087036326527595520,0.132317498326301575,-0.146502286195755005,0.080735631287097931,-0.002799093490466475,0.007381200790405273,-0.087214738130569458,-0.020595446228981018,0.026497611775994301,0.054940294474363327,0.094047866761684418,0.077569648623466492,-0.181272119283676147,-0.005862556863576174,0.015610111877322197,0.085138231515884399,0.053141400218009949,-0.115244992077350616,0.061894770711660385,0.090394921600818634,-0.079082928597927094,0.141172632575035095,-0.019127970561385155,-0.075042456388473511,0.050979286432266235,0.022799536585807800,0.035696472972631454,0.077383197844028473,0.113727845251560211,0.098539456725120544,0.148562029004096985,-0.041167978197336197,0.173783630132675171,-0.009942244738340378,-0.081552438437938690,-0.152224183082580566,0.136283531785011292,0.036059532314538956,-0.006452100351452827,-0.116086430847644806,-0.220582216978073120,0.056771934032440186,-0.001161900232546031,-0.001468747621402144,-0.041950143873691559,-0.041407212615013123,-0.044978570193052292,-0.030673639848828316,0.234499886631965637,0.094209931790828705,0.026600722223520279,0.221555009484291077,-0.029046377167105675,-0.007088074926286936,-0.146792903542518616,0.094685867428779602,0.140452548861503601,-0.033620029687881470,-0.098658092319965363,-0.048701230436563492,-0.124692983925342560,0.056680493056774139,0.079520821571350098,-0.050725951790809631,0.118502192199230194,0.106453582644462585,-0.037589490413665771,0.141940847039222717,0.160996064543724060,-0.024035258218646049,-0.009596434421837330,0.039022795855998993
-0.118759922683238983,0.145706832408905029,0.134221121668815613,0.049302008002996445,-0.053824812173843384,-0.079587832093238831,-0.092032641172409058,-0.002052155556157231,-0.004320318344980478,-0.195334345102310181,-0.108591854572296143,0.103910997509956360,-0.083448484539985657,-0.094567306339740753,0.032308366149663925,-0.143436804413795471,-0.003261659294366837,-0.079671338200569153,0.085434831678867340,0.125240430235862732,-0.027671584859490395,0.010052232071757317,-0.008771192282438278,-0.031707890331745148,-0.026092763990163803,0.006591493729501963,-0.023084104061126709,-0.152622178196907043,-0.052052915096282959,-0.146217480301856995,-0.115476742386817932,0.064832508563995361,0.165060997009277344,-0.128591805696487427,-0.109759159386157990,-0.126074075698852539,-0.177555233240127563,0.114949882030487061,-0.044109057635068893,0.045614741742610931,-0.172626152634620667,0.032174345105886459,0.091325461864471436,0.029289778321981430,0.164719372987747192,-0.078290812671184540,0.001572751207277179,-0.098430402576923370,0.059753164649009705,0.094853952527046204,0.146359071135520935,-0.073638767004013062,-0.039478950202465057,-0.055503617972135544,-0.161059722304344177,-0.160400733351707458,-0.090256400406360626,0.058716926723718643,-0.049646116793155670,-0.041453827172517776,-0.077562794089317322,0.038609903305768967,0.121466189622879028,-0.028949070721864700,-0.015965748578310013,-0.148906931281089783,-0.109315797686576843,0.082644715905189514,-0.012339915148913860,0.050522215664386749,0.014937669970095158,0.115009821951389313,0.167357012629508972,0.038557652384042740,0.074943333864212036,-0.033788047730922699,-0.039929885417222977,-0.065409980714321136,0.029086323454976082,-0.043729674071073532,0.073016814887523651,-0.040595639497041702,0.152143433690071106,0.080477155745029449,0.041900284588336945,-0.044976200908422470,0.049948327243328094,-0.043939024209976196,-0.179515942931175232,-0.006649779621511698,-0.034116066992282867,-0.140328675508499146,0.030318289995193481,-0.033723585307598114,-0.084734812378883362,0.032662190496921539,0.021755982190370560,0.052584670484066010,0.089066393673419952,-0.146573632955551147,-0.105079174041748047,-0.085155084729194641,-0.048425804823637009,-0.040329173207283020,-0.044555030763149261,-0.031994894146919250,-0.107463590800762177,0.126489952206611633,0.006206225603818893,0.002997283125296235,-0.127686873078346252,-0.018862769007682800,-0.158399313688278198,-0.019136458635330200,0.062834188342094421,-0.033560756593942642,0.074170954525470734,0.105370767414569855,0.039013542234897614,-0.003233537310734391,-0.007724956143647432,-0.160526812076568604,0.146189332008361816,0.090148657560348511,0.006552540231496096,-0.004159421660006046,-0.057026229798793793,0.044858381152153015
-0.043328866362571716,-0.045453704893589020,0.102258667349815369,0.019520785659551620,0.076955817639827728,-0.109784364700317383,-0.152422055602073669,-0.051836229860782623,0.052551351487636566,-0.156518325209617615,0.007132600992918015,0.110365599393844604,-0.115323707461357117,-0.092376396059989929,0.033228546380996704,-0.119230516254901886,0.008947432972490788,-0.031385269016027451,0.005974645260721445,0.174747481942176819,0.034980423748493195,0.031413473188877106,0.059860121458768845,0.012477345764636993,0.028763171285390854,-0.067950472235679626,0.012835867702960968,-0.108598463237285614,-0.051122535020112991,-0.114481396973133087,-0.058410383760929108,0.026370225474238396,0.127786546945571899,-0.150667712092399597,-0.085216023027896881,-0.075129948556423187,-0.121839933097362518,0.013268484733998775,-0.013003014959394932,-0.036426402628421783,-0.131098493933677673,0.004439651500433683,0.132003188133239746,-0.084401659667491913,0.176716238260269165,-0.076627783477306366,-0.001442294102162123,-0.078051134943962097,-0.056262031197547913,-0.008852491155266762,0.043112661689519882,-0.056963272392749786,-0.095295213162899017,0.000110446861071978,-0.109143778681755066,-0.092499651014804840,-0.049156054854393005,-0.036514133214950562,-0.030434371903538704,-0.015222149901092052,0.038363028317689896,0.017640886828303337,0.131497710943222046,-0.054902885109186172,-0.024405859410762787,-0.109426029026508331,-0.021553870290517807,-0.068596199154853821,-0.032193433493375778,0.047784175723791122,-0.028579754754900932,0.112112723290920258,0.029440736398100853,0.051878873258829117,0.050963342189788818,-0.014629893004894257,-0.044508866965770721,0.012606474570930004,0.036737535148859024,-0.003846561536192894,0.072530440986156464,-0.113305136561393738,-0.018657818436622620,0.051147565245628357,0.142261952161788940,-0.130684152245521545,0.029292969033122063,0.041894778609275818,-0.068779550492763519,0.031807933002710342,-0.091511726379394531,-0.076791591942310333,-0.085038147866725922,-0.044916685670614243,-0.008443268015980721,-0.149641752243041992,0.060264118015766144,0.056058343499898911,0.076085947453975677,-0.130694836378097534,-0.137393251061439514,0.024110402911901474,-0.089993581175804138,-0.020474772900342941,0.007241917308419943,-0.056597784161567688,-0.018351810052990913,0.127820447087287903,-0.043790351599454880,-0.001533572445623577,-0.098205178976058960,-0.019088864326477051,0.004268820863217115,-0.108334302902221680,-0.027918323874473572,-0.011692586354911327,0.017839647829532623,0.068899482488632202,-0.043951489031314850,0.199943140149116516,-0.097197823226451874,-0.075565546751022339,0.139268949627876282,0.007870612666010857,0.080759197473526001,0.012967394664883614,-0.071305647492408752,-0.011888029985129833
0.069525197148323059,0.115609548985958099,0.182857677340507507,0.035912070423364639,-0.068870916962623596,0.098637908697128296,-0.114905476570129395,0.024510152637958527,-0.103115931153297424,0.078173257410526276,0.084929183125495911,0.036671228706836700,-0.154553562402725220,0.035799492150545120,-0.131094694137573242,-0.134674131870269775,-0.092138655483722687,0.074011050164699554,0.172391250729560852,-0.049834601581096649,0.102553427219390869,-0.174512594938278198,0.164664924144744873,0.124382540583610535,-0.019578250125050545,-0.100491471588611603,-0.057321377098560333,0.038567300885915756,0.122987784445285797,-0.079830266535282135,-0.149343490600585938,0.034316062927246094,0.009661288931965828,-0.077400967478752136,-0.113191917538642883,-0.108966246247291565,-0.179075151681900024,0.082438513636589050,-0.009551813825964928,-0.014051789417862892,0.101000212132930756,-0.018357835710048676,0.099117733538150787,-0.015883689746260643,0.051314353942871094,-0.098574772477149963,0.123158067464828491,-0.100645035505294800,0.133149996399879456,0.062593862414360046,-0.040205910801887512,0.031940106302499771,-0.172251090407371521,0.032034825533628464,0.005245035048574209,0.027979273349046707,0.033931609243154526,-0.041755024343729019,-0.008048555813729763,-0.161029294133186340,-0.013054678216576576,0.098266951739788055,0.024682866409420967,0.008068459108471870,0.110680155456066132,-0.033623944967985153,0.052385307848453522,0.086717002093791962,-0.197935998439788818,0.103352524340152740,-0.045470744371414185,0.153629198670387268,0.026680253446102142,-0.107505090534687042,0.088542491197586060,0.184933558106422424,0.033187028020620346,-0.085830487310886383,-0.011156878434121609,-0.148662745952606201,-0.038253765553236008,0.073167711496353149,0.050753682851791382,0.194071039557456970,-0.029589543119072914,-0.054821778088808060,0.004284774884581566,-0.068525150418281555,0.166444525122642517,-0.014317004941403866,-0.087297327816486359,-0.119009293615818024,0.177064940333366394,0.036525845527648926,0.066900998353958130,0.015393882989883423,-0.033723767846822739,0.090160638093948364,-0.032021898776292801,-0.257463097572326660,0.026826070621609688,0.007371062412858009,-0.128225281834602356,-0.021082436665892601,-0.022812055423855782,0.009367955848574638,-0.080381914973258972,0.007108714431524277,0.001174759119749069,-0.109695777297019958,-0.037074755877256393,0.085178852081298828,-0.034595627337694168,0.116191536188125610,-0.024585008621215820,-0.046815514564514160,-0.277247577905654907,-0.102478533983230591,-0.005407048389315605,0.055300693958997726,-0.119144879281520844,0.053688216954469681,-0.147079706192016602,-0.009489556774497032,-0.058131597936153412,0.056562095880508423,0.031955029815435410,0.000561619934160262
0.167792320251464844,0.059910174459218979,0.271859705448150635,0.033250380307435989,0.033571574836969376,-0.011725899763405323,-0.054607488214969635,0.000433294771937653,0.026011684909462929,-0.148675277829170227,-0.037718426436185837,0.198791563510894775,-0.123536325991153717,0.065988175570964813,0.060620073229074478,-0.137320429086685181,0.068788193166255951,0.033930756151676178,0.113522544503211975,-0.036995176225900650,0.133361861109733582,-0.138063430786132812,0.029892589896917343,0.007631365675479174,-0.065853886306285858,-0.175963163375854492,0.177652552723884583,-0.155185818672180176,-0.007413793820887804,-0.104370802640914917,0.122454911470413208,-0.127521291375160217,-0.117596320807933807,-0.143716424703598022,0.074823111295700073,-0.213510215282440186,-0.058514315634965897,0.011332738213241100,0.048613239079713821,-0.077806025743484497,-0.205141916871070862,0.006244568619877100,0.044344566762447357,-0.297671139240264893,-0.033144887536764145,-0.106096744537353516,-0.133170813322067261,0.001739439903758466,-0.030760947614908218,0.114832401275634766,0.017462238669395447,-0.006474428810179234,-0.244601741433143616,-0.035502854734659195,-0.053330421447753906,-0.229704871773719788,-0.083301410079002380,0.008593237027525902,0.004276492167264223,-0.072714969515800476,-0.101605780422687531,-0.064671918749809265,0.030441852286458015,-0.041189156472682953,0.039393827319145203,0.003432867582887411,0.167810380458831787,0.039246257394552231,-0.182775810360908508,-0.079264618456363678,0.015605065971612930,0.107792079448699951,-0.034273523837327957,-0.117584086954593658,-0.116090394556522369,0.085269361734390259,-0.073928333818912506,0.016918754205107689,0.041120838373899460,-0.036782763898372650,0.085010327398777008,0.026131335645914078,0.121926754713058472,0.237396702170372009,0.075739026069641113,0.029487211257219315,-0.005612488836050034,-0.001336040906608105,0.138832435011863708,-0.066224187612533569,-0.019107507541775703,-0.210878670215606689,0.164837792515754700,-0.110177174210548401,-0.032019712030887604,-0.171629816293716431,-0.175429433584213257,-0.050869952887296677,0.129713103175163269,-0.245689272880554199,-0.038808785378932953,-0.123200513422489166,-0.209001287817955017,0.000424858648329973,0.159750685095787048,0.016310743987560272,-0.096810847520828247,0.237399294972419739,-0.026838740333914757,0.132407486438751221,-0.181913107633590698,0.066992685198783875,-0.145491048693656921,-0.124472931027412415,-0.051073290407657623,0.038574151694774628,-0.010761136189103127,0.104889415204524994,-0.211551919579505920,-0.104139007627964020,0.073033258318901062,0.040566504001617432,0.106832116842269897,0.136166155338287354,0.114527858793735504,0.003171909600496292,-0.031288005411624908,0.029532769694924355
-0.134412303566932678,0.027207154780626297,0.014425805769860744,-0.014740992337465286,-0.011363953351974487,-0.082908369600772858,0.046906173229217529,-0.013239569962024689,-0.095007948577404022,-0.053265515714883804,-0.060150980949401855,-0.016712984070181847,0.060696188360452652,-0.054277457296848297,0.025070223957300186,-0.082887977361679077,-0.006158768665045500,-0.018724765628576279,-0.023810800164937973,0.015633059665560722,-0.046320725232362747,0.059703432023525238,-0.011570904403924942,0.044785723090171814,-0.257036864757537842,0.017334761098027229,0.009347905404865742,-0.103340938687324524,0.126246735453605652,-0.026442257687449455,-0.004833393264561892,-0.069052316248416901,0.028499867767095566,-0.260366559028625488,0.101950727403163910,-0.128274351358413696,-0.053602125495672226,0.014607946388423443,-0.076396048069000244,0.070344686508178711,-0.104682356119155884,-0.018139207735657692,-0.028690371662378311,0.057254929095506668,0.044401004910469055,-0.056963127106428146,-0.065045475959777832,-0.116457827389240265,-0.082900494337081909,0.057499941438436508,0.084406547248363495,-0.058229841291904449,0.000617858720943332,-0.042197428643703461,-0.078490912914276123,-0.179553493857383728,-0.208958119153976440,-0.057681940495967865,-0.003154238220304251,0.029202312231063843,0.051069375127553940,0.006996437907218933,0.046521157026290894,-0.043451379984617233,0.018008863553404808,0.069287762045860291,-0.102468177676200867,0.046342667192220688,0.016067277640104294,0.000428745988756418,-0.021429048851132393,0.063370503485202789,0.018083332106471062,0.003713223617523909,0.017410736531019211,-0.073389835655689240,0.072794772684574127,0.065584279596805573,-0.040730800479650497,-0.098443947732448578,-0.116315878927707672,-0.124933555722236633,0.088062524795532227,0.115618228912353516,0.037439353764057159,0.014748962596058846,-0.018317809328436852,-0.068052470684051514,0.039747558534145355,0.000789919169619679,0.003853316418826580,-0.077839545905590057,0.064569853246212006,-0.017589712515473366,-0.030271189287304878,0.125185072422027588,-0.017088092863559723,-0.052669938653707504,-0.020833723247051239,-0.020879738032817841,-0.078857295215129852,-0.067579843103885651,0.000467075413325801,0.052872844040393829,-0.068659752607345581,-0.051048386842012405,0.006666181609034538,0.081315211951732635,0.036821279674768448,0.040802806615829468,-0.139457404613494873,-0.070987924933433533,-0.079915069043636322,0.093061871826648712,0.014187243767082691,-0.043382745236158371,0.065207436680793762,-0.007879761047661304,-0.146569743752479553,-0.025931326672434807,-0.003321379190310836,-0.051490072160959244,0.087275236845016479,0.006068593356758356,0.095279365777969360,-0.051396884024143219,-0.062574312090873718,-0.023182652890682220
-0.035039920359849930,0.081889845430850983,0.026951275765895844,-0.013843905180692673,0.018962033092975616,-0.143177643418312073,-0.154134303331375122,-0.077018894255161285,-0.024463277310132980,-0.163192346692085266,-0.078867644071578979,0.086437106132507324,-0.074864141643047333,-0.099026381969451904,0.123100072145462036,-0.142333462834358215,0.020443301647901535,-0.122709400951862335,0.077277444303035736,0.091387622058391571,-0.033970646560192108,-0.105130441486835480,0.008977498859167099,-0.023641211912035942,-0.149364277720451355,0.005133265629410744,0.030321829020977020,-0.146791934967041016,0.031936369836330414,-0.227624133229255676,-0.020326374098658562,-0.002160485833883286,0.125651389360427856,-0.281698912382125854,-0.014627162367105484,-0.085195332765579224,-0.125511825084686279,0.056312184780836105,-0.025091148912906647,-0.030823387205600739,-0.156042516231536865,-0.045860551297664642,-0.001756672747433186,-0.002426605438813567,0.134058997035026550,-0.072229079902172089,-0.086710661649703979,-0.049283761531114578,-0.009462285786867142,0.098884545266628265,0.087556339800357819,-0.016471259295940399,-0.074855573475360870,-0.053613841533660889,-0.064188249409198761,-0.065887629985809326,-0.110124841332435608,-0.025078952312469482,-0.075947798788547516,-0.076940059661865234,0.082791984081268311,0.006189859472215176,0.068696871399879456,0.002447813982143998,-0.012830015271902084,-0.076349213719367981,-0.029174843803048134,-0.009289996698498726,-0.007162300404161215,0.027670441195368767,0.019407711923122406,0.097977004945278168,0.078772790729999542,0.025019530206918716,-0.019197897985577583,-0.001781562459655106,0.074406392872333527,-0.011642948724329472,0.005900893360376358,0.021199960261583328,0.056092917919158936,-0.066728562116622925,0.009768178686499596,0.181880518794059753,0.155661672353744507,-0.096574082970619202,0.096596211194992065,-0.101548835635185242,-0.015311703085899353,0.026963485404849052,-0.031956002116203308,-0.102691024541854858,-0.011135620996356010,-0.026756076142191887,-0.120664805173873901,0.023452570661902428,0.071071937680244446,0.040406063199043274,0.056706983596086502,-0.022426255047321320,-0.088388927280902863,0.025941265746951103,-0.047837536782026291,0.051136907190084457,0.033765070140361786,0.046660460531711578,-0.032839510589838028,0.183904141187667847,0.026086721569299698,0.058219689875841141,-0.101711884140968323,0.071374937891960144,-0.007908011786639690,-0.068833708763122559,0.068647854030132294,-0.055815033614635468,0.049050156027078629,0.000482071860460564,0.005143399816006422,0.105412766337394714,-0.054662074893712997,-0.120963305234909058,0.119666285812854767,0.042131282389163971,0.067463211715221405,-0.046793196350336075,-0.080556891858577728,-0.000979928299784660
0.073887221515178680,0.114474050700664520,0.199275389313697815,0.020600106567144394,-0.126888930797576904,0.003240906400606036,-0.096665360033512115,-0.031507056206464767,-0.034090034663677216,-0.049762722104787827,-0.055805999785661697,-0.047880548983812332,-0.178293466567993164,-0.085812345147132874,-0.094005174934864044,-0.201088875532150269,-0.001957063795998693,-0.018735876306891441,0.126199737191200256,-0.114849910140037537,-0.055025737732648849,-0.168814107775688171,0.025107957422733307,-0.028231631964445114,-0.113133728504180908,0.055742751806974411,0.087933927774429321,-0.095825612545013428,0.161304026842117310,-0.101129092276096344,-0.024253997951745987,-0.016355309635400772,-0.037509318441152573,-0.124546661972999573,-0.162689775228500366,-0.153033286333084106,-0.244762256741523743,0.135942846536636353,0.030441658571362495,-0.004756380338221788,-0.070540405809879303,-0.007431202568113804,-0.015474691987037659,0.043059896677732468,0.028457641601562500,-0.018664479255676270,0.214645743370056152,-0.044500835239887238,0.066407360136508942,0.065975606441497803,-0.099460281431674957,-0.113804504275321960,-0.118780903518199921,-0.038319472223520279,-0.181125238537788391,-0.104576863348484039,0.140212118625640869,-0.053957775235176086,-0.043166093528270721,0.028449786826968193,0.027376357465982437,0.039750944823026657,0.260560512542724609,-0.014457891695201397,-0.011696606874465942,-0.155176445841789246,0.153399184346199036,0.088024258613586426,0.031916085630655289,-0.171244755387306213,-0.006525903474539518,0.207100152969360352,0.242374524474143982,-0.239056095480918884,-0.072977729141712189,-0.165070667862892151,-0.070206135511398315,-0.069699868559837341,0.036217588931322098,-0.106458202004432678,-0.031130002811551094,-0.102587774395942688,0.064624987542629242,0.324865520000457764,-0.021225394681096077,-0.047676503658294678,-0.022665167227387428,-0.139190018177032471,0.018211649730801582,-0.023439174517989159,-0.075936339795589447,0.015263458713889122,-0.037461426109075546,-0.010628361254930496,0.062026295810937881,0.041812676936388016,0.067050397396087646,0.054676569998264313,0.038098424673080444,-0.043623492121696472,-0.081057868897914886,-0.141232371330261230,-0.162823498249053955,0.031485766172409058,-0.024626197293400764,-0.102732814848423004,-0.298757880926132202,-0.098497301340103149,0.016096774488687515,-0.240261062979698181,-0.069210633635520935,0.015823686495423317,-0.113364666700363159,0.075872994959354401,-0.022369433194398880,-0.038059324026107788,-0.128779366612434387,-0.307423949241638184,-0.131145268678665161,-0.082576796412467957,0.175581648945808411,0.067672319710254669,-0.031597580760717392,0.038652062416076660,0.158827975392341614,0.023030014708638191,0.045196447521448135,-0.023897582665085793
0.020275615155696869,0.002706260653212667,0.179140552878379822,-0.013115669600665569,0.203236415982246399,-0.038080956786870956,-0.123732298612594604,-0.040230903774499893,0.165204748511314392,-0.134576514363288879,-0.100620448589324951,0.198564067482948303,-0.005312570836395025,0.150840908288955688,-0.020537268370389938,-0.056026943027973175,-0.016943369060754776,0.081230066716670990,0.144055128097534180,0.140944391489028931,0.017965443432331085,-0.080178134143352509,0.039894275367259979,0.052659176290035248,-0.256122797727584839,-0.085754148662090302,0.015146658755838871,-0.002656437456607819,-0.102831766009330750,0.057309225201606750,0.017341852188110352,-0.040117517113685608,-0.073408707976341248,-0.102807626128196716,-0.049138423055410385,-0.108539000153541565,0.054646287113428116,0.045194789767265320,-0.020655335858464241,0.100914306938648224,-0.177671372890472412,-0.042439535260200500,0.050603039562702179,-0.304836571216583252,0.058332439512014389,0.044123936444520950,-0.044271193444728851,-0.026300294324755669,-0.144202098250389099,0.032291784882545471,-0.087596639990806580,-0.161209464073181152,-0.123109638690948486,0.023710191249847412,-0.096433572471141815,-0.169071912765502930,-0.005188158247619867,0.035128619521856308,-0.001137888990342617,-0.062601946294307709,-0.139540240168571472,0.053633168339729309,0.021673306822776794,0.007721013389527798,0.069588288664817810,0.012072511948645115,-0.020354863256216049,0.129295065999031067,-0.180844068527221680,-0.092043012380599976,-0.041978426277637482,-0.013271369971334934,-0.041568845510482788,-0.108064129948616028,0.035768896341323853,0.026162190362811089,-0.070527181029319763,0.089480109512805939,-0.030958645045757294,-0.064350754022598267,0.025084247812628746,0.044217534363269806,0.324613451957702637,-0.006858587265014648,-0.070441216230392456,0.141564443707466125,-0.188022881746292114,0.057693623006343842,0.227943807840347290,0.042395018041133881,0.007782176602631807,-0.197476714849472046,0.095287695527076721,0.017271067947149277,-0.034145671874284744,-0.154219716787338257,-0.074093431234359741,-0.041174914687871933,0.209472030401229858,-0.152617990970611572,-0.059081964194774628,-0.078141845762729645,-0.077054336667060852,-0.009885640814900398,0.175139203667640686,-0.024934135377407074,0.026339150965213776,0.149037957191467285,0.017814267426729202,0.192601874470710754,-0.115082092583179474,0.025829887017607689,-0.287356644868850708,-0.052653830498456955,-0.130233675241470337,-0.050229210406541824,-0.097188591957092285,0.154408767819404602,-0.154682934284210205,-0.285961151123046875,0.090767152607440948,-0.043111331760883331,0.132985800504684448,0.041831623762845993,-0.046740576624870300,-0.010910416021943092,-0.082958579063415527,-0.035741828382015228
0.030600821599364281,0.055144552141427994,0.057043757289648056,0.034607145935297012,0.082317136228084564,-0.170760095119476318,-0.015262691304087639,-0.010784118436276913,-0.014940053224563599,-0.070823296904563904,-0.107589855790138245,0.008327583782374859,-0.041832409799098969,-0.000871763040777296,-0.179639741778373718,-0.111204266548156738,-0.116446532309055328,-0.190483897924423218,-0.088213980197906494,-0.118935145437717438,0.031673409044742584,-0.100575707852840424,-0.021612996235489845,0.036814127117395401,-0.262882202863693237,-0.009188434109091759,0.047921985387802124,0.027050975710153580,0.101474814116954803,-0.221921250224113464,0.019675612449645996,-0.089750044047832489,-0.057665377855300903,-0.169753596186637878,0.011851519346237183,0.049799785017967224,-0.079545430839061737,-0.050346475094556808,-0.045483265072107315,0.013796899467706680,-0.150727927684783936,-0.033533491194248199,0.014046123251318932,-0.138126432895660400,0.047327775508165359,-0.054883677512407303,0.094887197017669678,-0.151024654507637024,-0.200473532080650330,0.131306305527687073,0.052346710115671158,-0.104447104036808014,-0.014373154379427433,-0.057861048728227615,-0.115317381918430328,-0.007936183363199234,0.015720346942543983,0.005758584477007389,0.098249189555644989,-0.034599713981151581,0.022558422759175301,0.050179343670606613,0.128571733832359314,0.026844328269362450,0.034916967153549194,0.091849841177463531,0.086451284587383270,0.042965296655893326,0.040153309702873230,-0.068877622485160828,-0.037107933312654495,0.088395267724990845,0.238056093454360962,0.031833827495574951,-0.040236458182334900,0.065832011401653290,0.077697634696960449,0.059454191476106644,0.014213817194104195,-0.025051390752196312,0.004145659971982241,-0.051199384033679962,0.060701917856931686,0.068288266658782959,-0.040829420089721680,-0.155257567763328552,0.018168430775403976,-0.072592951357364655,0.129869773983955383,-0.030588235706090927,0.143500462174415588,-0.069873064756393433,-0.097343817353248596,-0.071320377290248871,0.010536666028201580,0.134816601872444153,-0.082242704927921295,-0.000607713242061436,0.059950068593025208,0.086188718676567078,0.008995194919407368,-0.067524224519729614,0.004411399364471436,0.002293139463290572,-0.040369380265474319,0.059475943446159363,0.006404649466276169,-0.126673892140388489,0.007514357566833496,-0.119700916111469269,-0.037933889776468277,-0.083621673285961151,0.027913140133023262,-0.048195388168096542,0.011126641184091568,-0.014599561691284180,-0.051422834396362305,-0.013620752841234207,-0.054016295820474625,-0.205847620964050293,0.088096290826797485,0.016639722511172295,0.016570314764976501,-0.023302299901843071,0.037047181278467178,-0.044404413551092148,-0.021504102274775505,-0.011950734071433544
0.098555028438568115,0.043532293289899826,0.056210361421108246,-0.035044513642787933,0.005357079673558474,-0.065570212900638580,-0.023166580125689507,-0.043856184929609299,-0.001376108382828534,-0.060612406581640244,-0.087067186832427979,0.114340297877788544,-0.026604415848851204,-0.030671715736389160,0.014208083972334862,-0.288576275110244751,-0.029712382704019547,-0.017386397346854210,-0.025847757235169411,0.052903994917869568,0.027736203745007515,-0.063276000320911407,0.023704480379819870,0.001741427346132696,-0.261462807655334473,0.035564795136451721,0.157857149839401245,-0.143508717417716980,0.048194546252489090,-0.264025509357452393,0.059367675334215164,0.013739880174398422,-0.027320301160216331,-0.309280097484588623,0.047556180506944656,-0.178110182285308838,-0.067345201969146729,0.112592510879039764,-0.080739423632621765,0.020584208890795708,-0.227616339921951294,0.027260694652795792,0.085157625377178192,-0.058618500828742981,0.027298172935843468,-0.067898869514465332,-0.205767273902893066,-0.043145731091499329,-0.220617085695266724,0.042202632874250412,0.128187656402587891,-0.024708254262804985,0.040630593895912170,0.028614709153771400,-0.068723671138286591,-0.097203895449638367,-0.090444236993789673,0.011612898670136929,-0.024306328967213631,0.055293366312980652,0.085019864141941071,0.057602249085903168,0.042624734342098236,-0.035497371107339859,0.013062633574008942,0.000124823942314833,0.125062555074691772,0.040389973670244217,-0.026078144088387489,0.002656185533851385,-0.046828556805849075,0.064456969499588013,0.013308328576385975,-0.019678000360727310,0.040079493075609207,0.025879601016640663,0.109532348811626434,-0.023861264809966087,-0.048622474074363708,-0.054521858692169189,0.098169550299644470,0.008231278508901596,0.050619259476661682,0.110901601612567902,0.053223706781864166,-0.032293204218149185,0.021867312490940094,-0.083775766193866730,0.037627462297677994,-0.037207655608654022,-0.004860942251980305,-0.189422711730003357,-0.034955359995365143,-0.010184295475482941,-0.129581183195114136,0.070251561701297760,0.057873651385307312,-0.005972832441329956,0.067305147647857666,0.037562154233455658,-0.056111376732587814,-0.031952410936355591,-0.066669829189777374,0.051344793289899826,0.152561455965042114,0.018451031297445297,-0.057601366192102432,0.082491256296634674,-0.002794407308101654,0.001687554409727454,-0.074396550655364990,-0.035346128046512604,-0.016572123393416405,0.043246615678071976,0.044480402022600174,-0.012099530547857285,0.042307112365961075,0.003183834021911025,-0.135683029890060425,0.009884829632937908,0.053319729864597321,-0.081539057195186615,0.177749723196029663,-0.038592390716075897,-0.073475115001201630,0.034527525305747986,-0.013655239716172218,-0.051554542034864426
0.003451057476922870,0.077942401170730591,0.089589536190032959,-0.033941067755222321,0.052640214562416077,-0.006850585341453552,-0.028348069638013840,-0.002452799351885915,0.157300069928169250,-0.144225254654884338,-0.220290422439575195,-0.000702111865393817,0.034828290343284607,0.073758982121944427,-0.047909189015626907,0.059382867068052292,0.021426526829600334,-0.159696951508522034,0.101369455456733704,-0.069294981658458710,-0.050039108842611313,0.012615167535841465,-0.024067375808954239,0.103914164006710052,-0.228975638747215271,0.037695001810789108,-0.069981105625629425,-0.109325043857097626,0.097578793764114380,-0.198449149727821350,-0.013979471288621426,-0.009074180386960506,-0.083170548081398010,-0.230206504464149475,0.035422418266534805,0.101723998785018921,-0.095287688076496124,0.009249920025467873,-0.067183338105678558,-0.075080558657646179,-0.122065983712673187,-0.013968504033982754,-0.118870258331298828,-0.028232483193278313,0.112959705293178558,-0.202294945716857910,0.071702651679515839,-0.070940919220447540,-0.000769158883485943,0.085041791200637817,-0.047250751405954361,-0.184050187468528748,-0.077235974371433258,-0.026200240477919579,0.005203386303037405,-0.011788338422775269,0.037442538887262344,0.037671457976102829,0.215030565857887268,-0.015541241504251957,0.006470722146332264,-0.029922261834144592,0.179061606526374817,0.038932722061872482,-0.025208972394466400,0.036681752651929855,-0.010994208045303822,0.023653492331504822,0.049518857151269913,0.047776408493518829,0.024680959060788155,0.074441969394683838,0.068794406950473785,-0.009825686924159527,-0.061884101480245590,-0.128700837492942810,-0.007900701835751534,-0.088335946202278137,0.018461320549249649,0.007737532723695040,-0.222440928220748901,-0.159821718931198120,0.167065516114234924,0.099467583000659943,-0.034355074167251587,-0.077402263879776001,-0.021779358386993408,-0.107673436403274536,-0.134782567620277405,-0.036914035677909851,-0.050914790481328964,-0.013354208320379257,-0.033307548612356186,-0.092951633036136627,0.023187858983874321,0.152990028262138367,0.059263091534376144,-0.053843248635530472,0.154635056853294373,0.060070171952247620,-0.056640308350324631,-0.040749650448560715,-0.052819982171058655,-0.023848801851272583,-0.027490736916661263,0.011715786531567574,-0.100708797574043274,-0.062658160924911499,-0.003386925905942917,0.081894472241401672,-0.085870884358882904,0.117378406226634979,-0.012563281692564487,0.035478342324495316,0.029163040220737457,-0.061179567128419876,0.017466455698013306,-0.016765033826231956,-0.143894091248512268,0.048878375440835953,-0.049957882612943649,0.007201200351119041,-0.037031833082437515,0.011420838534832001,0.230266645550727844,-0.018383717164397240,-0.024698344990611076,-0.029726736247539520
-0.035097975283861160,0.102645866572856903,-0.054507032036781311,0.004872388206422329,0.169790163636207581,-0.139476120471954346,0.109730571508407593,-0.007924229837954044,-0.014312333427369595,-0.067568153142929077,-0.000432056724093854,0.082764632999897003,0.129620000720024109,-0.016096940264105797,-0.075872763991355896,0.081222757697105408,-0.154211893677711487,0.059290748089551926,0.043561600148677826,0.034289300441741943,0.035709686577320099,-0.074579440057277679,0.004583507310599089,0.000168924161698669,-0.352329283952713013,0.103957287967205048,0.016370818018913269,0.063690952956676483,0.016444360837340355,-0.093748435378074646,0.021826893091201782,0.097918577492237091,-0.088509663939476013,-0.165287137031555176,0.162202268838882446,-0.049308802932500839,0.140881597995758057,-0.046255145221948624,-0.013987177982926369,0.013732851482927799,-0.025604464113712311,0.009338309057056904,0.012487473897635937,-0.157951191067695618,0.060318924486637115,-0.062690600752830505,-0.021193806082010269,-0.026382382959127426,-0.276215910911560059,-0.122210457921028137,0.160719156265258789,-0.296068936586380005,0.021010005846619606,-0.006301180925220251,-0.005878991447389126,-0.046551633626222610,-0.136754512786865234,0.150483965873718262,-0.021543480455875397,0.071124047040939331,-0.063856437802314758,0.094985291361808777,-0.054374147206544876,0.033516120165586472,0.012326542288064957,0.066585361957550049,-0.098989903926849365,-0.046706017106771469,0.162232279777526855,-0.151317611336708069,0.039359971880912781,0.007928659208118916,0.003382804570719600,-0.016213204711675644,0.071168668568134308,-0.002966823289170861,0.038093909621238708,0.203601345419883728,-0.005420997273176908,0.038890916854143143,-0.113652631640434265,-0.001106447074562311,-0.051886875182390213,-0.096052587032318115,0.113222785294055939,-0.032375596463680267,0.000217915396206081,-0.215883478522300720,0.104536734521389008,-0.071592405438423157,0.002222751732915640,-0.098318569362163544,-0.013196758925914764,0.027899967506527901,-0.018691334873437881,-0.024595366790890694,-0.145181283354759216,0.121021300554275513,0.137659549713134766,0.027828870341181755,-0.050887435674667358,-0.085515089333057404,0.058112759143114090,-0.018370302394032478,0.173807099461555481,0.018082316964864731,0.032303802669048309,0.109312228858470917,0.018058735877275467,0.232664912939071655,-0.106069423258304596,-0.024939794093370438,-0.202128574252128601,0.021375821903347969,-0.030633583664894104,-0.015290821902453899,0.036774292588233948,0.128850162029266357,-0.152133792638778687,-0.272445499897003174,-0.090407885611057281,0.068587020039558411,0.248537153005599976,0.054750505834817886,-0.089070424437522888,0.050898484885692596,-0.045886561274528503,0.032728731632232666
0.062072206288576126,0.072165384888648987,0.059164997190237045,0.039308134466409683,0.289695054292678833,-0.139091089367866516,0.061849988996982574,0.013920944184064865,-0.096526153385639191,0.005776590202003717,-0.054758552461862564,-0.123345144093036652,0.024524169042706490,-0.006692273542284966,-0.196634873747825623,0.088998034596443176,-0.045538801699876785,-0.078669302165508270,0.085070170462131500,0.035341870039701462,0.048897232860326767,0.022539673373103142,0.058394432067871094,0.078768454492092133,-0.099104925990104675,0.001031001796945930,-0.080330468714237213,-0.128397420048713684,-0.027475379407405853,0.017957935109734535,-0.037124902009963989,0.002999067306518555,0.026063200086355209,0.058491822332143784,-0.050271958112716675,0.004567378666251898,-0.100421786308288574,0.002862495835870504,-0.043729599565267563,-0.001416329527273774,0.100944802165031433,-0.039722621440887451,0.115059606730937958,0.124594166874885559,0.093781240284442902,-0.044834256172180176,0.177976191043853760,0.005653169937431812,-0.247141852974891663,0.063132189214229584,0.059889212250709534,-0.072309650480747223,-0.041736159473657608,-0.035936508327722549,-0.040035970509052277,-0.023515120148658752,0.115155756473541260,-0.133448421955108643,0.043625589460134506,-0.082498289644718170,-0.041327964514493942,0.060864254832267761,0.032639425247907639,0.027535561472177505,-0.012321681715548038,-0.042642608284950256,-0.080735370516777039,-0.056127063930034637,0.101147748529911041,0.037947118282318115,-0.051144190132617950,0.052258394658565521,0.169828355312347412,-0.043833687901496887,-0.005697846412658691,-0.061475366353988647,-0.164654165506362915,-0.017095113173127174,0.007919891737401485,-0.058699220418930054,0.053496308624744415,0.130230873823165894,0.063251860439777374,-0.016706427559256554,-0.061690356582403183,-0.062336772680282593,-0.112344481050968170,-0.105552367866039276,0.102571830153465271,-0.030748944729566574,0.004151612985879183,0.120990678668022156,-0.092235229909420013,-0.011811807751655579,-0.031573057174682617,0.172767251729965210,0.022668857127428055,-0.011058554053306580,0.074316233396530151,0.030844783410429955,-0.029758499935269356,0.006243322975933552,-0.027389990165829659,0.003609371837228537,0.013347228057682514,-0.034299880266189575,-0.049971971660852432,-0.258186161518096924,-0.021213436499238014,-0.014272008091211319,-0.000875461089890450,-0.108552642166614532,-0.032339580357074738,0.030979083850979805,-0.090273797512054443,-0.049244377762079239,-0.097808115184307098,0.056873284280300140,0.168223097920417786,-0.108709365129470825,0.014087138697504997,-0.042845081537961960,-0.169227927923202515,-0.066999614238739014,0.017242984846234322,-0.036657266318798065,0.006403932813555002,0.003484584391117096
0.120914682745933533,-0.065266124904155731,0.027901103720068932,0.019286062568426132,0.182748600840568542,-0.107223823666572571,0.052422381937503815,-0.066999547183513641,-0.090040870010852814,-0.003292145673185587,-0.148123621940612793,0.010064365342259407,-0.060574881732463837,0.041909530758857727,-0.113282896578311920,-0.118572629988193512,-0.141824454069137573,-0.202550932765007019,-0.114295572042465210,-0.057920876890420914,0.024954773485660553,-0.095416948199272156,-0.017001640051603317,0.095079734921455383,-0.213247582316398621,-0.051319140940904617,0.041580121964216232,-0.271556526422500610,0.040231209248304367,-0.134065523743629456,0.077918387949466705,-0.070257201790809631,0.020227374508976936,-0.176562920212745667,-0.009470932185649872,-0.001015681889839470,-0.181708991527557373,0.023708226159214973,-0.099290579557418823,0.020676670596003532,-0.036860849708318710,-0.030863607302308083,0.063623160123825073,-0.124432466924190521,0.060174442827701569,-0.023297736421227455,0.028834773227572441,-0.035896688699722290,-0.421709418296813965,0.060768079012632370,0.027656532824039459,-0.048405934125185013,-0.024130834266543388,-0.008771819062530994,-0.089153304696083069,-0.017743412405252457,0.002407912164926529,-0.008285992778837681,-0.081782646477222443,0.027463631704449654,-0.072891406714916229,0.145649522542953491,-0.092845208942890167,-0.026802388951182365,0.098130762577056885,-0.039701990783214569,0.127318844199180603,0.015134790912270546,0.076710239052772522,-0.082803778350353241,-0.031160136684775352,0.050874795764684677,0.197508782148361206,-0.071939460933208466,0.007719209883362055,0.017933398485183716,0.093866810202598572,0.027075802907347679,0.017572656273841858,0.011068097315728664,0.062755510210990906,0.121528543531894684,-0.042928293347358704,0.029857903718948364,-0.076638169586658478,0.017180422320961952,0.051202960312366486,-0.193991437554359436,0.113714367151260376,-0.014387750998139381,0.076023615896701813,-0.146816566586494446,-0.141219750046730042,-0.054301347583532333,-0.009087581187486649,0.114481396973133087,-0.122707560658454895,-0.038845874369144440,-0.049356855452060699,0.067509666085243225,-0.043911054730415344,0.050585273653268814,-0.092269673943519592,-0.000777258130256087,-0.000672897789627314,-0.020448934286832809,-0.009741154499351978,-0.035419575870037079,0.031108770519495010,-0.031631126999855042,-0.093944184482097626,0.039422843605279922,-0.090233534574508667,0.009832954034209251,0.084509313106536865,-0.032333228737115860,-0.031116539612412453,0.016845112666487694,0.014528063125908375,0.015419162809848785,0.060111746191978455,0.055906780064105988,0.058792579919099808,0.002840952947735786,-0.059369493275880814,-0.045426167547702789,0.045511953532695770,-0.003915940877050161
-0.023170875385403633,0.145604193210601807,-0.084005087614059448,0.011529184877872467,0.136696770787239075,-0.231363013386726379,0.002675340510904789,-0.048188604414463043,-0.090700037777423859,-0.073563218116760254,-0.092679090797901154,-0.023700522258877754,0.027167234569787979,-0.106615699827671051,-0.068465828895568848,0.065719172358512878,-0.143815413117408752,0.016691662371158600,0.090904295444488525,0.130651399493217468,0.050049711018800735,0.002484739758074284,0.050439268350601196,0.032583110034465790,-0.187992602586746216,0.037026010453701019,0.045084144920110703,0.023753792047500610,-0.062851794064044952,-0.310108304023742676,0.069877371191978455,0.022536750882863998,-0.053927466273307800,-0.080824017524719238,0.092523470520973206,0.124956712126731873,0.005289853084832430,0.002155419904738665,-0.081942625343799591,0.068896234035491943,-0.007774517405778170,-0.002710402011871338,0.139205485582351685,-0.081031769514083862,0.086638867855072021,-0.069288812577724457,-0.023114699870347977,-0.053787864744663239,-0.085730411112308502,0.009215662255883217,0.024291124194860458,-0.069781936705112457,-0.052945777773857117,-0.021280506625771523,-0.020851787179708481,0.032276380807161331,0.002880213316529989,0.039962306618690491,0.140948951244354248,0.032660868018865585,0.192959338426589966,0.020492127165198326,0.088274739682674408,0.025132978335022926,-0.047959461808204651,0.069298408925533295,-0.160101309418678284,0.026794787496328354,-0.006759024690836668,0.029984140768647194,-0.009462566114962101,0.214358448982238770,0.178900614380836487,0.049461293965578079,-0.020360520109534264,-0.040632437914609909,0.078339695930480957,0.035954661667346954,0.027759084478020668,-0.105383887887001038,-0.014838838949799538,-0.098395131528377533,0.107224918901920319,-0.007897201925516129,0.087685003876686096,-0.003332833526656032,0.044096440076828003,-0.097509890794754028,0.134253188967704773,-0.005399234592914581,0.072389572858810425,0.001788357621990144,-0.051507543772459030,0.050166036933660507,-0.124441064894199371,0.178022176027297974,0.105744317173957825,0.128191664814949036,0.162189900875091553,0.012488002888858318,-0.067564561963081360,-0.167732596397399902,0.002001337939873338,-0.045032314956188202,0.097839646041393280,0.086795069277286530,-0.177785292267799377,-0.015093472786247730,-0.040859736502170563,0.083685040473937988,-0.014644284732639790,-0.041676554828882217,-0.175566300749778748,0.171002328395843506,0.177963882684707642,-0.087358675897121429,-0.116132445633411407,0.001533578266389668,-0.050428658723831177,-0.088846892118453979,-0.091627217829227448,-0.105706274509429932,0.028560848906636238,-0.138984158635139465,-0.012485495768487453,-0.029912907630205154,-0.064243353903293610,-0.023402512073516846
0.036823071539402008,0.185150265693664551,-0.168125450611114502,0.012366949580609798,0.043366771191358566,-0.318929195404052734,0.076113708317279816,0.027005705982446671,-0.117671944200992584,-0.042503830045461655,-0.030204415321350098,0.033016793429851532,0.185059711337089539,-0.085570350289344788,-0.146558180451393127,0.042943388223648071,-0.242826968431472778,-0.098244763910770416,-0.025998247787356377,-0.065369479358196259,0.006103112362325191,-0.134943306446075439,0.121826253831386566,0.182508572936058044,-0.259916007518768311,-0.072979643940925598,-0.039111386984586716,0.088124416768550873,0.097982697188854218,-0.019205549731850624,-0.069995276629924774,-0.032484862953424454,-0.100810796022415161,0.014275948517024517,0.177057683467864990,0.096161648631095886,0.094686977565288544,-0.056992620229721069,-0.037793528288602829,-0.032588139176368713,0.059838961809873581,0.029653197154402733,-0.047107953578233719,-0.178600832819938660,0.086699105799198151,-0.075579985976219177,0.046906944364309311,-0.097105823457241058,-0.224858418107032776,-0.147199228405952454,-0.026689272373914719,0.048486594110727310,-0.031875357031822205,-0.010397491045296192,0.059041265398263931,-0.002749143401160836,0.086319565773010254,0.148944035172462463,-0.048048235476016998,0.042789343744516373,0.020452205091714859,0.117622531950473785,0.096478931605815887,0.010743730701506138,-0.013098319992423058,0.053042650222778320,-0.130993738770484924,-0.153455853462219238,0.130463942885398865,-0.110002882778644562,0.028045764192938805,0.079853452742099762,0.227764666080474854,-0.110098347067832947,0.032916165888309479,0.029714360833168030,-0.038057494908571243,0.114889226853847504,0.003771631047129631,0.003506688866764307,-0.156061619520187378,0.051158517599105835,-0.051049899309873581,0.157574042677879333,-0.007086171768605709,-0.002949864603579044,-0.039057891815900803,-0.211389467120170593,0.081562481820583344,0.006833617575466633,0.050143316388130188,-0.061624128371477127,-0.104993119835853577,0.011445840820670128,-0.056100811809301376,0.030927192419767380,-0.074006147682666779,0.087581284344196320,-0.022233152762055397,0.143701151013374329,-0.045608479529619217,-0.087146401405334473,-0.092833586037158966,-0.007624261546880007,0.140447065234184265,-0.089497357606887817,0.089648209512233734,0.041778791695833206,-0.036228712648153305,0.129341021180152893,-0.140234455466270447,0.111063681542873383,-0.205169543623924255,0.039526626467704773,-0.077283829450607300,-0.091751910746097565,0.246632859110832214,0.159271761775016785,-0.069667525589466095,-0.296071618795394897,-0.100642077624797821,-0.057689990848302841,0.217910423874855042,-0.037807367742061615,-0.154974773526191711,-0.000170706291100942,-0.058578822761774063,-0.027366558089852333
